{"learner":{"attributes":{"scikit_learn":"{\"_estimator_type\": \"regressor\"}"},"feature_names":[],"feature_types":[],"gradient_booster":{"model":{"cats":{"enc":[],"feature_segments":[],"sorted_idx":[]},"gbtree_model_param":{"num_parallel_tree":"1","num_trees":"600"},"iteration_indptr":[0,1,2,3,4,5,6,7,8,9,10,11,12,13,14,15,16,17,18,19,20,21,22,23,24,25,26,27,28,29,30,31,32,33,34,35,36,37,38,39,40,41,42,43,44,45,46,47,48,49,50,51,52,53,54,55,56,57,58,59,60,61,62,63,64,65,66,67,68,69,70,71,72,73,74,75,76,77,78,79,80,81,82,83,84,85,86,87,88,89,90,91,92,93,94,95,96,97,98,99,100,101,102,103,104,105,106,107,108,109,110,111,112,113,114,115,116,117,118,119,120,121,122,123,124,125,126,127,128,129,130,131,132,133,134,135,136,137,138,139,140,141,142,143,144,145,146,147,148,149,150,151,152,153,154,155,156,157,158,159,160,161,162,163,164,165,166,167,168,169,170,171,172,173,174,175,176,177,178,179,180,181,182,183,184,185,186,187,188,189,190,191,192,193,194,195,196,197,198,199,200,201,202,203,204,205,206,207,208,209,210,211,212,213,214,215,216,217,218,219,220,221,222,223,224,225,226,227,228,229,230,231,232,233,234,235,236,237,238,239,240,241,242,243,244,245,246,247,248,249,250,251,252,253,254,255,256,257,258,259,260,261,262,263,264,265,266,267,268,269,270,271,272,273,274,275,276,277,278,279,280,281,282,283,284,285,286,287,288,289,290,291,292,293,294,295,296,297,298,299,300,301,302,303,304,305,306,307,308,309,310,311,312,313,314,315,316,317,318,319,320,321,322,323,324,325,326,327,328,329,330,331,332,333,334,335,336,337,338,339,340,341,342,343,344,345,346,347,348,349,350,351,352,353,354,355,356,357,358,359,360,361,362,363,364,365,366,367,368,369,370,371,372,373,374,375,376,377,378,379,380,381,382,383,384,385,386,387,388,389,390,391,392,393,394,395,396,397,398,399,400,401,402,403,404,405,406,407,408,409,410,411,412,413,414,415,416,417,418,419,420,421,422,423,424,425,426,427,428,429,430,431,432,433,434,435,436,437,438,439,440,441,442,443,444,445,446,447,448,449,450,451,452,453,454,455,456,457,458,459,460,461,462,463,464,465,466,467,468,469,470,471,472,473,474,475,476,477,478,479,480,481,482,483,484,485,486,487,488,489,490,491,492,493,494,495,496,497,498,499,500,501,502,503,504,505,506,507,508,509,510,511,512,513,514,515,516,517,518,519,520,521,522,523,524,525,526,527,528,529,530,531,532,533,534,535,536,537,538,539,540,541,542,543,544,545,546,547,548,549,550,551,552,553,554,555,556,557,558,559,560,561,562,563,564,565,566,567,568,569,570,571,572,573,574,575,576,577,578,579,580,581,582,583,584,585,586,587,588,589,590,591,592,593,594,595,596,597,598,599,600],"tree_info":[0,0,0,0,0,0,0,0,0,0,0,0,0,0,0,0,0,0,0,0,0,0,0,0,0,0,0,0,0,0,0,0,0,0,0,0,0,0,0,0,0,0,0,0,0,0,0,0,0,0,0,0,0,0,0,0,0,0,0,0,0,0,0,0,0,0,0,0,0,0,0,0,0,0,0,0,0,0,0,0,0,0,0,0,0,0,0,0,0,0,0,0,0,0,0,0,0,0,0,0,0,0,0,0,0,0,0,0,0,0,0,0,0,0,0,0,0,0,0,0,0,0,0,0,0,0,0,0,0,0,0,0,0,0,0,0,0,0,0,0,0,0,0,0,0,0,0,0,0,0,0,0,0,0,0,0,0,0,0,0,0,0,0,0,0,0,0,0,0,0,0,0,0,0,0,0,0,0,0,0,0,0,0,0,0,0,0,0,0,0,0,0,0,0,0,0,0,0,0,0,0,0,0,0,0,0,0,0,0,0,0,0,0,0,0,0,0,0,0,0,0,0,0,0,0,0,0,0,0,0,0,0,0,0,0,0,0,0,0,0,0,0,0,0,0,0,0,0,0,0,0,0,0,0,0,0,0,0,0,0,0,0,0,0,0,0,0,0,0,0,0,0,0,0,0,0,0,0,0,0,0,0,0,0,0,0,0,0,0,0,0,0,0,0,0,0,0,0,0,0,0,0,0,0,0,0,0,0,0,0,0,0,0,0,0,0,0,0,0,0,0,0,0,0,0,0,0,0,0,0,0,0,0,0,0,0,0,0,0,0,0,0,0,0,0,0,0,0,0,0,0,0,0,0,0,0,0,0,0,0,0,0,0,0,0,0,0,0,0,0,0,0,0,0,0,0,0,0,0,0,0,0,0,0,0,0,0,0,0,0,0,0,0,0,0,0,0,0,0,0,0,0,0,0,0,0,0,0,0,0,0,0,0,0,0,0,0,0,0,0,0,0,0,0,0,0,0,0,0,0,0,0,0,0,0,0,0,0,0,0,0,0,0,0,0,0,0,0,0,0,0,0,0,0,0,0,0,0,0,0,0,0,0,0,0,0,0,0,0,0,0,0,0,0,0,0,0,0,0,0,0,0,0,0,0,0,0,0,0,0,0,0,0,0,0,0,0,0,0,0,0,0,0,0,0,0,0,0,0,0,0,0,0,0,0,0,0,0,0,0,0,0,0,0,0,0,0,0,0,0,0,0,0,0,0,0,0,0,0,0,0,0,0,0,0,0,0,0,0,0,0,0,0,0,0,0,0,0,0,0,0,0,0,0,0,0,0,0,0,0,0,0,0,0,0,0,0,0,0,0,0,0,0,0,0,0,0,0,0,0,0,0,0,0,0,0,0,0,0,0],"trees":[{"base_weights":[-7.399761E-4,-4.1315164E-2,4.4072233E-2,-1.0339506E-1,-2.5079213E-2,2.9320538E-2,8.1467435E-2,-1.6292682E-1,-8.514925E-2,-4.963474E-2,-1.0763626E-2,5.17417E-2,1.6801229E-2,1.13754645E-1,7.0751235E-2,-7.876898E-3,-1.0456731E-2,-4.4697667E-3,3.2258064E-3,-9.194159E-4,-3.1510901E-3,-5.6764315E-4,1.4285715E-2,3.129835E-3,5.450581E-4,6.693263E-4,5.149254E-3,3.6252353E-3,7.02454E-3,3.2934726E-3,6.8592057E-3],"categories":[],"categories_nodes":[],"categories_segments":[],"categories_sizes":[],"default_left":[0,0,0,0,0,0,0,0,0,0,0,0,0,0,0,0,0,0,0,0,0,0,0,0,0,0,0,0,0,0,0],"id":0,"left_children":[1,3,5,7,9,11,13,15,17,19,21,23,25,27,29,-1,-1,-1,-1,-1,-1,-1,-1,-1,-1,-1,-1,-1,-1,-1,-1],"loss_changes":[7.31033E1,2.1264652E1,1.0536743E1,4.7371864E0,5.8794546E0,3.8452473E0,1.8617172E0,2.2228622E-1,2.1346626E0,2.5755548E0,1.8494285E0,2.1755953E0,2.586628E0,1.4731674E0,1.3076668E0,0E0,0E0,0E0,0E0,0E0,0E0,0E0,0E0,0E0,0E0,0E0,0E0,0E0,0E0,0E0,0E0],"parents":[2147483647,0,0,1,1,2,2,3,3,4,4,5,5,6,6,7,7,8,8,9,9,10,10,11,11,12,12,13,13,14,14],"right_children":[2,4,6,8,10,12,14,16,18,20,22,24,26,28,30,-1,-1,-1,-1,-1,-1,-1,-1,-1,-1,-1,-1,-1,-1,-1,-1],"split_conditions":[2.5E1,1E1,2.02E1,4.4E0,1.62E1,3.785235E0,1.101E2,4.2E1,6.818276E0,1.8947369E0,3.275E1,7.0742097E0,3.5901638E1,1.0642857E2,1.083871E1,-1.8636256E-2,-2.876084E-2,-2.0664053E-2,1.4562994E-2,-8.7412E-3,-2.0665413E-2,-2.613008E-3,7.2568476E-2,2.4676932E-2,3.6971332E-3,4.648441E-3,4.6110675E-2,3.105571E-2,4.6687327E-2,2.4685968E-2,4.1304912E-2],"split_indices":[3,3,0,3,3,8,14,11,5,8,10,6,10,14,8,0,0,0,0,0,0,0,0,0,0,0,0,0,0,0,0],"split_type":[0,0,0,0,0,0,0,0,0,0,0,0,0,0,0,0,0,0,0,0,0,0,0,0,0,0,0,0,0,0,0],"sum_hessian":[4.0203E4,2.1099E4,1.9104E4,4.373E3,1.6726E4,1.3701E4,5.403E3,1.024E3,3.349E3,6.159E3,1.0567E4,4.908E3,8.793E3,1.344E3,4.059E3,9.21E2,1.03E2,3.257E3,9.2E1,1.848E3,4.311E3,1.0547E4,2E1,3.877E3,1.031E3,8.459E3,3.34E2,5.3E2,8.14E2,3.783E3,2.76E2],"tree_param":{"num_deleted":"0","num_feature":"16","num_nodes":"31","size_leaf_vector":"1"}},{"base_weights":[3.7192236E-5,-5.7861585E-2,5.1463015E-2,-1.1832891E-1,-4.0975593E-2,2.625598E-2,8.729169E-2,-1.2304833E-1,6.0747664E-2,-1.6751269E-1,-3.9269608E-2,9.386828E-3,4.50219E-2,8.165384E-2,1.5984252E-1,-8.156589E-3,-5.391906E-3,5.6179776E-4,1.4473684E-2,-9.744624E-3,1.3541668E-2,-1.886156E-3,-8.06011E-3,1.0508475E-3,-7.106832E-4,-5.9294873E-3,2.3596177E-3,3.2343294E-3,4.939219E-3,9.330629E-3,3.3216781E-3],"categories":[],"categories_nodes":[],"categories_segments":[],"categories_sizes":[],"default_left":[0,0,0,0,0,0,0,0,0,0,0,0,0,0,0,0,0,0,0,0,0,0,0,0,0,0,0,0,0,0,0],"id":1,"left_children":[1,3,5,7,9,11,13,15,17,19,21,23,25,27,29,-1,-1,-1,-1,-1,-1,-1,-1,-1,-1,-1,-1,-1,-1,-1,-1],"loss_changes":[1.2008822E2,1.9366528E1,1.9288666E1,3.5071907E0,3.1952095E0,3.969304E0,3.5950089E0,2.4424553E0,1.2084814E0,2.417142E0,2.75379E0,1.8132164E0,2.1135387E0,2.37323E0,1.5754604E0,0E0,0E0,0E0,0E0,0E0,0E0,0E0,0E0,0E0,0E0,0E0,0E0,0E0,0E0,0E0,0E0],"parents":[2147483647,0,0,1,1,2,2,3,3,4,4,5,5,6,6,7,7,8,8,9,9,10,10,11,11,12,12,13,13,14,14],"right_children":[2,4,6,8,10,12,14,16,18,20,22,24,26,28,30,-1,-1,-1,-1,-1,-1,-1,-1,-1,-1,-1,-1,-1,-1,-1,-1],"split_conditions":[1.5714285E0,6E-1,3.642857E0,6.786424E0,8E-1,2.5E0,8.280702E0,4.0879226E0,7.2902656E-1,9.3E1,8.4E1,4.8E1,2E0,1E0,9.21E1,-2.1080641E-2,-2.053889E-2,8.761137E-3,3.3896934E-2,-2.320046E-2,8.560999E-2,-9.136672E-3,-2.9025814E-2,7.5030415E-3,-3.1098032E-3,-1.9894203E-2,1.706912E-2,2.9725373E-2,3.8971364E-2,7.807721E-2,5.4716926E-2],"split_indices":[9,9,9,5,0,9,9,6,4,15,11,11,0,12,15,0,0,0,0,0,0,0,0,0,0,0,0,0,0,0,0],"split_type":[0,0,0,0,0,0,0,0,0,0,0,0,0,0,0,0,0,0,0,0,0,0,0,0,0,0,0,0,0,0,0],"sum_hessian":[4.033E4,1.8971E4,2.1359E4,4.14E3,1.4831E4,1.2539E4,8.82E3,4.034E3,1.06E2,1.96E2,1.4635E4,6.604E3,5.935E3,8.186E3,6.34E2,1.107E3,2.927E3,8.8E1,1.8E1,1.85E2,1.1E1,1.4453E4,1.82E2,4.424E3,2.18E3,7.7E1,5.858E3,4.115E3,4.071E3,4.92E2,1.42E2],"tree_param":{"num_deleted":"0","num_feature":"16","num_nodes":"31","size_leaf_vector":"1"}},{"base_weights":[-2.2732355E-3,-5.819404E-2,2.6772233E-2,-1.5796798E-1,-4.65555E-2,9.41993E-3,6.453837E-2,-1.7652926E-1,-1.3739067E-1,-7.376172E-2,-3.4720607E-2,-4.148755E-3,2.6070422E-2,1.0263158E-2,7.150588E-2,-5.7228915E-3,-9.197761E-3,-7.530919E-3,-3.7190083E-3,-3.8706108E-3,1.8907564E-3,-1.4276734E-3,-3.9855074E-3,-4.330927E-4,1.8268268E-3,1.7554138E-3,-1.20926685E-4,-1.1574074E-3,5.220884E-3,4.2004166E-3,2.694562E-3],"categories":[],"categories_nodes":[],"categories_segments":[],"categories_sizes":[],"default_left":[0,0,0,0,0,0,0,0,0,0,0,0,0,0,0,0,0,0,0,0,0,0,0,0,0,0,0,0,0,0,0],"id":2,"left_children":[1,3,5,7,9,11,13,15,17,19,21,23,25,27,29,-1,-1,-1,-1,-1,-1,-1,-1,-1,-1,-1,-1,-1,-1,-1,-1],"loss_changes":[6.537908E1,1.5971077E1,1.736038E1,5.2459717E-1,3.9655533E0,4.10133E0,3.1531487E0,3.2557106E-1,5.605669E-1,1.5242367E0,2.3810778E0,1.8370348E0,2.0987964E0,2.990951E0,1.6231651E0,0E0,0E0,0E0,0E0,0E0,0E0,0E0,0E0,0E0,0E0,0E0,0E0,0E0,0E0,0E0,0E0],"parents":[2147483647,0,0,1,1,2,2,3,3,4,4,5,5,6,6,7,7,8,8,9,9,10,10,11,11,12,12,13,13,14,14],"right_children":[2,4,6,8,10,12,14,16,18,20,22,24,26,28,30,-1,-1,-1,-1,-1,-1,-1,-1,-1,-1,-1,-1,-1,-1,-1,-1],"split_conditions":[1.9E1,5.2E0,1.7E1,3.8E0,1.1E1,2.72E1,3E1,2E-1,1.195E2,6.818276E0,4.8203125E0,1.3744445E1,7E0,8.534896E0,8.91E1,-1.6663779E-2,-2.3685077E-2,-1.848492E-2,-1.2905287E-2,-1.9651491E-2,1.114841E-2,-1.201759E-2,-1.8078392E-2,-1.9844838E-3,1.8251874E-2,1.4935195E-2,-7.1959494E-4,-8.413914E-3,4.3333508E-2,3.1094238E-2,2.1173488E-2],"split_indices":[3,3,0,3,3,3,3,1,14,5,8,7,1,5,15,0,0,0,0,0,0,0,0,0,0,0,0,0,0,0,0],"split_type":[0,0,0,0,0,0,0,0,0,0,0,0,0,0,0,0,0,0,0,0,0,0,0,0,0,0,0,0,0,0,0],"sum_hessian":[4.025E4,1.3759E4,2.6491E4,1.436E3,1.2323E4,1.8152E4,8.339E3,7.51E2,6.85E2,3.734E3,8.589E3,1.0002E4,8.15E3,9.49E2,7.39E3,8.2E1,6.69E2,5.65E2,1.2E2,3.616E3,1.18E2,7.555E3,1.034E3,9.004E3,9.98E2,6.187E3,1.963E3,7.01E2,2.48E2,4.32E3,3.07E3],"tree_param":{"num_deleted":"0","num_feature":"16","num_nodes":"31","size_leaf_vector":"1"}},{"base_weights":[-2.6918487E-3,-5.7316884E-2,4.7260307E-2,-1.18250675E-1,-4.0814977E-2,2.420343E-2,7.9445645E-2,-1.788666E-1,-1.0240222E-1,-1.3543788E-1,-3.7635878E-2,5.421574E-3,3.877684E-2,7.5586215E-2,1.7978396E-1,-7.965933E-3,-1.0315186E-2,-4.320487E-3,-7.630907E-3,-8.608059E-3,-4.452055E-3,-1.485754E-3,-2.8633445E-3,5.08658E-3,5.372143E-5,5.9291295E-4,2.411292E-3,3.702983E-3,1.0309278E-2,1.1511628E-2,3.9772727E-3],"categories":[],"categories_nodes":[],"categories_segments":[],"categories_sizes":[],"default_left":[0,0,0,0,0,0,0,0,0,0,0,0,0,0,0,0,0,0,0,0,0,0,0,0,0,0,0,0,0,0,0],"id":3,"left_children":[1,3,5,7,9,11,13,15,17,19,21,23,25,27,29,-1,-1,-1,-1,-1,-1,-1,-1,-1,-1,-1,-1,-1,-1,-1,-1],"loss_changes":[1.0973217E2,1.931028E1,1.5586487E1,3.9137E0,4.54233E0,3.3500705E0,3.381424E0,4.214115E-1,2.5944061E0,8.2125664E-1,2.2726974E0,2.2393765E0,1.7524328E0,1.66819E0,1.62012E0,0E0,0E0,0E0,0E0,0E0,0E0,0E0,0E0,0E0,0E0,0E0,0E0,0E0,0E0,0E0,0E0],"parents":[2147483647,0,0,1,1,2,2,3,3,4,4,5,5,6,6,7,7,8,8,9,9,10,10,11,11,12,12,13,13,14,14],"right_children":[2,4,6,8,10,12,14,16,18,20,22,24,26,28,30,-1,-1,-1,-1,-1,-1,-1,-1,-1,-1,-1,-1,-1,-1,-1,-1],"split_conditions":[1.6E0,6E-1,3.642857E0,5.2E0,5.2E0,2.357143E0,9.634147E0,2.0548046E0,4E0,1.129E2,2.267647E1,4.652174E0,1.1E2,1.38E1,9.21E1,-1.46017065E-2,-1.7181227E-2,-1.9701919E-2,-1.5870953E-2,-2.1332044E-2,-1.6221372E-2,-7.875684E-3,-9.89941E-3,2.994426E-2,5.6449923E-4,4.9005896E-3,1.662317E-2,3.0134214E-2,6.698637E-2,8.759533E-2,4.9405374E-2],"split_indices":[9,9,9,3,3,9,9,5,13,14,10,7,14,1,15,0,0,0,0,0,0,0,0,0,0,0,0,0,0,0,0],"split_type":[0,0,0,0,0,0,0,0,0,0,0,0,0,0,0,0,0,0,0,0,0,0,0,0,0,0,0,0,0,0,0],"sum_hessian":[4.0213E4,1.9208E4,2.1005E4,4.092E3,1.5116E4,1.2239E4,8.766E3,8.46E2,3.246E3,4.9E2,1.4626E4,5.348E3,6.891E3,8.443E3,3.23E2,4.98E2,3.48E2,2.464E3,7.82E2,2.72E2,2.18E2,1.0423E4,4.203E3,2.3E2,5.118E3,1.791E3,5.1E3,8.347E3,9.6E1,2.14E2,1.09E2],"tree_param":{"num_deleted":"0","num_feature":"16","num_nodes":"31","size_leaf_vector":"1"}},{"base_weights":[-2.2143105E-3,-5.7085693E-2,4.7913503E-2,-1.1174242E-1,-3.849234E-2,2.6310418E-2,7.791766E-2,-9.11739E-2,-1.6029614E-1,-1.312814E-1,-3.5844732E-2,5.5721393E-3,4.0732283E-2,5.9779722E-2,9.143564E-2,-8.696934E-3,-3.974253E-3,-8.178472E-3,9.2592597E-4,-4.0409486E-3,-1.0029941E-2,-1.3163255E-3,-2.9191799E-3,-1.3685495E-3,9.36108E-4,-3.510274E-3,2.1507274E-3,3.74868E-3,6.6002156E-4,4.995849E-3,2.4251498E-3],"categories":[],"categories_nodes":[],"categories_segments":[],"categories_sizes":[],"default_left":[0,0,0,0,0,0,0,0,0,0,0,0,0,0,0,0,0,0,0,0,0,0,0,0,0,0,0,0,0,0,0],"id":4,"left_children":[1,3,5,7,9,11,13,15,17,19,21,23,25,27,29,-1,-1,-1,-1,-1,-1,-1,-1,-1,-1,-1,-1,-1,-1,-1,-1],"loss_changes":[1.10867714E2,1.9551437E1,1.365126E1,4.8629303E0,3.5231018E0,3.662962E0,2.1563606E0,3.3073444E0,8.5290146E-1,1.3759618E0,2.9939442E0,2.1773567E0,1.8320637E0,2.6657E0,1.833992E0,0E0,0E0,0E0,0E0,0E0,0E0,0E0,0E0,0E0,0E0,0E0,0E0,0E0,0E0,0E0,0E0],"parents":[2147483647,0,0,1,1,2,2,3,3,4,4,5,5,6,6,7,7,8,8,9,9,10,10,11,11,12,12,13,13,14,14],"right_children":[2,4,6,8,10,12,14,16,18,20,22,24,26,28,30,-1,-1,-1,-1,-1,-1,-1,-1,-1,-1,-1,-1,-1,-1,-1,-1],"split_conditions":[1.6E0,6.511628E-1,3.642857E0,4E0,5E0,2.3030303E0,4.8510637E0,5.2E0,2.16E1,4.4E0,2.267647E1,2E1,2.2730303E0,6.245462E-1,9.21E1,-1.4337415E-2,-1.8433323E-2,-1.5844053E-2,1.8184718E-2,-1.5718002E-2,-2.1490429E-2,-6.8533467E-3,-1.0087174E-2,-6.6275075E-3,5.777368E-3,-1.9741982E-2,1.44644575E-2,2.6891494E-2,4.635233E-3,4.052803E-2,2.2620406E-2],"split_indices":[9,9,9,13,3,9,9,3,3,7,10,3,5,4,15,0,0,0,0,0,0,0,0,0,0,0,0,0,0,0,0],"split_type":[0,0,0,0,0,0,0,0,0,0,0,0,0,0,0,0,0,0,0,0,0,0,0,0,0,0,0,0,0,0,0],"sum_hessian":[4.0305E4,1.9242E4,2.1063E4,4.883E3,1.4359E4,1.2247E4,8.816E3,3.432E3,1.451E3,3.97E2,1.3962E4,5.024E3,7.223E3,3.767E3,5.049E3,4.23E2,3.009E3,1.425E3,2.6E1,2.31E2,1.66E2,9.818E3,4.144E3,1.433E3,3.591E3,1.45E2,7.078E3,2.84E3,9.27E2,4.215E3,8.34E2],"tree_param":{"num_deleted":"0","num_feature":"16","num_nodes":"31","size_leaf_vector":"1"}},{"base_weights":[-2.803066E-3,-5.8322247E-2,4.2171784E-2,-1.1812179E-1,-4.0794753E-2,1.9770123E-2,7.626543E-2,-9.685081E-2,-1.6646634E-1,-8.635667E-2,-3.3359725E-2,1.5269506E-3,3.7097476E-2,6.0956266E-2,9.1536544E-2,-5.2025784E-3,2.8320313E-3,-6.845238E-3,-9.180432E-3,-2.7672786E-3,-5.704942E-3,-1.8923754E-3,5.5681815E-4,-1.7654753E-3,4.6733298E-4,4.8732945E-5,2.3735063E-3,3.1957277E-3,-4.6130954E-3,4.3722237E-3,1.0664335E-2],"categories":[],"categories_nodes":[],"categories_segments":[],"categories_sizes":[],"default_left":[0,0,0,0,0,0,0,0,0,0,0,0,0,0,0,0,0,0,0,0,0,0,0,0,0,0,0,0,0,0,0],"id":5,"left_children":[1,3,5,7,9,11,13,15,17,19,21,23,25,27,29,-1,-1,-1,-1,-1,-1,-1,-1,-1,-1,-1,-1,-1,-1,-1,-1],"loss_changes":[1.0066268E2,1.8905655E1,1.7008827E1,4.1887436E0,4.7240944E0,4.249038E0,2.0590057E0,3.147026E0,6.072922E-1,1.6773214E0,2.396287E0,1.8867717E0,2.5830622E0,2.0061455E0,2.1829414E0,0E0,0E0,0E0,0E0,0E0,0E0,0E0,0E0,0E0,0E0,0E0,0E0,0E0,0E0,0E0,0E0],"parents":[2147483647,0,0,1,1,2,2,3,3,4,4,5,5,6,6,7,7,8,8,9,9,10,10,11,11,12,12,13,13,14,14],"right_children":[2,4,6,8,10,12,14,16,18,20,22,24,26,28,30,-1,-1,-1,-1,-1,-1,-1,-1,-1,-1,-1,-1,-1,-1,-1,-1],"split_conditions":[1.5E0,6E-1,3.642857E0,4E0,1E1,2.357143E0,1E0,2.38E1,4.6983948E-1,3E0,2.2E0,1.64E1,2.2E0,9E0,1.02E1,-1.7337194E-2,1.1905131E-2,-1.1676462E-2,-1.872827E-2,-1.9258544E-2,-1.925602E-2,-7.7697947E-3,5.783579E-3,-5.7822303E-3,3.3189543E-3,1.7873272E-4,1.6592965E-2,2.7318304E-2,-2.874812E-2,3.5167307E-2,9.6833825E-2],"split_indices":[9,9,9,13,3,9,12,3,4,13,2,3,2,13,2,0,0,0,0,0,0,0,0,0,0,0,0,0,0,0,0],"split_type":[0,0,0,0,0,0,0,0,0,0,0,0,0,0,0,0,0,0,0,0,0,0,0,0,0,0,0,0,0,0,0],"sum_hessian":[4.0312E4,1.8041E4,2.2271E4,4.088E3,1.3953E4,1.3441E4,8.83E3,2.841E3,1.247E3,1.956E3,1.1997E4,6.548E3,6.893E3,4.412E3,4.418E3,2.714E3,1.27E2,4.61E2,7.86E2,9.25E2,1.031E3,1.0898E4,1.099E3,1.146E3,5.402E3,1.538E3,5.355E3,4.329E3,8.3E1,4.276E3,1.42E2],"tree_param":{"num_deleted":"0","num_feature":"16","num_nodes":"31","size_leaf_vector":"1"}},{"base_weights":[-3.8502754E-3,-4.4874344E-2,4.926517E-2,-1.0007796E-1,-2.8696248E-2,3.9781906E-2,8.262274E-2,-1.1449531E-1,-2.9529817E-2,-5.108055E-2,-2.0764055E-2,2.7051399E-2,4.851994E-2,7.691731E-2,1.1819887E-1,-8.401416E-3,-4.9880347E-3,-2.7879344E-3,7.285276E-4,-5.7161925E-3,-2.1113183E-3,-1.1360949E-3,4.0142275E-3,-6.5573766E-3,1.4402916E-3,1.7613636E-2,2.3842047E-3,4.9562226E-3,2.823276E-3,5.0735297E-3,2.34375E-2],"categories":[],"categories_nodes":[],"categories_segments":[],"categories_sizes":[],"default_left":[0,0,0,0,0,0,0,0,0,0,0,0,0,0,0,0,0,0,0,0,0,0,0,0,0,0,0,0,0,0,0],"id":6,"left_children":[1,3,5,7,9,11,13,15,17,19,21,23,25,27,29,-1,-1,-1,-1,-1,-1,-1,-1,-1,-1,-1,-1,-1,-1,-1,-1],"loss_changes":[8.743941E1,2.021756E1,5.5285225E0,5.2154465E0,3.1081333E0,1.5135479E0,7.764282E-1,3.3434753E0,1.0094572E0,2.5603848E0,2.560058E0,1.5427923E0,2.0331192E0,1.5104427E0,3.078011E0,0E0,0E0,0E0,0E0,0E0,0E0,0E0,0E0,0E0,0E0,0E0,0E0,0E0,0E0,0E0,0E0],"parents":[2147483647,0,0,1,1,2,2,3,3,4,4,5,5,6,6,7,7,8,8,9,9,10,10,11,11,12,12,13,13,14,14],"right_children":[2,4,6,8,10,12,14,16,18,20,22,24,26,28,30,-1,-1,-1,-1,-1,-1,-1,-1,-1,-1,-1,-1,-1,-1,-1,-1],"split_conditions":[2.2E0,1.1E1,5.8E0,1E0,1.6E1,1.18E1,9.2E0,4.2E0,1.163E2,4E-1,3.3606556E1,1.01E2,5.180851E0,3.4E1,1.225E2,-1.4831334E-2,-1.6460026E-2,-1.957255E-2,6.040907E-3,-1.7452065E-2,-1.4755008E-2,-4.7273547E-3,1.3587429E-2,-5.4098226E-2,1.0222956E-2,6.710512E-2,1.8729571E-2,4.6137284E-2,2.4350107E-2,4.0668014E-2,9.3152635E-2],"split_indices":[2,3,2,2,3,0,1,3,14,2,10,14,7,3,14,0,0,0,0,0,0,0,0,0,0,0,0,0,0,0,0],"split_type":[0,0,0,0,0,0,0,0,0,0,0,0,0,0,0,0,0,0,0,0,0,0,0,0,0,0,0,0,0,0,0],"sum_hessian":[4.0126E4,2.264E4,1.7486E4,5.13E3,1.751E4,1.3617E4,3.869E3,4.259E3,8.71E2,4.58E3,1.293E4,5.544E3,8.073E3,3.337E3,5.32E2,9.17E2,3.342E3,5.46E2,3.25E2,5.61E2,4.019E3,1.2685E4,2.45E2,6E1,5.484E3,2.1E1,8.052E3,1.598E3,1.739E3,5.09E2,2.3E1],"tree_param":{"num_deleted":"0","num_feature":"16","num_nodes":"31","size_leaf_vector":"1"}},{"base_weights":[-4.6634376E-3,-5.4606967E-2,3.9601292E-2,-1.1329251E-1,-3.804053E-2,1.9635484E-2,6.831943E-2,-1.2263907E-1,7.5E-3,-1.3933486E-1,-3.4953557E-2,6.4669396E-3,3.9523523E-2,5.5471554E-2,8.792954E-2,-5.237457E-3,-7.988048E-3,4.6242774E-3,-5.3710938E-3,6.8181823E-3,-7.3063383E-3,-2.0185856E-3,8.499631E-4,1.0592736E-3,-6.8359374E-4,1.398248E-3,3.615149E-3,3.097467E-3,8.144947E-4,2.1875E-2,4.3344437E-3],"categories":[],"categories_nodes":[],"categories_segments":[],"categories_sizes":[],"default_left":[0,0,0,0,0,0,0,0,0,0,0,0,0,0,0,0,0,0,0,0,0,0,0,0,0,0,0,0,0,0,0],"id":7,"left_children":[1,3,5,7,9,11,13,15,17,19,21,23,25,27,29,-1,-1,-1,-1,-1,-1,-1,-1,-1,-1,-1,-1,-1,-1,-1,-1],"loss_changes":[8.900643E1,1.8386993E1,1.2236904E1,4.702053E0,4.6085987E0,3.297546E0,2.2004242E0,2.550045E0,2.9399445E0,8.363428E-1,4.0313206E0,2.246217E0,1.8984575E0,1.3419018E0,1.4639759E0,0E0,0E0,0E0,0E0,0E0,0E0,0E0,0E0,0E0,0E0,0E0,0E0,0E0,0E0,0E0,0E0],"parents":[2147483647,0,0,1,1,2,2,3,3,4,4,5,5,6,6,7,7,8,8,9,9,10,10,11,11,12,12,13,13,14,14],"right_children":[2,4,6,8,10,12,14,16,18,20,22,24,26,28,30,-1,-1,-1,-1,-1,-1,-1,-1,-1,-1,-1,-1,-1,-1,-1,-1],"split_conditions":[1.5714285E0,6E-1,3.642857E0,2.12E1,5E0,4.6E0,5.6E0,4E0,3.4E1,4E0,2.2E0,3.3095238E0,9.06E1,6.871034E0,1.74E1,-1.5489573E-2,-1.1956761E-2,1.3097892E-2,-2.75532E-2,3.2475572E-2,-1.5538232E-2,-8.998665E-3,5.7744957E-3,7.1901516E-3,-2.9056997E-3,1.0416116E-2,2.0345446E-2,2.286001E-2,9.31319E-3,1.5190922E-1,4.1877735E-2],"split_indices":[9,9,9,3,3,1,9,13,11,10,2,8,15,6,3,0,0,0,0,0,0,0,0,0,0,0,0,0,0,0,0],"split_type":[0,0,0,0,0,0,0,0,0,0,0,0,0,0,0,0,0,0,0,0,0,0,0,0,0,0,0,0,0,0,0],"sum_hessian":[4.0259E4,1.8916E4,2.1343E4,4.163E3,1.4753E4,1.2591E4,8.752E3,3.864E3,2.99E2,4.35E2,1.4318E4,7.576E3,5.015E3,5.29E3,3.462E3,2.61E3,1.254E3,1.72E2,1.27E2,1E1,4.25E2,1.2966E4,1.352E3,4.377E3,3.199E3,3.709E3,1.306E3,4.539E3,7.51E2,1.1E1,3.451E3],"tree_param":{"num_deleted":"0","num_feature":"16","num_nodes":"31","size_leaf_vector":"1"}},{"base_weights":[-5.382686E-3,-6.786985E-2,1.4810738E-2,-1.3159192E-1,-5.1300116E-2,1.5824931E-3,4.9981967E-2,-1.3348192E-1,1.1363637E-2,-4.0996406E-2,-9.822064E-2,-1.0497167E-2,1.5016234E-2,5.4782044E-2,-8.280757E-3,-8.120805E-3,-5.82353E-3,-4.5298165E-4,-2.8734612E-3,-5.670223E-3,-2.4009147E-3,-4.6260102E-4,-5.7904413E-3,6.5031037E-4,3.896605E-3,1.986077E-3,3.4240615E-3,1.4705883E-2,-8.29288E-4],"categories":[],"categories_nodes":[],"categories_segments":[],"categories_sizes":[],"default_left":[0,0,0,0,0,0,0,0,0,0,0,0,0,0,0,0,0,0,0,0,0,0,0,0,0,0,0,0,0],"id":8,"left_children":[1,3,5,7,9,11,13,15,-1,17,19,21,23,25,27,-1,-1,-1,-1,-1,-1,-1,-1,-1,-1,-1,-1,-1,-1],"loss_changes":[5.081237E1,1.0377609E1,1.4159451E1,1.406517E0,3.7703094E0,3.589194E0,2.3267117E0,9.7485733E-1,0E0,3.3680248E0,1.0655346E0,1.5260504E0,1.323302E0,1.5828228E0,1.5971183E0,0E0,0E0,0E0,0E0,0E0,0E0,0E0,0E0,0E0,0E0,0E0,0E0,0E0,0E0],"parents":[2147483647,0,0,1,1,2,2,3,3,4,4,5,5,6,6,7,7,9,9,10,10,11,11,12,12,13,13,14,14],"right_children":[2,4,6,8,10,12,14,16,-1,18,20,22,24,26,28,-1,-1,-1,-1,-1,-1,-1,-1,-1,-1,-1,-1,-1,-1],"split_conditions":[1.56E1,6.4E0,1.7E1,7.3401484E0,5E0,2.54E1,7.050323E-1,3.8E0,4.523764E-2,1.8717948E0,9.1E1,8.4E1,8E1,2.18E1,3.6147845E0,-1.3248435E-2,-1.390704E-2,-4.8196735E-3,-1.502046E-2,-1.6349114E-2,-1.1390755E-2,-2.3161985E-3,-2.8010888E-2,4.8872815E-3,2.6289156E-2,1.6795997E-2,2.4358125E-2,7.5180665E-2,-4.1195094E-3],"split_indices":[3,3,0,5,13,3,4,3,0,8,15,11,11,0,5,0,0,0,0,0,0,0,0,0,0,0,0,0,0],"split_type":[0,0,0,0,0,0,0,0,0,0,0,0,0,0,0,0,0,0,0,0,0,0,0,0,0,0,0,0,0],"sum_hessian":[4.0267E4,9.834E3,3.0433E4,2.028E3,7.806E3,2.2116E4,8.317E3,2.018E3,1E1,6.402E3,1.404E3,1.1645E4,1.0471E4,7.684E3,6.33E2,7.44E2,1.274E3,2.179E3,4.223E3,1.077E3,3.27E2,1.151E4,1.35E2,1.0148E4,3.23E2,3.662E3,4.022E3,1.6E1,6.17E2],"tree_param":{"num_deleted":"0","num_feature":"16","num_nodes":"29","size_leaf_vector":"1"}},{"base_weights":[-4.3697394E-3,-5.025119E-2,3.623409E-2,-1.1335366E-1,-3.277969E-2,1.3858646E-2,6.006572E-2,-1.2360772E-1,-2.3214286E-2,-1.2653778E-1,-2.9031806E-2,-4.381353E-5,2.8775625E-2,4.8585903E-2,8.03667E-2,-6.6895164E-3,-3.4579039E-3,7.971015E-3,-2.9474432E-3,-7.756814E-3,1.0752688E-3,-1.6994339E-3,9.1666664E-4,7.3191297E-4,-9.815951E-4,1.200551E-3,6.5400847E-3,1.2323944E-4,2.706251E-3,3.7015104E-3,6.979167E-3],"categories":[],"categories_nodes":[],"categories_segments":[],"categories_sizes":[],"default_left":[0,0,0,0,0,0,0,0,0,0,0,0,0,0,0,0,0,0,0,0,0,0,0,0,0,0,0,0,0,0,0],"id":9,"left_children":[1,3,5,7,9,11,13,15,17,19,21,23,25,27,29,-1,-1,-1,-1,-1,-1,-1,-1,-1,-1,-1,-1,-1,-1,-1,-1],"loss_changes":[7.503636E1,2.0844463E1,1.1393511E1,3.7867355E0,5.2008314E0,2.2857735E0,2.4074783E0,2.0316353E0,2.7504728E0,2.4123735E0,3.344636E0,1.6412972E0,2.5815263E0,1.6890345E0,1.3915119E0,0E0,0E0,0E0,0E0,0E0,0E0,0E0,0E0,0E0,0E0,0E0,0E0,0E0,0E0,0E0,0E0],"parents":[2147483647,0,0,1,1,2,2,3,3,4,4,5,5,6,6,7,7,8,8,9,9,10,10,11,11,12,12,13,13,14,14],"right_children":[2,4,6,8,10,12,14,16,18,20,22,24,26,28,30,-1,-1,-1,-1,-1,-1,-1,-1,-1,-1,-1,-1,-1,-1,-1,-1],"split_conditions":[1.5714285E0,6E-1,3.2857144E0,1.96E1,5.6E0,2.357143E0,5.418605E0,8E-1,1.3E1,1.196E2,2.2E0,4.1E1,9.406854E0,3.9001424E0,9.8E0,-1.2804985E-2,-1.7384088E-2,1.4188471E-2,-2.3990864E-2,-1.50184855E-2,2.4994263E-2,-7.6451614E-3,6.2094526E-3,4.392487E-3,-5.145541E-3,8.63358E-3,2.5269274E-2,7.399127E-4,2.1705398E-2,3.495054E-2,6.942143E-2],"split_indices":[9,9,9,3,3,9,9,2,10,14,2,11,6,5,2,0,0,0,0,0,0,0,0,0,0,0,0,0,0,0,0],"split_type":[0,0,0,0,0,0,0,0,0,0,0,0,0,0,0,0,0,0,0,0,0,0,0,0,0,0,0,0,0,0,0],"sum_hessian":[4.0276E4,1.8909E4,2.1367E4,4.099E3,1.481E4,1.1021E4,1.0346E4,3.68E3,4.19E2,5.68E2,1.4242E4,5.705E3,5.316E3,6.611E3,3.735E3,3.099E3,5.81E2,6.8E1,3.51E2,4.76E2,9.2E1,1.2893E4,1.349E3,3.261E3,2.444E3,5.08E3,2.36E2,7.09E2,5.902E3,3.376E3,3.59E2],"tree_param":{"num_deleted":"0","num_feature":"16","num_nodes":"31","size_leaf_vector":"1"}},{"base_weights":[-3.3608007E-3,-4.5602217E-2,3.4286723E-2,-1.0809326E-1,-2.834513E-2,2.2384847E-2,7.314257E-2,-1.2000303E-1,-5.8490567E-2,-5.3409662E-2,-1.9172344E-2,4.4177417E-4,3.4094125E-2,6.831458E-2,1.3509749E-1,-6.167637E-3,7.8125E-3,-6.8093385E-3,-1.0667903E-3,-4.19375E-3,-1.1265823E-3,-1.2597606E-3,1.341415E-3,1.003687E-3,-7.22274E-4,1.5742459E-3,5.401662E-3,4.362725E-3,2.3519963E-3,4.761905E-4,9.313726E-3],"categories":[],"categories_nodes":[],"categories_segments":[],"categories_sizes":[],"default_left":[0,0,0,0,0,0,0,0,0,0,0,0,0,0,0,0,0,0,0,0,0,0,0,0,0,0,0,0,0,0,0],"id":10,"left_children":[1,3,5,7,9,11,13,15,17,19,21,23,25,27,29,-1,-1,-1,-1,-1,-1,-1,-1,-1,-1,-1,-1,-1,-1,-1,-1],"loss_changes":[6.388171E1,2.0411304E1,9.820961E0,2.4127197E0,3.4097137E0,4.1780453E0,1.4803772E0,3.0748405E0,2.2920876E0,3.7364883E0,3.0100553E0,1.6542236E0,2.0421562E0,1.8582859E0,2.3053346E0,0E0,0E0,0E0,0E0,0E0,0E0,0E0,0E0,0E0,0E0,0E0,0E0,0E0,0E0,0E0,0E0],"parents":[2147483647,0,0,1,1,2,2,3,3,4,4,5,5,6,6,7,7,8,8,9,9,10,10,11,11,12,12,13,13,14,14],"right_children":[2,4,6,8,10,12,14,16,18,20,22,24,26,28,30,-1,-1,-1,-1,-1,-1,-1,-1,-1,-1,-1,-1,-1,-1,-1,-1],"split_conditions":[1.5714285E0,6E-1,4.8510637E0,8E-1,4.4E0,2.357143E0,3.16E1,2.175E1,5.546771E0,8E-1,2.2E0,8.973684E0,9.62693E0,3.4177418E1,3.4058774E0,-1.21796755E-2,2.0219892E-2,-1.9665858E-2,-1.1297313E-2,-1.689363E-2,-1.1536873E-2,-4.694368E-3,9.122697E-3,6.018924E-3,-4.290907E-3,1.1846038E-2,3.1370737E-2,3.9557226E-2,1.9829841E-2,8.277244E-3,8.464085E-2],"split_indices":[9,9,9,2,0,9,0,10,6,2,2,7,6,10,6,0,0,0,0,0,0,0,0,0,0,0,0,0,0,0,0],"split_type":[0,0,0,0,0,0,0,0,0,0,0,0,0,0,0,0,0,0,0,0,0,0,0,0,0,0,0,0,0,0,0],"sum_hessian":[4.0168E4,1.8929E4,2.1239E4,4.095E3,1.4834E4,1.626E4,4.979E3,3.301E3,7.94E2,3.973E3,1.0861E4,5.658E3,1.0602E4,4.621E3,3.58E2,3.262E3,3.9E1,2.56E2,5.38E2,1.999E3,1.974E3,9.604E3,1.257E3,2.44E3,3.218E3,1.0242E4,3.6E2,2.443E3,2.178E3,1.04E2,2.54E2],"tree_param":{"num_deleted":"0","num_feature":"16","num_nodes":"31","size_leaf_vector":"1"}},{"base_weights":[-7.887971E-3,-4.1284405E-2,3.517344E-2,-8.41783E-2,-1.9522378E-2,2.6266381E-2,6.604135E-2,-9.856326E-2,-1.1140819E-3,-1.4418166E-2,-4.8462566E-2,1.7744862E-2,3.952569E-2,1.0896768E-1,5.2111488E-2,-6.8991347E-3,-4.331758E-3,9.027778E-3,-5.1449955E-4,-8.3299226E-4,1.9493178E-3,-9.794319E-4,-3.6254085E-3,-4.1354555E-4,1.1995801E-3,2.3682737E-3,-7.318501E-5,-6.097561E-3,5.9575625E-3,9.918478E-3,2.3701638E-3],"categories":[],"categories_nodes":[],"categories_segments":[],"categories_sizes":[],"default_left":[0,0,0,0,0,0,0,0,0,0,0,0,0,0,0,0,0,0,0,0,0,0,0,0,0,0,0,0,0,0,0],"id":11,"left_children":[1,3,5,7,9,11,13,15,17,19,21,23,25,27,29,-1,-1,-1,-1,-1,-1,-1,-1,-1,-1,-1,-1,-1,-1,-1,-1],"loss_changes":[5.7613075E1,2.105997E1,4.8094807E0,9.073776E0,2.2106228E0,1.5339212E0,2.33712E0,3.0316467E0,1.872214E0,1.5242717E0,1.5565686E0,1.3441877E0,1.7073908E0,2.2696962E0,2.0288935E0,0E0,0E0,0E0,0E0,0E0,0E0,0E0,0E0,0E0,0E0,0E0,0E0,0E0,0E0,0E0,0E0],"parents":[2147483647,0,0,1,1,2,2,3,3,4,4,5,5,6,6,7,7,8,8,9,9,10,10,11,11,12,12,13,13,14,14],"right_children":[2,4,6,8,10,12,14,16,18,20,22,24,26,28,30,-1,-1,-1,-1,-1,-1,-1,-1,-1,-1,-1,-1,-1,-1,-1,-1],"split_conditions":[2.2E0,8E-1,5.8E0,1.96E1,6.2313433E0,3.8E0,3.16E1,5.6E0,1.4384615E1,8.252273E0,6.125E-1,1.089E2,6.538639E-1,1.059E2,1.03E2,-1.1164187E-2,-1.4214314E-2,2.0584742E-2,-2.6014948E-3,-4.235507E-3,1.6983677E-2,-3.2704212E-3,-1.0044182E-2,-3.060621E-3,8.594439E-3,1.7651035E-2,-3.667146E-4,-6.384313E-2,4.7709268E-2,6.9536E-2,2.1434244E-2],"split_indices":[2,2,2,3,8,2,3,3,10,5,4,14,4,14,14,0,0,0,0,0,0,0,0,0,0,0,0,0,0,0,0],"split_type":[0,0,0,0,0,0,0,0,0,0,0,0,0,0,0,0,0,0,0,0,0,0,0,0,0,0,0,0,0,0,0],"sum_hessian":[4.006E4,2.2562E4,1.7498E4,7.593E3,1.4969E4,1.3581E4,3.917E3,6.472E3,1.121E3,1.2726E4,2.243E3,8.269E3,5.312E3,9.58E2,2.959E3,1.501E3,4.971E3,5.3E1,1.068E3,1.2214E4,5.12E2,1.02E3,1.223E3,1.601E3,6.668E3,4.459E3,8.53E2,4E1,9.18E2,9.1E1,2.868E3],"tree_param":{"num_deleted":"0","num_feature":"16","num_nodes":"31","size_leaf_vector":"1"}},{"base_weights":[-5.2619823E-3,-4.9386825E-2,3.0445911E-2,-1.1255724E-1,-3.049088E-2,2.0720877E-2,6.367784E-2,-1.1950128E-1,1.0416667E-3,-7.985575E-2,-2.2458728E-2,3.0793797E-3,3.1607848E-2,5.7533376E-2,1.5325077E-1,-5.646839E-3,-9.836066E-3,1.328125E-2,-8.888889E-4,-4.846774E-3,-6.0586736E-4,-5.9276324E-4,-2.6771005E-3,4.32047E-3,-4.3796783E-5,7.4959005E-4,2.1355308E-3,3.329321E-3,5.6524546E-4,-7.2115386E-4,9.237132E-3],"categories":[],"categories_nodes":[],"categories_segments":[],"categories_sizes":[],"default_left":[0,0,0,0,0,0,0,0,0,0,0,0,0,0,0,0,0,0,0,0,0,0,0,0,0,0,0,0,0,0,0],"id":12,"left_children":[1,3,5,7,9,11,13,15,17,19,21,23,25,27,29,-1,-1,-1,-1,-1,-1,-1,-1,-1,-1,-1,-1,-1,-1,-1,-1],"loss_changes":[6.3481064E1,2.1507599E1,7.195612E0,3.2729988E0,5.4989367E0,3.3089476E0,2.7656364E0,1.9598083E0,1.1997569E0,2.2444725E0,3.9323683E0,2.1675022E0,1.9648533E0,1.974186E0,1.7082219E0,0E0,0E0,0E0,0E0,0E0,0E0,0E0,0E0,0E0,0E0,0E0,0E0,0E0,0E0,0E0,0E0],"parents":[2147483647,0,0,1,1,2,2,3,3,4,4,5,5,6,6,7,7,8,8,9,9,10,10,11,11,12,12,13,13,14,14],"right_children":[2,4,6,8,10,12,14,16,18,20,22,24,26,28,30,-1,-1,-1,-1,-1,-1,-1,-1,-1,-1,-1,-1,-1,-1,-1,-1],"split_conditions":[1.5E0,6E-1,4.8510637E0,2.18E1,1E1,2.357143E0,9.634147E0,4.232143E0,1.09375E1,1E0,2.4037037E1,4.5520835E0,5.4467756E-1,3.6090908E1,2.0225351E1,-1.19853215E-2,-1.3184792E-2,4.0127605E-2,-1.6630443E-2,-1.5574648E-2,-3.1333268E-3,-2.9410266E-3,-7.971674E-3,2.3149384E-2,-1.9376651E-4,6.438501E-3,1.5310039E-2,2.9792294E-2,5.093059E-3,-9.651667E-3,6.347143E-2],"split_indices":[9,9,9,3,3,9,9,8,10,2,10,7,4,10,7,0,0,0,0,0,0,0,0,0,0,0,0,0,0,0,0],"split_type":[0,0,0,0,0,0,0,0,0,0,0,0,0,0,0,0,0,0,0,0,0,0,0,0,0,0,0,0,0,0,0],"sum_hessian":[4.0288E4,1.802E4,2.2268E4,4.148E3,1.3872E4,1.7228E4,5.04E3,3.909E3,2.39E2,1.94E3,1.1932E4,6.575E3,1.0653E4,4.718E3,3.22E2,3.605E3,3.04E2,1.5E1,2.24E2,1.549E3,3.91E2,8.898E3,3.034E3,2.97E2,6.278E3,4.268E3,6.385E3,3.945E3,7.73E2,5.1E1,2.71E2],"tree_param":{"num_deleted":"0","num_feature":"16","num_nodes":"31","size_leaf_vector":"1"}},{"base_weights":[-5.2611893E-3,-4.566228E-2,3.1643607E-2,-1.0374693E-1,-2.997944E-2,1.7014742E-2,5.2051194E-2,-1.0958991E-1,5.5172414E-2,-7.381306E-2,-2.3188572E-2,3.454774E-3,2.839283E-2,3.6198575E-2,6.771188E-2,-5.210868E-3,-9.8135965E-3,7.6470594E-3,-4.098361E-3,-4.9471576E-3,-1.0368665E-3,-7.551297E-4,-2.2822628E-3,2.4216524E-3,-3.5121682E-4,5.6977915E-3,1.0725333E-3,1.6556683E-3,7.798165E-3,4.875246E-3,2.5963876E-3],"categories":[],"categories_nodes":[],"categories_segments":[],"categories_sizes":[],"default_left":[0,0,0,0,0,0,0,0,0,0,0,0,0,0,0,0,0,0,0,0,0,0,0,0,0,0,0,0,0,0,0],"id":13,"left_children":[1,3,5,7,9,11,13,15,17,19,21,23,25,27,29,-1,-1,-1,-1,-1,-1,-1,-1,-1,-1,-1,-1,-1,-1,-1,-1],"loss_changes":[5.9797756E1,1.74376E1,6.25651E0,3.7853012E0,4.4862337E0,1.8837402E0,2.1700974E0,1.8078957E0,1.956692E0,2.694888E0,2.3700747E0,2.6266036E0,3.94107E0,1.6025286E0,2.064539E0,0E0,0E0,0E0,0E0,0E0,0E0,0E0,0E0,0E0,0E0,0E0,0E0,0E0,0E0,0E0,0E0],"parents":[2147483647,0,0,1,1,2,2,3,3,4,4,5,5,6,6,7,7,8,8,9,9,10,10,11,11,12,12,13,13,14,14],"right_children":[2,4,6,8,10,12,14,16,18,20,22,24,26,28,30,-1,-1,-1,-1,-1,-1,-1,-1,-1,-1,-1,-1,-1,-1,-1,-1],"split_conditions":[1.6E0,6E-1,3.642857E0,2.38E1,1E1,2.62E1,1E0,5.015748E0,3.4E1,1.088E0,2.4125E1,1.68E1,2.2958763E1,4E1,3.085E1,-1.1027196E-2,-1.3837114E-2,1.7601324E-2,-2.2044143E-2,-1.4288274E-2,-9.826434E-3,-4.0233443E-3,-7.5941207E-3,1.5705869E-2,-1.8811822E-3,3.571111E-2,8.990774E-3,1.4733478E-2,5.0838817E-2,3.529005E-2,2.0109525E-2],"split_indices":[9,9,9,3,3,3,12,8,11,9,10,10,10,3,10,0,0,0,0,0,0,0,0,0,0,0,0,0,0,0,0],"split_type":[0,0,0,0,0,0,0,0,0,0,0,0,0,0,0,0,0,0,0,0,0,0,0,0,0,0,0,0,0,0,0],"sum_hessian":[4.0104E4,1.9145E4,2.0959E4,4.069E3,1.5076E4,1.2209E4,8.75E3,3.925E3,1.44E2,2.021E3,1.3055E4,5.571E3,6.638E3,4.35E3,4.4E3,3.698E3,2.27E2,8.4E1,6E1,1.371E3,6.5E2,9.6E3,3.455E3,1.052E3,4.519E3,4.97E2,6.141E3,4.242E3,1.08E2,1.522E3,2.878E3],"tree_param":{"num_deleted":"0","num_feature":"16","num_nodes":"31","size_leaf_vector":"1"}},{"base_weights":[-6.0677505E-3,-4.690006E-2,2.716633E-2,-1.04466684E-1,-3.0032177E-2,6.1824806E-3,3.825776E-2,-1.0669533E-1,2.2321428E-1,-5.5123217E-2,-2.048169E-2,-2.6090065E-2,1.3365155E-2,3.650559E-2,1.16719246E-1,-5.640925E-3,-8.996212E-4,2.3076924E-2,7.8125E-4,-4.3077315E-3,-1.1188065E-3,-6.4744055E-4,-2.6681675E-3,3.3018868E-3,-1.8936342E-3,4.0600178E-4,3.0595814E-3,2.8228652E-4,1.995938E-3,1.6826924E-2,4.837329E-3],"categories":[],"categories_nodes":[],"categories_segments":[],"categories_sizes":[],"default_left":[0,0,0,0,0,0,0,0,0,0,0,0,0,0,0,0,0,0,0,0,0,0,0,0,0,0,0,0,0,0,0],"id":14,"left_children":[1,3,5,7,9,11,13,15,17,19,21,23,25,27,29,-1,-1,-1,-1,-1,-1,-1,-1,-1,-1,-1,-1,-1,-1,-1,-1],"loss_changes":[5.4682564E1,1.7554E1,5.170101E0,3.0157967E0,3.3501186E0,1.7812927E0,1.9937019E0,2.208561E0,1.3780478E0,3.9154778E0,2.5086923E0,1.5211248E0,1.5761304E0,1.4972496E0,1.35919E0,0E0,0E0,0E0,0E0,0E0,0E0,0E0,0E0,0E0,0E0,0E0,0E0,0E0,0E0,0E0,0E0],"parents":[2147483647,0,0,1,1,2,2,3,3,4,4,5,5,6,6,7,7,8,8,9,9,10,10,11,11,12,12,13,13,14,14],"right_children":[2,4,6,8,10,12,14,16,18,20,22,24,26,28,30,-1,-1,-1,-1,-1,-1,-1,-1,-1,-1,-1,-1,-1,-1,-1,-1],"split_conditions":[1.5E0,6E-1,2.6E0,2.2958763E1,4.4E0,1.08E2,9.634147E0,9.406854E0,8.64E1,8E-1,2.714865E1,3.60401E0,1.84E1,2.3030303E0,3.294737E1,-1.1414135E-2,-2.840221E-3,1.8948844E-2,1.0876191E-2,-1.4312501E-2,-1.2385221E-2,-2.3604722E-3,-7.407129E-3,2.6374603E-2,-9.174345E-3,2.3236573E-3,1.557856E-2,1.3951369E-3,1.5198772E-2,6.873039E-2,3.4742624E-2],"split_indices":[9,9,2,10,0,14,9,6,15,2,10,6,0,9,10,0,0,0,0,0,0,0,0,0,0,0,0,0,0,0,0],"split_type":[0,0,0,0,0,0,0,0,0,0,0,0,0,0,0,0,0,0,0,0,0,0,0,0,0,0,0,0,0,0,0],"sum_hessian":[4.0294E4,1.808E4,2.2214E4,4.096E3,1.3984E4,7.682E3,1.4532E4,4.069E3,2.7E1,3.854E3,1.013E4,1.398E3,6.284E3,1.4216E4,3.16E2,3.806E3,2.63E2,1.2E1,1.5E1,1.978E3,1.876E3,8.243E3,1.887E3,1.58E2,1.24E3,5.664E3,6.2E2,1.416E3,1.28E4,2.5E1,2.91E2],"tree_param":{"num_deleted":"0","num_feature":"16","num_nodes":"31","size_leaf_vector":"1"}},{"base_weights":[-6.643817E-3,-4.534396E-2,2.4269568E-2,-9.3550384E-2,-2.7383327E-2,8.374896E-3,4.273298E-2,-1.0891421E-1,-4.2482205E-2,-6.673357E-2,-2.0274555E-2,5.6500606E-2,4.8402925E-3,4.0170558E-2,1.2045454E-1,-5.2485424E-3,-1.0865385E-2,1.7301039E-3,-3.4539474E-3,-4.854369E-3,-1.3356562E-3,-9.3497615E-4,-7.092199E-3,-5.098684E-3,3.626337E-3,-1.0376603E-3,7.3556683E-4,1.9261166E-3,5.6561087E-3,1.1317568E-2,4.4747083E-3],"categories":[],"categories_nodes":[],"categories_segments":[],"categories_sizes":[],"default_left":[0,0,0,0,0,0,0,0,0,0,0,0,0,0,0,0,0,0,0,0,0,0,0,0,0,0,0,0,0,0,0],"id":15,"left_children":[1,3,5,7,9,11,13,15,17,19,21,23,25,27,29,-1,-1,-1,-1,-1,-1,-1,-1,-1,-1,-1,-1,-1,-1,-1,-1],"loss_changes":[4.8169838E1,1.547826E1,6.568672E0,3.803051E0,3.6429949E0,2.0460935E0,2.057417E0,1.5715218E0,2.3068047E0,2.4184484E0,2.1104755E0,2.0975933E0,2.8318331E0,1.2011738E0,1.0616827E0,0E0,0E0,0E0,0E0,0E0,0E0,0E0,0E0,0E0,0E0,0E0,0E0,0E0,0E0,0E0,0E0],"parents":[2147483647,0,0,1,1,2,2,3,3,4,4,5,5,6,6,7,7,8,8,9,9,10,10,11,11,12,12,13,13,14,14],"right_children":[2,4,6,8,10,12,14,16,18,20,22,24,26,28,30,-1,-1,-1,-1,-1,-1,-1,-1,-1,-1,-1,-1,-1,-1,-1,-1],"split_conditions":[1.4805195E0,6.511628E-1,3.2857144E0,1.62E1,1.06E1,5.0431657E0,9.634147E0,5.276923E0,4.2459016E0,1E0,8.4E1,1.0642857E2,2.2E1,1.1678572E1,3.204164E0,-9.815692E-3,-9.73734E-3,1.306916E-2,-1.8079385E-2,-1.3880143E-2,-1.0578906E-2,-3.871742E-3,-1.6364828E-2,-2.3929292E-2,2.3515953E-2,-5.5980743E-3,5.411643E-3,1.635441E-2,5.6137174E-2,7.287246E-2,4.8372924E-2],"split_indices":[9,9,9,3,3,7,9,8,7,9,11,14,3,8,6,0,0,0,0,0,0,0,0,0,0,0,0,0,0,0,0],"split_type":[0,0,0,0,0,0,0,0,0,0,0,0,0,0,0,0,0,0,0,0,0,0,0,0,0,0,0,0,0,0,0],"sum_hessian":[4.0262E4,1.7879E4,2.2383E4,4.852E3,1.3027E4,1.2029E4,1.0354E4,3.729E3,1.123E3,1.992E3,1.1035E4,8.22E2,1.1207E4,1.0025E4,3.29E2,3.6E3,1.29E2,2.88E2,8.35E2,1.132E3,8.6E2,1.0895E4,1.4E2,7.5E1,7.47E2,3.119E3,8.088E3,9.805E3,2.2E2,7.3E1,2.56E2],"tree_param":{"num_deleted":"0","num_feature":"16","num_nodes":"31","size_leaf_vector":"1"}},{"base_weights":[-8.544989E-3,-4.5172855E-2,2.1129774E-2,-9.8556526E-2,-2.9305745E-2,7.4546314E-3,4.857162E-2,-1.0591553E-1,-8.038585E-3,-6.78636E-2,-2.1980613E-2,6.846768E-3,2.5694445E-1,4.531272E-2,1.1681548E-1,-5.0515113E-3,-1.0404624E-2,2.9920214E-3,-5.5443547E-3,-5.3927316E-3,-2.1383993E-3,2.863546E-4,-1.5814733E-3,-2.655835E-4,8.062112E-4,2.3529412E-2,3.125E-3,2.1522339E-3,7.199367E-3,1.8478261E-2,4.896497E-3],"categories":[],"categories_nodes":[],"categories_segments":[],"categories_sizes":[],"default_left":[0,0,0,0,0,0,0,0,0,0,0,0,0,0,0,0,0,0,0,0,0,0,0,0,0,0,0,0,0,0,0],"id":16,"left_children":[1,3,5,7,9,11,13,15,17,19,21,23,25,27,29,-1,-1,-1,-1,-1,-1,-1,-1,-1,-1,-1,-1,-1,-1,-1,-1],"loss_changes":[4.369418E1,1.5237137E1,8.33366E0,2.7448997E0,3.916253E0,2.2462344E0,1.637352E0,1.8817978E0,2.1778057E0,2.2173567E0,3.116919E0,1.6681631E0,1.4660947E0,1.5718069E0,1.5676422E0,0E0,0E0,0E0,0E0,0E0,0E0,0E0,0E0,0E0,0E0,0E0,0E0,0E0,0E0,0E0,0E0],"parents":[2147483647,0,0,1,1,2,2,3,3,4,4,5,5,6,6,7,7,8,8,9,9,10,10,11,11,12,12,13,13,14,14],"right_children":[2,4,6,8,10,12,14,16,18,20,22,24,26,28,30,-1,-1,-1,-1,-1,-1,-1,-1,-1,-1,-1,-1,-1,-1,-1,-1],"split_conditions":[1.5E0,6E-1,4.037037E0,2.1E1,1.06E1,3.18E1,1.083871E1,5.276923E0,3.4E1,8.035714E-1,1.5333333E1,2.3333333E0,1E0,1.029E1,4.2216372E0,-9.695289E-3,-1.1688237E-2,1.3729259E-2,-2.1795888E-2,-1.2537042E-2,-1.2381618E-2,1.6989291E-3,-5.9318203E-3,-1.2423538E-3,7.2544427E-3,9.6422285E-2,3.7823506E-2,1.9562801E-2,5.3742886E-2,6.5978654E-2,4.6817396E-2],"split_indices":[9,9,9,3,3,0,8,8,11,9,10,9,12,9,5,0,0,0,0,0,0,0,0,0,0,0,0,0,0,0,0],"split_type":[0,0,0,0,0,0,0,0,0,0,0,0,0,0,0,0,0,0,0,0,0,0,0,0,0,0,0,0,0,0,0],"sum_hessian":[4.0198E4,1.7991E4,2.2207E4,4.121E3,1.387E4,1.4822E4,7.385E3,3.811E3,3.1E2,2.213E3,1.1657E4,1.4787E4,3.5E1,7.05E3,3.35E2,3.639E3,1.72E2,1.87E2,1.23E2,8.52E2,1.361E3,3.011E3,8.646E3,6.4E3,8.387E3,1.6E1,1.9E1,6.893E3,1.57E2,2.2E1,3.13E2],"tree_param":{"num_deleted":"0","num_feature":"16","num_nodes":"31","size_leaf_vector":"1"}},{"base_weights":[-5.68352E-3,-4.0286243E-2,2.5096662E-2,-8.519526E-2,-2.3434652E-2,1.617523E-2,5.708108E-2,-9.518941E-2,7.4701197E-3,-5.2113704E-2,-1.8371634E-2,-1.7121213E-2,1.9852694E-2,7.276437E-2,2.9673591E-2,-4.5339838E-3,-1.005291E-2,-8.6206896E-4,8.272058E-3,-2.4193549E-3,-1.1079545E-2,3.6255238E-4,-1.3828855E-3,-9.046053E-3,-4.6031745E-4,6.6115703E-3,9.466757E-4,3.5506997E-3,2.3076924E-2,1.4903846E-2,1.2725904E-3],"categories":[],"categories_nodes":[],"categories_segments":[],"categories_sizes":[],"default_left":[0,0,0,0,0,0,0,0,0,0,0,0,0,0,0,0,0,0,0,0,0,0,0,0,0,0,0,0,0,0,0],"id":17,"left_children":[1,3,5,7,9,11,13,15,17,19,21,23,25,27,29,-1,-1,-1,-1,-1,-1,-1,-1,-1,-1,-1,-1,-1,-1,-1,-1],"loss_changes":[4.268082E1,1.4274815E1,6.0507126E0,4.7674065E0,1.9910765E0,2.030993E0,1.9858484E0,2.1999588E0,1.9625106E0,1.2890582E0,2.774989E0,2.1374822E0,1.5402288E0,1.9685678E0,1.9017556E0,0E0,0E0,0E0,0E0,0E0,0E0,0E0,0E0,0E0,0E0,0E0,0E0,0E0,0E0,0E0,0E0],"parents":[2147483647,0,0,1,1,2,2,3,3,4,4,5,5,6,6,7,7,8,8,9,9,10,10,11,11,12,12,13,13,14,14],"right_children":[2,4,6,8,10,12,14,16,18,20,22,24,26,28,30,-1,-1,-1,-1,-1,-1,-1,-1,-1,-1,-1,-1,-1,-1,-1,-1],"split_conditions":[1.5714285E0,6.7241377E-1,5.4E0,2.1E1,1.1E1,1.4E0,2.2075E1,5.4666667E0,2.2285715E1,1.264E2,5.6666665E0,2.0548046E0,3.1111112E0,2.98E1,2.2E0,-9.718488E-3,-1.3596292E-2,-4.251414E-3,1.30427955E-2,-1.069197E-2,-2.5088137E-2,1.9541897E-3,-5.045235E-3,-2.7906558E-2,-2.284272E-3,4.3723326E-2,7.680581E-3,2.8951822E-2,1.0697295E-1,1.2830314E-1,1.0256112E-2],"split_indices":[9,9,2,3,3,2,7,8,10,14,7,5,7,0,1,0,0,0,0,0,0,0,0,0,0,0,0,0,0,0,0],"split_type":[0,0,0,0,0,0,0,0,0,0,0,0,0,0,0,0,0,0,0,0,0,0,0,0,0,0,0,0,0,0,0],"sum_hessian":[4.0071E4,1.8864E4,2.1207E4,5.146E3,1.3718E4,1.6583E4,4.624E3,4.645E3,5.01E2,2.057E3,1.1661E4,1.649E3,1.4934E4,2.94E3,1.684E3,4.457E3,1.88E2,4.34E2,6.7E1,2.014E3,4.3E1,3.102E3,8.559E3,7.5E1,1.574E3,1.2E2,1.4814E4,2.928E3,1.2E1,2.5E1,1.659E3],"tree_param":{"num_deleted":"0","num_feature":"16","num_nodes":"31","size_leaf_vector":"1"}},{"base_weights":[-5.4832716E-3,-3.7469707E-2,2.2930413E-2,-8.651044E-2,-2.3881601E-2,1.3330487E-2,5.4529022E-2,-8.84042E-2,2.037037E-1,-3.1361755E-2,-5.129717E-3,1.3923741E-2,-1.6981132E-1,4.5914445E-2,8.57342E-2,-4.5661107E-3,3.2467532E-3,2.1875E-2,7.8125E-4,-1.317575E-3,-3.1978798E-3,5.378734E-4,-1.8194541E-3,-2.0417423E-5,1.0607111E-3,-1.0763889E-2,-3.4722225E-3,2.2303038E-3,1.4285715E-2,4.084275E-3,1.8333334E-2],"categories":[],"categories_nodes":[],"categories_segments":[],"categories_sizes":[],"default_left":[0,0,0,0,0,0,0,0,0,0,0,0,0,0,0,0,0,0,0,0,0,0,0,0,0,0,0,0,0,0,0],"id":18,"left_children":[1,3,5,7,9,11,13,15,17,19,21,23,25,27,29,-1,-1,-1,-1,-1,-1,-1,-1,-1,-1,-1,-1,-1,-1,-1,-1],"loss_changes":[3.6673058E1,1.2646984E1,6.4814377E0,2.2812443E0,2.0849075E0,1.7832417E0,1.3345156E0,1.8368759E0,1.1804109E0,1.7336845E0,2.1060743E0,1.7072351E0,2.2690654E-1,1.2121239E0,1.1939034E0,0E0,0E0,0E0,0E0,0E0,0E0,0E0,0E0,0E0,0E0,0E0,0E0,0E0,0E0,0E0,0E0],"parents":[2147483647,0,0,1,1,2,2,3,3,4,4,5,5,6,6,7,7,8,8,9,9,10,10,11,11,12,12,13,13,14,14],"right_children":[2,4,6,8,10,12,14,16,18,20,22,24,26,28,30,-1,-1,-1,-1,-1,-1,-1,-1,-1,-1,-1,-1,-1,-1,-1,-1],"split_conditions":[1.5714285E0,6E-1,4.8510637E0,2.2958763E1,4.8E0,8.941562E-1,7.259259E0,7.083627E0,5.4984846E0,2.4125E1,2.6764706E1,2.3333333E0,2.4E0,1.48E1,7.711961E-1,-8.558976E-3,1.624357E-2,1.5246552E-2,1.3982437E-2,-7.0932447E-3,-9.269896E-3,1.4149308E-3,-5.5822185E-3,-1.3566464E-4,8.617072E-3,-2.6511231E-2,-3.175968E-3,1.8322099E-2,1.087744E-1,4.3554526E-2,1.3800116E-1],"split_indices":[9,9,9,10,1,4,9,5,5,10,10,9,2,1,4,0,0,0,0,0,0,0,0,0,0,0,0,0,0,0,0],"split_type":[0,0,0,0,0,0,0,0,0,0,0,0,0,0,0,0,0,0,0,0,0,0,0,0,0,0,0,0,0,0,0],"sum_hessian":[4.0349E4,1.8981E4,2.1368E4,4.117E3,1.4864E4,1.639E4,4.978E3,4.091E3,2.6E1,1.0625E4,4.239E3,1.6338E4,5.2E1,3.903E3,1.075E3,4.015E3,7.6E1,1.1E1,1.5E1,9.211E3,1.414E3,2.811E3,1.428E3,5.509E3,1.0829E4,3.5E1,1.7E1,3.883E3,2E1,1.061E3,1.4E1],"tree_param":{"num_deleted":"0","num_feature":"16","num_nodes":"31","size_leaf_vector":"1"}},{"base_weights":[-4.1353665E-3,-3.711263E-2,2.261567E-2,-8.0045305E-2,-1.9217152E-2,1.0777669E-2,4.4097133E-2,-8.120507E-2,2.1875E-2,-1.2494826E-2,-4.053167E-2,1.0202296E-2,3.148148E-1,4.1926473E-2,1.3227513E-1,-4.2829574E-3,7.446809E-4,-1.7851762E-3,-1.7727702E-5,-3.5957736E-3,-5.6926E-4,4.7282572E-4,8.7890625E-3,8.333334E-3,2.3076924E-2,2.837318E-3,1.4316502E-3,1.3095239E-2,3.3464567E-3],"categories":[],"categories_nodes":[],"categories_segments":[],"categories_sizes":[],"default_left":[0,0,0,0,0,0,0,0,0,0,0,0,0,0,0,0,0,0,0,0,0,0,0,0,0,0,0,0,0],"id":19,"left_children":[1,3,5,7,9,11,13,15,-1,17,19,21,23,25,27,-1,-1,-1,-1,-1,-1,-1,-1,-1,-1,-1,-1,-1,-1],"loss_changes":[3.5466076E1,1.3832485E1,5.644169E0,3.214943E0,1.8206224E0,2.500455E0,1.503869E0,2.2638474E0,0E0,2.7229154E0,2.7863545E0,1.7624556E0,5.099716E-1,1.5149403E0,1.5834482E0,0E0,0E0,0E0,0E0,0E0,0E0,0E0,0E0,0E0,0E0,0E0,0E0,0E0,0E0],"parents":[2147483647,0,0,1,1,2,2,3,3,4,4,5,5,6,6,7,7,9,9,10,10,11,11,12,12,13,13,14,14],"right_children":[2,4,6,8,10,12,14,16,-1,18,20,22,24,26,28,-1,-1,-1,-1,-1,-1,-1,-1,-1,-1,-1,-1,-1,-1],"split_conditions":[1.5E0,6.875E-1,4.2E0,2.6916666E1,2.4037037E1,3.46E1,1.08E1,1.08E1,1.03065036E-1,4.6E0,5.4E0,6.269231E0,8.72E1,3.254762E1,1.96E1,-9.069803E-3,4.0610763E-3,-9.80271E-3,-4.079044E-5,-9.185485E-3,-1.5144676E-3,3.3527443E-3,5.127346E-2,5.4095604E-2,1.469407E-1,2.3224939E-2,1.1210329E-2,7.0042856E-2,2.3112943E-2],"split_indices":[9,9,2,10,10,0,2,0,0,0,1,9,15,10,0,0,0,0,0,0,0,0,0,0,0,0,0,0,0],"split_type":[0,0,0,0,0,0,0,0,0,0,0,0,0,0,0,0,0,0,0,0,0,0,0,0,0,0,0,0,0],"sum_hessian":[4.0201E4,1.8005E4,2.2196E4,5.296E3,1.2709E4,1.4311E4,7.885E3,5.285E3,1.1E1,9.663E3,3.046E3,1.4285E4,2.6E1,7.697E3,1.88E2,5.051E3,2.34E2,3.318E3,6.345E3,1.466E3,1.58E3,1.4222E4,6.3E1,1.4E1,1.2E1,3.638E3,4.059E3,6.2E1,1.26E2],"tree_param":{"num_deleted":"0","num_feature":"16","num_nodes":"29","size_leaf_vector":"1"}},{"base_weights":[-4.9525895E-3,-5.001528E-2,9.616335E-3,-6.2343176E-2,-3.6230322E-2,-2.2447682E-3,1.9957466E-2,-6.514642E-2,4.8828125E-2,1.3501742E-2,-4.3245573E-2,-2.8558252E-3,1.6666667E-1,3.4490287E-2,1.4237245E-2,-2.896489E-3,-4.864865E-3,7.4152544E-4,2.0454546E-2,-1.1532739E-3,3.2426778E-3,-1.2179487E-2,-2.0647044E-3,-2.0732447E-3,-2.260909E-5,-1.1363637E-2,1.3414635E-2,1.1206672E-3,4.832215E-3,6.942653E-4,1.7708333E-2],"categories":[],"categories_nodes":[],"categories_segments":[],"categories_sizes":[],"default_left":[0,0,0,0,0,0,0,0,0,0,0,0,0,0,0,0,0,0,0,0,0,0,0,0,0,0,0,0,0,0,0],"id":20,"left_children":[1,3,5,7,9,11,13,15,17,19,21,23,25,27,29,-1,-1,-1,-1,-1,-1,-1,-1,-1,-1,-1,-1,-1,-1,-1,-1],"loss_changes":[2.6379908E1,1.6660385E0,3.724531E0,1.6177883E0,1.6183538E0,1.4603422E0,1.3480592E0,1.1669979E0,1.5616868E0,1.079349E0,1.578836E0,1.3079387E0,2.1027346E0,3.4364715E0,1.3878622E0,0E0,0E0,0E0,0E0,0E0,0E0,0E0,0E0,0E0,0E0,0E0,0E0,0E0,0E0,0E0,0E0],"parents":[2147483647,0,0,1,1,2,2,3,3,4,4,5,5,6,6,7,7,8,8,9,9,10,10,11,11,12,12,13,13,14,14],"right_children":[2,4,6,8,10,12,14,16,18,20,22,24,26,28,30,-1,-1,-1,-1,-1,-1,-1,-1,-1,-1,-1,-1,-1,-1,-1,-1],"split_conditions":[1.56E1,1.1E1,2.72E1,6.818276E0,1.3684211E0,2.0806452E1,3.8235295E0,4.347413E0,1.231E2,5.3621554E-1,2.013841E0,8.35E1,8.6E1,4.6E0,4.36E1,-7.1201636E-3,-1.18788695E-2,7.5408085E-3,4.9179256E-2,-7.897884E-3,2.4723828E-2,-2.2331351E-2,-9.5973285E-3,-9.881335E-3,-4.8364698E-5,-5.9851445E-2,1.0238005E-1,8.100486E-3,2.7429117E-2,5.242146E-3,1.0514758E-1],"split_indices":[3,3,3,5,8,7,8,5,14,4,6,15,15,1,3,0,0,0,0,0,0,0,0,0,0,0,0,0,0,0,0],"split_type":[0,0,0,0,0,0,0,0,0,0,0,0,0,0,0,0,0,0,0,0,0,0,0,0,0,0,0,0,0,0,0],"sum_hessian":[4.018E4,9.816E3,3.0364E4,5.18E3,4.636E3,1.4143E4,1.6221E4,5.053E3,1.27E2,5.73E2,4.063E3,1.4093E4,5E1,4.58E3,1.1641E4,4.129E3,9.24E2,1.17E2,1E1,3.35E2,2.38E2,3.8E1,4.025E3,8.25E2,1.3268E4,1E1,4E1,3.836E3,7.44E2,1.163E4,1.1E1],"tree_param":{"num_deleted":"0","num_feature":"16","num_nodes":"31","size_leaf_vector":"1"}},{"base_weights":[-5.8615115E-3,-2.9434487E-2,2.4531845E-2,-5.6025438E-2,-1.5937978E-2,1.6769122E-2,4.5666456E-2,-6.655869E-2,3.715035E-3,-1.5111364E-2,-1.1680328E-1,-3.117284E-2,1.9992527E-2,6.1432876E-2,1.8465089E-2,2.125E-3,-3.412829E-3,-8.888889E-5,1.5625E-2,-7.038058E-4,-4.2237444E-3,-7.0913467E-3,1.3157895E-3,-1.891551E-3,1.3194445E-2,9.926471E-3,9.742693E-4,2.4712188E-3,6.2899785E-3,1.1458334E-2,6.993522E-4],"categories":[],"categories_nodes":[],"categories_segments":[],"categories_sizes":[],"default_left":[0,0,0,0,0,0,0,0,0,0,0,0,0,0,0,0,0,0,0,0,0,0,0,0,0,0,0,0,0,0,0],"id":21,"left_children":[1,3,5,7,9,11,13,15,17,19,21,23,25,27,29,-1,-1,-1,-1,-1,-1,-1,-1,-1,-1,-1,-1,-1,-1,-1,-1],"loss_changes":[2.8816818E1,8.128571E0,2.8816404E0,4.798996E0,1.2511358E0,1.9865687E0,2.0226955E0,1.2033539E0,1.9408916E0,1.0691876E0,4.406582E-1,1.6012888E0,1.0864534E0,2.302577E0,1.6319344E0,0E0,0E0,0E0,0E0,0E0,0E0,0E0,0E0,0E0,0E0,0E0,0E0,0E0,0E0,0E0,0E0],"parents":[2147483647,0,0,1,1,2,2,3,3,4,4,5,5,6,6,7,7,8,8,9,9,10,10,11,11,12,12,13,13,14,14],"right_children":[2,4,6,8,10,12,14,16,18,20,22,24,26,28,30,-1,-1,-1,-1,-1,-1,-1,-1,-1,-1,-1,-1,-1,-1,-1,-1],"split_conditions":[2.2E0,8E-1,5.4E0,1.96E1,2.36E1,4.0947548E-1,2.1863157E1,2.2E0,3.42E1,8.75E-1,6.3E1,1.275E2,8E-1,8.382522E0,2.2E0,1.8144399E-3,-7.87546E-3,-4.7486648E-4,3.85801E-2,-3.2003254E-3,-1.6767371E-2,-3.0812085E-2,8.4496975E-2,-1.196705E-2,4.728198E-2,4.286993E-2,7.2883363E-3,2.1611169E-2,5.6576844E-2,1.144467E-1,7.029438E-3],"split_indices":[2,2,2,3,0,4,7,3,3,4,11,14,1,5,1,0,0,0,0,0,0,0,0,0,0,0,0,0,0,0,0],"split_type":[0,0,0,0,0,0,0,0,0,0,0,0,0,0,0,0,0,0,0,0,0,0,0,0,0,0,0,0,0,0,0],"sum_hessian":[4.0219E4,2.2651E4,1.7568E4,7.625E3,1.5026E4,1.285E4,4.718E3,6.482E3,1.143E3,1.4905E4,1.21E2,8.09E2,1.2041E4,2.986E3,1.732E3,9.9E1,6.383E3,1.124E3,1.9E1,1.4687E4,2.18E2,1.03E2,1.8E1,7.92E2,1.7E1,3.3E1,1.2008E4,2.518E3,4.68E2,3.5E1,1.697E3],"tree_param":{"num_deleted":"0","num_feature":"16","num_nodes":"31","size_leaf_vector":"1"}},{"base_weights":[-5.868399E-3,-3.878285E-2,1.7746683E-2,-7.24187E-2,-2.18683E-2,9.855222E-3,4.685E-2,-7.4469045E-2,8.680555E-2,-5.0203133E-2,-1.6710665E-2,-3.648548E-3,1.758612E-2,5.5059522E-2,3.7453184E-3,-4.167647E-3,-2.2762052E-3,1.5972223E-2,4.5454546E-4,-2.8898255E-3,7.539683E-3,-3.7977728E-4,-2.3441056E-3,-3.8768986E-4,2.603037E-3,1.2725877E-3,-1.4178418E-4,3.1145834E-3,5.823627E-4,3.2670454E-3,-1.3243494E-3],"categories":[],"categories_nodes":[],"categories_segments":[],"categories_sizes":[],"default_left":[0,0,0,0,0,0,0,0,0,0,0,0,0,0,0,0,0,0,0,0,0,0,0,0,0,0,0,0,0,0,0],"id":22,"left_children":[1,3,5,7,9,11,13,15,17,19,21,23,25,27,29,-1,-1,-1,-1,-1,-1,-1,-1,-1,-1,-1,-1,-1,-1,-1,-1],"loss_changes":[3.1292328E1,9.566769E0,5.383178E0,1.8434811E0,1.6347675E0,1.9253397E0,1.7691393E0,1.4248962E0,1.2988163E0,2.6384335E0,2.6040485E0,1.5361274E0,1.8839457E0,1.3179216E0,1.4933343E0,0E0,0E0,0E0,0E0,0E0,0E0,0E0,0E0,0E0,0E0,0E0,0E0,0E0,0E0,0E0,0E0],"parents":[2147483647,0,0,1,1,2,2,3,3,4,4,5,5,6,6,7,7,8,8,9,9,10,10,11,11,12,12,13,13,14,14],"right_children":[2,4,6,8,10,12,14,16,18,20,22,24,26,28,30,-1,-1,-1,-1,-1,-1,-1,-1,-1,-1,-1,-1,-1,-1,-1,-1],"split_conditions":[1.4038461E0,7.083333E-1,4.8510637E0,2.2958763E1,6E-1,2.2E0,3.6090908E1,7.5579243E0,5.2886707E-1,2.8907408E1,2.4125E1,1.84E1,3.1807339E1,9.24E1,2.2075E1,-8.109978E-3,-8.795745E-3,3.975279E-2,3.6863068E-3,-1.260269E-2,1.20113855E-2,-1.6262115E-3,-5.8525177E-3,-2.5389553E-3,1.637255E-2,8.732167E-3,-1.2744665E-3,2.5648534E-2,1.2567597E-2,3.8119566E-2,-8.842724E-3],"split_indices":[9,9,9,10,2,2,10,6,4,10,10,0,10,15,7,0,0,0,0,0,0,0,0,0,0,0,0,0,0,0,0],"split_type":[0,0,0,0,0,0,0,0,0,0,0,0,0,0,0,0,0,0,0,0,0,0,0,0,0,0,0,0,0,0,0],"sum_hessian":[4.0257E4,1.6817E4,2.344E4,5.626E3,1.1191E4,1.8441E4,4.999E3,5.555E3,7.1E1,1.722E3,9.469E3,6.714E3,1.1727E4,4.199E3,8E2,4.249E3,1.306E3,1.7E1,5.4E1,1.66E3,6.2E1,7.273E3,2.196E3,6.254E3,4.6E2,8.466E3,3.261E3,3.599E3,6E2,2.63E2,5.37E2],"tree_param":{"num_deleted":"0","num_feature":"16","num_nodes":"31","size_leaf_vector":"1"}},{"base_weights":[-5.959328E-3,-6.3797265E-2,4.5949677E-3,-7.416382E-2,-6.5513626E-3,-1.1254789E-2,2.1839749E-2,-7.050904E-2,-1.8E-1,1.716418E-1,-1.9988738E-2,-2.2958275E-3,-2.6634011E-2,1.5460001E-2,4.8492063E-2,4.5955883E-5,-3.7263855E-3,7.0312503E-3,-1.0546875E-2,4.6875E-3,2.6041666E-2,1.257622E-3,-2.3172905E-3,-3.5127054E-4,1.892978E-3,-7.208589E-3,-1.1811333E-3,1.1088709E-2,7.2412606E-4,4.369344E-3,1.6651964E-3],"categories":[],"categories_nodes":[],"categories_segments":[],"categories_sizes":[],"default_left":[0,0,0,0,0,0,0,0,0,0,0,0,0,0,0,0,0,0,0,0,0,0,0,0,0,0,0,0,0,0,0],"id":23,"left_children":[1,3,5,7,9,11,13,15,17,19,21,23,25,27,29,-1,-1,-1,-1,-1,-1,-1,-1,-1,-1,-1,-1,-1,-1,-1,-1],"loss_changes":[2.458449E1,3.6877594E0,9.3094425E0,2.0226898E0,2.2877347E0,2.4452915E0,2.7728624E0,1.4605598E0,1.7655468E0,1.7735151E0,1.0576986E0,2.1303892E0,2.30893E0,2.6513436E0,1.8579197E0,0E0,0E0,0E0,0E0,0E0,0E0,0E0,0E0,0E0,0E0,0E0,0E0,0E0,0E0,0E0,0E0],"parents":[2147483647,0,0,1,1,2,2,3,3,4,4,5,5,6,6,7,7,8,8,9,9,10,10,11,11,12,12,13,13,14,14],"right_children":[2,4,6,8,10,12,14,16,18,20,22,24,26,28,30,-1,-1,-1,-1,-1,-1,-1,-1,-1,-1,-1,-1,-1,-1,-1,-1],"split_conditions":[7.5E-1,1.96E1,2.25E0,5.5405407E0,1.155E1,2.3055555E1,5.7647057E0,1.264911E0,8.54E1,4.6E1,8.67E1,5.8E0,1.56E1,1.1578947E0,3.16E1,3.7167966E-4,-7.974241E-3,9.515017E-4,-1.372338E-2,1.0815796E-2,5.3963818E-2,4.483727E-3,-1.996348E-2,-2.2149556E-3,7.2701024E-3,-2.0631535E-2,-4.4792234E-3,6.5767504E-2,5.6669414E-3,4.0495526E-2,1.791956E-2],"split_indices":[9,3,9,8,10,10,9,5,15,11,15,1,3,8,3,0,0,0,0,0,0,0,0,0,0,0,0,0,0,0,0],"split_type":[0,0,0,0,0,0,0,0,0,0,0,0,0,0,0,0,0,0,0,0,0,0,0,0,0,0,0,0,0,0,0],"sum_hessian":[4.0272E4,6.214E3,3.4058E4,5.261E3,9.53E2,1.7747E4,1.6311E4,5.087E3,1.74E2,6.6E1,8.87E2,1.1215E4,6.532E3,1.3162E4,3.149E3,2.71E2,4.816E3,1.5E1,1.59E2,5.5E1,1.1E1,3.27E2,5.6E2,1.0034E4,1.181E3,1.62E2,6.37E3,6.1E1,1.3101E4,8.83E2,2.266E3],"tree_param":{"num_deleted":"0","num_feature":"16","num_nodes":"31","size_leaf_vector":"1"}},{"base_weights":[-4.442018E-3,-5.28698E-2,7.1593355E-3,-6.796559E-2,-2.6676027E-2,-6.4401845E-3,2.446697E-2,-6.527429E-2,-1.4545454E-1,-7.6512456E-2,-5.7299454E-3,3.1132959E-3,-1.9994685E-2,-1.4843088E-2,2.7995734E-2,-3.0226163E-3,-4.6943235E-3,-9.277344E-3,-3.2894738E-4,8.064516E-4,-4.862119E-3,1.2867647E-2,-5.1291793E-4,-1.2858193E-4,2.5021664E-3,-6.3805596E-4,-2.3476759E-3,-9.11235E-4,1.3392857E-2,9.2044706E-4,2.0595691E-3],"categories":[],"categories_nodes":[],"categories_segments":[],"categories_sizes":[],"default_left":[0,0,0,0,0,0,0,0,0,0,0,0,0,0,0,0,0,0,0,0,0,0,0,0,0,0,0,0,0,0,0],"id":24,"left_children":[1,3,5,7,9,11,13,15,17,19,21,23,25,27,29,-1,-1,-1,-1,-1,-1,-1,-1,-1,-1,-1,-1,-1,-1,-1,-1],"loss_changes":[2.2640354E1,3.0776844E0,7.652216E0,1.0207214E0,2.9735699E0,2.3576055E0,1.9847469E0,6.5325546E-1,9.174738E-1,1.6205091E0,2.3936756E0,2.8494904E0,1.4672298E0,1.1319851E0,1.6598597E0,0E0,0E0,0E0,0E0,0E0,0E0,0E0,0E0,0E0,0E0,0E0,0E0,0E0,0E0,0E0,0E0],"parents":[2147483647,0,0,1,1,2,2,3,3,4,4,5,5,6,6,7,7,8,8,9,9,10,10,11,11,12,12,13,13,14,14],"right_children":[2,4,6,8,10,12,14,16,18,20,22,24,26,28,30,-1,-1,-1,-1,-1,-1,-1,-1,-1,-1,-1,-1,-1,-1,-1,-1],"split_conditions":[8.4615386E-1,5.4E0,2.5714285E0,9.43E1,5.3246754E-1,9.227273E0,4.3662208E-1,7.5078964E-1,6.752777E0,4E0,3.6851272E-1,1.08E1,1.195E2,8.280702E0,4.9170904E0,-6.922617E-3,-8.57357E-3,-1.4580748E-2,8.1117125E-3,4.8731716E-4,-1.028414E-2,2.1444762E-2,-1.9836754E-3,-8.115344E-4,1.4111212E-2,-2.5773167E-3,-7.5264545E-3,-5.4517896E-3,8.3134085E-2,7.495293E-3,1.3927551E-2],"split_indices":[9,0,9,15,9,7,4,4,6,7,4,0,14,9,6,0,0,0,0,0,0,0,0,0,0,0,0,0,0,0,0],"split_type":[0,0,0,0,0,0,0,0,0,0,0,0,0,0,0,0,0,0,0,0,0,0,0,0,0,0,0,0,0,0,0],"sum_hessian":[4.0296E4,7.787E3,3.2509E4,4.939E3,2.848E3,1.8205E4,1.4304E4,4.775E3,1.64E2,8.42E2,2.006E3,1.0679E4,7.526E3,1.178E3,1.3126E4,4.089E3,6.86E2,1.27E2,3.7E1,1.54E2,6.88E2,3.3E1,1.973E3,9.526E3,1.153E3,5.935E3,1.591E3,1.165E3,1.3E1,7.604E3,5.522E3],"tree_param":{"num_deleted":"0","num_feature":"16","num_nodes":"31","size_leaf_vector":"1"}},{"base_weights":[-5.559835E-3,-4.9128782E-2,4.6378635E-3,-5.883259E-2,6.134969E-3,-1.146344E-3,4.3113563E-2,3.6764707E-2,-6.0348872E-2,1.5416667E-1,-2.0794824E-3,-1.1172442E-2,1.0176493E-2,3.7854098E-2,1.19525544E-1,-6.9444446E-4,1.923077E-2,-3.0596193E-3,4.513889E-3,3.3333336E-3,1.953125E-2,-9.45946E-3,2.2705544E-4,1.1998427E-3,-7.2092685E-4,1.8547227E-4,1.1901985E-3,4.054054E-3,1.4876525E-3,4.736328E-3,2.2368422E-2],"categories":[],"categories_nodes":[],"categories_segments":[],"categories_sizes":[],"default_left":[0,0,0,0,0,0,0,0,0,0,0,0,0,0,0,0,0,0,0,0,0,0,0,0,0,0,0,0,0,0,0],"id":25,"left_children":[1,3,5,7,9,11,13,15,17,19,21,23,25,27,29,-1,-1,-1,-1,-1,-1,-1,-1,-1,-1,-1,-1,-1,-1,-1,-1],"loss_changes":[1.7880758E1,4.0936985E0,7.2578964E0,9.433956E-1,1.3877758E0,3.2186286E0,1.7083135E0,1.8025703E0,8.176651E-1,1.2153646E0,1.3412158E0,1.7170135E0,1.1733564E0,1.3944712E0,2.185289E0,0E0,0E0,0E0,0E0,0E0,0E0,0E0,0E0,0E0,0E0,0E0,0E0,0E0,0E0,0E0,0E0],"parents":[2147483647,0,0,1,1,2,2,3,3,4,4,5,5,6,6,7,7,8,8,9,9,10,10,11,11,12,12,13,13,14,14],"right_children":[2,4,6,8,10,12,14,16,18,20,22,24,26,28,30,-1,-1,-1,-1,-1,-1,-1,-1,-1,-1,-1,-1,-1,-1,-1,-1],"split_conditions":[8E-1,1.96E1,5.6E0,2.2E0,1.4384615E1,2.2E0,1.23E2,2.1818182E0,1.12E1,9.055386E0,1.5E1,1.5E0,5.6E0,3E1,9.6E0,-4.979986E-3,5.960995E-3,-7.102734E-3,1.5090528E-2,1.5392102E-2,6.287088E-2,-2.6414398E-2,5.5345596E-4,7.512249E-3,-3.0672401E-3,1.4607757E-3,8.455901E-3,3.2530148E-2,1.4391543E-2,3.661997E-2,9.185959E-2],"split_indices":[2,3,2,3,10,2,14,8,0,6,10,8,1,3,1,0,0,0,0,0,0,0,0,0,0,0,0,0,0,0,0],"split_type":[0,0,0,0,0,0,0,0,0,0,0,0,0,0,0,0,0,0,0,0,0,0,0,0,0,0,0,0,0,0,0],"sum_hessian":[4.0243E4,7.632E3,3.2611E4,6.492E3,1.14E3,2.835E4,4.261E3,1.01E2,6.391E3,5.9E1,1.081E3,1.5036E4,1.3314E4,3.988E3,2.73E2,8.9E1,1.2E1,6.356E3,3.5E1,4.4E1,1.5E1,3.6E1,1.045E3,1.27E3,1.3766E4,9.03E3,4.284E3,6.28E2,3.36E3,2.55E2,1.8E1],"tree_param":{"num_deleted":"0","num_feature":"16","num_nodes":"31","size_leaf_vector":"1"}},{"base_weights":[-5.5532036E-3,-2.8436946E-2,1.5356938E-2,-5.796436E-2,-1.6730994E-2,1.0222445E-2,3.6908597E-2,-5.9187442E-2,1.724138E-1,-9.745018E-3,-3.717472E-2,1.0972206E-2,-1.036036E-1,2.7177222E-2,7.924403E-2,-1.7320663E-3,-3.4874508E-3,-4.464286E-3,1.953125E-2,-9.670317E-5,-2.2752043E-3,-5.0185877E-3,-1.594921E-3,6.496063E-3,5.033808E-4,-6.435644E-3,6.8181823E-3,1.0483871E-2,1.271512E-3,2.3076924E-2,3.6219675E-3],"categories":[],"categories_nodes":[],"categories_segments":[],"categories_sizes":[],"default_left":[0,0,0,0,0,0,0,0,0,0,0,0,0,0,0,0,0,0,0,0,0,0,0,0,0,0,0,0,0,0,0],"id":26,"left_children":[1,3,5,7,9,11,13,15,17,19,21,23,25,27,29,-1,-1,-1,-1,-1,-1,-1,-1,-1,-1,-1,-1,-1,-1,-1,-1],"loss_changes":[1.9215652E1,6.6264553E0,2.3216457E0,1.54389E0,1.9608333E0,1.4475178E0,1.6610174E0,1.4013977E0,1.6909444E0,2.8589544E0,1.1628609E0,1.8104622E0,6.8637145E-1,1.0416884E0,1.9280152E0,0E0,0E0,0E0,0E0,0E0,0E0,0E0,0E0,0E0,0E0,0E0,0E0,0E0,0E0,0E0,0E0],"parents":[2147483647,0,0,1,1,2,2,3,3,4,4,5,5,6,6,7,7,8,8,9,9,10,10,11,11,12,12,13,13,14,14],"right_children":[2,4,6,8,10,12,14,16,18,20,22,24,26,28,30,-1,-1,-1,-1,-1,-1,-1,-1,-1,-1,-1,-1,-1,-1,-1,-1],"split_conditions":[1.6E0,6.969697E-1,5.2727275E0,8.252273E0,2.4037037E1,8.5627943E-1,6.522642E-1,8.4E0,2.5217392E0,4E0,3.28126E0,1.1578947E0,9.28E1,1.9318182E1,2.7686274E1,-3.8622492E-3,-6.7953034E-3,-1.8208755E-2,5.9727337E-2,-6.072462E-4,-9.053064E-3,-1.29141435E-2,-4.447829E-3,4.4862643E-2,3.5905452E-3,-2.3201838E-2,3.0383779E-2,3.413256E-2,1.2982557E-2,2.0854245E-1,3.595468E-2],"split_indices":[9,9,9,5,10,4,4,10,8,13,5,8,15,10,10,0,0,0,0,0,0,0,0,0,0,0,0,0,0,0,0],"split_type":[0,0,0,0,0,0,0,0,0,0,0,0,0,0,0,0,0,0,0,0,0,0,0,0,0,0,0,0,0,0,0],"sum_hessian":[4.0156E4,1.9173E4,2.0983E4,5.442E3,1.3731E4,1.6947E4,4.036E3,5.414E3,2.8E1,1.0235E4,3.496E3,1.6837E4,1.1E2,3.283E3,7.53E2,1.63E3,3.784E3,1.3E1,1.5E1,8.401E3,1.834E3,2.68E2,3.228E3,1.26E2,1.6711E4,1E2,1E1,3E1,3.253E3,1.2E1,7.41E2],"tree_param":{"num_deleted":"0","num_feature":"16","num_nodes":"31","size_leaf_vector":"1"}},{"base_weights":[-5.888132E-3,-2.9164353E-2,1.2996081E-2,-5.6950673E-2,-1.6705532E-2,6.7838468E-3,3.4418836E-2,-5.2156564E-2,-1.373802E-1,-1.5232463E-2,-1.18644066E-1,3.2144338E-2,2.652027E-3,5.001989E-2,1.8570852E-2,-2.7966104E-3,1.2048193E-3,-9.070123E-3,-4.4166665E-3,-5.622154E-4,-2.1916667E-3,-7.2408537E-3,9.821429E-3,4.4606854E-3,8.6769316E-4,1.03448285E-2,1.12544E-4,1.4974893E-3,3.7466548E-3,1.819407E-3,-1.7255218E-3],"categories":[],"categories_nodes":[],"categories_segments":[],"categories_sizes":[],"default_left":[0,0,0,0,0,0,0,0,0,0,0,0,0,0,0,0,0,0,0,0,0,0,0,0,0,0,0,0,0,0,0],"id":27,"left_children":[1,3,5,7,9,11,13,15,17,19,21,23,25,27,29,-1,-1,-1,-1,-1,-1,-1,-1,-1,-1,-1,-1,-1,-1,-1,-1],"loss_changes":[1.7673931E1,6.233837E0,2.9540803E0,2.1424866E0,1.8656135E0,1.8032641E0,1.2328243E0,1.5165844E0,6.5979147E-1,1.3979404E0,1.4880586E0,2.0335364E0,1.2121289E0,1.2547827E0,2.3439145E0,0E0,0E0,0E0,0E0,0E0,0E0,0E0,0E0,0E0,0E0,0E0,0E0,0E0,0E0,0E0,0E0],"parents":[2147483647,0,0,1,1,2,2,3,3,4,4,5,5,6,6,7,7,8,8,9,9,10,10,11,11,12,12,13,13,14,14],"right_children":[2,4,6,8,10,12,14,16,18,20,22,24,26,28,30,-1,-1,-1,-1,-1,-1,-1,-1,-1,-1,-1,-1,-1,-1,-1,-1],"split_conditions":[1.5E0,7.083333E-1,4.8510637E0,9.34E1,8.4E1,2E0,3.4177418E1,1.08E1,4E0,2.8484848E1,9.142857E1,2.0569231E1,8E-1,8.93E1,9.11E1,-5.321308E-3,3.3170902E-3,-1.5590787E-2,-1.3923059E-2,-2.240973E-3,-5.2669793E-3,-1.7129257E-2,5.1292904E-2,2.6509931E-2,5.6009055E-3,4.041102E-2,7.2504283E-4,1.2734577E-2,3.984181E-2,1.4450707E-2,-1.4027148E-2],"split_indices":[9,9,9,15,11,13,10,0,0,10,15,10,0,15,15,0,0,0,0,0,0,0,0,0,0,0,0,0,0,0,0],"split_type":[0,0,0,0,0,0,0,0,0,0,0,0,0,0,0,0,0,0,0,0,0,0,0,0,0,0,0,0,0,0,0],"sum_hessian":[4.0207E4,1.8009E4,2.2198E4,5.574E3,1.2435E4,1.7209E4,4.989E3,5.262E3,3.12E2,1.2259E4,1.76E2,2.41E3,1.4799E4,2.513E3,2.476E3,5.014E3,2.48E2,1.63E2,1.49E2,1.076E4,1.499E3,1.63E2,1.3E1,4.95E2,1.915E3,2.8E1,1.4771E4,1.393E3,1.12E3,1.854E3,6.22E2],"tree_param":{"num_deleted":"0","num_feature":"16","num_nodes":"31","size_leaf_vector":"1"}},{"base_weights":[-4.5170216E-3,-3.1163167E-2,8.188878E-3,-1.0526316E-1,-2.9945875E-2,3.533729E-3,2.833889E-2,-1.6435185E-1,-4.1666668E-2,-2.6467178E-2,-5.5302538E-2,3.046424E-3,1.3580246E-1,1.0549645E-1,2.3816936E-2,-6.9444446E-4,-9.615385E-3,9.52381E-3,-5.030488E-3,-1.1672055E-3,-2.9046673E-3,-2.9867988E-3,1.1956522E-2,2.1185451E-4,-2.061632E-3,1.7613636E-2,2.7083333E-3,-1.5463918E-3,8.803763E-3,5.0625E-3,1.0229488E-3],"categories":[],"categories_nodes":[],"categories_segments":[],"categories_sizes":[],"default_left":[0,0,0,0,0,0,0,0,0,0,0,0,0,0,0,0,0,0,0,0,0,0,0,0,0,0,0,0,0,0,0],"id":28,"left_children":[1,3,5,7,9,11,13,15,17,19,21,23,25,27,29,-1,-1,-1,-1,-1,-1,-1,-1,-1,-1,-1,-1,-1,-1,-1,-1],"loss_changes":[1.35854435E1,1.1654978E0,2.5485754E0,7.785392E-1,1.1230135E0,1.4223067E0,1.7765431E0,4.5161152E-1,1.4148519E0,1.1060605E0,2.0206075E0,1.1596807E0,1.4123282E0,2.720729E0,1.2506921E0,0E0,0E0,0E0,0E0,0E0,0E0,0E0,0E0,0E0,0E0,0E0,0E0,0E0,0E0,0E0,0E0],"parents":[2147483647,0,0,1,1,2,2,3,3,4,4,5,5,6,6,7,7,8,8,9,9,10,10,11,11,12,12,13,13,14,14],"right_children":[2,4,6,8,10,12,14,16,18,20,22,24,26,28,30,-1,-1,-1,-1,-1,-1,-1,-1,-1,-1,-1,-1,-1,-1,-1,-1],"split_conditions":[1.84E1,1.016E2,2.06E1,5.2622396E-1,7.5078964E-1,3.96E1,2.8705128E1,2.7457982E-1,9.91E1,1.219E2,2.4976744E1,7.916667E-1,5.168727E-1,3.06E1,2.8E0,-5.0958926E-3,-3.565695E-2,3.7399262E-2,-3.798006E-2,-4.153162E-3,-9.0537025E-3,-8.241965E-3,2.1475984E-2,1.1935115E-3,-6.4429045E-3,8.318927E-2,3.2252382E-2,-8.331596E-3,3.7631433E-2,3.4172423E-2,9.380044E-3],"split_indices":[3,14,0,4,4,3,10,4,14,14,10,4,4,3,1,0,0,0,0,0,0,0,0,0,0,0,0,0,0,0,0],"split_type":[0,0,0,0,0,0,0,0,0,0,0,0,0,0,0,0,0,0,0,0,0,0,0,0,0,0,0,0,0,0,0],"sum_hessian":[4.0125E4,1.2955E4,2.717E4,2.08E2,1.2747E4,2.2072E4,5.098E3,1.07E2,1.01E2,1.1211E4,1.536E3,2.1992E4,8E1,2.81E2,4.817E3,1.7E1,9E1,2E1,8.1E1,1.0205E4,1.006E3,1.514E3,2.2E1,2.1417E4,5.75E2,2.1E1,5.9E1,9.6E1,1.85E2,1.99E2,4.618E3],"tree_param":{"num_deleted":"0","num_feature":"16","num_nodes":"31","size_leaf_vector":"1"}},{"base_weights":[-5.4613003E-3,-2.1229418E-2,1.4942333E-2,-4.0744137E-2,-1.1391402E-2,9.088926E-3,3.5853468E-2,-4.8666768E-2,4.1448516E-3,-1.09375E-1,-1.045E-2,7.178927E-3,6.1213993E-2,1.6693164E-2,5.4253694E-2,-2.6565464E-3,-5.5997114E-4,1.0526316E-2,-3.3256883E-4,-2.8481013E-3,-8.5227275E-3,-3.282211E-4,-1.5847348E-3,9.5833335E-3,3.3801649E-4,3.5483872E-3,-7.3863636E-3,-1.9325659E-3,1.3652147E-3,3.102087E-3,-9.1623043E-4],"categories":[],"categories_nodes":[],"categories_segments":[],"categories_sizes":[],"default_left":[0,0,0,0,0,0,0,0,0,0,0,0,0,0,0,0,0,0,0,0,0,0,0,0,0,0,0,0,0,0,0],"id":29,"left_children":[1,3,5,7,9,11,13,15,17,19,21,23,25,27,29,-1,-1,-1,-1,-1,-1,-1,-1,-1,-1,-1,-1,-1,-1,-1,-1],"loss_changes":[1.299004E1,4.3720207E0,2.154061E0,2.7147932E0,1.3956769E0,1.3687932E0,1.3560743E0,1.08459E0,2.55485E0,4.5128655E-1,1.2380106E0,1.02334E0,1.0009329E0,1.109229E0,1.1107087E0,0E0,0E0,0E0,0E0,0E0,0E0,0E0,0E0,0E0,0E0,0E0,0E0,0E0,0E0,0E0,0E0],"parents":[2147483647,0,0,1,1,2,2,3,3,4,4,5,5,6,6,7,7,8,8,9,9,10,10,11,11,12,12,13,13,14,14],"right_children":[2,4,6,8,10,12,14,16,18,20,22,24,26,28,30,-1,-1,-1,-1,-1,-1,-1,-1,-1,-1,-1,-1,-1,-1,-1,-1],"split_conditions":[2.2E0,8E-1,5.8E0,1.96E1,1.6329932E0,3.82E1,1E0,9E0,1.4384615E1,5.1251016E0,6.1860466E0,2.2E0,1.28E1,1.7E1,2.9585365E1,-6.3133286E-3,-8.613676E-4,2.4829183E-2,-1.1808202E-3,-5.173334E-3,-3.8929168E-2,-1.5796423E-3,-4.468518E-3,4.6305936E-2,2.5237843E-3,1.958592E-2,-3.6749706E-2,-2.3290832E-2,1.3264018E-2,2.6850242E-2,-1.0876024E-2],"split_indices":[2,2,2,3,5,3,12,13,10,6,8,7,1,11,7,0,0,0,0,0,0,0,0,0,0,0,0,0,0,0,0],"split_type":[0,0,0,0,0,0,0,0,0,0,0,0,0,0,0,0,0,0,0,0,0,0,0,0,0,0,0,0,0,0,0],"sum_hessian":[4.0374E4,2.2774E4,1.76E4,7.632E3,1.5142E4,1.3752E4,3.848E3,6.487E3,1.145E3,1.43E2,1.4999E4,1.3267E4,4.85E2,1.886E3,1.962E3,5.796E3,6.91E2,5.6E1,1.089E3,7.8E1,6.5E1,1.2681E4,2.318E3,2.9E1,1.3238E4,4.64E2,2.1E1,3.03E2,1.583E3,1.772E3,1.9E2],"tree_param":{"num_deleted":"0","num_feature":"16","num_nodes":"31","size_leaf_vector":"1"}},{"base_weights":[-5.970335E-3,-4.4535976E-2,3.2924227E-3,-5.398817E-2,-5.4491414E-3,-7.4023427E-3,1.4875394E-2,-1.559501E-2,-6.1649088E-2,5.5463575E-2,-2.0610057E-2,1.1580158E-2,-1.1596254E-2,1.3437151E-2,8.5209005E-2,-9.868421E-4,1.1764706E-2,-1.3786765E-3,-3.3371914E-3,2.0535715E-2,1.9031141E-3,-1.816565E-3,2.3369566E-3,1.0353053E-3,-2.235294E-3,-2.0266804E-3,-3.4135103E-4,7.1743014E-4,-5.372807E-3,1.3071896E-3,7.0754713E-3],"categories":[],"categories_nodes":[],"categories_segments":[],"categories_sizes":[],"default_left":[0,0,0,0,0,0,0,0,0,0,0,0,0,0,0,0,0,0,0,0,0,0,0,0,0,0,0,0,0,0,0],"id":30,"left_children":[1,3,5,7,9,11,13,15,17,19,21,23,25,27,29,-1,-1,-1,-1,-1,-1,-1,-1,-1,-1,-1,-1,-1,-1,-1,-1],"loss_changes":[1.4330195E1,2.8700132E0,4.0071645E0,1.8390961E0,1.399311E0,1.3391105E0,1.5697196E0,1.0874286E0,9.0351486E-1,1.8512774E0,1.2860382E0,1.5645175E0,1.9009352E0,1.6784999E0,1.030499E0,0E0,0E0,0E0,0E0,0E0,0E0,0E0,0E0,0E0,0E0,0E0,0E0,0E0,0E0,0E0,0E0],"parents":[2147483647,0,0,1,1,2,2,3,3,4,4,5,5,6,6,7,7,8,8,9,9,10,10,11,11,12,12,13,13,14,14],"right_children":[2,4,6,8,10,12,14,16,18,20,22,24,26,28,30,-1,-1,-1,-1,-1,-1,-1,-1,-1,-1,-1,-1,-1,-1,-1,-1],"split_conditions":[8.4615386E-1,1.94E1,2.3823528E0,5E0,4.5520835E0,1.5222222E1,9.634147E0,1.5222222E1,2E0,4.022161E0,7.13125E-1,7.025124E-1,1.56E1,8.183985E-1,1.161E2,-2.4567954E-3,8.925988E-3,-4.175003E-3,-7.2554173E-3,1.9984972E-2,7.1467045E-3,-1.137574E-2,6.5575377E-3,5.410138E-3,-1.1446531E-2,-1.0237152E-2,-1.304859E-3,5.6538614E-3,-2.3692777E-2,2.034369E-2,4.5644294E-2],"split_indices":[9,3,9,3,7,10,9,10,13,6,4,4,3,4,14,0,0,0,0,0,0,0,0,0,0,0,0,0,0,0,0],"split_type":[0,0,0,0,0,0,0,0,0,0,0,0,0,0,0,0,0,0,0,0,0,0,0,0,0,0,0,0,0,0,0],"sum_hessian":[4.0114E4,7.768E3,3.2346E4,6.255E3,1.513E3,1.6818E4,1.5528E4,1.041E3,5.214E3,3.01E2,1.212E3,3.043E3,1.3775E4,1.5218E4,3.1E2,1.025E3,1.6E1,6.79E2,4.535E3,1.3E1,2.88E2,9.83E2,2.29E2,2.619E3,4.24E2,1.948E3,1.1827E4,1.5105E4,1.13E2,1.52E2,1.58E2],"tree_param":{"num_deleted":"0","num_feature":"16","num_nodes":"31","size_leaf_vector":"1"}},{"base_weights":[-5.8889305E-3,-2.5803298E-2,1.1782499E-2,-4.7471162E-2,-1.6612733E-2,2.1087842E-3,2.0842794E-2,-5.3277887E-2,9.0304185E-3,-1.8914344E-2,3.3219762E-2,1.7105265E-2,1.4811577E-3,1.9710785E-2,1E-1,-3.8011695E-4,-3.1220631E-3,-3.6909452E-4,2.2368422E-2,3.8308306E-5,-1.2857522E-3,-9.895834E-3,2.149823E-3,-4.3682796E-3,1.5577095E-4,-8.333334E-3,1.0086788E-3,1.388889E-2,3.1007752E-3],"categories":[],"categories_nodes":[],"categories_segments":[],"categories_sizes":[],"default_left":[0,0,0,0,0,0,0,0,0,0,0,0,0,0,0,0,0,0,0,0,0,0,0,0,0,0,0,0,0],"id":31,"left_children":[1,3,5,7,9,11,13,15,17,19,21,-1,23,25,27,-1,-1,-1,-1,-1,-1,-1,-1,-1,-1,-1,-1,-1,-1],"loss_changes":[1.41631365E1,3.7673368E0,1.8689344E0,1.8492632E0,1.5246956E0,2.2004058E0,9.846873E-1,2.138276E0,3.787419E0,1.7000709E0,1.3349829E0,0E0,1.4952389E0,9.398184E-1,1.0294573E0,0E0,0E0,0E0,0E0,0E0,0E0,0E0,0E0,0E0,0E0,0E0,0E0,0E0,0E0],"parents":[2147483647,0,0,1,1,2,2,3,3,4,4,5,5,6,6,7,7,8,8,9,9,10,10,12,12,13,13,14,14],"right_children":[2,4,6,8,10,12,14,16,18,20,22,-1,24,26,28,-1,-1,-1,-1,-1,-1,-1,-1,-1,-1,-1,-1,-1,-1],"split_conditions":[1.5714285E0,7.083333E-1,3.142857E0,9.128709E0,8.137704E0,8E-1,1.12E1,4.8E0,7.5555553E0,5.130435E0,8.235294E-1,4.1181307E-2,2E0,2E0,1.14E1,-7.855673E-4,-6.0099005E-3,-1.0516793E-3,4.651288E-2,6.120529E-4,-4.5968653E-3,-2.7533202E-2,1.0436589E-2,-2.6964074E-2,8.8488683E-4,-4.443429E-2,8.599214E-3,9.682206E-2,4.2467926E-2],"split_indices":[9,9,9,6,5,0,2,3,7,7,9,0,0,0,2,0,0,0,0,0,0,0,0,0,0,0,0,0,0],"split_type":[0,0,0,0,0,0,0,0,0,0,0,0,0,0,0,0,0,0,0,0,0,0,0,0,0,0,0,0,0],"sum_hessian":[4.0244E4,1.8921E4,2.1323E4,5.634E3,1.3287E4,1.0313E4,1.101E4,5.109E3,5.25E2,1.2701E4,5.86E2,1.8E1,1.0295E4,1.0856E4,1.54E2,8.54E2,4.255E3,5.07E2,1.8E1,3.262E3,9.439E3,2.3E1,5.63E2,1.85E2,1.011E4,2.6E1,1.083E4,2.6E1,1.28E2],"tree_param":{"num_deleted":"0","num_feature":"16","num_nodes":"29","size_leaf_vector":"1"}},{"base_weights":[-3.9968574E-3,-1.7737493E-2,1.7202562E-2,-4.0460993E-2,-8.464522E-3,1.1245189E-2,3.973309E-2,-4.8523385E-2,-8.38223E-4,6.0461957E-2,-9.963929E-3,4.0659986E-2,6.6119153E-3,4.157717E-2,-1.15384616E-1,-4.541326E-4,-2.8819882E-3,-3.950472E-3,8.0193486E-4,-6.25E-3,3.7172013E-3,-3.2136105E-3,-4.1048648E-4,4.321486E-3,7.182576E-4,-5.8035715E-3,3.7875245E-4,5.3485576E-3,1.8553408E-3,-1.1764706E-2,-1.0869566E-3],"categories":[],"categories_nodes":[],"categories_segments":[],"categories_sizes":[],"default_left":[0,0,0,0,0,0,0,0,0,0,0,0,0,0,0,0,0,0,0,0,0,0,0,0,0,0,0,0,0,0,0],"id":32,"left_children":[1,3,5,7,9,11,13,15,17,19,21,23,25,27,29,-1,-1,-1,-1,-1,-1,-1,-1,-1,-1,-1,-1,-1,-1,-1,-1],"loss_changes":[1.1679427E1,5.1257057E0,2.1159778E0,2.2521124E0,1.7862642E0,1.6995002E0,9.479027E-1,2.1057606E0,1.5751792E0,9.5674396E-1,1.6105419E0,2.0411115E0,1.2741766E0,9.487481E-1,4.3281525E-1,0E0,0E0,0E0,0E0,0E0,0E0,0E0,0E0,0E0,0E0,0E0,0E0,0E0,0E0,0E0,0E0],"parents":[2147483647,0,0,1,1,2,2,3,3,4,4,5,5,6,6,7,7,8,8,9,9,10,10,11,11,12,12,13,13,14,14],"right_children":[2,4,6,8,10,12,14,16,18,20,22,24,26,28,30,-1,-1,-1,-1,-1,-1,-1,-1,-1,-1,-1,-1,-1,-1,-1,-1],"split_conditions":[2.3333333E0,8.035714E-1,5.6860466E0,1.96E1,2.8E0,2E0,8.4E1,5.2E0,3.62859E0,8.28E1,8E-1,1.1210526E1,8E-1,8.422222E1,2.62E1,-1.2779303E-3,-5.769977E-3,-2.4255445E-2,2.5552318E-3,-2.5084166E-2,2.5056168E-2,-1.058732E-2,-1.7874598E-3,2.4390614E-2,7.314381E-3,-7.1690828E-3,3.320849E-3,3.6427345E-2,1.965111E-2,-5.1104624E-2,3.3851878E-3],"split_indices":[9,9,9,3,7,13,11,3,5,15,1,7,2,15,0,0,0,0,0,0,0,0,0,0,0,0,0,0,0,0,0],"split_type":[0,0,0,0,0,0,0,0,0,0,0,0,0,0,0,0,0,0,0,0,0,0,0,0,0,0,0,0,0,0,0],"sum_hessian":[4.0093E4,2.4326E4,1.5767E4,7.049E3,1.7277E4,1.2471E4,3.296E3,5.857E3,1.192E3,3.67E2,1.691E4,1.696E3,1.0775E4,3.258E3,3.8E1,1.1E3,4.757E3,2.11E2,9.81E2,2.5E1,3.42E2,5.28E2,1.6382E4,6.18E2,1.078E3,8.3E1,1.0692E4,2.07E2,3.051E3,1.6E1,2.2E1],"tree_param":{"num_deleted":"0","num_feature":"16","num_nodes":"31","size_leaf_vector":"1"}},{"base_weights":[-3.1537907E-3,-2.2974025E-2,1.4997621E-2,-4.1895162E-2,-1.3983603E-2,6.9744675E-3,2.6221182E-2,-6.641689E-3,-5.2820623E-2,-5.8900523E-3,-3.6050826E-2,8.403884E-3,-7.429245E-2,6.867672E-2,2.3114132E-2,5.641593E-4,-3.318584E-3,-3.1226533E-3,-3.38295E-5,2.541866E-5,-2.5398824E-3,-5.7791094E-3,-1.4403613E-3,1.1057693E-2,3.9715544E-4,9.210526E-3,-4.96134E-3,2.9525862E-3,1.875E-2,2.1398987E-3,7.987154E-4],"categories":[],"categories_nodes":[],"categories_segments":[],"categories_sizes":[],"default_left":[0,0,0,0,0,0,0,0,0,0,0,0,0,0,0,0,0,0,0,0,0,0,0,0,0,0,0,0,0,0,0],"id":33,"left_children":[1,3,5,7,9,11,13,15,17,19,21,23,25,27,29,-1,-1,-1,-1,-1,-1,-1,-1,-1,-1,-1,-1,-1,-1,-1,-1],"loss_changes":[1.4487732E1,3.2740126E0,1.8926334E0,2.3876438E0,2.330725E0,1.4246824E0,1.154221E0,1.5724669E0,2.377223E0,2.7441027E0,2.0141501E0,1.1793082E0,1.3847466E0,1.7380261E0,1.1469593E0,0E0,0E0,0E0,0E0,0E0,0E0,0E0,0E0,0E0,0E0,0E0,0E0,0E0,0E0,0E0,0E0],"parents":[2147483647,0,0,1,1,2,2,3,3,4,4,5,5,6,6,7,7,8,8,9,9,10,10,11,11,12,12,13,13,14,14],"right_children":[2,4,6,8,10,12,14,16,18,20,22,24,26,28,30,-1,-1,-1,-1,-1,-1,-1,-1,-1,-1,-1,-1,-1,-1,-1,-1],"split_conditions":[1.6E0,7.5E-1,3.642857E0,2E0,2.4037037E1,1.0211105E1,2.2E0,6E-1,2.1E1,5E0,3.3993464E0,8E-1,1.9E1,4.1486487E0,1.103E2,8.570761E-4,-5.0201104E-3,-6.339343E-3,-6.5630226E-4,1.9862056E-4,-9.714416E-3,-1.18326545E-2,-4.1359924E-3,3.814019E-2,2.5203356E-3,5.8351096E-2,-2.8652549E-2,1.9379545E-2,1.16167836E-1,2.1507947E-2,6.972474E-3],"split_indices":[9,9,9,0,10,5,1,2,3,13,5,0,11,8,14,0,0,0,0,0,0,0,0,0,0,0,0,0,0,0,0],"split_type":[0,0,0,0,0,0,0,0,0,0,0,0,0,0,0,0,0,0,0,0,0,0,0,0,0,0,0,0,0,0,0],"sum_hessian":[4.0268E4,1.9249E4,2.1019E4,6.199E3,1.305E4,1.2258E4,8.761E3,1.467E3,4.732E3,9.549E3,3.501E3,1.2047E4,2.11E2,5.96E2,8.165E3,1.129E3,3.38E2,3.994E3,7.38E2,8.359E3,1.19E3,2.91E2,3.21E3,2.5E1,1.2022E4,1.8E1,1.93E2,5.79E2,1.7E1,2.172E3,5.993E3],"tree_param":{"num_deleted":"0","num_feature":"16","num_nodes":"31","size_leaf_vector":"1"}},{"base_weights":[-4.1072364E-3,-1.873645E-2,1.4711741E-2,-4.1050237E-2,-1.0393241E-2,1.40541E-2,1.4825581E-1,3.7270642E-3,-4.84375E-2,4.4005103E-2,-1.1720209E-2,2.797245E-2,9.738557E-3,3.1034482E-1,6.465517E-2,-4.181601E-4,1.423611E-2,-2.5284146E-3,3.7500001E-3,1.0385757E-3,9.151786E-3,-2.5969963E-3,-4.8070625E-4,2.6463151E-3,7.7132485E-4,1.9123965E-4,1.2280011E-3,2.0588236E-2,7.692308E-3,-2.0833334E-3,8.62069E-3],"categories":[],"categories_nodes":[],"categories_segments":[],"categories_sizes":[],"default_left":[0,0,0,0,0,0,0,0,0,0,0,0,0,0,0,0,0,0,0,0,0,0,0,0,0,0,0,0,0,0,0],"id":34,"left_children":[1,3,5,7,9,11,13,15,17,19,21,23,25,27,29,-1,-1,-1,-1,-1,-1,-1,-1,-1,-1,-1,-1,-1,-1,-1,-1],"loss_changes":[1.1060178E1,4.2075424E0,1.5410721E0,2.0348186E0,1.188173E0,1.0500281E0,1.1452987E0,2.9648323E0,1.3925362E0,1.2624285E0,1.3600502E0,1.2946668E0,1.1699545E0,3.9694166E-1,6.7169535E-1,0E0,0E0,0E0,0E0,0E0,0E0,0E0,0E0,0E0,0E0,0E0,0E0,0E0,0E0,0E0,0E0],"parents":[2147483647,0,0,1,1,2,2,3,3,4,4,5,5,6,6,7,7,8,8,9,9,10,10,11,11,12,12,13,13,14,14],"right_children":[2,4,6,8,10,12,14,16,18,20,22,24,26,28,30,-1,-1,-1,-1,-1,-1,-1,-1,-1,-1,-1,-1,-1,-1,-1,-1],"split_conditions":[2.2E0,7.5E-1,3.68E1,3.5208026E-1,2.878788E0,2E1,3.74E1,4.8E0,2.2958763E1,3.8E1,2E0,3.2E0,4.8510637E0,9.725275E0,1.153E2,-9.261284E-4,3.418055E-2,-5.840016E-3,9.840505E-3,7.862765E-3,4.2981517E-2,-8.284231E-3,-1.8152178E-3,1.5751338E-2,7.171822E-3,1.7920241E-3,1.0553405E-2,1.4259733E-1,4.1316796E-2,-4.2302612E-2,1.1201433E-1],"split_indices":[2,9,0,4,7,11,0,0,10,11,0,2,9,8,14,0,0,0,0,0,0,0,0,0,0,0,0,0,0,0,0],"split_type":[0,0,0,0,0,0,0,0,0,0,0,0,0,0,0,0,0,0,0,0,0,0,0,0,0,0,0,0,0,0,0],"sum_hessian":[4.0172E4,2.2602E4,1.757E4,6.15E3,1.6452E4,1.7485E4,8.5E1,8.71E2,5.279E3,3.91E2,1.6061E4,4.137E3,1.3348E4,2.8E1,5.7E1,8.36E2,3.5E1,5.19E3,8.9E1,3.36E2,5.5E1,7.98E2,1.5263E4,1.383E3,2.754E3,9.542E3,3.806E3,1.6E1,1.2E1,2.9E1,2.8E1],"tree_param":{"num_deleted":"0","num_feature":"16","num_nodes":"31","size_leaf_vector":"1"}},{"base_weights":[-3.3350722E-3,-1.632018E-2,1.3381442E-2,-2.7775306E-2,-5.037232E-3,7.2377683E-3,2.4575047E-2,-3.6405466E-2,-1.1222107E-2,1.923077E-2,-5.4810136E-3,-3.0832477E-2,1.0801578E-2,1.4969068E-2,4.9970776E-2,-1.7586654E-3,-9.072581E-3,2.4399399E-4,-1.4270329E-3,-8.106278E-4,3.827028E-4,-7.4823946E-4,-7.069672E-3,8.3110854E-4,-3.660467E-4,-6.4741034E-5,1.7600397E-3,5.993691E-3,1.7025089E-3],"categories":[],"categories_nodes":[],"categories_segments":[],"categories_sizes":[],"default_left":[0,0,0,0,0,0,0,0,0,0,0,0,0,0,0,0,0,0,0,0,0,0,0,0,0,0,0,0,0],"id":35,"left_children":[1,3,5,7,9,11,13,15,17,-1,19,21,23,25,27,-1,-1,-1,-1,-1,-1,-1,-1,-1,-1,-1,-1,-1,-1],"loss_changes":[8.737983E0,2.928093E0,1.210103E0,1.605588E0,1.9759995E0,1.542145E0,1.5205297E0,1.3141794E0,1.0748775E0,0E0,1.6074859E0,1.7048637E0,1.0963091E0,1.4893101E0,1.9000869E0,0E0,0E0,0E0,0E0,0E0,0E0,0E0,0E0,0E0,0E0,0E0,0E0,0E0,0E0],"parents":[2147483647,0,0,1,1,2,2,3,3,4,4,5,5,6,6,7,7,8,8,10,10,11,11,12,12,13,13,14,14],"right_children":[2,4,6,8,10,12,14,16,18,-1,20,22,24,26,28,-1,-1,-1,-1,-1,-1,-1,-1,-1,-1,-1,-1,-1,-1],"split_conditions":[2.2E0,1.76E1,1.16125E2,1E0,1.7029387E0,4.4387987E-1,5.4E0,8.5E1,5.5384617E0,4.4021007E-2,5.9076223E0,9.16E1,1.14E2,4.4E0,2.94E1,-4.5664716E-3,-4.241378E-2,1.5825644E-3,-1.104755E-2,-2.4561377E-3,1.5843243E-3,-6.8155914E-3,-3.3155274E-2,6.4505846E-3,-2.0695515E-3,-6.365389E-4,1.4068327E-2,4.209152E-2,1.6098497E-2],"split_indices":[2,3,14,2,6,4,2,11,7,0,6,15,14,1,3,0,0,0,0,0,0,0,0,0,0,0,0,0,0],"split_type":[0,0,0,0,0,0,0,0,0,0,0,0,0,0,0,0,0,0,0,0,0,0,0,0,0,0,0,0,0],"sum_hessian":[4.0253E4,2.2655E4,1.7598E4,1.1241E4,1.1414E4,1.1363E4,6.235E3,7.388E3,3.853E3,1.2E1,1.1402E4,9.72E2,1.0391E4,4.525E3,1.71E3,7.327E3,6.1E1,1.997E3,1.856E3,6.275E3,5.127E3,8.51E2,1.21E2,7.865E3,2.526E3,2.509E3,2.016E3,3.16E2,1.394E3],"tree_param":{"num_deleted":"0","num_feature":"16","num_nodes":"29","size_leaf_vector":"1"}},{"base_weights":[-3.9762296E-3,-1.7498227E-2,1.0948429E-2,-3.383673E-2,-9.3792025E-3,4.0713888E-2,7.874583E-3,-4.239037E-2,7.4688797E-3,1.730863E-2,-1.391074E-2,1.8260542E-2,1.04613736E-1,-1.5256486E-2,1.3488372E-2,1.4497423E-4,-2.467758E-3,1.2561576E-3,-4.3193717E-3,6.6798617E-4,1.3709678E-2,-1.7132675E-3,-3.9739884E-4,-2.764977E-3,1.629946E-3,1.0436893E-2,3.7431319E-3,-6.341391E-4,-1.1011905E-2,6.31486E-4,6.625E-3],"categories":[],"categories_nodes":[],"categories_segments":[],"categories_sizes":[],"default_left":[0,0,0,0,0,0,0,0,0,0,0,0,0,0,0,0,0,0,0,0,0,0,0,0,0,0,0,0,0,0,0],"id":36,"left_children":[1,3,5,7,9,11,13,15,17,19,21,23,25,27,29,-1,-1,-1,-1,-1,-1,-1,-1,-1,-1,-1,-1,-1,-1,-1,-1],"loss_changes":[8.133586E0,2.804624E0,1.7525301E0,2.4802227E0,1.7087162E0,2.5706236E0,2.2552323E0,1.8343935E0,1.9988129E0,2.0769012E0,1.4655097E0,1.4024872E0,1.4279518E0,1.7866974E0,1.4264252E0,0E0,0E0,0E0,0E0,0E0,0E0,0E0,0E0,0E0,0E0,0E0,0E0,0E0,0E0,0E0,0E0],"parents":[2147483647,0,0,1,1,2,2,3,3,4,4,5,5,6,6,7,7,8,8,9,9,10,10,11,11,12,12,13,13,14,14],"right_children":[2,4,6,8,10,12,14,16,18,20,22,24,26,28,30,-1,-1,-1,-1,-1,-1,-1,-1,-1,-1,-1,-1,-1,-1,-1,-1],"split_conditions":[1.8070176E0,8.035714E-1,1.9318182E1,1.96E1,1.3833333E1,5.47824E0,2.48E1,2E-1,8.4E0,1.34E1,2.4E0,1.2E1,1.6E1,9.6E0,1.46E1,9.9672376E-5,-5.375132E-3,5.068306E-3,-1.9553898E-2,4.430353E-3,4.089888E-2,-7.7655273E-3,-1.3398767E-3,-1.5909037E-2,1.1022481E-2,5.0856132E-2,2.2413185E-2,-4.3395907E-3,-3.503583E-2,5.7539823E-3,3.770699E-2],"split_indices":[9,9,10,3,10,5,3,2,1,0,1,11,10,1,1,0,0,0,0,0,0,0,0,0,0,0,0,0,0,0,0],"split_type":[0,0,0,0,0,0,0,0,0,0,0,0,0,0,0,0,0,0,0,0,0,0,0,0,0,0,0,0,0,0,0],"sum_hessian":[4.0301E4,2.1144E4,1.9157E4,7.018E3,1.4126E4,1.792E3,1.7365E4,5.814E3,1.204E3,2.05E3,1.2076E4,1.327E3,4.65E2,3.391E3,1.3974E4,7.75E2,5.039E3,1.014E3,1.9E2,2.02E3,3E1,2.735E3,9.341E3,2.16E2,1.111E3,1.02E2,3.63E2,3.35E3,4.1E1,1.3875E4,9.9E1],"tree_param":{"num_deleted":"0","num_feature":"16","num_nodes":"31","size_leaf_vector":"1"}},{"base_weights":[-3.8659154E-3,-1.432796E-2,1.1563268E-2,-2.723437E-2,-8.0919145E-3,1.0476901E-2,9.974747E-2,-3.494922E-2,4.769737E-3,-8.426098E-3,1.3125E-2,1.0004363E-2,1.9512194E-1,1.0309278E-2,1.8382353E-1,5.675955E-4,-2.1676978E-3,9.062501E-3,-0E0,-1.8641114E-3,-2.8077498E-4,-8.4603665E-4,6.534643E-4,1.630435E-2,1.3157895E-3,-4.525862E-3,7.8125E-3,1.3980264E-2,-4.6296297E-3],"categories":[],"categories_nodes":[],"categories_segments":[],"categories_sizes":[],"default_left":[0,0,0,0,0,0,0,0,0,0,0,0,0,0,0,0,0,0,0,0,0,0,0,0,0,0,0,0,0],"id":37,"left_children":[1,3,5,7,9,11,13,15,17,19,-1,21,23,25,27,-1,-1,-1,-1,-1,-1,-1,-1,-1,-1,-1,-1,-1,-1],"loss_changes":[6.5034866E0,1.9321427E0,1.5585854E0,1.9312263E0,1.46614E0,1.401318E0,1.4869878E0,2.4529076E0,1.2794819E0,1.3112261E0,0E0,1.3241432E0,8.9783454E-1,1.4414688E0,2.726402E0,0E0,0E0,0E0,0E0,0E0,0E0,0E0,0E0,0E0,0E0,0E0,0E0,0E0,0E0],"parents":[2147483647,0,0,1,1,2,2,3,3,4,4,5,5,6,6,7,7,8,8,9,9,11,11,12,12,13,13,14,14],"right_children":[2,4,6,8,10,12,14,16,18,20,-1,22,24,26,28,-1,-1,-1,-1,-1,-1,-1,-1,-1,-1,-1,-1,-1,-1],"split_conditions":[2.25E0,8.4615386E-1,1.0737267E1,1.96E1,5.4E0,4.22E1,1.132E2,4.8E0,2.9608557E0,1.064E2,9.049525E-2,1.0642857E2,1.109E2,5.469697E-1,1.94E1,9.547949E-4,-4.638204E-3,1.9763878E-2,2.5106221E-5,-5.9659122E-3,-1.1828423E-3,-6.0523213E-3,5.9493007E-3,9.631475E-2,1.2097308E-2,-9.927265E-3,4.9700625E-2,5.4860063E-2,-4.074819E-2],"split_indices":[9,9,6,3,2,3,14,3,6,14,0,14,14,4,0,0,0,0,0,0,0,0,0,0,0,0,0,0,0],"split_type":[0,0,0,0,0,0,0,0,0,0,0,0,0,0,0,0,0,0,0,0,0,0,0,0,0,0,0,0,0],"sum_hessian":[4.0287E4,2.4008E4,1.6279E4,7.82E3,1.6188E4,1.6082E4,1.97E2,6.301E3,1.519E3,1.6169E4,1.9E1,1.6042E4,4E1,9.6E1,1.01E2,9.68E2,5.333E3,3.9E1,1.48E3,1.434E3,1.4735E4,1.639E3,1.4403E4,2.2E1,1.8E1,5.7E1,3.9E1,7.5E1,2.6E1],"tree_param":{"num_deleted":"0","num_feature":"16","num_nodes":"29","size_leaf_vector":"1"}},{"base_weights":[-4.866301E-3,-3.0417847E-2,5.64453E-4,-3.7008416E-2,6.0581585E-4,-5.070397E-3,1.1747529E-2,-7.739212E-3,-4.3558218E-2,1.3218391E-1,-9.331597E-3,2.1031061E-2,-8.130184E-3,-2.037037E-1,1.2270353E-2,-1.5576923E-3,1.438849E-3,-1.3933121E-4,-2.4872913E-3,1.904762E-2,2.6119405E-3,9.2857145E-3,-7.7146693E-4,-3.59116E-3,1.4441067E-3,-1.3975924E-3,-2.2698764E-4,-6.8181823E-3,-1.1764706E-2,-2.1704465E-4,8.964144E-4],"categories":[],"categories_nodes":[],"categories_segments":[],"categories_sizes":[],"default_left":[0,0,0,0,0,0,0,0,0,0,0,0,0,0,0,0,0,0,0,0,0,0,0,0,0,0,0,0,0,0,0],"id":38,"left_children":[1,3,5,7,9,11,13,15,17,19,21,23,25,27,29,-1,-1,-1,-1,-1,-1,-1,-1,-1,-1,-1,-1,-1,-1,-1,-1],"loss_changes":[5.589021E0,1.4435349E0,2.0932903E0,1.1159763E0,1.6199752E0,1.764307E0,1.2562164E0,9.1234064E-1,1.200202E0,1.71034E0,1.3729843E0,1.6919091E0,1.4070133E0,2.5351524E-2,1.043691E0,0E0,0E0,0E0,0E0,0E0,0E0,0E0,0E0,0E0,0E0,0E0,0E0,0E0,0E0,0E0,0E0],"parents":[2147483647,0,0,1,1,2,2,3,3,4,4,5,5,6,6,7,7,8,8,9,9,10,10,11,11,12,12,13,13,14,14],"right_children":[2,4,6,8,10,12,14,16,18,20,22,24,26,28,30,-1,-1,-1,-1,-1,-1,-1,-1,-1,-1,-1,-1,-1,-1,-1,-1],"split_conditions":[8.035714E-1,1.96E1,3.090909E0,5.2E0,5E0,1.3833333E1,1.8E0,4E0,2E0,1.4384615E1,1.05E1,5E0,1.56E1,3.2156863E0,1.18E1,-6.9570947E-3,1.7045751E-3,-6.155163E-4,-4.8669796E-3,5.831347E-2,1.2890923E-2,3.6456488E-2,-2.5959283E-3,-5.27212E-3,9.242395E-3,-8.61227E-3,-9.894588E-4,-1.9799924E-2,-7.0176795E-2,-1.1075259E-3,7.7174725E-3],"split_indices":[9,3,9,3,0,10,0,3,13,10,10,3,3,9,0,0,0,0,0,0,0,0,0,0,0,0,0,0,0,0,0],"split_type":[0,0,0,0,0,0,0,0,0,0,0,0,0,0,0,0,0,0,0,0,0,0,0,0,0,0,0,0,0,0,0],"sum_hessian":[4.0276E4,7.059E3,3.3217E4,5.822E3,1.237E3,2.2088E4,1.1129E4,1.065E3,4.757E3,8.6E1,1.151E3,2.317E3,1.9771E4,2.6E1,1.1103E4,6.49E2,4.16E2,6.27E2,4.13E3,2E1,6.6E1,3.4E1,1.117E3,1.8E2,2.137E3,3.031E3,1.674E4,1E1,1.6E1,2.821E3,8.282E3],"tree_param":{"num_deleted":"0","num_feature":"16","num_nodes":"31","size_leaf_vector":"1"}},{"base_weights":[-4.851896E-3,-1.56074185E-2,1.1032127E-2,-3.0886302E-2,-8.221549E-3,-2.2302905E-2,1.4287644E-2,8.474576E-3,-3.6673024E-2,3.0961538E-2,-1.164471E-2,1.7741935E-1,-2.6659604E-2,1.0138889E-1,1.3214579E-2,1.3945233E-4,1.5972223E-2,-2.2927437E-3,-3.291536E-4,-2.065527E-3,2.8815789E-3,-4.079254E-3,-4.783737E-4,-3.846154E-3,1.7105265E-2,-3.0989584E-3,-4.2689434E-4,-6.428572E-3,7.791096E-3,6.7785004E-4,-1.1875E-2],"categories":[],"categories_nodes":[],"categories_segments":[],"categories_sizes":[],"default_left":[0,0,0,0,0,0,0,0,0,0,0,0,0,0,0,0,0,0,0,0,0,0,0,0,0,0,0,0,0,0,0],"id":39,"left_children":[1,3,5,7,9,11,13,15,17,19,21,23,25,27,29,-1,-1,-1,-1,-1,-1,-1,-1,-1,-1,-1,-1,-1,-1,-1,-1],"loss_changes":[6.875154E0,2.70753E0,1.7635968E0,1.7812476E0,2.170182E0,1.2629379E0,1.3822279E0,1.7724416E0,1.8831081E0,2.50813E0,2.1607351E0,1.324801E0,9.057832E-1,2.2731726E0,1.2586937E0,0E0,0E0,0E0,0E0,0E0,0E0,0E0,0E0,0E0,0E0,0E0,0E0,0E0,0E0,0E0,0E0],"parents":[2147483647,0,0,1,1,2,2,3,3,4,4,5,5,6,6,7,7,8,8,9,9,10,10,11,11,12,12,13,13,14,14],"right_children":[2,4,6,8,10,12,14,16,18,20,22,24,26,28,30,-1,-1,-1,-1,-1,-1,-1,-1,-1,-1,-1,-1,-1,-1,-1,-1],"split_conditions":[2.25E0,8.4615386E-1,4.3662208E-1,4.8E0,1.5E0,2.3030303E0,4.5520835E0,1.5222222E1,1.92E1,3.7768584E-1,1E0,1.66E1,8.7E1,1.081E2,9.4E1,2.9665977E-4,1.2084288E-2,-4.921345E-3,-9.452373E-4,-7.412258E-3,1.8283514E-2,-1.3315797E-2,-1.9156247E-3,-5.3385973E-2,1.4053024E-1,-1.9579351E-2,-1.7907269E-3,-4.061358E-2,4.8028395E-2,5.515532E-3,-3.3275794E-2],"split_indices":[9,9,4,3,8,9,7,10,3,4,1,3,15,14,11,0,0,0,0,0,0,0,0,0,0,0,0,0,0,0,0],"split_type":[0,0,0,0,0,0,0,0,0,0,0,0,0,0,0,0,0,0,0,0,0,0,0,0,0,0,0,0,0,0,0],"sum_hessian":[4.0241E4,2.3994E4,1.6247E4,7.818E3,1.6176E4,1.445E3,1.4802E4,1.002E3,6.816E3,1.299E3,1.4877E4,3E1,1.415E3,1.79E2,1.4623E4,9.85E2,1.7E1,5.222E3,1.594E3,3.5E2,9.49E2,4.28E2,1.4449E4,1.2E1,1.8E1,4.79E2,9.36E2,3.4E1,1.45E2,1.4604E4,1.9E1],"tree_param":{"num_deleted":"0","num_feature":"16","num_nodes":"31","size_leaf_vector":"1"}},{"base_weights":[-4.104357E-3,-1.7163588E-2,7.474034E-3,-2.5200782E-2,-8.713064E-3,6.4111697E-3,7.783019E-2,-2.9463079E-2,2.0506635E-2,2.0040867E-3,-3.2400973E-2,7.2905174E-3,-8.133971E-2,1.1970339E-1,-4.2168673E-2,-1.9722525E-4,-1.805733E-3,1.0714286E-2,5.974843E-4,1.2946429E-2,4.340963E-5,-2.8122957E-3,-2.6851855E-4,3.376589E-4,7.1646343E-3,-9.016394E-3,-2.0134228E-3,2.1527778E-2,4.6803653E-3,-4.8507466E-3,8.82353E-3],"categories":[],"categories_nodes":[],"categories_segments":[],"categories_sizes":[],"default_left":[0,0,0,0,0,0,0,0,0,0,0,0,0,0,0,0,0,0,0,0,0,0,0,0,0,0,0,0,0,0,0],"id":40,"left_children":[1,3,5,7,9,11,13,15,17,19,21,23,25,27,29,-1,-1,-1,-1,-1,-1,-1,-1,-1,-1,-1,-1,-1,-1,-1,-1],"loss_changes":[6.0971627E0,1.2868361E0,1.5978281E0,1.8926821E0,2.345541E0,1.625426E0,1.6029139E0,1.5078168E0,1.3720521E0,1.8564551E0,1.8546932E0,1.5226635E0,8.424423E-1,1.8741348E0,1.0124184E0,0E0,0E0,0E0,0E0,0E0,0E0,0E0,0E0,0E0,0E0,0E0,0E0,0E0,0E0,0E0,0E0],"parents":[2147483647,0,0,1,1,2,2,3,3,4,4,5,5,6,6,7,7,8,8,9,9,10,10,11,11,12,12,13,13,14,14],"right_children":[2,4,6,8,10,12,14,16,18,20,22,24,26,28,30,-1,-1,-1,-1,-1,-1,-1,-1,-1,-1,-1,-1,-1,-1,-1,-1],"split_conditions":[1.5714285E0,9.6E-1,9.634147E0,1.08E1,2.4125E1,8.183985E-1,5.4E1,8.4E0,3.4464152E0,2.1108186E0,5.4E0,3.68E1,1.7035715E1,3.3053844E1,9.9799795E0,-6.3117745E-4,-5.0079967E-3,5.588851E-2,1.9887188E-3,1.5369353E-2,2.4377927E-4,-6.064088E-3,-8.2593114E-4,2.8978288E-3,7.2193876E-2,-3.7959058E-2,-7.898797E-3,6.720566E-2,4.0467657E-2,-2.1995706E-2,2.7486164E-2],"split_indices":[9,9,9,0,10,4,11,10,5,6,1,0,10,10,5,0,0,0,0,0,0,0,0,0,0,0,0,0,0,0,0],"split_type":[0,0,0,0,0,0,0,0,0,0,0,0,0,0,0,0,0,0,0,0,0,0,0,0,0,0,0,0,0,0,0],"sum_hessian":[4.0322E4,1.8949E4,2.1373E4,9.711E3,9.238E3,2.1056E4,3.17E2,8.883E3,8.28E2,6.361E3,2.877E3,2.0848E4,2.08E2,2.35E2,8.2E1,1.837E3,7.046E3,3.4E1,7.94E2,2.7E1,6.334E3,1.528E3,1.349E3,2.0767E4,8.1E1,6E1,1.48E2,1.7E1,2.18E2,6.6E1,1.6E1],"tree_param":{"num_deleted":"0","num_feature":"16","num_nodes":"31","size_leaf_vector":"1"}},{"base_weights":[-3.5292227E-3,-1.590909E-2,7.7126278E-3,-7.564576E-2,-1.5055321E-2,8.609603E-3,-8.3737865E-2,-2.8795812E-2,-1.8518518E-1,1.2890625E-1,-1.5541577E-2,1.0852713E-1,7.991469E-3,-1.1299435E-1,9.166667E-2,-4.438406E-3,6.25E-3,-1.0915494E-2,2.2727274E-3,-1.7241379E-3,1.2847222E-2,-6.5016403E-4,-1.7649791E-3,-1.0080645E-3,1.1213236E-2,-2.60548E-4,6.627899E-4,-9.698276E-3,-3.6458333E-3,1.590909E-2,-1.8750001E-3],"categories":[],"categories_nodes":[],"categories_segments":[],"categories_sizes":[],"default_left":[0,0,0,0,0,0,0,0,0,0,0,0,0,0,0,0,0,0,0,0,0,0,0,0,0,0,0,0,0,0,0],"id":41,"left_children":[1,3,5,7,9,11,13,15,17,19,21,23,25,27,29,-1,-1,-1,-1,-1,-1,-1,-1,-1,-1,-1,-1,-1,-1,-1,-1],"loss_changes":[5.6293774E0,9.806371E-1,1.739649E0,1.3854166E0,1.3306417E0,1.2957716E0,1.0674921E0,1.7727824E0,6.2875247E-1,1.3477423E0,9.482603E-1,1.9258585E0,1.4502964E0,5.6024575E-1,8.896781E-1,0E0,0E0,0E0,0E0,0E0,0E0,0E0,0E0,0E0,0E0,0E0,0E0,0E0,0E0,0E0,0E0],"parents":[2147483647,0,0,1,1,2,2,3,3,4,4,5,5,6,6,7,7,8,8,9,9,10,10,11,11,12,12,13,13,14,14],"right_children":[2,4,6,8,10,12,14,16,18,20,22,24,26,28,30,-1,-1,-1,-1,-1,-1,-1,-1,-1,-1,-1,-1,-1,-1,-1,-1],"split_conditions":[1.5833334E0,8.16E1,8.183985E-1,1.9580246E1,8.18E1,1.1578947E0,3.987805E0,3.2463768E0,1.3647727E1,2.8E0,2.714865E1,2.1E1,5.140933E-1,1.79E1,9.666667E0,-1.7918969E-2,1.32824555E-2,-3.0050067E-2,1.013275E-2,-2.0668907E-2,3.4959525E-2,-1.7524764E-3,-4.2334194E-3,-1.0879278E-2,5.976796E-2,-1.4675275E-3,5.5496097E-3,-3.6206346E-2,-1.6325355E-2,1.1806524E-1,-9.394175E-3],"split_indices":[9,15,4,10,15,8,9,8,7,1,10,11,4,10,7,0,0,0,0,0,0,0,0,0,0,0,0,0,0,0,0],"split_type":[0,0,0,0,0,0,0,0,0,0,0,0,0,0,0,0,0,0,0,0,0,0,0,0,0,0,0,0,0,0,0],"sum_hessian":[4.0447E4,1.9249E4,2.1198E4,2.7E2,1.8979E4,2.0993E4,2.05E2,1.9E2,8E1,6.3E1,1.8916E4,1.28E2,2.0865E4,1.76E2,2.9E1,1.37E2,5.3E1,7E1,1E1,2.8E1,3.5E1,1.6764E4,2.152E3,6.1E1,6.7E1,5.948E3,1.4917E4,5.7E1,1.19E2,1E1,1.9E1],"tree_param":{"num_deleted":"0","num_feature":"16","num_nodes":"31","size_leaf_vector":"1"}},{"base_weights":[-2.6121351E-3,-1.670091E-2,7.749428E-3,-2.3656163E-2,-4.6829972E-3,2.9751131E-2,5.4285577E-3,-3.0443931E-2,-9.051095E-3,7.889253E-3,-1.9304017E-2,1.6942369E-2,1.00890204E-1,-1.5808824E-1,5.960645E-3,-8.419498E-4,-2.1000754E-3,1.328125E-2,-5.168622E-4,-1.7769609E-3,8.779112E-4,-7.9569704E-4,-7.1428576E-3,1.0803324E-3,-5.1785717E-3,9.414556E-3,1.1805556E-3,2.6785715E-3,-1.0454546E-2,-1.6327128E-4,7.432496E-4],"categories":[],"categories_nodes":[],"categories_segments":[],"categories_sizes":[],"default_left":[0,0,0,0,0,0,0,0,0,0,0,0,0,0,0,0,0,0,0,0,0,0,0,0,0,0,0,0,0,0,0],"id":42,"left_children":[1,3,5,7,9,11,13,15,17,19,21,23,25,27,29,-1,-1,-1,-1,-1,-1,-1,-1,-1,-1,-1,-1,-1,-1,-1,-1],"loss_changes":[5.868157E0,1.4238043E0,1.182613E0,1.0693998E0,1.1482865E0,2.0120506E0,1.8240504E0,1.1575232E0,1.2127101E0,1.411097E0,1.2073785E0,1.0556319E0,2.2717412E0,7.452755E-1,1.7159601E0,0E0,0E0,0E0,0E0,0E0,0E0,0E0,0E0,0E0,0E0,0E0,0E0,0E0,0E0,0E0,0E0],"parents":[2147483647,0,0,1,1,2,2,3,3,4,4,5,5,6,6,7,7,8,8,9,9,10,10,11,11,12,12,13,13,14,14],"right_children":[2,4,6,8,10,12,14,16,18,20,22,24,26,28,30,-1,-1,-1,-1,-1,-1,-1,-1,-1,-1,-1,-1,-1,-1,-1,-1],"split_conditions":[1.4285715E0,1.96E1,6.2608695E0,9.514563E-1,1.1090909E0,5.228129E0,1.8E0,5.660377E-1,2.013841E0,6.511628E-1,3.64E1,1.1E1,8.79E1,1E0,3.142857E0,-1.1345241E-3,-7.385512E-3,6.0951244E-2,-3.0896426E-3,-1.1973773E-2,1.9818216E-3,-1.7690689E-3,-2.730087E-2,7.2602318E-3,-3.1549163E-2,4.3644924E-2,1.1522886E-2,8.289597E-2,-4.2094495E-2,-1.0390937E-3,6.721139E-3],"split_indices":[9,3,7,9,9,5,0,9,6,9,3,13,15,0,9,0,0,0,0,0,0,0,0,0,0,0,0,0,0,0,0],"split_type":[0,0,0,0,0,0,0,0,0,0,0,0,0,0,0,0,0,0,0,0,0,0,0,0,0,0,0,0,0,0,0],"sum_hessian":[4.0196E4,1.7034E4,2.3162E4,1.0789E4,6.245E3,2.209E3,2.0953E4,7.365E3,3.424E3,3.358E3,2.887E3,1.873E3,3.36E2,6.7E1,2.0886E4,3.384E3,3.981E3,1.5E1,3.409E3,6.11E2,2.747E3,2.811E3,7.6E1,1.804E3,6.9E1,1.57E2,1.79E2,1.3E1,5.4E1,1.0258E4,1.0628E4],"tree_param":{"num_deleted":"0","num_feature":"16","num_nodes":"31","size_leaf_vector":"1"}},{"base_weights":[-3.0219916E-3,-1.19853765E-2,1.0281785E-2,-2.1700474E-2,-7.509102E-3,9.408435E-3,1.08391605E-1,-2.5103591E-2,4.8158642E-2,9.184956E-4,-2.1709025E-2,-1.5068494E-1,1.0138091E-2,2.1875E-2,7.7651516E-2,-6.3134875E-4,-1.8528536E-3,3.1439394E-3,-7.8125E-3,-3.2082244E-4,9.041008E-4,-1.3693948E-3,1.3016845E-3,-3.3088238E-3,-1.09375E-2,7.56579E-3,4.900733E-4,-0E0,1.28125E-2],"categories":[],"categories_nodes":[],"categories_segments":[],"categories_sizes":[],"default_left":[0,0,0,0,0,0,0,0,0,0,0,0,0,0,0,0,0,0,0,0,0,0,0,0,0,0,0,0,0],"id":43,"left_children":[1,3,5,7,9,11,13,15,17,19,21,23,25,-1,27,-1,-1,-1,-1,-1,-1,-1,-1,-1,-1,-1,-1,-1,-1],"loss_changes":[4.8043413E0,1.0466235E0,1.3886077E0,1.8061216E0,1.9722018E0,1.8794137E0,1.4127331E0,1.0792985E0,1.0719755E0,1.3022319E0,1.6648762E0,4.0542543E-1,7.590898E-1,0E0,1.8306346E0,0E0,0E0,0E0,0E0,0E0,0E0,0E0,0E0,0E0,0E0,0E0,0E0,0E0,0E0],"parents":[2147483647,0,0,1,1,2,2,3,3,4,4,5,5,6,6,7,7,8,8,9,9,10,10,11,11,12,12,14,14],"right_children":[2,4,6,8,10,12,14,16,18,20,22,24,26,-1,28,-1,-1,-1,-1,-1,-1,-1,-1,-1,-1,-1,-1,-1,-1],"split_conditions":[2.4E0,8E-1,1.28E2,2.7024391E1,2.3913044E1,2.8605458E-1,8.88E1,5.676462E0,5E0,1.9489796E1,9.206107E0,5.884065E0,1.16E1,7.6841265E-2,5.976584E-1,-1.3193086E-3,-4.485024E-3,5.5391355E-3,-3.3864055E-2,-1.2207404E-3,3.8918608E-3,-4.740061E-3,3.9341017E-3,-1.0056677E-2,-4.922175E-2,9.815606E-2,4.3417895E-3,2.9602752E-3,5.020068E-2],"split_indices":[2,2,14,10,10,4,15,6,13,10,8,6,3,0,4,0,0,0,0,0,0,0,0,0,0,0,0,0,0],"split_type":[0,0,0,0,0,0,0,0,0,0,0,0,0,0,0,0,0,0,0,0,0,0,0,0,0,0,0,0,0],"sum_hessian":[4.0287E4,2.407E4,1.6217E4,7.591E3,1.6479E4,1.6075E4,1.42E2,7.239E3,3.52E2,1.0342E4,6.137E3,7.2E1,1.6003E4,1.1E1,1.31E2,3.543E3,3.696E3,3.29E2,2.3E1,7.246E3,3.096E3,5.485E3,6.52E2,3.3E1,3.9E1,3.7E1,1.5966E4,9.2E1,3.9E1],"tree_param":{"num_deleted":"0","num_feature":"16","num_nodes":"29","size_leaf_vector":"1"}},{"base_weights":[-3.139874E-3,-1.0854928E-2,8.96E-3,-2.0391675E-2,-6.454979E-3,-3.074697E-3,1.5549173E-2,-1.7994432E-2,-1.1398964E-1,-7.5211783E-4,-2.3852658E-2,-3.8064166E-3,1.5384616E-2,1.3788542E-2,7.9335794E-2,-1.0974493E-3,2.2271716E-3,4.464286E-4,-6.701807E-3,-2.6870656E-4,1.4485294E-3,-7.2115385E-3,-1.0767905E-3,9.18197E-4,-7.256114E-4,1.1829248E-3,-3.1289113E-5,-1.1538462E-2,4.72973E-3],"categories":[],"categories_nodes":[],"categories_segments":[],"categories_sizes":[],"default_left":[0,0,0,0,0,0,0,0,0,0,0,0,0,0,0,0,0,0,0,0,0,0,0,0,0,0,0,0,0],"id":44,"left_children":[1,3,5,7,9,11,13,15,17,19,21,23,-1,25,27,-1,-1,-1,-1,-1,-1,-1,-1,-1,-1,-1,-1,-1,-1],"loss_changes":[3.7461863E0,1.0281277E0,1.2390902E0,1.7337294E0,1.6638436E0,1.2584342E0,1.1328468E0,1.8666787E0,4.7676444E-1,1.7353865E0,1.1515296E0,1.3097357E0,0E0,1.3980894E0,1.3041557E0,0E0,0E0,0E0,0E0,0E0,0E0,0E0,0E0,0E0,0E0,0E0,0E0,0E0,0E0],"parents":[2147483647,0,0,1,1,2,2,3,3,4,4,5,5,6,6,7,7,8,8,9,9,10,10,11,11,13,13,14,14],"right_children":[2,4,6,8,10,12,14,16,18,20,22,24,-1,26,28,-1,-1,-1,-1,-1,-1,-1,-1,-1,-1,-1,-1,-1,-1],"split_conditions":[2.357143E0,8.4615386E-1,5.4E-1,1.8E0,1.1553191E1,2.98E1,9.634147E0,1.4E0,2.6E0,5.8E0,1.68E1,9.727273E0,1.2986316E-1,1.9571428E1,1.5E1,-2.8458328E-3,6.906709E-3,2.5374533E-3,-3.231884E-2,-1.3015866E-3,4.3534697E-3,-3.3832874E-2,-3.5042258E-3,8.258401E-3,-6.263928E-3,8.562455E-3,-6.0147344E-4,-1.5029538E-1,4.2161405E-2],"split_indices":[9,9,4,2,7,0,9,2,1,1,3,7,0,7,0,0,0,0,0,0,0,0,0,0,0,0,0,0,0],"split_type":[0,0,0,0,0,0,0,0,0,0,0,0,0,0,0,0,0,0,0,0,0,0,0,0,0,0,0,0,0],"sum_hessian":[4.0128E4,2.4504E4,1.5624E4,7.735E3,1.6769E4,5.528E3,1.0096E4,7.543E3,1.92E2,1.263E4,4.139E3,5.516E3,1.2E1,9.826E3,2.7E2,7.095E3,4.48E2,2.7E1,1.65E2,1.0931E4,1.699E3,7.7E1,4.062E3,1.796E3,3.72E3,5.832E3,3.994E3,1.2E1,2.58E2],"tree_param":{"num_deleted":"0","num_feature":"16","num_nodes":"29","size_leaf_vector":"1"}},{"base_weights":[-3.195961E-3,-1.2043521E-2,8.118907E-3,-1.8549388E-2,-3.361953E-3,-2.4769101E-2,1.0498967E-2,-1.6829018E-2,-9.8345585E-2,2.1984925E-2,-9.930972E-3,-2.918455E-2,1.6666667E-1,7.670316E-3,2.9683065E-2,-1.267653E-3,-2.310803E-4,-5.810547E-3,8.82353E-3,5.59593E-4,4.520295E-3,-1.226698E-3,6.349602E-4,-6.9940477E-3,-1.0281885E-3,1.6964285E-2,-8.928572E-4,3.60014E-4,9.45946E-3,4.386468E-3,7.2960096E-4],"categories":[],"categories_nodes":[],"categories_segments":[],"categories_sizes":[],"default_left":[0,0,0,0,0,0,0,0,0,0,0,0,0,0,0,0,0,0,0,0,0,0,0,0,0,0,0,0,0,0,0],"id":45,"left_children":[1,3,5,7,9,11,13,15,17,19,21,23,25,27,29,-1,-1,-1,-1,-1,-1,-1,-1,-1,-1,-1,-1,-1,-1,-1,-1],"loss_changes":[4.0251794E0,1.2743778E0,1.3813515E0,1.7689695E0,1.6098137E0,1.0115862E0,8.926505E-1,1.3138041E0,1.3559427E0,1.4685476E0,2.5376463E0,1.1088703E0,8.6607146E-1,1.2222185E0,1.85054E0,0E0,0E0,0E0,0E0,0E0,0E0,0E0,0E0,0E0,0E0,0E0,0E0,0E0,0E0,0E0,0E0],"parents":[2147483647,0,0,1,1,2,2,3,3,4,4,5,5,6,6,7,7,8,8,9,9,10,10,11,11,12,12,13,13,14,14],"right_children":[2,4,6,8,10,12,14,16,18,20,22,24,26,28,30,-1,-1,-1,-1,-1,-1,-1,-1,-1,-1,-1,-1,-1,-1,-1,-1],"split_conditions":[2.2E0,1.96E1,4.25E-1,1.1432836E1,1E0,1.275E2,6.269231E0,9.722222E-1,9.2E1,1.206E2,1.5714285E0,2.8605458E-1,3.3875325E-1,1.52E1,3.1E1,-3.3947856E-3,-1.1000813E-3,-2.3461914E-2,6.689971E-2,1.9142717E-3,1.0379903E-2,-2.7901195E-3,5.63941E-3,-2.980641E-2,-7.6597068E-3,2.9755939E-2,7.561906E-3,3.2446086E-3,5.12666E-2,4.005533E-2,8.896743E-3],"split_indices":[2,3,4,7,2,14,9,9,15,14,9,4,4,1,3,0,0,0,0,0,0,0,0,0,0,0,0,0,0,0,0],"split_type":[0,0,0,0,0,0,0,0,0,0,0,0,0,0,0,0,0,0,0,0,0,0,0,0,0,0,0,0,0,0,0],"sum_hessian":[4.0206E4,2.2563E4,1.7643E4,1.2897E4,9.666E3,1.19E3,1.6453E4,1.2626E4,2.71E2,1.989E3,7.677E3,1.164E3,2.6E1,1.434E4,2.113E3,7.434E3,5.192E3,2.55E2,1.6E1,1.719E3,2.7E2,4.666E3,3.011E3,8.3E1,1.081E3,1.3E1,1.3E1,1.4304E4,3.6E1,4.35E2,1.678E3],"tree_param":{"num_deleted":"0","num_feature":"16","num_nodes":"31","size_leaf_vector":"1"}},{"base_weights":[-1.4105687E-3,-9.363986E-3,5.7128724E-3,2.2239264E-2,-1.1077529E-2,-1.5760256E-3,1.3022553E-2,2.596154E-1,1.5739769E-2,-2.1693619E-2,-4.456649E-3,6.231902E-3,-2.466493E-2,1.639674E-2,-3.805175E-2,2.5E-2,3.90625E-3,1.8849208E-3,-1.3503087E-3,-1.1767286E-3,6.25E-3,3.0041154E-4,-8.543613E-4,5.110235E-5,1.9406393E-3,1.5272557E-4,-2.1410969E-3,7.02348E-4,6.8783066E-3,-2.8151262E-3,6.7460323E-3],"categories":[],"categories_nodes":[],"categories_segments":[],"categories_sizes":[],"default_left":[0,0,0,0,0,0,0,0,0,0,0,0,0,0,0,0,0,0,0,0,0,0,0,0,0,0,0,0,0,0,0],"id":46,"left_children":[1,3,5,7,9,11,13,15,17,19,21,23,25,27,29,-1,-1,-1,-1,-1,-1,-1,-1,-1,-1,-1,-1,-1,-1,-1,-1],"loss_changes":[2.2794254E0,1.029651E0,1.130825E0,1.5047964E0,1.267334E0,1.9161323E0,1.82685E0,1.0952524E0,8.9554477E-1,1.8733497E0,1.4681976E0,1.3482186E0,1.3520002E0,2.8284843E0,2.0816662E0,0E0,0E0,0E0,0E0,0E0,0E0,0E0,0E0,0E0,0E0,0E0,0E0,0E0,0E0,0E0,0E0],"parents":[2147483647,0,0,1,1,2,2,3,3,4,4,5,5,6,6,7,7,8,8,9,9,10,10,11,11,12,12,13,13,14,14],"right_children":[2,4,6,8,10,12,14,16,18,20,22,24,26,28,30,-1,-1,-1,-1,-1,-1,-1,-1,-1,-1,-1,-1,-1,-1,-1,-1],"split_conditions":[1.5833334E0,2E-1,1E0,1.034E2,8.4615386E-1,3E0,2.78E1,1.6E0,5.769231E-1,7.2E1,1.4E0,7.396696E0,2.7419355E0,9.4E0,3.6E1,5.813886E-2,1.5212456E-2,2.6925483E-3,-3.2506734E-3,-3.0943868E-3,2.0547979E-2,1.0179527E-3,-2.8021992E-3,4.8397706E-4,1.5484162E-2,1.0377646E-3,-1.3684675E-2,4.707431E-3,6.4261384E-2,-1.2809622E-2,7.809713E-2],"split_indices":[9,2,12,14,9,13,0,0,9,11,2,6,9,2,0,0,0,0,0,0,0,0,0,0,0,0,0,0,0,0,0],"split_type":[0,0,0,0,0,0,0,0,0,0,0,0,0,0,0,0,0,0,0,0,0,0,0,0,0,0,0,0,0,0,0],"sum_hessian":[4.0231E4,1.9008E4,2.1223E4,9.77E2,1.8031E4,1.0627E4,1.0596E4,2.5E1,9.52E2,6.925E3,1.1106E4,7.942E3,2.685E3,9.94E3,6.56E2,1E1,1.5E1,6.29E2,3.23E2,6.84E3,8.5E1,6.074E3,5.032E3,6.848E3,1.094E3,1.063E3,1.622E3,9.752E3,1.88E2,5.94E2,6.2E1],"tree_param":{"num_deleted":"0","num_feature":"16","num_nodes":"31","size_leaf_vector":"1"}},{"base_weights":[-1.8108302E-3,-1.1859399E-2,6.3834097E-3,-1.3894448E-2,4.5564517E-2,1.594203E-1,5.9061344E-3,-1.3134319E-2,-8.377659E-2,1.764706E-2,3.683775E-2,2.025862E-1,-3.125E-3,-2.4643785E-3,1.4412568E-2,-7.404688E-4,7.6663203E-4,-6.1677634E-3,4.054054E-3,-1.3194445E-3,3.1764705E-3,4.032258E-3,1.6517857E-2,-2.9491188E-4,2.8671618E-3,8.872297E-4,-1.852545E-3],"categories":[],"categories_nodes":[],"categories_segments":[],"categories_sizes":[],"default_left":[0,0,0,0,0,0,0,0,0,0,0,0,0,0,0,0,0,0,0,0,0,0,0,0,0,0,0],"id":47,"left_children":[1,3,5,7,9,11,13,15,17,-1,19,21,-1,23,25,-1,-1,-1,-1,-1,-1,-1,-1,-1,-1,-1,-1],"loss_changes":[3.3194635E0,2.1167426E0,1.621002E0,9.279046E-1,1.6500895E0,6.736398E-1,1.5763323E0,8.252511E-1,1.2366731E0,0E0,1.0210015E0,8.7702847E-1,0E0,2.2920723E0,1.8834815E0,0E0,0E0,0E0,0E0,0E0,0E0,0E0,0E0,0E0,0E0,0E0,0E0],"parents":[2147483647,0,0,1,1,2,2,3,3,4,4,5,5,6,6,7,7,8,8,10,10,11,11,13,13,14,14],"right_children":[2,4,6,8,10,12,14,16,18,-1,20,22,-1,24,26,-1,-1,-1,-1,-1,-1,-1,-1,-1,-1,-1,-1],"split_conditions":[1.5E0,8.024961E0,2.4444444E0,7.7667384E0,1.1222222E0,2.0952382E0,1E0,6.818276E0,1.3857142E1,3.216234E-2,7.818182E0,1.2E0,-2.618354E-2,2.84E1,2.76E1,-2.1335916E-3,3.295262E-3,-1.8992996E-2,1.4249015E-2,-1.4218516E-2,1.6179541E-2,3.0582506E-2,6.8833865E-2,-2.1618993E-3,2.3592506E-2,6.189689E-3,-9.771633E-3],"split_indices":[9,5,7,5,8,9,12,5,7,0,7,1,0,0,0,0,0,0,0,0,0,0,0,0,0,0,0],"split_type":[0,0,0,0,0,0,0,0,0,0,0,0,0,0,0,0,0,0,0,0,0,0,0,0,0,0,0],"sum_hessian":[4.0312E4,1.8107E4,2.2205E4,1.7488E4,6.19E2,6.8E1,2.2137E4,1.7301E4,1.87E2,1.6E1,6.03E2,5.7E1,1.1E1,1.1158E4,1.0979E4,1.634E4,9.61E2,1.51E2,3.6E1,1.79E2,4.24E2,3E1,2.7E1,1.0553E4,6.05E2,1.0312E4,6.67E2],