{"learner":{"attributes":{"scikit_learn":"{\"_estimator_type\": \"regressor\"}"},"feature_names":[],"feature_types":[],"gradient_booster":{"model":{"cats":{"enc":[],"feature_segments":[],"sorted_idx":[]},"gbtree_model_param":{"num_parallel_tree":"1","num_trees":"600"},"iteration_indptr":[0,1,2,3,4,5,6,7,8,9,10,11,12,13,14,15,16,17,18,19,20,21,22,23,24,25,26,27,28,29,30,31,32,33,34,35,36,37,38,39,40,41,42,43,44,45,46,47,48,49,50,51,52,53,54,55,56,57,58,59,60,61,62,63,64,65,66,67,68,69,70,71,72,73,74,75,76,77,78,79,80,81,82,83,84,85,86,87,88,89,90,91,92,93,94,95,96,97,98,99,100,101,102,103,104,105,106,107,108,109,110,111,112,113,114,115,116,117,118,119,120,121,122,123,124,125,126,127,128,129,130,131,132,133,134,135,136,137,138,139,140,141,142,143,144,145,146,147,148,149,150,151,152,153,154,155,156,157,158,159,160,161,162,163,164,165,166,167,168,169,170,171,172,173,174,175,176,177,178,179,180,181,182,183,184,185,186,187,188,189,190,191,192,193,194,195,196,197,198,199,200,201,202,203,204,205,206,207,208,209,210,211,212,213,214,215,216,217,218,219,220,221,222,223,224,225,226,227,228,229,230,231,232,233,234,235,236,237,238,239,240,241,242,243,244,245,246,247,248,249,250,251,252,253,254,255,256,257,258,259,260,261,262,263,264,265,266,267,268,269,270,271,272,273,274,275,276,277,278,279,280,281,282,283,284,285,286,287,288,289,290,291,292,293,294,295,296,297,298,299,300,301,302,303,304,305,306,307,308,309,310,311,312,313,314,315,316,317,318,319,320,321,322,323,324,325,326,327,328,329,330,331,332,333,334,335,336,337,338,339,340,341,342,343,344,345,346,347,348,349,350,351,352,353,354,355,356,357,358,359,360,361,362,363,364,365,366,367,368,369,370,371,372,373,374,375,376,377,378,379,380,381,382,383,384,385,386,387,388,389,390,391,392,393,394,395,396,397,398,399,400,401,402,403,404,405,406,407,408,409,410,411,412,413,414,415,416,417,418,419,420,421,422,423,424,425,426,427,428,429,430,431,432,433,434,435,436,437,438,439,440,441,442,443,444,445,446,447,448,449,450,451,452,453,454,455,456,457,458,459,460,461,462,463,464,465,466,467,468,469,470,471,472,473,474,475,476,477,478,479,480,481,482,483,484,485,486,487,488,489,490,491,492,493,494,495,496,497,498,499,500,501,502,503,504,505,506,507,508,509,510,511,512,513,514,515,516,517,518,519,520,521,522,523,524,525,526,527,528,529,530,531,532,533,534,535,536,537,538,539,540,541,542,543,544,545,546,547,548,549,550,551,552,553,554,555,556,557,558,559,560,561,562,563,564,565,566,567,568,569,570,571,572,573,574,575,576,577,578,579,580,581,582,583,584,585,586,587,588,589,590,591,592,593,594,595,596,597,598,599,600],"tree_info":[0,0,0,0,0,0,0,0,0,0,0,0,0,0,0,0,0,0,0,0,0,0,0,0,0,0,0,0,0,0,0,0,0,0,0,0,0,0,0,0,0,0,0,0,0,0,0,0,0,0,0,0,0,0,0,0,0,0,0,0,0,0,0,0,0,0,0,0,0,0,0,0,0,0,0,0,0,0,0,0,0,0,0,0,0,0,0,0,0,0,0,0,0,0,0,0,0,0,0,0,0,0,0,0,0,0,0,0,0,0,0,0,0,0,0,0,0,0,0,0,0,0,0,0,0,0,0,0,0,0,0,0,0,0,0,0,0,0,0,0,0,0,0,0,0,0,0,0,0,0,0,0,0,0,0,0,0,0,0,0,0,0,0,0,0,0,0,0,0,0,0,0,0,0,0,0,0,0,0,0,0,0,0,0,0,0,0,0,0,0,0,0,0,0,0,0,0,0,0,0,0,0,0,0,0,0,0,0,0,0,0,0,0,0,0,0,0,0,0,0,0,0,0,0,0,0,0,0,0,0,0,0,0,0,0,0,0,0,0,0,0,0,0,0,0,0,0,0,0,0,0,0,0,0,0,0,0,0,0,0,0,0,0,0,0,0,0,0,0,0,0,0,0,0,0,0,0,0,0,0,0,0,0,0,0,0,0,0,0,0,0,0,0,0,0,0,0,0,0,0,0,0,0,0,0,0,0,0,0,0,0,0,0,0,0,0,0,0,0,0,0,0,0,0,0,0,0,0,0,0,0,0,0,0,0,0,0,0,0,0,0,0,0,0,0,0,0,0,0,0,0,0,0,0,0,0,0,0,0,0,0,0,0,0,0,0,0,0,0,0,0,0,0,0,0,0,0,0,0,0,0,0,0,0,0,0,0,0,0,0,0,0,0,0,0,0,0,0,0,0,0,0,0,0,0,0,0,0,0,0,0,0,0,0,0,0,0,0,0,0,0,0,0,0,0,0,0,0,0,0,0,0,0,0,0,0,0,0,0,0,0,0,0,0,0,0,0,0,0,0,0,0,0,0,0,0,0,0,0,0,0,0,0,0,0,0,0,0,0,0,0,0,0,0,0,0,0,0,0,0,0,0,0,0,0,0,0,0,0,0,0,0,0,0,0,0,0,0,0,0,0,0,0,0,0,0,0,0,0,0,0,0,0,0,0,0,0,0,0,0,0,0,0,0,0,0,0,0,0,0,0,0,0,0,0,0,0,0,0,0,0,0,0,0,0,0,0,0,0,0,0,0,0,0,0,0,0,0,0,0,0,0,0,0,0,0,0,0,0,0,0,0,0,0,0,0,0,0,0,0,0,0,0,0,0,0,0,0,0,0,0,0,0,0,0,0,0,0,0,0],"trees":[{"base_weights":[-9.76271E-4,1.7992967E-1,-6.747908E-2,2.1606322E-1,6.284314E-2,-1.5161987E-2,-1.01450294E-1,2.2954006E-1,6.33383E-2,1.5683104E-1,-2.5684932E-2,-4.783403E-3,-5.7633083E-2,-8.3879136E-2,-1.3300125E-1,1.1771828E-2,5.5593923E-3,7.221284E-3,-3.324468E-5,9.464971E-3,-8.2908163E-4,7.3369564E-3,-2.2939676E-3,-6.362144E-4,4.1184044E-3,-9.375E-3,-2.2950624E-3,-6.3978964E-3,-3.9496655E-3,-4.5790933E-3,-7.071685E-3],"categories":[],"categories_nodes":[],"categories_segments":[],"categories_sizes":[],"default_left":[0,0,0,0,0,0,0,0,0,0,0,0,0,0,0,0,0,0,0,0,0,0,0,0,0,0,0,0,0,0,0],"id":0,"left_children":[1,3,5,7,9,11,13,15,17,19,21,23,25,27,29,-1,-1,-1,-1,-1,-1,-1,-1,-1,-1,-1,-1,-1,-1,-1,-1],"loss_changes":[4.8369653E2,4.570813E1,5.2246796E1,1.6982483E1,2.1221478E1,5.1018667E0,9.870239E0,5.269226E0,3.4824862E0,6.9679775E0,4.582086E0,6.439281E0,3.4544854E0,2.4560013E0,2.213272E0,0E0,0E0,0E0,0E0,0E0,0E0,0E0,0E0,0E0,0E0,0E0,0E0,0E0,0E0,0E0,0E0],"parents":[2147483647,0,0,1,1,2,2,3,3,4,4,5,5,6,6,7,7,8,8,9,9,10,10,11,11,12,12,13,13,14,14],"right_children":[2,4,6,8,10,12,14,16,18,20,22,24,26,28,30,-1,-1,-1,-1,-1,-1,-1,-1,-1,-1,-1,-1,-1,-1,-1,-1],"split_conditions":[1.0012498E0,1.86E1,2.0621033E0,4.7359997E1,8.75E-1,9.9E0,4.5672555E0,1.25E1,6.400775E-1,2.948E1,5.827642E-1,5E0,3.9710512E0,4.3095237E-1,2.7947369E1,1.9301591E-2,8.199634E-3,8.177036E-3,-4.3320655E-5,9.385039E-3,-9.0420846E-4,5.241494E-3,-3.1102286E-3,-1.8255949E-3,6.6869445E-3,-1.6912598E-2,-1.1509493E-2,-2.1349162E-2,-1.7444303E-2,-3.2030534E-2,-4.8808325E-2],"split_indices":[20,3,20,33,9,34,20,29,20,33,20,13,18,4,10,0,0,0,0,0,0,0,0,0,0,0,0,0,0,0,0],"split_type":[0,0,0,0,0,0,0,0,0,0,0,0,0,0,0,0,0,0,0,0,0,0,0,0,0,0,0,0,0,0,0],"sum_hessian":[4.0203E4,1.0806E4,2.9397E4,8.257E3,2.549E3,1.1574E4,1.7823E4,7.587E3,6.7E2,1.236E3,1.313E3,9.302E3,2.272E3,1.145E4,6.373E3,7.226E3,3.61E2,2.95E2,3.75E2,1.041E3,1.95E2,1.37E2,1.176E3,8.526E3,7.76E2,1.87E2,2.085E3,1.14E3,1.031E4,1.08E3,5.293E3],"tree_param":{"num_deleted":"0","num_feature":"35","num_nodes":"31","size_leaf_vector":"1"}},{"base_weights":[1.8596117E-4,1.7867559E-1,-5.2984715E-2,2.1857801E-1,7.278106E-2,1.8833756E-3,-9.683863E-2,2.3461735E-1,1.0851809E-1,1.8231866E-1,2.4801588E-2,9.3608245E-2,-1.7661015E-2,-7.280332E-2,-1.14642136E-1,1.193967E-2,6.417411E-3,8.411459E-3,1.6203703E-3,4.0948275E-3,1.05592655E-2,2.9472478E-3,-1.5185185E-3,7.3480294E-3,3.767492E-4,-7.14482E-4,-4.8387097E-3,5.377907E-3,-3.7463878E-3,-5.561295E-3,-9.057972E-3],"categories":[],"categories_nodes":[],"categories_segments":[],"categories_sizes":[],"default_left":[0,0,0,0,0,0,0,0,0,0,0,0,0,0,0,0,0,0,0,0,0,0,0,0,0,0,0,0,0,0,0],"id":1,"left_children":[1,3,5,7,9,11,13,15,17,19,21,23,25,27,29,-1,-1,-1,-1,-1,-1,-1,-1,-1,-1,-1,-1,-1,-1,-1,-1],"loss_changes":[3.827674E2,3.909906E1,7.477225E1,1.184256E1,1.3318314E1,2.474997E1,7.382126E0,2.5730286E0,3.8893137E0,2.2206173E0,3.3247364E0,1.1135002E1,3.0341587E0,2.8251E0,2.2340546E0,0E0,0E0,0E0,0E0,0E0,0E0,0E0,0E0,0E0,0E0,0E0,0E0,0E0,0E0,0E0,0E0],"parents":[2147483647,0,0,1,1,2,2,3,3,4,4,5,5,6,6,7,7,8,8,9,9,10,10,11,11,12,12,13,13,14,14],"right_children":[2,4,6,8,10,12,14,16,18,20,22,24,26,28,30,-1,-1,-1,-1,-1,-1,-1,-1,-1,-1,-1,-1,-1,-1,-1,-1],"split_conditions":[9.318182E-1,1.82E1,2.0952382E0,2.34E1,6.4E-1,1.4E1,3.3937008E0,3.7E0,1.4E0,1.3479167E1,1.4400001E1,3E0,8.946E1,2.2522213E0,3.0689655E1,1.9872129E-2,7.6193186E-3,1.3533237E-2,2.5332363E-3,6.353645E-3,1.1655618E-2,3.0289174E-3,-2.3329959E-3,1.0494104E-2,5.697519E-4,-2.2376135E-3,-1.5303708E-2,1.3927835E-2,-1.4187905E-2,-3.2734875E-2,-5.0754447E-2],"split_indices":[9,3,9,28,9,3,9,27,27,10,28,27,33,18,7,0,0,0,0,0,0,0,0,0,0,0,0,0,0,0,0],"split_type":[0,0,0,0,0,0,0,0,0,0,0,0,0,0,0,0,0,0,0,0,0,0,0,0,0,0,0,0,0,0,0],"sum_hessian":[4.033E4,9.256E3,3.1074E4,6.722E3,2.534E3,1.3804E4,1.727E4,5.866E3,8.56E2,7.71E2,1.763E3,2.424E3,1.138E4,7.351E3,9.919E3,5.643E3,2.23E2,4.79E2,3.77E2,1.73E2,5.98E2,1.089E3,6.74E2,1.496E3,9.28E2,1.0916E4,4.64E2,8.5E1,7.266E3,9.437E3,4.82E2],"tree_param":{"num_deleted":"0","num_feature":"35","num_nodes":"31","size_leaf_vector":"1"}},{"base_weights":[2.2483913E-3,2.0088536E-1,-5.432666E-2,2.2581321E-1,9.937535E-2,-5.7535263E-4,-9.486282E-2,2.3567453E-1,9.805825E-2,1.753313E-1,3.8412292E-3,8.112245E-2,-1.0582452E-2,-7.673953E-2,-1.2056474E-1,1.2096645E-2,7.1258913E-3,1.0175879E-2,1.577287E-3,1.028423E-2,1.1432928E-3,6.29771E-3,-1.0368665E-3,6.390881E-3,-5.5555557E-4,-8.218963E-4,3.2933254E-3,-4.658069E-3,-2.780807E-3,-6.85473E-3,-5.1967436E-3],"categories":[],"categories_nodes":[],"categories_segments":[],"categories_sizes":[],"default_left":[0,0,0,0,0,0,0,0,0,0,0,0,0,0,0,0,0,0,0,0,0,0,0,0,0,0,0,0,0,0,0],"id":2,"left_children":[1,3,5,7,9,11,13,15,17,19,21,23,25,27,29,-1,-1,-1,-1,-1,-1,-1,-1,-1,-1,-1,-1,-1,-1,-1,-1],"loss_changes":[4.523475E2,2.255655E1,6.82618E1,9.001068E0,1.2777819E1,1.1013364E1,8.310013E0,3.841919E0,3.6059775E0,4.535198E0,2.3466744E0,6.332507E0,5.37327E0,3.6291351E0,2.015541E0,0E0,0E0,0E0,0E0,0E0,0E0,0E0,0E0,0E0,0E0,0E0,0E0,0E0,0E0,0E0,0E0],"parents":[2147483647,0,0,1,1,2,2,3,3,4,4,5,5,6,6,7,7,8,8,9,9,10,10,11,11,12,12,13,13,14,14],"right_children":[2,4,6,8,10,12,14,16,18,20,22,24,26,28,30,-1,-1,-1,-1,-1,-1,-1,-1,-1,-1,-1,-1,-1,-1,-1,-1],"split_conditions":[8.6268723E-1,1.8112028E1,2.0621033E0,1.25E1,8.863636E-1,8.235294E-1,4.2373223E0,4.32E1,3.810647E-1,3.04E1,5.7125247E-1,7.5999994E0,1E0,4.2777777E0,1E0,1.9170603E-2,8.66793E-3,1.2998539E-2,2.9155666E-3,9.251895E-3,1.2081832E-3,4.8215846E-3,-1.0409728E-3,6.716302E-3,-3.3296272E-4,-2.3533644E-3,4.9315826E-3,-1.7677289E-2,-1.3169887E-2,-4.2877104E-2,-3.4417182E-2],"split_indices":[20,21,20,29,9,9,20,33,20,33,20,29,30,8,12,0,0,0,0,0,0,0,0,0,0,0,0,0,0,0,0],"split_type":[0,0,0,0,0,0,0,0,0,0,0,0,0,0,0,0,0,0,0,0,0,0,0,0,0,0,0,0,0,0,0],"sum_hessian":[4.025E4,8.922E3,3.1328E4,7.162E3,1.76E3,1.3469E4,1.7859E4,6.648E3,5.14E2,9.8E2,7.8E2,1.469E3,1.2E4,1.0476E4,7.383E3,6.228E3,4.2E2,1.98E2,3.16E2,8.17E2,1.63E2,1.3E2,6.5E2,9.75E2,4.94E2,1.1147E4,8.53E2,5.892E3,4.584E3,3.699E3,3.684E3],"tree_param":{"num_deleted":"0","num_feature":"35","num_nodes":"31","size_leaf_vector":"1"}},{"base_weights":[5.3526135E-3,2.0903E-1,-4.6289083E-2,2.2773176E-1,1.0614525E-1,5.5410923E-3,-8.7506995E-2,2.3938301E-1,1.1430793E-1,1.7274536E-1,5.5E-3,4.6570577E-2,-1.6933464E-2,-7.14517E-2,-1.12062864E-1,1.2116353E-2,9.0361445E-4,6.6115703E-3,-8.333334E-3,1.0367762E-2,-9.698276E-4,5.732484E-3,-2.2165698E-3,5.911858E-3,-4.976893E-4,-2.172865E-3,2.0255673E-5,-3.2100317E-3,-5.5714715E-3,-8.779762E-3,-5.3138514E-3],"categories":[],"categories_nodes":[],"categories_segments":[],"categories_sizes":[],"default_left":[0,0,0,0,0,0,0,0,0,0,0,0,0,0,0,0,0,0,0,0,0,0,0,0,0,0,0,0,0,0,0],"id":3,"left_children":[1,3,5,7,9,11,13,15,17,19,21,23,25,27,29,-1,-1,-1,-1,-1,-1,-1,-1,-1,-1,-1,-1,-1,-1,-1,-1],"loss_changes":[4.229904E2,1.5626648E1,6.853613E1,9.067413E0,8.397889E0,1.310595E1,7.037262E0,4.0612793E0,3.260212E0,5.0181293E0,2.724623E0,2.037724E1,4.2231474E0,3.1258812E0,2.5776215E0,0E0,0E0,0E0,0E0,0E0,0E0,0E0,0E0,0E0,0E0,0E0,0E0,0E0,0E0,0E0,0E0],"parents":[2147483647,0,0,1,1,2,2,3,3,4,4,5,5,6,6,7,7,8,8,9,9,10,10,11,11,12,12,13,13,14,14],"right_children":[2,4,6,8,10,12,14,16,18,20,22,24,26,28,30,-1,-1,-1,-1,-1,-1,-1,-1,-1,-1,-1,-1,-1,-1,-1,-1],"split_conditions":[8.0378574E-1,1.94E1,2.0621033E0,2.55E1,8.75E-1,1.1749038E0,4.3424096E0,1.765625E0,2.3E1,2.9760002E1,6.060165E-1,1.6820127E1,2.0602667E1,1.07420006E2,1.1E1,1.8239347E-2,1.064308E-3,7.958614E-3,-9.562078E-3,9.043631E-3,-6.4335763E-4,3.941081E-3,-1.9994497E-3,5.9104203E-3,-1.1511199E-3,-4.4104727E-3,1.07291344E-4,-1.2772451E-2,-2.8045917E-2,-5.5028636E-2,-3.6734678E-2],"split_indices":[20,3,20,28,9,20,20,9,34,33,20,21,21,33,11,0,0,0,0,0,0,0,0,0,0,0,0,0,0,0,0],"split_type":[0,0,0,0,0,0,0,0,0,0,0,0,0,0,0,0,0,0,0,0,0,0,0,0,0,0,0,0,0,0,0],"sum_hessian":[4.0213E4,8.133E3,3.208E4,6.881E3,1.252E3,1.4211E4,1.7869E4,6.239E3,6.42E2,7.53E2,4.99E2,5.029E3,9.182E3,1.0807E4,7.062E3,6.157E3,8.2E1,6.04E2,3.8E1,6.38E2,1.15E2,1.56E2,3.43E2,2.217E3,2.812E3,3.629E3,5.553E3,9.15E3,1.657E3,5.87E2,6.475E3],"tree_param":{"num_deleted":"0","num_feature":"35","num_nodes":"31","size_leaf_vector":"1"}},{"base_weights":[5.960651E-3,1.7098637E-1,-4.9421784E-2,2.1248642E-1,6.039783E-2,-7.79959E-3,-9.1256395E-2,2.2607063E-1,8.4859155E-2,1.5124199E-1,-1.4328063E-2,8.545336E-2,-1.8312864E-2,-7.304295E-2,-1.02581374E-1,1.1876635E-2,4.7916668E-3,6.3247867E-3,-5.4563493E-3,9.576098E-3,2.3148149E-4,5.5650687E-3,-1.3838311E-3,5.4676128E-3,-6.015625E-3,-1.1157941E-3,2.6342976E-3,-2.2E-2,-3.5717392E-3,-5.934646E-3,-4.3366803E-3],"categories":[],"categories_nodes":[],"categories_segments":[],"categories_sizes":[],"default_left":[0,0,0,0,0,0,0,0,0,0,0,0,0,0,0,0,0,0,0,0,0,0,0,0,0,0,0,0,0,0,0],"id":4,"left_children":[1,3,5,7,9,11,13,15,17,19,21,23,25,27,29,-1,-1,-1,-1,-1,-1,-1,-1,-1,-1,-1,-1,-1,-1,-1,-1],"loss_changes":[3.683862E2,4.6468903E1,5.2548416E1,1.2747894E1,1.8772123E1,1.4833941E1,3.097023E0,9.911743E0,5.7484155E0,7.3692284E0,2.5487232E0,7.5518007E0,3.865571E0,3.3759747E0,2.3586807E0,0E0,0E0,0E0,0E0,0E0,0E0,0E0,0E0,0E0,0E0,0E0,0E0,0E0,0E0,0E0,0E0],"parents":[2147483647,0,0,1,1,2,2,3,3,4,4,5,5,6,6,7,7,8,8,9,9,10,10,11,11,12,12,13,13,14,14],"right_children":[2,4,6,8,10,12,14,16,18,20,22,24,26,28,30,-1,-1,-1,-1,-1,-1,-1,-1,-1,-1,-1,-1,-1,-1,-1,-1],"split_conditions":[1E0,1.7350037E1,2.6E0,2.55E1,9.047619E-1,8.235294E-1,3.8E0,1.3695652E0,1E0,8.9E0,5E0,1.8E0,7E0,1.047104E1,1E0,1.756962E-2,5.5579483E-3,9.553824E-3,-8.090267E-3,8.285637E-3,5.0796865E-4,3.695622E-3,-1.805161E-3,6.7254724E-3,-9.635741E-3,-3.4013928E-3,4.670586E-3,-3.97178E-2,-1.5305948E-2,-3.5054777E-2,-2.8577048E-2],"split_indices":[2,21,2,28,9,9,2,9,9,29,0,2,13,21,12,0,0,0,0,0,0,0,0,0,0,0,0,0,0,0,0],"split_type":[0,0,0,0,0,0,0,0,0,0,0,0,0,0,0,0,0,0,0,0,0,0,0,0,0,0,0,0,0,0,0],"sum_hessian":[4.0305E4,1.0127E4,3.0178E4,7.363E3,2.764E3,1.5128E4,1.505E4,6.654E3,7.09E2,1.247E3,1.517E3,1.532E3,1.3596E4,5.773E3,9.277E3,6.115E3,5.39E2,5.84E2,1.25E2,9.78E2,2.69E2,1.45E2,1.372E3,1.373E3,1.59E2,1.2871E4,7.25E2,2.4E1,5.749E3,4.597E3,4.68E3],"tree_param":{"num_deleted":"0","num_feature":"35","num_nodes":"31","size_leaf_vector":"1"}},{"base_weights":[7.292933E-3,2.0220144E-1,-4.3162942E-2,2.2617424E-1,1.0851567E-1,6.643047E-3,-7.4709274E-2,2.3728395E-1,9.743346E-2,2.0390855E-1,4.4625245E-2,8.084197E-2,-4.6377885E-3,-4.607241E-2,-9.3028605E-2,1.2051919E-2,3.4514926E-3,9.406566E-3,2.1276595E-3,1.19191455E-2,3.5460994E-3,5.5050505E-3,-8.894231E-4,6.6350102E-3,2.4399399E-4,-5.2474317E-4,4.274316E-3,-3.353739E-3,-1.268163E-3,-5.3327433E-3,-3.9807595E-3],"categories":[],"categories_nodes":[],"categories_segments":[],"categories_sizes":[],"default_left":[0,0,0,0,0,0,0,0,0,0,0,0,0,0,0,0,0,0,0,0,0,0,0,0,0,0,0,0,0,0,0],"id":5,"left_children":[1,3,5,7,9,11,13,15,17,19,21,23,25,27,29,-1,-1,-1,-1,-1,-1,-1,-1,-1,-1,-1,-1,-1,-1,-1,-1],"loss_changes":[3.9645798E2,1.8594055E1,5.0316483E1,9.416687E0,1.0297024E1,1.0395401E1,1.0281181E1,3.8209229E0,2.6101708E0,3.0914688E0,4.145756E0,6.455798E0,5.691796E0,3.3260345E0,2.1767654E0,0E0,0E0,0E0,0E0,0E0,0E0,0E0,0E0,0E0,0E0,0E0,0E0,0E0,0E0,0E0,0E0],"parents":[2147483647,0,0,1,1,2,2,3,3,4,4,5,5,6,6,7,7,8,8,9,9,10,10,11,11,12,12,13,13,14,14],"right_children":[2,4,6,8,10,12,14,16,18,20,22,24,26,28,30,-1,-1,-1,-1,-1,-1,-1,-1,-1,-1,-1,-1,-1,-1,-1,-1],"split_conditions":[8.158378E-1,1.78E1,1.8510829E0,1.2E1,7.1875E-1,8.235294E-1,3.0493677E0,1.625E0,3.810647E-1,9.1E0,1.8E0,6.6E0,7E0,3.8669095E0,1E0,1.678082E-2,1.722239E-3,1.1571261E-2,2.1264248E-3,1.028744E-2,3.930144E-3,2.4232634E-3,-7.7922345E-4,6.927979E-3,4.7280343E-4,-1.4148355E-3,7.222641E-3,-1.1030513E-2,-5.302933E-3,-3.104794E-2,-2.5908088E-2],"split_indices":[20,3,20,29,9,9,20,9,20,29,34,29,13,19,12,0,0,0,0,0,0,0,0,0,0,0,0,0,0,0,0],"split_type":[0,0,0,0,0,0,0,0,0,0,0,0,0,0,0,0,0,0,0,0,0,0,0,0,0,0,0,0,0,0,0],"sum_hessian":[4.0312E4,8.289E3,3.2023E4,6.599E3,1.69E3,1.2418E4,1.9605E4,6.074E3,5.25E2,6.77E2,1.013E3,1.638E3,1.078E4,7.65E3,1.1955E4,5.941E3,1.33E2,1.97E2,3.28E2,5.37E2,1.4E2,4.94E2,5.19E2,9.73E2,6.65E2,1.0123E4,6.57E2,3.797E3,3.853E3,5.927E3,6.028E3],"tree_param":{"num_deleted":"0","num_feature":"35","num_nodes":"31","size_leaf_vector":"1"}},{"base_weights":[1.18498765E-2,1.6878411E-1,-4.076132E-2,2.0900774E-1,7.25345E-2,-9.318378E-3,-8.39056E-2,2.230916E-1,4.271583E-2,1.3346483E-1,8.614749E-3,2.918288E-2,-2.4354154E-2,-5.918889E-2,-9.070774E-2,1.1583003E-2,5.773196E-3,6.2996033E-3,-1.3114754E-3,8.619439E-3,2.5358608E-3,5.7142857E-3,-1.4761012E-3,4.7508306E-3,-7.398639E-6,-4.735994E-4,-2.3117962E-3,-2.6698576E-3,-1.3344595E-2,-3.4817911E-3,-5.0010895E-3],"categories":[],"categories_nodes":[],"categories_segments":[],"categories_sizes":[],"default_left":[0,0,0,0,0,0,0,0,0,0,0,0,0,0,0,0,0,0,0,0,0,0,0,0,0,0,0,0,0,0,0],"id":6,"left_children":[1,3,5,7,9,11,13,15,17,19,21,23,25,27,29,-1,-1,-1,-1,-1,-1,-1,-1,-1,-1,-1,-1,-1,-1,-1,-1],"loss_changes":[3.313154E2,3.8990295E1,4.076861E1,1.6630585E1,1.15698595E1,1.0064823E1,2.1246262E0,6.0137024E0,3.195583E0,4.890192E0,5.850831E0,9.42889E0,4.0711403E0,3.2782583E0,1.9425354E0,0E0,0E0,0E0,0E0,0E0,0E0,0E0,0E0,0E0,0E0,0E0,0E0,0E0,0E0,0E0,0E0],"parents":[2147483647,0,0,1,1,2,2,3,3,4,4,5,5,6,6,7,7,8,8,9,9,10,10,11,11,12,12,13,13,14,14],"right_children":[2,4,6,8,10,12,14,16,18,20,22,24,26,28,30,-1,-1,-1,-1,-1,-1,-1,-1,-1,-1,-1,-1,-1,-1,-1,-1],"split_conditions":[1E0,1.6820127E1,3E0,5.0600006E1,1.728E1,1.4E0,-1.2785225E-2,2.5E1,6E-1,2.348101E1,6E-1,1.5426121E1,4.2E0,8.3E1,3.842742E0,1.5907986E-2,8.868942E-3,6.503898E-3,-2.58509E-3,8.658908E-3,2.9576363E-3,6.775302E-3,-2.6844002E-3,5.1252353E-3,-4.658848E-5,-1.8783764E-3,-8.528084E-3,-1.6317392E-2,-5.082364E-2,-2.388162E-2,-2.7736071E-2],"split_indices":[2,21,2,33,33,2,24,28,2,21,2,21,27,11,6,0,0,0,0,0,0,0,0,0,0,0,0,0,0,0,0],"split_type":[0,0,0,0,0,0,0,0,0,0,0,0,0,0,0,0,0,0,0,0,0,0,0,0,0,0,0,0,0,0,0],"sum_hessian":[4.0126E4,1.0074E4,3.0052E4,7.104E3,2.97E3,1.7384E4,1.2668E4,6.549E3,5.55E2,1.52E3,1.45E3,4.882E3,1.2502E4,2.736E3,9.932E3,6.065E3,4.84E2,2.51E2,3.04E2,1.033E3,4.87E2,3.84E2,1.066E3,1.504E3,3.378E3,7.442E3,5.06E3,2.663E3,7.3E1,3.047E3,6.885E3],"tree_param":{"num_deleted":"0","num_feature":"35","num_nodes":"31","size_leaf_vector":"1"}},{"base_weights":[9.631148E-3,2.0011026E-1,-3.881083E-2,2.213831E-1,9.815734E-2,-3.8757187E-4,-7.460284E-2,2.3793723E-1,1.4291772E-1,1.6923593E-1,1.8393394E-2,4.0613543E-2,-2.102146E-2,-6.408235E-2,-9.766526E-2,1.2143257E-2,5.6976746E-3,9.163944E-3,4.7709924E-5,1.0210085E-2,1.5625E-3,4.358108E-3,-3.3670035E-3,5.7436996E-3,-7.5540174E-4,-2.1273387E-3,-4.6913116E-5,-1.8303571E-2,-3.1667107E-3,-4.602168E-3,-9.216772E-3],"categories":[],"categories_nodes":[],"categories_segments":[],"categories_sizes":[],"default_left":[0,0,0,0,0,0,0,0,0,0,0,0,0,0,0,0,0,0,0,0,0,0,0,0,0,0,0,0,0,0,0],"id":7,"left_children":[1,3,5,7,9,11,13,15,17,19,21,23,25,27,29,-1,-1,-1,-1,-1,-1,-1,-1,-1,-1,-1,-1,-1,-1,-1,-1],"loss_changes":[3.7149423E2,1.7682404E1,4.414261E1,8.73764E0,7.996564E0,1.3097972E1,4.025734E0,3.3785706E0,6.755272E0,3.592907E0,3.932462E0,2.1448517E1,4.4521875E0,2.5557938E0,2.5186844E0,0E0,0E0,0E0,0E0,0E0,0E0,0E0,0E0,0E0,0E0,0E0,0E0,0E0,0E0,0E0,0E0],"parents":[2147483647,0,0,1,1,2,2,3,3,4,4,5,5,6,6,7,7,8,8,9,9,10,10,11,11,12,12,13,13,14,14],"right_children":[2,4,6,8,10,12,14,16,18,20,22,24,26,28,30,-1,-1,-1,-1,-1,-1,-1,-1,-1,-1,-1,-1,-1,-1,-1,-1],"split_conditions":[8.0378574E-1,2.9760002E1,2.232661E0,6.998722E0,5.827642E-1,1.1880993E0,5.0415106E0,2.6900002E1,1E0,2.84E1,1.6310507E1,1.656877E1,2.2828018E1,1.0307984E1,9.38E1,1.5981177E-2,8.51094E-3,7.971086E-3,-2.9206277E-7,8.989385E-3,1.3188989E-3,3.6432117E-3,-2.5155097E-3,5.5171414E-3,-1.0443509E-3,-4.954806E-3,-3.9698483E-4,-3.8266785E-2,-1.4581973E-2,-3.364019E-2,-5.5633433E-2],"split_indices":[20,33,20,18,20,20,20,28,9,28,21,21,21,21,17,0,0,0,0,0,0,0,0,0,0,0,0,0,0,0,0],"split_type":[0,0,0,0,0,0,0,0,0,0,0,0,0,0,0,0,0,0,0,0,0,0,0,0,0,0,0,0,0,0,0],"sum_hessian":[4.0259E4,8.162E3,3.2097E4,6.752E3,1.41E3,1.548E4,1.6617E4,5.574E3,1.178E3,7.45E2,6.65E2,5.182E3,1.0298E4,1.1414E4,5.203E3,5.36E3,2.14E2,9.17E2,2.61E2,5.94E2,1.51E2,3.69E2,2.96E2,2.221E3,2.961E3,4.97E3,5.328E3,2.7E1,1.1387E4,4.888E3,3.15E2],"tree_param":{"num_deleted":"0","num_feature":"35","num_nodes":"31","size_leaf_vector":"1"}},{"base_weights":[1.2112596E-2,1.6149099E-1,-3.7547152E-2,2.1105255E-1,7.256047E-2,-5.2991905E-3,-7.0133716E-2,2.3168205E-1,1.1504812E-1,1.3364705E-1,-1.5614392E-2,1.3681819E-1,-1.0637208E-2,-8.279371E-2,-5.729306E-2,1.2201534E-2,7.7852346E-3,9.244992E-3,1.1616162E-3,7.915297E-3,-7.8642386E-4,-4.8577375E-4,-1.3636365E-2,9.498763E-3,-5.1020406E-4,-8.912656E-5,-2.3541232E-3,-1.7777778E-2,-4.057557E-3,-3.4343742E-3,-1.7766744E-3],"categories":[],"categories_nodes":[],"categories_segments":[],"categories_sizes":[],"default_left":[0,0,0,0,0,0,0,0,0,0,0,0,0,0,0,0,0,0,0,0,0,0,0,0,0,0,0,0,0,0,0],"id":8,"left_children":[1,3,5,7,9,11,13,15,17,19,21,23,25,27,29,-1,-1,-1,-1,-1,-1,-1,-1,-1,-1,-1,-1,-1,-1,-1,-1],"loss_changes":[2.9871783E2,4.4267212E1,3.1758415E1,1.2749695E1,1.9376614E1,1.1525728E1,2.4389038E0,4.9429626E0,7.3263245E0,7.8297806E0,2.231431E0,4.300338E0,4.725049E0,3.3614006E0,1.8486652E0,0E0,0E0,0E0,0E0,0E0,0E0,0E0,0E0,0E0,0E0,0E0,0E0,0E0,0E0,0E0,0E0],"parents":[2147483647,0,0,1,1,2,2,3,3,4,4,5,5,6,6,7,7,8,8,9,9,10,10,11,11,12,12,13,13,14,14],"right_children":[2,4,6,8,10,12,14,16,18,20,22,24,26,28,30,-1,-1,-1,-1,-1,-1,-1,-1,-1,-1,-1,-1,-1,-1,-1,-1],"split_conditions":[1E0,8.965517E-1,2.6E0,9.299999E0,1.74E1,6.4E-1,1E0,1.92E1,6E-1,9.9E0,1.607316E-1,1.98E1,1.0780001E1,1E0,6.103002E-1,1.5652975E-2,6.017706E-3,1.1346101E-2,1.2140379E-3,7.427183E-3,-1.117903E-3,-9.778723E-4,-5.0434903E-3,7.740927E-3,-5.3968135E-4,-2.3241788E-4,-9.28766E-3,-4.2889584E-2,-2.1421855E-2,-1.8930359E-2,-1.1387229E-2],"split_indices":[2,9,2,29,3,9,12,3,2,29,26,28,34,1,4,0,0,0,0,0,0,0,0,0,0,0,0,0,0,0,0],"split_type":[0,0,0,0,0,0,0,0,0,0,0,0,0,0,0,0,0,0,0,0,0,0,0,0,0,0,0,0,0,0,0],"sum_hessian":[4.0267E4,1.0046E4,3.0221E4,6.45E3,3.596E3,1.519E4,1.5031E4,5.308E3,1.142E3,2.124E3,1.472E3,5.49E2,1.4641E4,7.566E3,7.465E3,4.564E3,7.44E2,6.48E2,4.94E2,1.823E3,3.01E2,1.44E3,3.2E1,4.03E2,1.46E2,1.178E4,2.861E3,4.4E1,7.522E3,4.898E3,2.567E3],"tree_param":{"num_deleted":"0","num_feature":"35","num_nodes":"31","size_leaf_vector":"1"}},{"base_weights":[1.0502271E-2,1.3712774E-1,-3.5177365E-2,1.8511522E-1,-2.100073E-3,-2.096907E-3,-6.236152E-2,2.0395201E-1,2.9171528E-2,4.563492E-2,-5.0997782E-2,4.6587694E-2,-1.5176705E-2,-4.011142E-2,-7.3384576E-2,1.1700737E-2,7.997569E-3,5.1703164E-3,-1.9574945E-3,4.119898E-3,-2.1498771E-3,-3.2264448E-3,6.8681324E-3,3.9305305E-3,1.15740746E-4,2.0395552E-3,-9.917164E-4,-3.6402332E-4,-3.1666139E-3,-4.284009E-3,-2.8896309E-3],"categories":[],"categories_nodes":[],"categories_segments":[],"categories_sizes":[],"default_left":[0,0,0,0,0,0,0,0,0,0,0,0,0,0,0,0,0,0,0,0,0,0,0,0,0,0,0,0,0,0,0],"id":9,"left_children":[1,3,5,7,9,11,13,15,17,19,21,23,25,27,29,-1,-1,-1,-1,-1,-1,-1,-1,-1,-1,-1,-1,-1,-1,-1,-1],"loss_changes":[2.3297527E2,7.134218E1,2.6618095E1,2.3320557E1,6.3931804E0,8.503695E0,3.982109E0,9.334442E0,4.3506036E0,4.5196834E0,3.4572911E0,4.009205E0,2.7446945E0,4.104862E0,2.0778122E0,0E0,0E0,0E0,0E0,0E0,0E0,0E0,0E0,0E0,0E0,0E0,0E0,0E0,0E0,0E0,0E0],"parents":[2147483647,0,0,1,1,2,2,3,3,4,4,5,5,6,6,7,7,8,8,9,9,10,10,11,11,12,12,13,13,14,14],"right_children":[2,4,6,8,10,12,14,16,18,20,22,24,26,28,30,-1,-1,-1,-1,-1,-1,-1,-1,-1,-1,-1,-1,-1,-1,-1,-1],"split_conditions":[1.6310507E1,3E0,4.1E0,1.12E1,4.5E0,6E-1,5.9E0,1.2012491E1,1.4E0,1.58E1,1E0,2.4E1,5E0,5.25E0,5.85E-1,1.588251E-2,7.6971836E-3,7.549477E-3,-2.4181516E-3,4.9275877E-3,-3.208939E-3,-7.943052E-3,4.4998117E-3,4.880862E-3,3.116906E-4,2.8522634E-3,-2.6375444E-3,-1.9300461E-3,-1.3836473E-2,-2.4073614E-2,-1.9087885E-2],"split_indices":[21,27,27,29,27,34,27,21,27,28,30,3,0,34,4,0,0,0,0,0,0,0,0,0,0,0,0,0,0,0,0],"split_type":[0,0,0,0,0,0,0,0,0,0,0,0,0,0,0,0,0,0,0,0,0,0,0,0,0,0,0,0,0,0,0],"sum_hessian":[4.0276E4,1.0677E4,2.9599E4,7.94E3,2.737E3,1.3352E4,1.6247E4,7.084E3,8.56E2,1.385E3,1.352E3,2.827E3,1.0525E4,5.384E3,1.0863E4,4.206E3,2.878E3,4.1E2,4.46E2,9.79E2,4.06E2,1.262E3,9E1,1.64E3,1.187E3,8.08E2,9.717E3,2.231E3,3.153E3,6.071E3,4.792E3],"tree_param":{"num_deleted":"0","num_feature":"35","num_nodes":"31","size_leaf_vector":"1"}},{"base_weights":[1.3044885E-2,1.9473453E-1,-3.177177E-2,2.1490626E-1,9.9243514E-2,7.4391877E-3,-5.72874E-2,2.38309E-1,1.3537483E-1,1.5240492E-1,3.030303E-3,-1.2378388E-3,9.123322E-2,-3.54292E-2,-7.465294E-2,1.2049213E-2,-1.75E-3,9.124629E-3,1.8336776E-3,1.09278355E-2,3.6890244E-3,4.5321635E-3,-2.1538462E-3,1.1343373E-3,-9.955923E-4,6.3566095E-3,-2.0588236E-3,-3.65E-4,-2.3433685E-3,-3.3961535E-3,-5.3932276E-3],"categories":[],"categories_nodes":[],"categories_segments":[],"categories_sizes":[],"default_left":[0,0,0,0,0,0,0,0,0,0,0,0,0,0,0,0,0,0,0,0,0,0,0,0,0,0,0,0,0,0,0],"id":10,"left_children":[1,3,5,7,9,11,13,15,17,19,21,23,25,27,29,-1,-1,-1,-1,-1,-1,-1,-1,-1,-1,-1,-1,-1,-1,-1,-1],"loss_changes":[3.270912E2,1.5288269E1,3.223828E1,1.2179413E1,7.098922E0,9.236249E0,7.406746E0,3.7140198E0,6.9412746E0,4.6336994E0,2.0035021E0,5.1436434E0,5.671255E0,2.780836E0,2.4237862E0,0E0,0E0,0E0,0E0,0E0,0E0,0E0,0E0,0E0,0E0,0E0,0E0,0E0,0E0,0E0,0E0],"parents":[2147483647,0,0,1,1,2,2,3,3,4,4,5,5,6,6,7,7,8,8,9,9,10,10,11,11,12,12,13,13,14,14],"right_children":[2,4,6,8,10,12,14,16,18,20,22,24,26,28,30,-1,-1,-1,-1,-1,-1,-1,-1,-1,-1,-1,-1,-1,-1,-1,-1],"split_conditions":[7.925147E-1,9.299999E0,1.8510829E0,1.6692238E1,5.827642E-1,5E0,3.4E0,4.9E0,2.4E0,2.55E1,1.2500835E1,9.8E0,8.16E0,3.33E0,7.2E0,1.3977868E-2,-6.149143E-4,5.8999234E-3,1.5820295E-3,1.0961792E-2,3.4874082E-3,4.782174E-3,-1.1274696E-3,1.8734097E-3,-2.5680528E-3,8.26629E-3,-3.714031E-3,-9.8027E-4,-8.768133E-3,-2.1268588E-2,-3.847645E-2],"split_indices":[20,29,20,21,20,13,2,27,34,28,21,28,34,27,2,0,0,0,0,0,0,0,0,0,0,0,0,0,0,0,0],"split_type":[0,0,0,0,0,0,0,0,0,0,0,0,0,0,0,0,0,0,0,0,0,0,0,0,0,0,0,0,0,0,0],"sum_hessian":[4.0168E4,7.947E3,3.2221E4,6.56E3,1.387E3,1.2702E4,1.9519E4,5.067E3,1.493E3,8.93E2,4.94E2,1.1511E4,1.191E3,8.643E3,1.0876E4,5.018E3,4.9E1,1.01E3,4.83E2,4.84E2,4.09E2,1.7E2,3.24E2,5.046E3,6.465E3,9.37E2,2.54E2,2.499E3,6.144E3,9.046E3,1.83E3],"tree_param":{"num_deleted":"0","num_feature":"35","num_nodes":"31","size_leaf_vector":"1"}},{"base_weights":[1.3903797E-2,1.9260986E-1,-2.9495254E-2,2.145474E-1,8.000782E-2,8.56594E-3,-5.4411992E-2,2.3159993E-1,1.3493091E-1,1.2472345E-1,-2.8E-2,5.5380695E-2,-8.015713E-3,-4.583035E-2,-8.63868E-2,1.1898667E-2,3.995434E-3,1.03512015E-2,3.580097E-3,7.7373E-3,-9.55414E-4,2.1763395E-3,-6.661184E-3,5.9112026E-3,-1.5803572E-3,-6.1384565E-4,2.6083468E-3,-1.6695018E-3,-3.1980001E-3,-2.598914E-3,-5.1006E-3],"categories":[],"categories_nodes":[],"categories_segments":[],"categories_sizes":[],"default_left":[0,0,0,0,0,0,0,0,0,0,0,0,0,0,0,0,0,0,0,0,0,0,0,0,0,0,0,0,0,0,0],"id":11,"left_children":[1,3,5,7,9,11,13,15,17,19,21,23,25,27,29,-1,-1,-1,-1,-1,-1,-1,-1,-1,-1,-1,-1,-1,-1,-1,-1],"loss_changes":[3.107057E2,1.9319641E1,3.056993E1,8.862793E0,6.175768E0,9.900941E0,5.3415527E0,5.195862E0,5.2721214E0,3.9066048E0,2.828166E0,1.8240341E1,2.4161453E0,3.4623642E0,2.210312E0,0E0,0E0,0E0,0E0,0E0,0E0,0E0,0E0,0E0,0E0,0E0,0E0,0E0,0E0,0E0,0E0],"parents":[2147483647,0,0,1,1,2,2,3,3,4,4,5,5,6,6,7,7,8,8,9,9,10,10,11,11,12,12,13,13,14,14],"right_children":[2,4,6,8,10,12,14,16,18,20,22,24,26,28,30,-1,-1,-1,-1,-1,-1,-1,-1,-1,-1,-1,-1,-1,-1,-1,-1],"split_conditions":[7.808167E-1,3.04E1,1.8510829E0,1.78E1,1.7E1,1.54E1,5.521223E0,2.6900002E1,5.827642E-1,6.868E1,6.6352E-1,1.1628308E0,1E0,9.9E0,5.7001534E-4,1.3391036E-2,7.37075E-3,8.327507E-3,2.2450283E-3,6.534654E-3,-9.287231E-4,1.3325214E-3,-5.63975E-3,4.258916E-3,-2.6110471E-3,-1.5618235E-3,4.1460483E-3,-7.09008E-3,-1.5594265E-2,-2.1921132E-2,-3.6866575E-2],"split_indices":[20,33,20,3,3,3,20,28,20,33,20,20,30,34,23,0,0,0,0,0,0,0,0,0,0,0,0,0,0,0,0],"split_type":[0,0,0,0,0,0,0,0,0,0,0,0,0,0,0,0,0,0,0,0,0,0,0,0,0,0,0,0,0,0,0],"sum_hessian":[4.006E4,7.827E3,3.2233E4,6.55E3,1.277E3,1.2753E4,1.948E4,5.393E3,1.157E3,9.03E2,3.74E2,3.335E3,9.418E3,1.536E4,4.12E3,5.175E3,2.18E2,5.4E2,6.17E2,7.47E2,1.56E2,2.23E2,1.51E2,1.936E3,1.399E3,8.796E3,6.22E2,9.111E3,6.249E3,1.288E3,2.832E3],"tree_param":{"num_deleted":"0","num_feature":"35","num_nodes":"31","size_leaf_vector":"1"}},{"base_weights":[1.2484797E-2,1.941365E-1,-2.8976008E-2,2.1463396E-1,8.989448E-2,3.1375423E-2,-4.3825496E-2,2.3338509E-1,1.5101612E-1,1.2795942E-1,-7.947977E-3,7.667474E-2,-2.9598117E-2,-2.5828999E-2,-6.910569E-2,1.1993026E-2,2.7777778E-3,9.98698E-3,2.5373932E-3,7.705249E-3,-3.448276E-4,3.4768214E-3,-3.3801019E-3,6.663582E-3,-9.6339114E-5,4.94012E-3,-1.8923344E-3,-2.0149474E-3,-3.9045393E-4,-6.0815867E-3,-3.2842902E-3],"categories":[],"categories_nodes":[],"categories_segments":[],"categories_sizes":[],"default_left":[0,0,0,0,0,0,0,0,0,0,0,0,0,0,0,0,0,0,0,0,0,0,0,0,0,0,0,0,0,0,0],"id":12,"left_children":[1,3,5,7,9,11,13,15,17,19,21,23,25,27,29,-1,-1,-1,-1,-1,-1,-1,-1,-1,-1,-1,-1,-1,-1,-1,-1],"loss_changes":[3.0343924E2,1.5978149E1,2.9399023E1,7.427582E0,4.5894375E0,1.789489E1,1.1975361E1,5.5484924E0,6.9613533E0,3.1285229E0,1.6040026E0,1.6535707E1,2.9290307E0,4.0099783E0,1.9584618E0,0E0,0E0,0E0,0E0,0E0,0E0,0E0,0E0,0E0,0E0,0E0,0E0,0E0,0E0,0E0,0E0],"parents":[2147483647,0,0,1,1,2,2,3,3,4,4,5,5,6,6,7,7,8,8,9,9,10,10,11,11,12,12,13,13,14,14],"right_children":[2,4,6,8,10,12,14,16,18,20,22,24,26,28,30,-1,-1,-1,-1,-1,-1,-1,-1,-1,-1,-1,-1,-1,-1,-1,-1],"split_conditions":[7.5751764E-1,3.04E1,1.2363753E0,1.5922644E1,1.68E1,1.9237621E1,3.4E0,2.84E1,8.4615386E-1,1.3108108E0,6E-1,2.016E1,6.4E-1,4.115597E0,7.234249E0,1.3442797E-2,2.7414449E-3,6.676948E-3,1.2517035E-3,6.888596E-3,-2.7861373E-4,1.588104E-3,-2.0793618E-3,4.402648E-3,-1.1562109E-4,2.4651557E-3,-3.7742674E-3,-5.8533787E-3,-1.6695813E-3,-2.718752E-2,-2.0752598E-2],"split_indices":[20,33,20,21,3,21,2,28,9,9,2,33,9,19,18,0,0,0,0,0,0,0,0,0,0,0,0,0,0,0,0],"split_type":[0,0,0,0,0,0,0,0,0,0,0,0,0,0,0,0,0,0,0,0,0,0,0,0,0,0,0,0,0,0,0],"sum_hessian":[4.0288E4,7.486E3,3.2802E4,6.255E3,1.231E3,6.477E3,2.6325E4,4.829E3,1.426E3,8.86E2,3.45E2,3.716E3,2.761E3,1.5379E4,1.0946E4,4.659E3,1.7E2,9.59E2,4.67E2,7.42E2,1.44E2,1.5E2,1.95E2,2.16E3,1.556E3,1.66E2,2.595E3,8.529E3,6.85E3,6.67E2,1.0279E4],"tree_param":{"num_deleted":"0","num_feature":"35","num_nodes":"31","size_leaf_vector":"1"}},{"base_weights":[1.46864485E-2,1.910086E-1,-2.551286E-2,2.180573E-1,1.1182824E-1,8.842994E-3,-4.865488E-2,2.3143171E-1,9.043561E-2,1.590389E-1,6.3775512E-3,5.4409385E-2,-9.058163E-3,-2.6484154E-2,-6.029699E-2,1.1880908E-2,1.910828E-3,9.375E-3,8.3056476E-4,1.0077624E-2,2.6785715E-3,2.8551533E-3,-3.6413043E-3,5.4491567E-3,-1.228562E-3,-6.236233E-4,3.8541667E-3,-6.0909092E-3,-1.1206763E-3,-2.7203762E-3,-4.554311E-3],"categories":[],"categories_nodes":[],"categories_segments":[],"categories_sizes":[],"default_left":[0,0,0,0,0,0,0,0,0,0,0,0,0,0,0,0,0,0,0,0,0,0,0,0,0,0,0,0,0,0,0],"id":13,"left_children":[1,3,5,7,9,11,13,15,17,19,21,23,25,27,29,-1,-1,-1,-1,-1,-1,-1,-1,-1,-1,-1,-1,-1,-1,-1,-1],"loss_changes":[2.842702E2,1.5922913E1,2.596722E1,9.450439E0,9.447981E0,1.0723569E1,5.0354958E0,5.9938354E0,3.7803812E0,5.8674583E0,2.366534E0,1.5985154E1,2.7770965E0,2.6054845E0,2.3151932E0,0E0,0E0,0E0,0E0,0E0,0E0,0E0,0E0,0E0,0E0,0E0,0E0,0E0,0E0,0E0,0E0],"parents":[2147483647,0,0,1,1,2,2,3,3,4,4,5,5,6,6,7,7,8,8,9,9,10,10,11,11,12,12,13,13,14,14],"right_children":[2,4,6,8,10,12,14,16,18,20,22,24,26,28,30,-1,-1,-1,-1,-1,-1,-1,-1,-1,-1,-1,-1,-1,-1,-1,-1],"split_conditions":[7.5751764E-1,6.168995E-1,1.8510829E0,2.55E1,7E0,1.58E1,3E0,1.1553191E1,3.6620882E-1,1.84E1,1.68E1,1.1628308E0,7E0,1.383566E1,7E0,1.2767047E-2,1.3614617E-3,9.702417E-3,6.9660024E-4,6.572102E-3,1.3317391E-3,2.448228E-3,-2.550669E-3,3.9870753E-3,-2.099222E-3,-1.6102254E-3,9.300775E-3,-1.7847847E-2,-3.9905356E-3,-1.5377332E-2,-3.337893E-2],"split_indices":[20,20,20,28,29,3,2,7,20,3,3,20,13,21,2,0,0,0,0,0,0,0,0,0,0,0,0,0,0,0,0],"split_type":[0,0,0,0,0,0,0,0,0,0,0,0,0,0,0,0,0,0,0,0,0,0,0,0,0,0,0,0,0,0,0],"sum_hessian":[4.0104E4,7.445E3,3.2659E4,5.548E3,1.897E3,1.3145E4,1.9514E4,5.021E3,5.27E2,1.31E3,5.87E2,3.707E3,9.438E3,6.72E3,1.2794E4,4.865E3,1.56E2,2.27E2,3E2,9.33E2,3.77E2,3.58E2,2.29E2,2.192E3,1.515E3,9.079E3,3.59E2,2.74E2,6.446E3,1.0742E4,2.052E3],"tree_param":{"num_deleted":"0","num_feature":"35","num_nodes":"31","size_leaf_vector":"1"}},{"base_weights":[1.3984365E-2,1.8538655E-1,-2.5477026E-2,2.0814046E-1,7.361002E-2,2.2746967E-3,-5.248494E-2,2.2751191E-1,1.2865853E-1,1.3345589E-1,5.4347827E-3,1.2631579E-1,-3.0499613E-3,6.524725E-2,-5.512102E-2,1.1702573E-2,5.2246093E-3,1.046371E-2,2.3322422E-3,8.1420075E-3,-2.688172E-3,9.598214E-3,-6.9060776E-4,1.0485197E-2,2.7969615E-3,-4.3597663E-4,4.296875E-3,3.8681948E-3,-1.0156251E-2,-2.3984003E-3,-4.228405E-3],"categories":[],"categories_nodes":[],"categories_segments":[],"categories_sizes":[],"default_left":[0,0,0,0,0,0,0,0,0,0,0,0,0,0,0,0,0,0,0,0,0,0,0,0,0,0,0,0,0,0,0],"id":14,"left_children":[1,3,5,7,9,11,13,15,17,19,21,23,25,27,29,-1,-1,-1,-1,-1,-1,-1,-1,-1,-1,-1,-1,-1,-1,-1,-1],"loss_changes":[2.725508E2,1.9164093E1,2.4550522E1,9.616821E0,5.209442E0,1.06710415E1,5.15543E0,4.0269775E0,8.12249E0,3.7496386E0,2.1495442E0,3.89087E0,7.816786E0,1.1993592E0,3.416031E0,0E0,0E0,0E0,0E0,0E0,0E0,0E0,0E0,0E0,0E0,0E0,0E0,0E0,0E0,0E0,0E0],"parents":[2147483647,0,0,1,1,2,2,3,3,4,4,5,5,6,6,7,7,8,8,9,9,10,10,11,11,12,12,13,13,14,14],"right_children":[2,4,6,8,10,12,14,16,18,20,22,24,26,28,30,-1,-1,-1,-1,-1,-1,-1,-1,-1,-1,-1,-1,-1,-1,-1,-1],"split_conditions":[7.5751764E-1,3.015E1,2.1944444E0,1.6692238E1,1.3393898E1,6.4E-1,1.460665E0,1.19E1,7.1875E-1,1.4999999E1,3.3569512E-1,5.2E0,1E0,9.576E0,6.2E0,1.1885786E-2,5.8861226E-3,6.7755403E-3,1.2965658E-3,5.7467553E-3,-2.6783124E-3,5.942944E-3,-3.69633E-4,7.3922845E-3,2.7127818E-3,-8.794308E-4,7.336846E-3,1.0249773E-2,-2.4599059E-2,-1.0773388E-2,-3.209901E-2],"split_indices":[20,33,9,21,21,9,20,29,9,29,20,29,30,22,2,0,0,0,0,0,0,0,0,0,0,0,0,0,0,0,0],"split_type":[0,0,0,0,0,0,0,0,0,0,0,0,0,0,0,0,0,0,0,0,0,0,0,0,0,0,0,0,0,0,0],"sum_hessian":[4.0294E4,7.54E3,3.2754E4,6.264E3,1.276E3,1.6155E4,1.6599E4,5.035E3,1.229E3,6.79E2,5.97E2,6.64E2,1.5491E4,3.63E2,1.6236E4,4.78E3,2.55E2,6.19E2,6.1E2,5.87E2,9.2E1,5.5E1,5.42E2,3.03E2,3.61E2,1.4564E4,9.27E2,3.48E2,1.5E1,1.3065E4,3.171E3],"tree_param":{"num_deleted":"0","num_feature":"35","num_nodes":"31","size_leaf_vector":"1"}},{"base_weights":[1.4914437E-2,1.7824782E-1,-2.4554398E-2,2.142189E-1,1.0102327E-1,2.970995E-3,-4.7932707E-2,2.2734745E-1,8.037578E-2,1.6041954E-1,1.7805582E-2,1.22083984E-1,-2.4031715E-3,-3.7090365E-2,-7.358871E-2,1.1651154E-2,1.7730497E-3,8.05921E-3,3.4722223E-4,9.72092E-3,3.3419025E-3,-9.833135E-4,8.706468E-3,9.541224E-3,1.2593283E-3,-4.476766E-4,4.1380157E-3,-1.9639884E-3,2.2727274E-3,-2.839388E-3,-4.524865E-3],"categories":[],"categories_nodes":[],"categories_segments":[],"categories_sizes":[],"default_left":[0,0,0,0,0,0,0,0,0,0,0,0,0,0,0,0,0,0,0,0,0,0,0,0,0,0,0,0,0,0,0],"id":15,"left_children":[1,3,5,7,9,11,13,15,17,19,21,23,25,27,29,-1,-1,-1,-1,-1,-1,-1,-1,-1,-1,-1,-1,-1,-1,-1,-1],"loss_changes":[2.59563E2,2.1745605E1,2.0867468E1,9.373779E0,1.2314648E1,9.534434E0,4.875E0,5.2922516E0,2.8412046E0,4.613144E0,6.0896173E0,4.2780724E0,7.9512415E0,2.2297516E0,1.47435E0,0E0,0E0,0E0,0E0,0E0,0E0,0E0,0E0,0E0,0E0,0E0,0E0,0E0,0E0,0E0,0E0],"parents":[2147483647,0,0,1,1,2,2,3,3,4,4,5,5,6,6,7,7,8,8,9,9,10,10,11,11,12,12,13,13,14,14],"right_children":[2,4,6,8,10,12,14,16,18,20,22,24,26,28,30,-1,-1,-1,-1,-1,-1,-1,-1,-1,-1,-1,-1,-1,-1,-1,-1],"split_conditions":[7.808167E-1,5.9487593E-1,2.2E0,2.55E1,1.7099998E1,6.511628E-1,5.0415106E0,1.1553191E1,3.6620882E-1,9.318182E-1,4E0,1.4400001E1,1E0,9.45E1,5.953125E0,1.1703547E-2,1.2906231E-3,8.929956E-3,3.889054E-4,5.966914E-3,2.4164335E-3,-4.8810095E-4,5.6395778E-3,6.749168E-3,1.6282111E-3,-9.132169E-4,6.377636E-3,-8.509991E-3,7.937855E-3,-1.7732212E-2,-3.312528E-2],"split_indices":[20,20,2,28,33,9,20,7,20,9,13,28,30,17,9,0,0,0,0,0,0,0,0,0,0,0,0,0,0,0,0],"split_type":[0,0,0,0,0,0,0,0,0,0,0,0,0,0,0,0,0,0,0,0,0,0,0,0,0,0,0,0,0,0,0],"sum_hessian":[4.0262E4,7.835E3,3.2427E4,5.344E3,2.491E3,1.4893E4,1.7534E4,4.866E3,4.78E2,1.453E3,1.038E3,6.42E2,1.4251E4,1.2327E4,5.207E3,4.726E3,1.4E2,2.27E2,2.51E2,1.065E3,3.88E2,8.38E2,2E2,3.75E2,2.67E2,1.3234E4,1.017E3,1.2009E4,3.18E2,2.614E3,2.593E3],"tree_param":{"num_deleted":"0","num_feature":"35","num_nodes":"31","size_leaf_vector":"1"}},{"base_weights":[1.4515286E-2,1.8603827E-1,-2.1994269E-2,2.0881791E-1,8.455598E-2,5.7835266E-2,-3.1007621E-2,2.2888193E-1,1.3972287E-1,1.8315019E-1,5.816227E-2,1.19405024E-1,-1.5828982E-2,-1.3630101E-2,-4.92195E-2,1.1843044E-2,4.92278E-3,1.0306728E-2,2.3293358E-3,9.9420855E-3,-5.0000004E-3,5.0831796E-3,4.6583853E-4,7.684295E-3,-3.846154E-3,-3.115204E-3,8.659218E-4,-8.973862E-4,2.240229E-3,-5.204719E-4,-2.6742101E-3],"categories":[],"categories_nodes":[],"categories_segments":[],"categories_sizes":[],"default_left":[0,0,0,0,0,0,0,0,0,0,0,0,0,0,0,0,0,0,0,0,0,0,0,0,0,0,0,0,0,0,0],"id":16,"left_children":[1,3,5,7,9,11,13,15,17,19,21,23,25,27,29,-1,-1,-1,-1,-1,-1,-1,-1,-1,-1,-1,-1,-1,-1,-1,-1],"loss_changes":[2.5173938E2,1.6291595E1,2.3850677E1,7.9546204E0,3.3592834E0,1.5254741E1,9.424974E0,4.6211853E0,8.025143E0,1.2328386E0,2.1727679E0,1.234173E1,2.36117E0,3.846344E0,2.4063377E0,0E0,0E0,0E0,0E0,0E0,0E0,0E0,0E0,0E0,0E0,0E0,0E0,0E0,0E0,0E0,0E0],"parents":[2147483647,0,0,1,1,2,2,3,3,4,4,5,5,6,6,7,7,8,8,9,9,10,10,11,11,12,12,13,13,14,14],"right_children":[2,4,6,8,10,12,14,16,18,20,22,24,26,28,30,-1,-1,-1,-1,-1,-1,-1,-1,-1,-1,-1,-1,-1,-1,-1,-1],"split_conditions":[7.2341263E-1,2.75E1,9.230769E-1,6.0079083E0,3.3569512E-1,1.88E1,2.5535865E0,2.5E1,7.1875E-1,1.6705883E0,3.9440532E0,2.21E1,9.7972E-1,1E0,-2.1925112E-2,1.1400395E-2,7.4864053E-3,8.0814455E-3,1.0229126E-3,7.4665095E-3,-1.0723844E-3,2.8521568E-3,6.165229E-4,4.857165E-3,-4.5806253E-3,-2.9667362E-3,1.0131665E-3,-2.207628E-3,3.67452E-3,-2.7150065E-3,-1.466837E-2],"split_indices":[20,33,9,18,20,3,20,28,9,9,5,28,25,30,24,0,0,0,0,0,0,0,0,0,0,0,0,0,0,0,0],"split_type":[0,0,0,0,0,0,0,0,0,0,0,0,0,0,0,0,0,0,0,0,0,0,0,0,0,0,0,0,0,0,0],"sum_hessian":[4.0198E4,7.054E3,3.3144E4,5.76E3,1.294E3,3.362E3,2.9782E4,4.462E3,1.298E3,2.72E2,1.022E3,1.831E3,1.531E3,1.5241E4,1.4541E4,4.204E3,2.58E2,7.57E2,5.41E2,2.58E2,1.4E1,5.4E2,4.82E2,1.559E3,2.72E2,6.37E2,8.94E2,1.4193E4,1.048E3,1.44E3,1.3101E4],"tree_param":{"num_deleted":"0","num_feature":"35","num_nodes":"31","size_leaf_vector":"1"}},{"base_weights":[1.5940057E-2,1.9475116E-1,-1.7095849E-2,2.1442E-1,8.216971E-2,7.110282E-2,-2.7659152E-2,2.364284E-1,1.42514E-1,1.8671875E-1,2.7369281E-2,1.308094E-1,3.9612674E-3,-1.0399406E-2,-5.1428348E-2,1.2027165E-2,5.639098E-3,1.0054678E-2,1.4637003E-3,1.2134503E-2,6.0833334E-3,1.8781302E-3,-2.0535715E-2,9.919724E-3,2.0732447E-3,6.987101E-4,-1.038961E-2,-7.6812657E-4,3.0725023E-3,-1.5506672E-3,-2.8560644E-3],"categories":[],"categories_nodes":[],"categories_segments":[],"categories_sizes":[],"default_left":[0,0,0,0,0,0,0,0,0,0,0,0,0,0,0,0,0,0,0,0,0,0,0,0,0,0,0,0,0,0,0],"id":17,"left_children":[1,3,5,7,9,11,13,15,17,19,21,23,25,27,29,-1,-1,-1,-1,-1,-1,-1,-1,-1,-1,-1,-1,-1,-1,-1,-1],"loss_changes":[2.3671613E2,1.38198395E1,3.1514748E1,8.383804E0,5.328898E0,1.450329E1,1.2391897E1,2.044159E0,8.279413E0,1.1356087E0,2.74833E0,1.1555229E1,3.6158497E0,6.241763E0,1.4750557E0,0E0,0E0,0E0,0E0,0E0,0E0,0E0,0E0,0E0,0E0,0E0,0E0,0E0,0E0,0E0,0E0],"parents":[2147483647,0,0,1,1,2,2,3,3,4,4,5,5,6,6,7,7,8,8,9,9,10,10,11,11,12,12,13,13,14,14],"right_children":[2,4,6,8,10,12,14,16,18,20,22,24,26,28,30,-1,-1,-1,-1,-1,-1,-1,-1,-1,-1,-1,-1,-1,-1,-1,-1],"split_conditions":[6.6352E-1,9.8E0,9.047619E-1,8.235294E-1,3.3569512E-1,1.23E1,3E0,2.42E1,5.6E0,2.5800001E1,1.6122448E0,1.82E1,1.229298E1,6E0,-4.496413E-3,1.1021259E-2,5.5863173E-3,7.1307695E-3,7.4603857E-4,1.06506E-2,6.5229493E-3,9.0134965E-4,-1.626275E-2,5.5618896E-3,1.3918758E-3,9.2521013E-4,-1.2279578E-2,-2.0085052E-3,4.529369E-3,-9.880619E-3,-1.6310096E-2],"split_indices":[20,29,9,9,20,28,2,3,0,28,9,3,18,13,31,0,0,0,0,0,0,0,0,0,0,0,0,0,0,0,0],"split_type":[0,0,0,0,0,0,0,0,0,0,0,0,0,0,0,0,0,0,0,0,0,0,0,0,0,0,0,0,0,0,0],"sum_hessian":[4.0071E4,6.248E3,3.3823E4,5.318E3,9.3E2,3.617E3,3.0206E4,4.07E3,1.248E3,3.19E2,6.11E2,1.914E3,1.703E3,1.75E4,1.2706E4,3.938E3,1.32E2,8.22E2,4.26E2,1.7E2,1.49E2,5.98E2,1.3E1,1.089E3,8.25E2,1.627E3,7.6E1,1.637E4,1.13E3,2.772E3,9.934E3],"tree_param":{"num_deleted":"0","num_feature":"35","num_nodes":"31","size_leaf_vector":"1"}},{"base_weights":[1.7552665E-2,1.9648355E-1,-1.4752779E-2,2.2123244E-1,1.1206281E-1,3.667496E-2,-3.1611763E-2,2.3065276E-1,8.678344E-2,1.5674603E-1,3.6057692E-2,1.2169066E-1,7.555273E-3,-1.0421491E-2,-4.691263E-2,1.1787791E-2,4.5597483E-3,6.5412186E-3,-1.2847222E-2,9.393382E-3,2.5862071E-3,8.125E-3,-5.249344E-4,9.296062E-3,7.2710396E-4,3.560345E-3,-5.7616783E-4,-1.9719051E-3,1.2553563E-4,-2.1239966E-3,-3.6000893E-3],"categories":[],"categories_nodes":[],"categories_segments":[],"categories_sizes":[],"default_left":[0,0,0,0,0,0,0,0,0,0,0,0,0,0,0,0,0,0,0,0,0,0,0,0,0,0,0,0,0,0,0],"id":18,"left_children":[1,3,5,7,9,11,13,15,17,19,21,23,25,27,29,-1,-1,-1,-1,-1,-1,-1,-1,-1,-1,-1,-1,-1,-1,-1,-1],"loss_changes":[2.3324373E2,1.2868393E1,2.9635885E1,6.02269E0,4.7523613E0,2.0890928E1,8.345829E0,3.1510925E0,4.7869773E0,2.8730564E0,3.0627882E0,1.4814705E1,7.635664E0,4.050909E0,1.6593475E0,0E0,0E0,0E0,0E0,0E0,0E0,0E0,0E0,0E0,0E0,0E0,0E0,0E0,0E0,0E0,0E0],"parents":[2147483647,0,0,1,1,2,2,3,3,4,4,5,5,6,6,7,7,8,8,9,9,10,10,11,11,12,12,13,13,14,14],"right_children":[2,4,6,8,10,12,14,16,18,20,22,24,26,28,30,-1,-1,-1,-1,-1,-1,-1,-1,-1,-1,-1,-1,-1,-1,-1,-1],"split_conditions":[6.5197766E-1,2.25E1,1.282983E0,1.06E1,1.383566E1,1.31069765E1,2.4489796E0,2.3743704E1,7.6E-1,1.22E1,6.666667E-1,2.0699999E1,1.5E0,2.0602667E1,6.8E0,1.05391145E-2,2.2838376E-3,6.982437E-3,-4.4379532E-3,5.8570923E-3,2.8143735E-3,3.208068E-3,-3.5563784E-4,6.2916176E-3,6.3990953E-4,2.2662624E-3,-4.1043462E-4,-4.3355227E-3,3.6014916E-4,-1.082612E-2,-2.5876993E-2],"split_indices":[20,33,20,29,21,21,9,21,9,29,9,33,27,21,2,0,0,0,0,0,0,0,0,0,0,0,0,0,0,0,0],"split_type":[0,0,0,0,0,0,0,0,0,0,0,0,0,0,0,0,0,0,0,0,0,0,0,0,0,0,0,0,0,0,0],"sum_hessian":[4.0349E4,6.17E3,3.4179E4,4.77E3,1.4E3,8.438E3,2.5741E4,4.457E3,3.13E2,8.81E2,5.19E2,2.152E3,6.286E3,1.0794E4,1.4947E4,4.299E3,1.58E2,2.78E2,3.5E1,6.79E2,2.02E2,1.39E2,3.8E2,1.345E3,8.07E2,1.449E3,4.837E3,3.327E3,7.467E3,1.2705E4,2.242E3],"tree_param":{"num_deleted":"0","num_feature":"35","num_nodes":"31","size_leaf_vector":"1"}},{"base_weights":[1.6597433E-2,1.8276832E-1,-1.591078E-2,2.163624E-1,1.1309524E-1,5.766965E-2,-2.6538357E-2,2.313489E-1,8.5339166E-2,1.7732832E-1,4.976852E-2,1.21005155E-1,4.338395E-3,-7.203632E-3,-4.40995E-2,1.2075826E-2,8.953221E-3,8.125E-3,6.827731E-4,1.1196429E-2,4.361264E-3,3.164251E-3,-1.277174E-2,9.0307435E-3,1.5097404E-3,-4.8708922E-4,8.7357955E-3,-5.601415E-4,2.7580073E-3,9.615385E-3,-2.2348461E-3],"categories":[],"categories_nodes":[],"categories_segments":[],"categories_sizes":[],"default_left":[0,0,0,0,0,0,0,0,0,0,0,0,0,0,0,0,0,0,0,0,0,0,0,0,0,0,0,0,0,0,0],"id":19,"left_children":[1,3,5,7,9,11,13,15,17,19,21,23,25,27,29,-1,-1,-1,-1,-1,-1,-1,-1,-1,-1,-1,-1,-1,-1,-1,-1],"loss_changes":[2.1717084E2,1.537204E1,2.6295662E1,8.692657E0,8.704123E0,1.4334698E1,9.976042E0,2.0730896E0,2.5255275E0,4.443817E0,4.4714704E0,1.0496113E1,5.5312724E0,3.4887974E0,2.1831837E0,0E0,0E0,0E0,0E0,0E0,0E0,0E0,0E0,0E0,0E0,0E0,0E0,0E0,0E0,0E0,0E0],"parents":[2147483647,0,0,1,1,2,2,3,3,4,4,5,5,6,6,7,7,8,8,9,9,10,10,11,11,12,12,13,13,14,14],"right_children":[2,4,6,8,10,12,14,16,18,20,22,24,26,28,30,-1,-1,-1,-1,-1,-1,-1,-1,-1,-1,-1,-1,-1,-1,-1,-1],"split_conditions":[6.884685E-1,7.380952E-1,1.0012498E0,2.55E1,4.4E0,1.6142857E1,2.4E0,5.7125247E-1,3.6620882E-1,5.6E0,1.6705883E0,6.1E0,1E0,1E0,1.7511901E0,1.0579425E-2,4.870233E-3,8.25232E-3,2.632901E-4,8.650494E-3,1.6863883E-3,2.2607066E-3,-4.234113E-3,4.898505E-3,1.5006274E-3,-2.811864E-4,1.0583651E-2,-1.631236E-3,4.498621E-3,4.079474E-2,-1.1707909E-2],"split_indices":[20,9,20,28,29,10,9,20,20,0,9,29,30,30,5,0,0,0,0,0,0,0,0,0,0,0,0,0,0,0,0],"split_type":[0,0,0,0,0,0,0,0,0,0,0,0,0,0,0,0,0,0,0,0,0,0,0,0,0,0,0,0,0,0,0],"sum_hessian":[4.0201E4,6.577E3,3.3624E4,4.436E3,2.141E3,4.243E3,2.9381E4,3.98E3,4.56E2,1.062E3,1.079E3,1.939E3,2.304E3,1.3985E4,1.5396E4,3.329E3,6.51E2,2.19E2,2.37E2,6.99E2,3.63E2,1.034E3,4.5E1,1.17E3,7.69E2,2.129E3,1.75E2,1.3143E4,8.42E2,3.8E1,1.5358E4],"tree_param":{"num_deleted":"0","num_feature":"35","num_nodes":"31","size_leaf_vector":"1"}},{"base_weights":[1.7545607E-2,1.9593023E-1,-1.128151E-2,2.1571818E-1,8.202654E-2,6.012476E-2,-2.3942417E-2,2.3581891E-1,1.40625E-1,1.782258E-1,2.4519231E-2,1.19152606E-1,9.6043025E-4,-6.7002834E-3,-4.0685583E-2,1.1961591E-2,6.0810815E-3,1.0121855E-2,1.7426274E-3,1.183432E-2,5.3697187E-3,3.4119897E-3,-5.4263566E-3,8.569588E-3,6.6628045E-4,-5.1727815E-4,5.1442306E-3,-6.011408E-4,3.0136022E-3,-1.9583335E-2,-1.9987568E-3],"categories":[],"categories_nodes":[],"categories_segments":[],"categories_sizes":[],"default_left":[0,0,0,0,0,0,0,0,0,0,0,0,0,0,0,0,0,0,0,0,0,0,0,0,0,0,0,0,0,0,0],"id":20,"left_children":[1,3,5,7,9,11,13,15,17,19,21,23,25,27,29,-1,-1,-1,-1,-1,-1,-1,-1,-1,-1,-1,-1,-1,-1,-1,-1],"loss_changes":[2.0662552E2,1.2581726E1,3.1274961E1,7.1547394E0,4.581792E0,1.819499E1,8.4822445E0,1.4344025E0,6.583267E0,1.2582436E0,3.032174E0,1.4415554E1,3.0006423E0,5.1612306E0,3.7014866E0,0E0,0E0,0E0,0E0,0E0,0E0,0E0,0E0,0E0,0E0,0E0,0E0,0E0,0E0,0E0,0E0],"parents":[2147483647,0,0,1,1,2,2,3,3,4,4,5,5,6,6,7,7,8,8,9,9,10,10,11,11,12,12,13,13,14,14],"right_children":[2,4,6,8,10,12,14,16,18,20,22,24,26,28,30,-1,-1,-1,-1,-1,-1,-1,-1,-1,-1,-1,-1,-1,-1,-1,-1],"split_conditions":[6.168995E-1,9.6E0,1E0,8.235294E-1,3.3569512E-1,1.6947535E1,2.6E0,2.42E1,1.4651157E1,2.5800001E1,1.62E1,7.1000004E0,4E0,1E0,1.14E1,9.7578205E-3,5.9136446E-3,6.3381167E-3,9.491131E-4,1.0255235E-2,5.810057E-3,1.8817186E-3,-1.7808154E-3,4.7501475E-3,6.80919E-4,-3.3227206E-4,4.69172E-3,-1.5785098E-3,5.4128184E-3,-3.0544205E-2,-1.1174685E-2],"split_indices":[20,29,9,9,20,21,2,3,21,28,3,29,13,30,3,0,0,0,0,0,0,0,0,0,0,0,0,0,0,0,0],"split_type":[0,0,0,0,0,0,0,0,0,0,0,0,0,0,0,0,0,0,0,0,0,0,0,0,0,0,0,0,0,0,0],"sum_hessian":[4.018E4,5.589E3,3.4591E4,4.761E3,8.28E2,5.209E3,2.9382E4,3.754E3,1.007E3,3.09E2,5.19E2,2.607E3,2.602E3,1.4476E4,1.4906E4,3.644E3,1.1E2,6.35E2,3.72E2,1.68E2,1.41E2,3.91E2,1.28E2,1.745E3,8.62E2,2.343E3,2.59E2,1.3411E4,1.065E3,2.9E1,1.4877E4],"tree_param":{"num_deleted":"0","num_feature":"35","num_nodes":"31","size_leaf_vector":"1"}},{"base_weights":[1.7920189E-2,1.8769822E-1,-1.1795209E-2,2.1632153E-1,1.0193205E-1,6.1166115E-2,-2.2965372E-2,2.2255819E-1,-3.409091E-2,1.76E-1,4.903079E-2,1.3375394E-1,2.2289768E-2,-5.786563E-3,-3.969151E-2,1.1662321E-2,7.3677013E-3,2.4647887E-3,-9.062501E-3,1.1114532E-2,4.4886363E-3,6.834533E-4,9.153006E-3,9.5289415E-3,3.6983204E-3,5.134189E-3,-5.2256533E-4,-5.126724E-4,3.587093E-3,-1.5903916E-3,-3.0496062E-3],"categories":[],"categories_nodes":[],"categories_segments":[],"categories_sizes":[],"default_left":[0,0,0,0,0,0,0,0,0,0,0,0,0,0,0,0,0,0,0,0,0,0,0,0,0,0,0,0,0,0,0],"id":21,"left_children":[1,3,5,7,9,11,13,15,17,19,21,23,25,27,29,-1,-1,-1,-1,-1,-1,-1,-1,-1,-1,-1,-1,-1,-1,-1,-1],"loss_changes":[2.0291298E2,1.4685333E1,2.7898508E1,7.021347E0,5.8727217E0,1.2822781E1,8.529601E0,3.4878693E0,1.3587568E0,2.474741E0,4.154046E0,5.3708096E0,7.794977E0,5.072799E0,2.5238533E0,0E0,0E0,0E0,0E0,0E0,0E0,0E0,0E0,0E0,0E0,0E0,0E0,0E0,0E0,0E0,0E0],"parents":[2147483647,0,0,1,1,2,2,3,3,4,4,5,5,6,6,7,7,8,8,9,9,10,10,11,11,12,12,13,13,14,14],"right_children":[2,4,6,8,10,12,14,16,18,20,22,24,26,28,30,-1,-1,-1,-1,-1,-1,-1,-1,-1,-1,-1,-1,-1,-1,-1,-1],"split_conditions":[6.400775E-1,2.0699999E1,9.6E-1,1.3900001E1,4.0722233E-1,3.5E0,2.4489796E0,7.6E0,4.3443644E-1,1E1,4E0,6E0,4.333117E0,7E0,5.521223E0,9.584824E-3,5.5745426E-3,4.5350343E-3,-7.6859356E-3,7.4919895E-3,3.965169E-3,3.4899786E-4,6.5772603E-3,5.607635E-3,1.8985659E-3,3.288652E-3,-4.980028E-4,-1.3195388E-3,5.103414E-3,-7.7474415E-3,-2.1433597E-2],"split_indices":[20,33,9,29,20,29,9,0,20,29,13,0,18,13,20,0,0,0,0,0,0,0,0,0,0,0,0,0,0,0,0],"split_type":[0,0,0,0,0,0,0,0,0,0,0,0,0,0,0,0,0,0,0,0,0,0,0,0,0,0,0,0,0,0,0],"sum_hessian":[4.0219E4,5.99E3,3.4229E4,4.49E3,1.5E3,4.544E3,2.9685E4,4.381E3,1.09E2,6.24E2,8.76E2,1.584E3,2.96E3,1.4645E4,1.504E4,3.834E3,5.47E2,7E1,3.9E1,4.05E2,2.19E2,6.94E2,1.82E2,8.11E2,7.73E2,8.56E2,2.104E3,1.3848E4,7.97E2,1.0979E4,4.061E3],"tree_param":{"num_deleted":"0","num_feature":"35","num_nodes":"31","size_leaf_vector":"1"}},{"base_weights":[1.610239E-2,1.8591899E-1,-1.1638155E-2,2.192053E-1,1.1894625E-1,5.61981E-2,-2.3249518E-2,2.2792858E-1,1.0778985E-1,1.6583541E-1,3.5450518E-2,1.4390177E-1,7.2374498E-3,-1.5575786E-2,-5.1153302E-2,1.1517137E-2,-3.4482758E-3,8.507854E-3,-1.5988372E-3,9.932221E-3,1.8367347E-3,1.097973E-2,6.415563E-4,9.824313E-3,1.5217391E-3,-5.2884617E-4,6.9265463E-3,1.9989617E-3,-8.9916727E-4,-5.1099616E-3,-2.2049635E-3],"categories":[],"categories_nodes":[],"categories_segments":[],"categories_sizes":[],"default_left":[0,0,0,0,0,0,0,0,0,0,0,0,0,0,0,0,0,0,0,0,0,0,0,0,0,0,0,0,0,0,0],"id":22,"left_children":[1,3,5,7,9,11,13,15,17,19,21,23,25,27,29,-1,-1,-1,-1,-1,-1,-1,-1,-1,-1,-1,-1,-1,-1,-1,-1],"loss_changes":[1.8964975E2,1.2576019E1,2.7259462E1,3.6443787E0,7.3504887E0,2.1718151E1,6.326417E0,2.5245209E0,2.4112923E0,5.088211E0,2.817041E0,1.0805508E1,7.595909E0,3.100688E0,2.2902813E0,0E0,0E0,0E0,0E0,0E0,0E0,0E0,0E0,0E0,0E0,0E0,0E0,0E0,0E0,0E0,0E0],"parents":[2147483647,0,0,1,1,2,2,3,3,4,4,5,5,6,6,7,7,8,8,9,9,10,10,11,11,12,12,13,13,14,14],"right_children":[2,4,6,8,10,12,14,16,18,20,22,24,26,28,30,-1,-1,-1,-1,-1,-1,-1,-1,-1,-1,-1,-1,-1,-1,-1,-1],"split_conditions":[6.168995E-1,1.56E1,9.896585E-1,1.01E1,1.383566E1,1.3393898E1,9.072E1,2.8382353E1,4.3443644E-1,1.1599999E1,3.0115843E-1,6.9E0,4E0,8.235294E-1,9.94E1,9.023681E-3,-1.6391732E-3,7.214544E-3,-9.963334E-4,6.3155717E-3,1.337295E-3,4.8907744E-3,3.887564E-4,5.291821E-3,1.418449E-3,-2.1641851E-4,5.0672027E-3,2.2677593E-3,-2.917281E-3,-1.9636085E-2,-1.47606945E-2],"split_indices":[20,33,20,29,21,21,33,10,20,29,20,29,13,9,33,0,0,0,0,0,0,0,0,0,0,0,0,0,0,0,0],"split_type":[0,0,0,0,0,0,0,0,0,0,0,0,0,0,0,0,0,0,0,0,0,0,0,0,0,0,0,0,0,0,0],"sum_hessian":[4.0257E4,5.652E3,3.4605E4,3.774E3,1.878E3,5.057E3,2.9548E4,3.499E3,2.75E2,1.202E3,6.76E2,1.811E3,3.246E3,2.3176E4,6.372E3,3.471E3,2.8E1,1.9E2,8.5E1,9.58E2,2.44E2,7.3E1,6.03E2,1.237E3,5.74E2,2.859E3,3.87E2,9.62E2,2.2214E4,7.72E2,5.6E3],"tree_param":{"num_deleted":"0","num_feature":"35","num_nodes":"31","size_leaf_vector":"1"}},{"base_weights":[1.5692895E-2,1.8091637E-1,-1.1102614E-2,2.0152251E-1,7.146861E-2,1.192926E-1,-1.7228097E-2,2.25E-1,1.2566964E-1,9.085134E-2,-7.311321E-2,2.0817669E-1,7.299805E-2,2.9467871E-2,-2.549696E-2,1.1664687E-2,5.4815575E-3,9.662463E-3,1.1744967E-3,5.458971E-3,-5.072464E-3,3.8690479E-3,-8.461539E-3,1.1705044E-2,2.5974025E-3,5.457026E-3,-8.989726E-4,3.9382926E-3,-1.4027839E-3,-6.4161886E-4,-2.1363217E-3],"categories":[],"categories_nodes":[],"categories_segments":[],"categories_sizes":[],"default_left":[0,0,0,0,0,0,0,0,0,0,0,0,0,0,0,0,0,0,0,0,0,0,0,0,0,0,0,0,0,0,0],"id":23,"left_children":[1,3,5,7,9,11,13,15,17,19,21,23,25,27,29,-1,-1,-1,-1,-1,-1,-1,-1,-1,-1,-1,-1,-1,-1,-1,-1],"loss_changes":[1.7830054E2,1.266037E1,2.768137E1,8.393295E0,2.5063744E0,6.3833942E0,1.2781408E1,3.4286041E0,7.7293587E0,2.7848587E0,1.5463992E0,2.1424923E0,3.369029E0,1.4124466E1,6.1355686E0,0E0,0E0,0E0,0E0,0E0,0E0,0E0,0E0,0E0,0E0,0E0,0E0,0E0,0E0,0E0,0E0],"parents":[2147483647,0,0,1,1,2,2,3,3,4,4,5,5,6,6,7,7,8,8,9,9,10,10,11,11,12,12,13,13,14,14],"right_children":[2,4,6,8,10,12,14,16,18,20,22,24,26,28,30,-1,-1,-1,-1,-1,-1,-1,-1,-1,-1,-1,-1,-1,-1,-1,-1],"split_conditions":[6.168995E-1,2.8439999E1,6.875E-1,1.4505076E1,1.3218391E0,3.6E0,1.6177586E1,2.36E1,6.875E-1,1.64E1,8.71E1,1.0717247E0,1.886891E1,1.1880993E0,3.013568E0,9.463196E-3,5.7067606E-3,4.6041547E-3,4.3470712E-4,3.4715757E-3,-6.825859E-3,2.6716532E-3,-3.6611215E-3,5.3146244E-3,1.3597608E-3,3.6100836E-3,-3.601402E-4,2.3339198E-3,-2.443713E-3,-1.3859355E-3,-1.3961123E-2],"split_indices":[20,33,9,21,9,29,21,28,9,29,17,20,21,20,20,0,0,0,0,0,0,0,0,0,0,0,0,0,0,0,0],"split_type":[0,0,0,0,0,0,0,0,0,0,0,0,0,0,0,0,0,0,0,0,0,0,0,0,0,0,0,0,0,0,0],"sum_hessian":[4.0272E4,5.619E3,3.4653E4,4.728E3,8.91E2,1.554E3,3.3099E4,3.609E3,1.119E3,7.86E2,1.05E2,5.31E2,1.023E3,4.979E3,2.812E4,3.366E3,2.43E2,6.73E2,4.46E2,7.18E2,6.8E1,4.1E1,6.4E1,4.55E2,7.6E1,7.32E2,2.91E2,2.681E3,2.298E3,1.6208E4,1.1912E4],"tree_param":{"num_deleted":"0","num_feature":"35","num_nodes":"31","size_leaf_vector":"1"}},{"base_weights":[1.7519915E-2,1.8159625E-1,-7.4629E-3,2.1551485E-1,1.1056297E-1,1.3857268E-1,-1.2392114E-2,2.2247641E-1,-1.4018691E-2,1.4898375E-1,1.4676114E-2,1.9326924E-1,2.0661157E-2,5.0686464E-2,-1.882675E-2,1.2064579E-2,8.563097E-3,4.3333336E-3,-1.2121213E-2,9.225544E-3,2.1704182E-3,6.753554E-3,-3.7411973E-3,1.0981514E-2,6.1032865E-3,4.004329E-3,-4.135338E-3,4.9303947E-3,-2.747955E-3,-4.7867323E-4,-2.1589969E-3],"categories":[],"categories_nodes":[],"categories_segments":[],"categories_sizes":[],"default_left":[0,0,0,0,0,0,0,0,0,0,0,0,0,0,0,0,0,0,0,0,0,0,0,0,0,0,0,0,0,0,0],"id":24,"left_children":[1,3,5,7,9,11,13,15,17,19,21,23,25,27,29,-1,-1,-1,-1,-1,-1,-1,-1,-1,-1,-1,-1,-1,-1,-1,-1],"loss_changes":[1.6518231E2,1.2805954E1,2.5176702E1,5.760391E0,6.3454247E0,7.361168E0,1.3732944E1,3.328415E0,2.4816992E0,4.605465E0,5.333133E0,1.4372501E0,2.2364173E0,1.5861752E1,6.917963E0,0E0,0E0,0E0,0E0,0E0,0E0,0E0,0E0,0E0,0E0,0E0,0E0,0E0,0E0,0E0,0E0],"parents":[2147483647,0,0,1,1,2,2,3,3,4,4,5,5,6,6,7,7,8,8,9,9,10,10,11,11,12,12,13,13,14,14],"right_children":[2,4,6,8,10,12,14,16,18,20,22,24,26,28,30,-1,-1,-1,-1,-1,-1,-1,-1,-1,-1,-1,-1,-1,-1,-1,-1],"split_conditions":[5.9487593E-1,1.56E1,6.25E-1,1.31E1,5.291376E0,7.7000003E0,1.32E1,4.7282273E-1,4.3443644E-1,2.36E1,6.875E-1,1.7470165E1,3.0599602E-2,1.2363753E0,3.9013767E0,9.780187E-3,4.7433563E-3,4.4841054E-3,-9.169039E-3,5.4741534E-3,1.5465565E-3,3.234572E-3,-1.4739871E-3,6.3702585E-3,2.5109046E-3,3.9148587E-3,-2.7959265E-3,3.2430186E-3,-4.0518194E-3,-1.0516964E-3,-1.517824E-2],"split_indices":[20,33,9,29,18,29,3,20,20,28,9,21,23,20,20,0,0,0,0,0,0,0,0,0,0,0,0,0,0,0,0],"split_type":[0,0,0,0,0,0,0,0,0,0,0,0,0,0,0,0,0,0,0,0,0,0,0,0,0,0,0,0,0,0,0],"sum_hessian":[4.0296E4,5.324E3,3.4972E4,3.602E3,1.722E3,1.141E3,3.3831E4,3.496E3,1.06E2,1.229E3,4.93E2,7.79E2,3.62E2,3.131E3,3.07E4,2.554E3,9.42E2,7.4E1,3.2E1,9.19E2,3.1E2,2.1E2,2.83E2,5.67E2,2.12E2,2.3E2,1.32E2,2.154E3,9.77E2,2.2248E4,8.452E3],"tree_param":{"num_deleted":"0","num_feature":"35","num_nodes":"31","size_leaf_vector":"1"}},{"base_weights":[1.5051933E-2,1.833622E-1,-9.900426E-3,2.0064689E-1,7.4579835E-2,5.1161554E-2,-2.1607561E-2,2.1951385E-1,1.13778055E-1,1.4071429E-1,1.0958904E-2,1.18626066E-1,1.0576377E-2,-8.770185E-3,-4.0701117E-2,1.1332615E-2,4.802956E-3,8.597418E-3,2.387268E-3,8.044164E-3,-2.5735295E-3,4.9689445E-3,-2.9268293E-3,8.266265E-3,3.7818472E-4,3.4203508E-3,-1.1872456E-3,-6.183074E-4,2.1248916E-3,-7.2916667E-3,-1.9536281E-3],"categories":[],"categories_nodes":[],"categories_segments":[],"categories_sizes":[],"default_left":[0,0,0,0,0,0,0,0,0,0,0,0,0,0,0,0,0,0,0,0,0,0,0,0,0,0,0,0,0,0,0],"id":25,"left_children":[1,3,5,7,9,11,13,15,17,19,21,23,25,27,29,-1,-1,-1,-1,-1,-1,-1,-1,-1,-1,-1,-1,-1,-1,-1,-1],"loss_changes":[1.6901607E2,9.754913E0,2.5056267E1,7.3224487E0,3.0026383E0,1.5438661E1,7.2086067E0,3.2230835E0,3.0723848E0,1.3649426E0,2.2486656E0,1.098381E1,6.992167E0,3.243012E0,2.0187302E0,0E0,0E0,0E0,0E0,0E0,0E0,0E0,0E0,0E0,0E0,0E0,0E0,0E0,0E0,0E0,0E0],"parents":[2147483647,0,0,1,1,2,2,3,3,4,4,5,5,6,6,7,7,8,8,9,9,10,10,11,11,12,12,13,13,14,14],"right_children":[2,4,6,8,10,12,14,16,18,20,22,24,26,28,30,-1,-1,-1,-1,-1,-1,-1,-1,-1,-1,-1,-1,-1,-1,-1,-1],"split_conditions":[5.827642E-1,1.01E1,1.0012498E0,1.6E1,2.55E1,1.34E1,3.2E0,6.82E0,4.3999996E0,8E0,3.3569512E-1,7.1000004E0,3.3000002E0,1E0,4.652174E0,8.39212E-3,2.6279464E-3,4.0397407E-3,1.3658025E-3,4.63326E-3,-1.6012908E-3,4.8835888E-3,-2.2690967E-3,4.7507444E-3,3.040135E-4,1.4907211E-3,-8.052722E-4,-1.6881585E-3,3.8681948E-3,-3.1727623E-2,-1.1923729E-2],"split_indices":[20,29,20,3,28,3,2,34,29,0,20,29,29,30,7,0,0,0,0,0,0,0,0,0,0,0,0,0,0,0,0],"split_type":[0,0,0,0,0,0,0,0,0,0,0,0,0,0,0,0,0,0,0,0,0,0,0,0,0,0,0,0,0,0,0],"sum_hessian":[4.0243E4,5.195E3,3.5048E4,4.482E3,7.13E2,5.638E3,2.941E4,3.681E3,8.01E2,3.49E2,3.64E2,2.117E3,3.521E3,1.7587E4,1.1823E4,3.479E3,2.02E2,4.25E2,3.76E2,3.16E2,3.3E1,1.6E2,2.04E2,1.49E3,6.27E2,1.311E3,2.21E3,1.6435E4,1.152E3,1.79E2,1.1644E4],"tree_param":{"num_deleted":"0","num_feature":"35","num_nodes":"31","size_leaf_vector":"1"}},{"base_weights":[1.6012153E-2,1.8563278E-1,-7.124059E-3,2.1746482E-1,8.088889E-2,8.097915E-2,-1.7259331E-2,2.3278816E-1,1.16016425E-1,1.6645078E-1,3.614865E-2,1.280463E-1,-1.6877636E-2,-5.1287473E-3,-3.5208512E-2,1.1714599E-2,-9.375E-3,1.0011062E-2,2.1469467E-3,1.0844749E-2,4.985119E-3,3.055112E-3,-5.0000004E-3,8.886663E-3,3.317039E-4,-1.8037684E-3,9.821429E-3,-4.4408167E-4,3.766311E-3,-1.4557345E-3,-3.3639707E-3],"categories":[],"categories_nodes":[],"categories_segments":[],"categories_sizes":[],"default_left":[0,0,0,0,0,0,0,0,0,0,0,0,0,0,0,0,0,0,0,0,0,0,0,0,0,0,0,0,0,0,0],"id":26,"left_children":[1,3,5,7,9,11,13,15,17,19,21,23,25,27,29,-1,-1,-1,-1,-1,-1,-1,-1,-1,-1,-1,-1,-1,-1,-1,-1],"loss_changes":[1.575926E2,1.6053314E1,3.1556467E1,5.7185364E0,4.30055E0,1.6795052E1,6.900466E0,2.0727386E0,2.9881454E0,1.2780638E0,2.5201843E0,1.4851093E1,4.859656E0,5.7112284E0,2.4958868E0,0E0,0E0,0E0,0E0,0E0,0E0,0E0,0E0,0E0,0E0,0E0,0E0,0E0,0E0,0E0,0E0],"parents":[2147483647,0,0,1,1,2,2,3,3,4,4,5,5,6,6,7,7,8,8,9,9,10,10,11,11,12,12,13,13,14,14],"right_children":[2,4,6,8,10,12,14,16,18,20,22,24,26,28,30,-1,-1,-1,-1,-1,-1,-1,-1,-1,-1,-1,-1,-1,-1,-1,-1],"split_conditions":[6.511628E-1,8.5E0,1.2961746E1,1.88E1,4E-1,3E0,3E0,6.264E1,3.3000002E0,2.55E1,4.18E1,7.2E0,1E0,7E0,7E0,7.370253E-3,-2.6177198E-3,3.9709434E-3,1.0547653E-3,9.9317655E-3,4.638827E-3,2.479978E-3,-2.0474957E-3,4.972506E-3,2.0976066E-4,-1.3409853E-3,1.0960803E-2,-6.832823E-4,5.718919E-3,-8.393997E-3,-2.2047061E-2],"split_indices":[9,29,21,3,2,27,2,33,29,28,33,29,30,13,2,0,0,0,0,0,0,0,0,0,0,0,0,0,0,0,0],"split_type":[0,0,0,0,0,0,0,0,0,0,0,0,0,0,0,0,0,0,0,0,0,0,0,0,0,0,0,0,0,0,0],"sum_hessian":[4.0156E4,4.819E3,3.5337E4,3.695E3,1.124E3,3.645E3,3.1692E4,3.209E3,4.86E2,3.85E2,7.39E2,2.461E3,1.184E3,1.8912E4,1.278E4,3.198E3,1.1E1,2.25E2,2.61E2,2.18E2,1.67E2,6.25E2,1.14E2,1.746E3,7.15E2,1.087E3,9.7E1,1.807E4,8.42E2,1.0741E4,2.039E3],"tree_param":{"num_deleted":"0","num_feature":"35","num_nodes":"31","size_leaf_vector":"1"}},{"base_weights":[1.3125498E-2,1.7020269E-1,-1.0614085E-2,2.039889E-1,6.861258E-2,6.761395E-2,-1.971939E-2,2.2285034E-1,9.8169714E-2,1.738661E-1,1.1668611E-2,1.1789891E-1,-2.8823059E-2,-1.263831E-2,-4.754964E-2,1.1339775E-2,2.4671054E-3,7.351191E-3,-7.554945E-4,9.95603E-3,9.469697E-4,-1.1544012E-3,7.878788E-3,1.0356732E-2,3.350262E-3,-2.2367295E-3,9.908537E-3,-8.285597E-4,2.01216E-3,-1.6279897E-3,-3.8665254E-3],"categories":[],"categories_nodes":[],"categories_segments":[],"categories_sizes":[],"default_left":[0,0,0,0,0,0,0,0,0,0,0,0,0,0,0,0,0,0,0,0,0,0,0,0,0,0,0,0,0,0,0],"id":27,"left_children":[1,3,5,7,9,11,13,15,17,19,21,23,25,27,29,-1,-1,-1,-1,-1,-1,-1,-1,-1,-1,-1,-1,-1,-1,-1,-1],"loss_changes":[1.499353E2,1.8105347E1,2.4881626E1,7.8838806E0,7.9034677E0,1.7664663E1,6.1654673E0,2.2894745E0,3.3282595E0,1.8077612E0,4.349692E0,1.0858551E1,4.5200267E0,5.188442E0,2.8304033E0,0E0,0E0,0E0,0E0,0E0,0E0,0E0,0E0,0E0,0E0,0E0,0E0,0E0,0E0,0E0,0E0],"parents":[2147483647,0,0,1,1,2,2,3,3,4,4,5,5,6,6,7,7,8,8,9,9,10,10,11,11,12,12,13,13,14,14],"right_children":[2,4,6,8,10,12,14,16,18,20,22,24,26,28,30,-1,-1,-1,-1,-1,-1,-1,-1,-1,-1,-1,-1,-1,-1,-1,-1],"split_conditions":[6.875E-1,8.2E0,1.3246343E1,1.7470165E1,3.6620882E-1,1.0478343E0,8.946E1,1.1046898E0,1E0,3.31E1,4E0,2.9E0,1E0,1E0,5.318182E0,7.1241916E-3,1.254788E-3,3.422293E-3,-2.878353E-4,7.0102676E-3,5.9975235E-4,-4.5707152E-4,5.008848E-3,6.430787E-3,2.067399E-3,-1.9310057E-3,9.500436E-3,-1.5690982E-3,4.2896606E-3,-1.0729267E-2,-1.913612E-2],"split_indices":[9,29,21,21,20,20,33,20,2,28,13,29,30,30,8,0,0,0,0,0,0,0,0,0,0,0,0,0,0,0,0],"split_type":[0,0,0,0,0,0,0,0,0,0,0,0,0,0,0,0,0,0,0,0,0,0,0,0,0,0,0,0,0,0,0],"sum_hessian":[4.0207E4,5.278E3,3.4929E4,3.96E3,1.318E3,3.641E3,3.1288E4,3.36E3,6E2,4.62E2,8.56E2,2.393E3,1.248E3,2.4943E4,6.345E3,3.285E3,7.5E1,4.19E2,1.81E2,3.97E2,6.5E1,6.92E2,1.64E2,8.68E2,1.525E3,1.167E3,8.1E1,2.3217E4,1.726E3,4.222E3,2.123E3],"tree_param":{"num_deleted":"0","num_feature":"35","num_nodes":"31","size_leaf_vector":"1"}},{"base_weights":[1.43360915E-2,1.6592711E-1,-8.713502E-3,2.077996E-1,8.338004E-2,1.18662864E-1,-1.4757623E-2,2.309974E-1,1.3096695E-1,1.6906475E-1,2.8669724E-2,1.6463985E-1,2.2058824E-2,3.781669E-3,-2.7300227E-2,1.2059296E-2,9.362841E-3,9.216486E-3,9.868421E-4,1.0196168E-2,1.9425675E-3,-3.4052212E-4,8.869047E-3,9.191555E-3,-1.2626263E-3,2.3626375E-3,-9.151786E-3,-1.8287262E-4,4.5757866E-3,-2.5282714E-3,-1.1498716E-3],"categories":[],"categories_nodes":[],"categories_segments":[],"categories_sizes":[],"default_left":[0,0,0,0,0,0,0,0,0,0,0,0,0,0,0,0,0,0,0,0,0,0,0,0,0,0,0,0,0,0,0],"id":28,"left_children":[1,3,5,7,9,11,13,15,17,19,21,23,25,27,29,-1,-1,-1,-1,-1,-1,-1,-1,-1,-1,-1,-1,-1,-1,-1,-1],"loss_changes":[1.4020616E2,1.828804E1,2.6817377E1,6.231125E0,8.358256E0,7.0051537E0,7.7326884E0,1.1567688E0,4.845703E0,3.146721E0,5.752374E0,3.9003658E0,2.6438885E0,8.75909E0,1.9844294E0,0E0,0E0,0E0,0E0,0E0,0E0,0E0,0E0,0E0,0E0,0E0,0E0,0E0,0E0,0E0,0E0],"parents":[2147483647,0,0,1,1,2,2,3,3,4,4,5,5,6,6,7,7,8,8,9,9,10,10,11,11,12,12,13,13,14,14],"right_children":[2,4,6,8,10,12,14,16,18,20,22,24,26,28,30,-1,-1,-1,-1,-1,-1,-1,-1,-1,-1,-1,-1,-1,-1,-1,-1],"split_conditions":[6.875E-1,1.5E1,9E0,1.56E1,3.9298105E-1,2.75E1,3.41E0,1.998E0,6E-1,1.3399999E1,4E0,1.8199999E1,1.6041486E0,1E0,6.6608205E0,7.888436E-3,4.5527327E-3,3.7772625E-3,4.4088214E-4,6.3039185E-3,2.447471E-3,-1.6442538E-4,5.955388E-3,6.1208806E-3,-1.6747721E-3,1.9186385E-3,-1.9078506E-2,-1.7530024E-4,7.813435E-3,-3.2425285E-3,-5.619892E-3],"split_indices":[9,28,3,3,20,33,34,27,9,29,13,28,20,30,18,0,0,0,0,0,0,0,0,0,0,0,0,0,0,0,0],"split_type":[0,0,0,0,0,0,0,0,0,0,0,0,0,0,0,0,0,0,0,0,0,0,0,0,0,0,0,0,0,0,0],"sum_hessian":[4.0125E4,5.295E3,3.483E4,3.512E3,1.783E3,1.577E3,3.3253E4,2.696E3,8.16E2,6.94E2,1.089E3,1.068E3,5.09E2,1.3419E4,1.9834E4,2.183E3,5.13E2,5.51E2,2.65E2,5.47E2,1.47E2,8.8E2,2.09E2,9.7E2,9.8E1,4.54E2,5.5E1,1.2371E4,1.048E3,3.094E3,1.674E4],"tree_param":{"num_deleted":"0","num_feature":"35","num_nodes":"31","size_leaf_vector":"1"}},{"base_weights":[1.5393189E-2,1.5065186E-1,-9.205866E-3,2.1226239E-1,1.0379496E-1,9.072137E-2,-1.4815444E-2,2.2853482E-1,1.0058309E-1,1.5972589E-1,3.883792E-2,1.3807449E-1,-1.7117117E-2,-4.11537E-3,-3.585511E-2,1.1900465E-2,9.119107E-3,6.0231024E-3,-2.4390244E-3,9.534331E-3,2.6346603E-3,3.4879337E-4,8.75E-3,8.879024E-3,1.968232E-3,3.73444E-3,-4.3650796E-3,-4.503769E-4,2.9449838E-3,-9.935354E-4,-2.4018262E-3],"categories":[],"categories_nodes":[],"categories_segments":[],"categories_sizes":[],"default_left":[0,0,0,0,0,0,0,0,0,0,0,0,0,0,0,0,0,0,0,0,0,0,0,0,0,0,0,0,0,0,0],"id":29,"left_children":[1,3,5,7,9,11,13,15,17,19,21,23,25,27,29,-1,-1,-1,-1,-1,-1,-1,-1,-1,-1,-1,-1,-1,-1,-1,-1],"loss_changes":[1.3433853E2,1.7914139E1,1.9151402E1,4.8528137E0,1.28223E1,9.275746E0,7.2822285E0,9.8023987E-1,1.0243092E0,6.276249E0,7.092068E0,4.914341E0,3.5825794E0,6.61129E0,2.122386E0,0E0,0E0,0E0,0E0,0E0,0E0,0E0,0E0,0E0,0E0,0E0,0E0,0E0,0E0,0E0,0E0],"parents":[2147483647,0,0,1,1,2,2,3,3,4,4,5,5,6,6,7,7,8,8,9,9,10,10,11,11,12,12,13,13,14,14],"right_children":[2,4,6,8,10,12,14,16,18,20,22,24,26,28,30,-1,-1,-1,-1,-1,-1,-1,-1,-1,-1,-1,-1,-1,-1,-1,-1],"split_conditions":[7.5E-1,4.3443644E-1,1E1,2.31E1,1.23E1,1.0263215E0,5.904E1,3.810647E-1,9.9E0,1.92E1,4E0,1.54E1,1.846E1,5E0,1.652E1,8.6463E-3,4.9642376E-3,4.754286E-3,-1.7069854E-3,3.5924555E-3,1.0880887E-3,1.4647543E-4,5.7954104E-3,5.5146455E-3,1.7047033E-3,3.2537803E-3,-5.0551156E-3,-7.0112053E-4,4.874932E-3,-5.021325E-3,-1.4278799E-2],"split_indices":[9,20,3,28,28,20,33,20,34,3,13,28,33,13,34,0,0,0,0,0,0,0,0,0,0,0,0,0,0,0,0],"split_type":[0,0,0,0,0,0,0,0,0,0,0,0,0,0,0,0,0,0,0,0,0,0,0,0,0,0,0,0,0,0,0],"sum_hessian":[4.0374E4,6.212E3,3.4162E4,2.682E3,3.53E3,1.815E3,3.2347E4,2.34E3,3.42E2,1.896E3,1.634E3,1.261E3,5.54E2,2.1443E4,1.0904E4,1.938E3,4.02E2,3.02E2,4E1,1.47E3,4.26E2,1.325E3,3.09E2,9E2,3.61E2,2.4E2,3.14E2,1.9899E4,1.544E3,4.717E3,6.187E3],"tree_param":{"num_deleted":"0","num_feature":"35","num_nodes":"31","size_leaf_vector":"1"}},{"base_weights":[1.4321326E-2,1.6235903E-1,-8.312737E-3,1.9529471E-1,6.706871E-2,1.14583336E-1,-1.4080693E-2,2.2522523E-1,1.0135841E-1,1.5585107E-1,2.057842E-2,1.6407011E-1,1.9194756E-2,2.7771011E-2,-1.9977346E-2,1.1764996E-2,8.4859915E-3,9.4282245E-3,1.7824498E-3,9.982332E-3,4.4547874E-3,3.3764367E-3,-2.2156085E-3,9.441939E-3,3.5460992E-4,6.31649E-3,-1.945245E-3,4.536489E-3,-4.6421663E-4,-7.286972E-4,-2.2509673E-3],"categories":[],"categories_nodes":[],"categories_segments":[],"categories_sizes":[],"default_left":[0,0,0,0,0,0,0,0,0,0,0,0,0,0,0,0,0,0,0,0,0,0,0,0,0,0,0,0,0,0,0],"id":30,"left_children":[1,3,5,7,9,11,13,15,17,19,21,23,25,27,29,-1,-1,-1,-1,-1,-1,-1,-1,-1,-1,-1,-1,-1,-1,-1,-1],"loss_changes":[1.3441447E2,1.6683456E1,2.4667078E1,1.1091278E1,5.6432366E0,7.3607883E0,8.202946E0,1.6359863E0,5.4771357E0,1.3562984E0,2.741916E0,3.9917755E0,3.328802E0,9.577639E0,3.9413881E0,0E0,0E0,0E0,0E0,0E0,0E0,0E0,0E0,0E0,0E0,0E0,0E0,0E0,0E0,0E0,0E0],"parents":[2147483647,0,0,1,1,2,2,3,3,4,4,5,5,6,6,7,7,8,8,9,9,10,10,11,11,12,12,13,13,14,14],"right_children":[2,4,6,8,10,12,14,16,18,20,22,24,26,28,30,-1,-1,-1,-1,-1,-1,-1,-1,-1,-1,-1,-1,-1,-1,-1,-1],"split_conditions":[6.875E-1,8.1E0,9E0,1.56E1,3.6620882E-1,6.5E0,1E0,2E0,3.1000001E0,1.17E1,1.4E0,4.4E0,5.7125247E-1,3.5E0,5.0415106E0,7.1935686E-3,3.7376613E-3,3.3978305E-3,6.2242075E-4,6.2180855E-3,3.6004751E-3,2.7454004E-3,-1.1230231E-3,5.737377E-3,8.769855E-5,5.6695254E-3,-2.298961E-3,1.927887E-3,-3.407076E-4,-1.711309E-3,-1.6197903E-2],"split_indices":[9,29,3,3,20,29,9,27,29,29,27,27,20,29,20,0,0,0,0,0,0,0,0,0,0,0,0,0,0,0,0],"split_type":[0,0,0,0,0,0,0,0,0,0,0,0,0,0,0,0,0,0,0,0,0,0,0,0,0,0,0,0,0,0,0],"sum_hessian":[4.0114E4,5.319E3,3.4795E4,3.952E3,1.367E3,1.559E3,3.3236E4,2.996E3,9.56E2,4.69E2,8.98E2,1.026E3,5.33E2,4.104E3,2.9132E4,2.533E3,4.63E2,4.1E2,5.46E2,2.82E2,1.87E2,5.21E2,3.77E2,8.86E2,1.4E2,1.87E2,3.46E2,1.52E3,2.584E3,2.3963E4,5.169E3],"tree_param":{"num_deleted":"0","num_feature":"35","num_nodes":"31","size_leaf_vector":"1"}},{"base_weights":[1.42129455E-2,1.5921788E-1,-7.26002E-3,2.1086712E-1,1.0472706E-1,6.47928E-2,-1.3865533E-2,2.2825608E-1,1.11875E-1,1.8898043E-1,5.2150194E-2,1.1521883E-1,1.1830201E-2,7.28022E-2,-1.6392654E-2,1.1496674E-2,-6.8181823E-3,6.8181823E-3,-6.25E-3,1.0786164E-2,3.3898305E-3,1.9148937E-4,9.99349E-3,8.081897E-3,5.376344E-4,-1.4787066E-3,2.2232586E-3,6.8827714E-3,-1.6163792E-3,-3.2843015E-4,-1.6624598E-3],"categories":[],"categories_nodes":[],"categories_segments":[],"categories_sizes":[],"default_left":[0,0,0,0,0,0,0,0,0,0,0,0,0,0,0,0,0,0,0,0,0,0,0,0,0,0,0,0,0,0,0],"id":31,"left_children":[1,3,5,7,9,11,13,15,17,19,21,23,25,27,29,-1,-1,-1,-1,-1,-1,-1,-1,-1,-1,-1,-1,-1,-1,-1,-1],"loss_changes":[1.2531145E2,1.4587509E1,1.668518E1,4.560196E0,1.1188623E1,7.8611584E0,7.03436E0,1.4166641E0,2.3373437E0,3.1321907E0,1.1120037E1,7.310894E0,1.9430315E0,6.208835E0,5.1669836E0,0E0,0E0,0E0,0E0,0E0,0E0,0E0,0E0,0E0,0E0,0E0,0E0,0E0,0E0,0E0,0E0],"parents":[2147483647,0,0,1,1,2,2,3,3,4,4,5,5,6,6,7,7,8,8,9,9,10,10,11,11,12,12,13,13,14,14],"right_children":[2,4,6,8,10,12,14,16,18,20,22,24,26,28,30,-1,-1,-1,-1,-1,-1,-1,-1,-1,-1,-1,-1,-1,-1,-1,-1],"split_conditions":[5.827642E-1,3.810647E-1,1.4E0,2.16E1,3.3000002E0,1.76E1,8.8E0,5.772E1,2.074998E-2,2.5E0,4E0,6.9E0,9.323077E-1,2.808E1,5.9E0,7.618401E-3,-2.9491559E-3,4.4657425E-3,-1.8836096E-3,5.030433E-3,1.4682554E-3,5.048141E-5,6.0933414E-3,3.41855E-3,2.760306E-4,-1.3870284E-3,1.6018093E-3,5.1328475E-3,-1.7878771E-3,-4.5700299E-4,-9.733436E-3],"split_indices":[20,20,27,28,29,3,3,33,32,27,13,29,25,33,27,0,0,0,0,0,0,0,0,0,0,0,0,0,0,0,0],"split_type":[0,0,0,0,0,0,0,0,0,0,0,0,0,0,0,0,0,0,0,0,0,0,0,0,0,0,0,0,0,0,0],"sum_hessian":[4.0244E4,5.19E3,3.5054E4,2.663E3,2.527E3,2.943E3,3.2111E4,2.264E3,3.99E2,9.7E2,1.557E3,1.507E3,1.436E3,9.09E2,3.1202E4,2.254E3,1E1,3.62E2,3.7E1,7.94E2,1.76E2,1.174E3,3.83E2,1.043E3,4.64E2,6.33E2,8.03E2,5.62E2,3.47E2,1.9714E4,1.1488E4],"tree_param":{"num_deleted":"0","num_feature":"35","num_nodes":"31","size_leaf_vector":"1"}},{"base_weights":[1.36990575E-2,1.6447641E-1,-6.9619715E-3,1.9819193E-1,6.64378E-2,7.105644E-2,-1.5435883E-2,2.158501E-1,9.192607E-2,1.4313346E-1,1.1426593E-2,1.1950994E-1,-1.0054138E-2,-1.9202849E-2,3.546989E-2,1.1421741E-2,7.6775434E-3,1.3322885E-3,9.885204E-3,8.143939E-3,-1.1160715E-3,-6.441224E-4,7.965687E-3,6.9522834E-3,-2.906977E-3,-1.2310607E-3,7.665094E-3,-1.1287942E-3,1.5777358E-3,7.993891E-3,-2.2032902E-5],"categories":[],"categories_nodes":[],"categories_segments":[],"categories_sizes":[],"default_left":[0,0,0,0,0,0,0,0,0,0,0,0,0,0,0,0,0,0,0,0,0,0,0,0,0,0,0,0,0,0,0],"id":32,"left_children":[1,3,5,7,9,11,13,15,17,19,21,23,25,27,29,-1,-1,-1,-1,-1,-1,-1,-1,-1,-1,-1,-1,-1,-1,-1,-1],"loss_changes":[1.2490258E2,1.5958633E1,2.3314213E1,6.7260437E0,5.2216363E0,1.3579666E1,6.1003857E0,2.3812714E0,3.5440154E0,1.6926546E0,2.5976384E0,7.514799E0,3.0806224E0,5.071521E0,9.792954E0,0E0,0E0,0E0,0E0,0E0,0E0,0E0,0E0,0E0,0E0,0E0,0E0,0E0,0E0,0E0,0E0],"parents":[2147483647,0,0,1,1,2,2,3,3,4,4,5,5,6,6,7,7,8,8,9,9,10,10,11,11,12,12,13,13,14,14],"right_children":[2,4,6,8,10,12,14,16,18,20,22,24,26,28,30,-1,-1,-1,-1,-1,-1,-1,-1,-1,-1,-1,-1,-1,-1,-1,-1],"split_conditions":[6.511628E-1,8.1E0,3.6E0,1.761097E1,3.9298105E-1,1.0829357E0,1E0,1.5360001E1,4.04E0,1.64E1,5E0,2.4300001E1,1E0,5E0,1.960077E1,6.23312E-3,3.8333551E-3,4.4512525E-4,3.9723963E-3,5.26934E-3,-2.6238412E-3,-3.9872303E-4,4.670711E-3,3.6647313E-3,-3.5620795E-3,-1.3852299E-3,1.06235435E-2,-2.0242662E-3,3.5293193E-3,7.46308E-3,-2.3803115E-4],"split_indices":[9,29,0,21,20,20,30,33,8,29,13,28,30,13,21,0,0,0,0,0,0,0,0,0,0,0,0,0,0,0,0],"split_type":[0,0,0,0,0,0,0,0,0,0,0,0,0,0,0,0,0,0,0,0,0,0,0,0,0,0,0,0,0,0,0],"sum_hessian":[4.0093E4,4.831E3,3.5262E4,3.594E3,1.237E3,3.454E3,3.1808E4,3.081E3,5.13E2,5.16E2,7.21E2,2.162E3,1.292E3,2.9617E4,2.191E3,2.561E3,5.2E2,3.18E2,1.95E2,4.61E2,5.5E1,6.2E2,1.01E2,1.948E3,2.14E2,1.187E3,1.05E2,2.7772E4,1.845E3,4.9E2,1.701E3],"tree_param":{"num_deleted":"0","num_feature":"35","num_nodes":"31","size_leaf_vector":"1"}},{"base_weights":[1.574412E-2,1.5693578E-1,-4.121463E-3,1.9938745E-1,7.545508E-2,6.682367E-2,-1.1674554E-2,2.2257935E-1,1.2483913E-1,3.7087914E-2,1.8895349E-1,1.0728883E-1,-7.734114E-3,3.5073352E-3,-2.3606291E-2,1.179939E-2,9.356832E-3,1.008902E-2,3.287982E-3,6.5460526E-3,-1.396648E-4,1.100399E-2,-1.3636363E-3,8.6280815E-3,2.9625983E-3,-1.75047E-3,1.0526316E-2,-1.3079941E-4,3.979446E-3,-2.1441926E-3,-8.766927E-4],"categories":[],"categories_nodes":[],"categories_segments":[],"categories_sizes":[],"default_left":[0,0,0,0,0,0,0,0,0,0,0,0,0,0,0,0,0,0,0,0,0,0,0,0,0,0,0,0,0,0,0],"id":33,"left_children":[1,3,5,7,9,11,13,15,17,19,21,23,25,27,29,-1,-1,-1,-1,-1,-1,-1,-1,-1,-1,-1,-1,-1,-1,-1,-1],"loss_changes":[1.1294933E2,1.7165771E1,1.8918072E1,5.6171265E0,7.4088984E0,1.0249553E1,5.779918E0,1.1386871E0,3.5187025E0,4.767902E0,2.9000406E0,6.89415E0,7.1272964E0,6.541984E0,2.0906734E0,0E0,0E0,0E0,0E0,0E0,0E0,0E0,0E0,0E0,0E0,0E0,0E0,0E0,0E0,0E0,0E0],"parents":[2147483647,0,0,1,1,2,2,3,3,4,4,5,5,6,6,7,7,8,8,9,9,10,10,11,11,12,12,13,13,14,14],"right_children":[2,4,6,8,10,12,14,16,18,20,22,24,26,28,30,-1,-1,-1,-1,-1,-1,-1,-1,-1,-1,-1,-1,-1,-1,-1,-1],"split_conditions":[6.666667E-1,1.5E1,3.6E0,1.5033564E1,4E0,1.3333334E0,4.2E0,1.14E1,2.8E0,4E-1,3.31E1,3.7E0,1E0,5E0,2.2695692E1,7.6212734E-3,3.246832E-3,3.0702555E-3,1.2246751E-3,3.2949478E-3,-2.7935952E-5,7.6287016E-3,-8.3497394E-4,4.9735527E-3,1.6685084E-3,-2.2261858E-3,1.0276799E-2,-1.5624837E-4,5.222954E-3,-3.710708E-3,-4.9409033E-3],"split_indices":[9,28,0,21,13,9,34,3,29,2,28,29,30,13,21,0,0,0,0,0,0,0,0,0,0,0,0,0,0,0,0],"split_type":[0,0,0,0,0,0,0,0,0,0,0,0,0,0,0,0,0,0,0,0,0,0,0,0,0,0,0,0,0,0,0],"sum_hessian":[4.0268E4,4.966E3,3.5302E4,3.264E3,1.702E3,3.396E3,3.1906E4,2.488E3,7.76E2,1.273E3,4.29E2,2.201E3,1.195E3,1.4041E4,1.7865E4,1.801E3,6.87E2,3.36E2,4.4E2,3.79E2,8.94E2,3.75E2,5.4E1,9.32E2,1.269E3,1.063E3,1.32E2,1.2996E4,1.045E3,4.278E3,1.3587E4],"tree_param":{"num_deleted":"0","num_feature":"35","num_nodes":"31","size_leaf_vector":"1"}},{"base_weights":[1.5607498E-2,1.6313277E-1,-3.0207457E-3,2.142694E-1,1.14686824E-1,4.779598E-2,-1.3134453E-2,2.292328E-1,1.1960133E-1,5.9970565E-2,1.922675E-1,9.321049E-2,7.731959E-4,-5.794122E-3,-3.1946108E-2,1.1657682E-2,1.0416667E-3,7.0199273E-3,-5.2884617E-3,7.854209E-3,2.8636886E-4,1.0804322E-2,1.6000001E-3,7.105024E-3,1.6899338E-3,-1.4285714E-3,2.903144E-3,-4.3508876E-4,1.6107823E-3,-1.1407767E-2,-1.4745999E-3],"categories":[],"categories_nodes":[],"categories_segments":[],"categories_sizes":[],"default_left":[0,0,0,0,0,0,0,0,0,0,0,0,0,0,0,0,0,0,0,0,0,0,0,0,0,0,0,0,0,0,0],"id":34,"left_children":[1,3,5,7,9,11,13,15,17,19,21,23,25,27,29,-1,-1,-1,-1,-1,-1,-1,-1,-1,-1,-1,-1,-1,-1,-1,-1],"loss_changes":[1.1040138E2,1.1133469E1,1.8333065E1,3.0748367E0,9.815468E0,1.2644323E1,4.107808E0,1.5394669E0,1.4256616E0,7.1579757E0,3.6463356E0,8.743984E0,4.8937893E0,2.3655028E0,4.013955E0,0E0,0E0,0E0,0E0,0E0,0E0,0E0,0E0,0E0,0E0,0E0,0E0,0E0,0E0,0E0,0E0],"parents":[2147483647,0,0,1,1,2,2,3,3,4,4,5,5,6,6,7,7,8,8,9,9,10,10,11,11,12,12,13,13,14,14],"right_children":[2,4,6,8,10,12,14,16,18,20,22,24,26,28,30,-1,-1,-1,-1,-1,-1,-1,-1,-1,-1,-1,-1,-1,-1,-1,-1],"split_conditions":[5.3363097E-1,3.3569512E-1,9.7780675E-1,2.23E1,1E0,4.7E0,1.3779999E1,3.5E0,1.7967936E-2,3.4E0,9.8E0,5.8342705E0,1E0,1E0,3.1928644E0,7.1614794E-3,4.5090914E-4,4.6556713E-3,-2.980113E-3,2.2809715E-3,7.277131E-5,5.95736E-3,9.930134E-4,2.6711733E-3,6.3072814E-4,-7.334977E-4,2.013211E-3,-1.1020482E-3,2.809465E-3,-2.0120109E-2,-8.972752E-3],"split_indices":[20,20,20,28,15,29,34,27,32,29,29,18,15,30,18,0,0,0,0,0,0,0,0,0,0,0,0,0,0,0,0],"split_type":[0,0,0,0,0,0,0,0,0,0,0,0,0,0,0,0,0,0,0,0,0,0,0,0,0,0,0,0,0,0,0],"sum_hessian":[4.0172E4,4.503E3,3.5669E4,2.189E3,2.314E3,5.92E3,2.9749E4,1.889E3,3E2,1.358E3,9.56E2,3.011E3,2.909E3,2.14E4,8.349E3,1.854E3,3.5E1,2.75E2,2.5E1,4.86E2,8.72E2,8.32E2,1.24E2,1.651E3,1.36E3,1.924E3,9.85E2,1.988E4,1.52E3,1.02E2,8.247E3],"tree_param":{"num_deleted":"0","num_feature":"35","num_nodes":"31","size_leaf_vector":"1"}},{"base_weights":[1.456377E-2,1.3916914E-1,-3.330966E-3,1.8047518E-1,6.260575E-2,6.1707523E-2,-1.0623341E-2,2.1586294E-1,1.2728311E-1,2.5381679E-2,1.6756466E-1,1.0926804E-1,6.9654756E-3,1.8098159E-1,-1.1614799E-2,1.1094245E-2,3.2467532E-3,3.7428574E-3,1.15625E-2,4.930156E-4,1.1303192E-2,9.382423E-3,-1.4204546E-3,7.553036E-3,9.380863E-5,2.8571428E-3,-8.207631E-4,1.23641305E-2,4.6875E-3,-1.0526576E-4,-1.4298036E-3],"categories":[],"categories_nodes":[],"categories_segments":[],"categories_sizes":[],"default_left":[0,0,0,0,0,0,0,0,0,0,0,0,0,0,0,0,0,0,0,0,0,0,0,0,0,0,0,0,0,0,0],"id":35,"left_children":[1,3,5,7,9,11,13,15,17,19,21,23,25,27,29,-1,-1,-1,-1,-1,-1,-1,-1,-1,-1,-1,-1,-1,-1,-1,-1],"loss_changes":[8.975803E1,1.5975296E1,1.669549E1,6.152275E0,6.9228535E0,9.239272E0,6.014971E0,1.7760925E0,7.1447315E0,4.0782394E0,1.8315878E0,8.522799E0,1.9378653E0,9.1953516E-1,5.085043E0,0E0,0E0,0E0,0E0,0E0,0E0,0E0,0E0,0E0,0E0,0E0,0E0,0E0,0E0,0E0,0E0],"parents":[2147483647,0,0,1,1,2,2,3,3,4,4,5,5,6,6,7,7,8,8,9,9,10,10,11,11,12,12,13,13,14,14],"right_children":[2,4,6,8,10,12,14,16,18,20,22,24,26,28,30,-1,-1,-1,-1,-1,-1,-1,-1,-1,-1,-1,-1,-1,-1,-1,-1],"split_conditions":[6E-1,1.5839999E1,1.5E0,1.3E0,4E0,1.7218042E1,5.741137E0,1.24E1,4E0,1E0,3.02E1,1.728E1,3E0,4.6000004E0,1.003E1,6.0643787E-3,1.9544363E-3,1.2597829E-3,8.124425E-3,2.5919007E-4,8.641899E-3,5.524654E-3,-1.8530786E-3,3.28047E-3,1.4775991E-4,1.52888E-3,-9.717919E-4,9.201354E-3,4.628143E-3,-1.1440516E-4,-6.2041283E-3],"split_indices":[2,33,27,27,13,21,21,29,13,30,28,33,29,29,34,0,0,0,0,0,0,0,0,0,0,0,0,0,0,0,0],"split_type":[0,0,0,0,0,0,0,0,0,0,0,0,0,0,0,0,0,0,0,0,0,0,0,0,0,0,0,0,0,0,0],"sum_hessian":[4.0253E4,5.054E3,3.5199E4,3.282E3,1.772E3,3.548E3,3.1651E4,1.969E3,1.313E3,1.309E3,4.63E2,1.898E3,1.65E3,1.62E2,3.1489E4,1.893E3,7.6E1,8.74E2,4.39E2,1.216E3,9.3E1,4.2E2,4.3E1,1.366E3,5.32E2,5.24E2,1.126E3,9.1E1,7.1E1,2.0186E4,1.1303E4],"tree_param":{"num_deleted":"0","num_feature":"35","num_nodes":"31","size_leaf_vector":"1"}},{"base_weights":[1.1395216E-2,1.507605E-1,-6.8612318E-3,1.8303572E-1,5.0832603E-2,6.652161E-2,-1.4142941E-2,2.0213832E-1,7.602612E-2,6.2351543E-3,1.7583333E-1,1.9078948E-1,4.3961085E-2,-1.7748091E-2,3.3296943E-2,8.858167E-3,1.2439962E-2,8.152174E-4,8.255814E-3,3.2618612E-3,-5.1694917E-3,1.012597E-2,5.8139535E-4,1.0088175E-2,-1.1538462E-2,-7.8564725E-4,4.113924E-3,-6.5080525E-4,-2.1367522E-3,6.6633597E-3,-7.980456E-4],"categories":[],"categories_nodes":[],"categories_segments":[],"categories_sizes":[],"default_left":[0,0,0,0,0,0,0,0,0,0,0,0,0,0,0,0,0,0,0,0,0,0,0,0,0,0,0,0,0,0,0],"id":36,"left_children":[1,3,5,7,9,11,13,15,17,19,21,23,25,27,29,-1,-1,-1,-1,-1,-1,-1,-1,-1,-1,-1,-1,-1,-1,-1,-1],"loss_changes":[1.0254202E2,1.5045898E1,1.9042591E1,7.1964417E0,6.3596525E0,9.010625E0,5.5451455E0,3.4438324E0,2.8491616E0,5.452886E0,1.3122425E0,2.3318977E0,6.2298646E0,3.5619516E0,1.1278821E1,0E0,0E0,0E0,0E0,0E0,0E0,0E0,0E0,0E0,0E0,0E0,0E0,0E0,0E0,0E0,0E0],"parents":[2147483647,0,0,1,1,2,2,3,3,4,4,5,5,6,6,7,7,8,8,9,9,10,10,11,11,12,12,13,13,14,14],"right_children":[2,4,6,8,10,12,14,16,18,20,22,24,26,28,30,-1,-1,-1,-1,-1,-1,-1,-1,-1,-1,-1,-1,-1,-1,-1,-1],"split_conditions":[6.4E-1,1.8199999E1,3.4E0,1.84E1,4E0,4.3443644E-1,5E0,4E0,4.021053E0,1.5E0,3.58E1,1.56E1,1.9166666E0,2.175E1,1.3708773E0,2.9543506E-3,8.732828E-3,4.4766368E-4,4.1509005E-3,1.9168347E-3,-1.7998107E-3,6.794948E-3,1.3949402E-3,5.539242E-3,-2.41552E-3,-2.977431E-4,2.3711137E-3,-9.867623E-4,-1.2094058E-2,4.7658267E-3,-2.654469E-3],"split_indices":[9,28,0,3,13,20,13,13,8,27,28,3,8,34,20,0,0,0,0,0,0,0,0,0,0,0,0,0,0,0,0],"split_type":[0,0,0,0,0,0,0,0,0,0,0,0,0,0,0,0,0,0,0,0,0,0,0,0,0,0,0,0,0,0,0],"sum_hessian":[4.0301E4,4.667E3,3.5634E4,3.527E3,1.14E3,3.216E3,3.2418E4,2.992E3,5.35E2,8.41E2,2.99E2,4.93E2,2.723E3,3.0129E4,2.289E3,1.952E3,1.04E3,3.21E2,2.14E2,5.47E2,2.94E2,2.57E2,4.2E1,4.81E2,1.2E1,1.065E3,1.658E3,2.5333E4,4.796E3,7.55E2,1.534E3],"tree_param":{"num_deleted":"0","num_feature":"35","num_nodes":"31","size_leaf_vector":"1"}},{"base_weights":[1.3471753E-2,1.20195575E-1,-4.766195E-3,1.5636802E-1,-3.452915E-2,8.4353745E-2,-1.0867878E-2,1.856968E-1,5.7639524E-2,1.0901163E-1,-6.0646188E-2,1.1453277E-1,-4.9283155E-3,2.7902129E-3,-2.4875779E-2,7.487596E-3,1.2011318E-2,4.748428E-3,-2.0903011E-3,9.347826E-3,-2.3706898E-3,-3.9330665E-3,8.098592E-3,7.755102E-3,-1.4740566E-4,1.20689655E-2,-9.1981137E-4,2.8479886E-3,-4.241055E-4,-1.23333335E-2,-1.1911533E-3],"categories":[],"categories_nodes":[],"categories_segments":[],"categories_sizes":[],"default_left":[0,0,0,0,0,0,0,0,0,0,0,0,0,0,0,0,0,0,0,0,0,0,0,0,0,0,0,0,0,0,0],"id":37,"left_children":[1,3,5,7,9,11,13,15,17,19,21,23,25,27,29,-1,-1,-1,-1,-1,-1,-1,-1,-1,-1,-1,-1,-1,-1,-1,-1],"loss_changes":[7.841809E1,3.2914413E1,1.8711897E1,1.378965E1,4.18659E0,5.9418173E0,6.161568E0,7.165268E0,4.0614114E0,2.105985E0,3.798648E0,7.855013E0,1.8554655E0,9.95781E0,3.7062588E0,0E0,0E0,0E0,0E0,0E0,0E0,0E0,0E0,0E0,0E0,0E0,0E0,0E0,0E0,0E0,0E0],"parents":[2147483647,0,0,1,1,2,2,3,3,4,4,5,5,6,6,7,7,8,8,9,9,10,10,11,11,12,12,13,13,14,14],"right_children":[2,4,6,8,10,12,14,16,18,20,22,24,26,28,30,-1,-1,-1,-1,-1,-1,-1,-1,-1,-1,-1,-1,-1,-1,-1,-1],"split_conditions":[1.18E1,3E0,1.1E0,8.2E0,5.6E0,1.4E0,4.5E0,4E0,1.998E0,5.984E1,1E0,1.456E1,-2.6773427E-2,1.8E1,8.5714287E-1,3.0996331E-3,8.069272E-3,3.6775612E-3,-1.0583304E-3,8.251595E-3,-1.652056E-3,-2.7270347E-3,6.5338477E-3,2.8255389E-3,-6.0847404E-5,3.5063025E-2,-1.6170532E-3,1.4209844E-3,-1.1047438E-3,-1.5004898E-2,-2.5686354E-3],"split_indices":[3,27,27,29,3,2,29,13,27,33,30,33,23,3,8,0,0,0,0,0,0,0,0,0,0,0,0,0,0,0,0],"split_type":[0,0,0,0,0,0,0,0,0,0,0,0,0,0,0,0,0,0,0,0,0,0,0,0,0,0,0,0,0,0,0],"sum_hessian":[4.0287E4,5.879E3,3.4408E4,4.765E3,1.114E3,2.204E3,3.2204E4,3.673E3,1.092E3,1.71E2,9.43E2,1.647E3,5.57E2,1.6306E4,1.5898E4,2.216E3,1.457E3,7.94E2,2.98E2,1.14E2,5.7E1,8.73E2,7E1,1.224E3,4.23E2,2.8E1,5.29E2,2.808E3,1.3498E4,7.4E1,1.5824E4],"tree_param":{"num_deleted":"0","num_feature":"35","num_nodes":"31","size_leaf_vector":"1"}},{"base_weights":[1.1818159E-2,1.483663E-1,-5.3523015E-3,2.0484835E-1,9.541738E-2,3.8266517E-2,-1.4693406E-2,2.2286925E-1,8.59375E-2,1.6657667E-1,4.824875E-2,9.690589E-2,4.0150564E-3,-6.7311735E-4,-2.4168326E-2,1.1355014E-2,2.2222223E-3,5.2583027E-3,-1.0416667E-2,9.69769E-3,3.0104711E-3,1.8258426E-4,6.29902E-3,6.823111E-3,3.6764707E-4,2.7574752E-3,-1.3502621E-3,-6.721301E-4,1.1486325E-3,-1.2784091E-2,-1.1793126E-3],"categories":[],"categories_nodes":[],"categories_segments":[],"categories_sizes":[],"default_left":[0,0,0,0,0,0,0,0,0,0,0,0,0,0,0,0,0,0,0,0,0,0,0,0,0,0,0,0,0,0,0],"id":38,"left_children":[1,3,5,7,9,11,13,15,17,19,21,23,25,27,29,-1,-1,-1,-1,-1,-1,-1,-1,-1,-1,-1,-1,-1,-1,-1,-1],"loss_changes":[9.443403E1,1.3435448E1,1.4578644E1,4.643753E0,7.7924385E0,1.2675155E1,3.914678E0,1.4159546E0,1.6515293E0,2.6848602E0,4.849317E0,8.242126E0,6.322519E0,3.5889163E0,2.3636932E0,0E0,0E0,0E0,0E0,0E0,0E0,0E0,0E0,0E0,0E0,0E0,0E0,0E0,0E0,0E0,0E0],"parents":[2147483647,0,0,1,1,2,2,3,3,4,4,5,5,6,6,7,7,8,8,9,9,10,10,11,11,12,12,13,13,14,14],"right_children":[2,4,6,8,10,12,14,16,18,20,22,24,26,28,30,-1,-1,-1,-1,-1,-1,-1,-1,-1,-1,-1,-1,-1,-1,-1,-1],"split_conditions":[5.3363097E-1,3.3569512E-1,1.0012498E0,1.0200001E1,3.5E0,3.3E0,2.2E0,3.33E0,1.22833336E2,1.36E0,1E0,1.9318182E1,1.34E1,2.5205883E1,1.0307984E1,6.1758333E-3,1.1923894E-3,3.928649E-3,-3.2305138E-3,3.8986385E-3,8.920729E-4,7.30589E-5,2.9184863E-3,2.514133E-3,1.2978911E-4,1.3210751E-3,-8.0649706E-4,-9.821147E-4,6.261945E-3,-2.3425622E-2,-6.3961507E-3],"split_indices":[20,20,20,29,29,29,2,27,16,34,15,10,3,10,21,0,0,0,0,0,0,0,0,0,0,0,0,0,0,0,0],"split_type":[0,0,0,0,0,0,0,0,0,0,0,0,0,0,0,0,0,0,0,0,0,0,0,0,0,0,0,0,0,0,0],"sum_hessian":[4.0276E4,4.498E3,3.5778E4,2.175E3,2.323E3,6.31E3,2.9468E4,1.888E3,2.87E2,9.25E2,1.398E3,2.326E3,3.984E3,1.1884E4,1.7584E4,1.844E3,4.4E1,2.7E2,1.7E1,7.35E2,1.9E2,8.89E2,5.09E2,1.613E3,7.13E2,1.504E3,2.48E3,7.717E3,4.167E3,4.3E1,1.7541E4],"tree_param":{"num_deleted":"0","num_feature":"35","num_nodes":"31","size_leaf_vector":"1"}},{"base_weights":[1.3002585E-2,1.4467087E-1,-3.9405413E-3,1.0470016E-1,2.265625E-1,-1.0040099E-2,6.277201E-2,1.8986784E-1,5.509995E-2,2.354452E-1,-6.666667E-2,8.153846E-2,-1.2856917E-2,1.6973321E-1,1.5781168E-3,1.0188593E-2,-6.122449E-3,8.360258E-3,1.5003751E-4,1.1939269E-2,-9.375E-3,-1.0483871E-2,1.1666667E-2,8.180148E-3,1.1223592E-3,-8.056247E-4,1.8378586E-3,9.60487E-3,-5.335366E-3,2.8202678E-3,-9.6084125E-4],"categories":[],"categories_nodes":[],"categories_segments":[],"categories_sizes":[],"default_left":[0,0,0,0,0,0,0,0,0,0,0,0,0,0,0,0,0,0,0,0,0,0,0,0,0,0,0,0,0,0,0],"id":39,"left_children":[1,3,5,7,9,11,13,15,17,19,21,23,25,27,29,-1,-1,-1,-1,-1,-1,-1,-1,-1,-1,-1,-1,-1,-1,-1,-1],"loss_changes":[8.977534E1,1.4994026E1,1.4509259E1,1.302161E1,3.933113E0,8.4283495E0,1.9550758E1,4.95364E0,1.1394493E1,2.1073227E0,1.9795699E0,4.7243896E0,5.1200457E0,6.740738E0,2.1684694E0,0E0,0E0,0E0,0E0,0E0,0E0,0E0,0E0,0E0,0E0,0E0,0E0,0E0,0E0,0E0,0E0],"parents":[2147483647,0,0,1,1,2,2,3,3,4,4,5,5,6,6,7,7,8,8,9,9,10,10,11,11,12,12,13,13,14,14],"right_children":[2,4,6,8,10,12,14,16,18,20,22,24,26,28,30,-1,-1,-1,-1,-1,-1,-1,-1,-1,-1,-1,-1,-1,-1,-1,-1],"split_conditions":[5.3363097E-1,4E0,5E0,3.0115843E-1,3.31E1,5.9090906E-1,1.1628308E0,1.058E1,2.8999999E0,1.7142857E0,1.0113263E1,1.06E1,1E0,2.63E1,1.6930642E0,4.454159E-3,-1.6511873E-3,2.0885766E-3,3.484264E-5,7.6765465E-3,-1.21845845E-2,-9.566575E-3,4.413032E-3,2.2424222E-3,5.301416E-4,-1.3830484E-3,3.5558373E-3,6.1536864E-3,-4.165742E-3,2.9199885E-3,-3.6655986E-3],"split_indices":[20,13,13,20,28,9,20,34,29,9,21,28,30,28,20,0,0,0,0,0,0,0,0,0,0,0,0,0,0,0,0],"split_type":[0,0,0,0,0,0,0,0,0,0,0,0,0,0,0,0,0,0,0,0,0,0,0,0,0,0,0,0,0,0,0],"sum_hessian":[4.0241E4,4.587E3,3.5654E4,3.084E3,1.503E3,3.2668E4,2.986E3,1.134E3,1.95E3,1.459E3,4.4E1,9.74E2,3.1694E4,1.086E3,1.9E3,1.086E3,4.8E1,6.18E2,1.332E3,1.448E3,1.1E1,3E1,1.4E1,4.07E2,5.67E2,2.9743E4,1.951E3,1.005E3,8.1E1,5.22E2,1.378E3],"tree_param":{"num_deleted":"0","num_feature":"35","num_nodes":"31","size_leaf_vector":"1"}},{"base_weights":[1.3652258E-2,1.5364821E-1,-3.3725523E-3,1.8729198E-1,4.9391385E-2,-1.0218544E-2,6.804451E-2,2.2662707E-1,1.3156934E-1,1.2964876E-1,-1.7094018E-2,-1.4520899E-2,5.45766E-2,1.7463236E-1,1.3007285E-4,1.1700383E-2,4.976852E-3,4.153646E-3,1.2226278E-2,7.719715E-3,-1.7578126E-3,5.020492E-3,-2.3976292E-3,6.5656565E-3,-7.9709553E-4,8.6964285E-3,-3.813244E-4,9.890233E-3,-3.211009E-3,1.3923786E-3,-2.2633744E-3],"categories":[],"categories_nodes":[],"categories_segments":[],"categories_sizes":[],"default_left":[0,0,0,0,0,0,0,0,0,0,0,0,0,0,0,0,0,0,0,0,0,0,0,0,0,0,0,0,0,0,0],"id":40,"left_children":[1,3,5,7,9,11,13,15,17,19,21,23,25,27,29,-1,-1,-1,-1,-1,-1,-1,-1,-1,-1,-1,-1,-1,-1,-1,-1],"loss_changes":[9.610654E1,1.5325943E1,1.7578371E1,7.2142563E0,5.701005E0,9.146736E0,2.2766174E1,1.7926712E0,7.4845085E0,1.9792709E0,2.1260254E0,6.3777833E0,1.5168684E1,6.7872543E0,2.4197264E0,0E0,0E0,0E0,0E0,0E0,0E0,0E0,0E0,0E0,0E0,0E0,0E0,0E0,0E0,0E0,0E0],"parents":[2147483647,0,0,1,1,2,2,3,3,4,4,5,5,6,6,7,7,8,8,9,9,10,10,11,11,12,12,13,13,14,14],"right_children":[2,4,6,8,10,12,14,16,18,20,22,24,26,28,30,-1,-1,-1,-1,-1,-1,-1,-1,-1,-1,-1,-1,-1,-1,-1,-1],"split_conditions":[6.1538464E-1,8.2E0,5E0,1.3E0,1E0,1E0,1.1628308E0,8.984885E-1,4E0,3.260727E-2,6.6E0,3.3569512E-1,2.1245342E1,2.4300001E1,6.1E0,5.0661373E-3,2.3403259E-3,1.040572E-3,6.316848E-3,4.168159E-3,-1.2985498E-3,2.9698685E-3,-6.693572E-4,2.5893392E-3,-1.2341127E-3,7.6293843E-3,-1.4251769E-3,6.003484E-3,-3.6946565E-3,3.136523E-3,-9.669395E-3],"split_indices":[9,29,13,27,27,30,20,20,13,24,3,20,21,28,27,0,0,0,0,0,0,0,0,0,0,0,0,0,0,0,0],"split_type":[0,0,0,0,0,0,0,0,0,0,0,0,0,0,0,0,0,0,0,0,0,0,0,0,0,0,0,0,0,0,0],"sum_hessian":[4.0322E4,4.371E3,3.5951E4,3.304E3,1.067E3,3.2807E4,3.144E3,1.935E3,1.369E3,4.83E2,5.84E2,3.0765E4,2.042E3,1.223E3,1.921E3,1.828E3,1.07E2,9.59E2,4.1E2,4.2E2,6.3E1,1.21E2,4.63E2,2.96E2,3.0469E4,6.99E2,1.343E3,1.115E3,1.08E2,1.193E3,7.28E2],"tree_param":{"num_deleted":"0","num_feature":"35","num_nodes":"31","size_leaf_vector":"1"}},{"base_weights":[1.2454262E-2,1.351476E-1,-4.3715388E-3,1.698762E-1,3.3561092E-2,1.3008632E-1,-7.508415E-3,1.3603675E-1,2.4448366E-1,1.1175848E-1,-1.4230272E-2,1.5899865E-1,-1.6438356E-1,-1.1994319E-2,4.5212764E-2,9.658678E-3,3.3052352E-3,1.2353999E-2,4.761905E-3,3.2421877E-3,1.0457517E-2,-3.125E-3,1.7163213E-3,4.4270833E-3,1.0860149E-2,-1.3157896E-2,8.82353E-3,1.9397536E-4,-1.0121193E-3,6.9693397E-3,-7.3485303E-4],"categories":[],"categories_nodes":[],"categories_segments":[],"categories_sizes":[],"default_left":[0,0,0,0,0,0,0,0,0,0,0,0,0,0,0,0,0,0,0,0,0,0,0,0,0,0,0,0,0,0,0],"id":41,"left_children":[1,3,5,7,9,11,13,15,17,19,21,23,25,27,29,-1,-1,-1,-1,-1,-1,-1,-1,-1,-1,-1,-1,-1,-1,-1,-1],"loss_changes":[8.350199E1,1.7203674E1,1.5004027E1,9.143944E0,4.6506166E0,6.9308376E0,8.221595E0,9.988453E0,4.154892E-1,2.1430593E0,1.8139172E0,3.0113354E0,2.504177E0,4.1945E0,1.5382004E1,0E0,0E0,0E0,0E0,0E0,0E0,0E0,0E0,0E0,0E0,0E0,0E0,0E0,0E0,0E0,0E0],"parents":[2147483647,0,0,1,1,2,2,3,3,4,4,5,5,6,6,7,7,8,8,9,9,10,10,11,11,12,12,13,13,14,14],"right_children":[2,4,6,8,10,12,14,16,18,20,22,24,26,28,30,-1,-1,-1,-1,-1,-1,-1,-1,-1,-1,-1,-1,-1,-1,-1,-1],"split_conditions":[6.511628E-1,8.1E0,6.4E0,4E0,3.6620882E-1,6.4799995E1,5E0,1.3E0,2.1E1,4E0,2.2424242E0,1.8412699E0,1.191E2,3E0,1.35822E0,3.2559715E-3,8.748569E-4,7.3991045E-3,6.711114E-3,1.3895631E-3,7.6576136E-3,-1.061058E-3,7.6998177E-4,4.1140798E-3,6.471163E-3,-1.4164465E-2,4.2462885E-2,2.2878796E-4,-1.8337071E-3,4.8029767E-3,-2.1499337E-3],"split_indices":[9,29,3,13,20,33,13,27,3,13,8,8,16,29,20,0,0,0,0,0,0,0,0,0,0,0,0,0,0,0,0],"split_type":[0,0,0,0,0,0,0,0,0,0,0,0,0,0,0,0,0,0,0,0,0,0,0,0,0,0,0,0,0,0,0],"sum_hessian":[4.0447E4,4.877E3,3.557E4,3.634E3,1.243E3,8.1E2,3.476E4,2.502E3,1.132E3,4.71E2,7.72E2,7.38E2,7.2E1,3.2035E4,2.725E3,1.376E3,1.126E3,1.112E3,2E1,3.19E2,1.52E2,3.87E2,3.85E2,3.35E2,4.03E2,5.6E1,1.6E1,1.0954E4,2.1081E4,1.059E3,1.666E3],"tree_param":{"num_deleted":"0","num_feature":"35","num_nodes":"31","size_leaf_vector":"1"}},{"base_weights":[1.2364107E-2,1.4334059E-1,-2.6621558E-3,1.8736121E-1,6.0410865E-2,5.1234182E-2,-1.0979162E-2,2.2437796E-1,1.2561576E-1,1.2905718E-1,4.113924E-3,3.5011314E-2,2.2947761E-1,-2.583564E-3,-2.6388636E-2,1.1457065E-2,2.6595746E-3,9.831204E-3,2.1100428E-3,7.555179E-3,-4.661017E-3,5.2442527E-3,-1.2155592E-3,3.610642E-3,-2.0191649E-3,1.1828645E-2,-1.0416667E-3,-3.2950344E-4,2.7992278E-3,3.6E-3,-1.3757574E-3],"categories":[],"categories_nodes":[],"categories_segments":[],"categories_sizes":[],"default_left":[0,0,0,0,0,0,0,0,0,0,0,0,0,0,0,0,0,0,0,0,0,0,0,0,0,0,0,0,0,0,0],"id":42,"left_children":[1,3,5,7,9,11,13,15,17,19,21,23,25,27,29,-1,-1,-1,-1,-1,-1,-1,-1,-1,-1,-1,-1,-1,-1,-1,-1],"loss_changes":[7.911158E1,1.5091286E1,1.6165129E1,6.147545E0,5.5490026E0,1.3932467E1,4.041635E0,1.3642349E0,6.003702E0,3.1846542E0,2.2654498E0,1.2400108E1,7.1889114E-1,4.7460003E0,1.2231688E0,0E0,0E0,0E0,0E0,0E0,0E0,0E0,0E0,0E0,0E0,0E0,0E0,0E0,0E0,0E0,0E0],"parents":[2147483647,0,0,1,1,2,2,3,3,4,4,5,5,6,6,7,7,8,8,9,9,10,10,11,11,12,12,13,13,14,14],"right_children":[2,4,6,8,10,12,14,16,18,20,22,24,26,28,30,-1,-1,-1,-1,-1,-1,-1,-1,-1,-1,-1,-1,-1,-1,-1,-1],"split_conditions":[6E-1,6.6000004E0,4.396302E0,1.22E1,1E0,1E0,5.9E0,3.04E1,1.3E0,1.64E1,7.2E0,1.3108108E0,2.08E1,1E0,-4.7641855E-2,5.2638687E-3,2.4102614E-3,2.5381804E-3,5.6644384E-4,3.367404E-3,-6.1908537E-3,2.791655E-3,-3.9076284E-4,1.5075564E-3,-2.3776644E-3,1.0013255E-2,-1.9072772E-3,-4.232511E-4,4.4041383E-3,2.2618702E-2,-8.287737E-3],"split_indices":[9,29,18,3,27,30,27,33,27,29,3,9,3,30,23,0,0,0,0,0,0,0,0,0,0,0,0,0,0,0,0],"split_type":[0,0,0,0,0,0,0,0,0,0,0,0,0,0,0,0,0,0,0,0,0,0,0,0,0,0,0,0,0,0,0],"sum_hessian":[4.0196E4,4.136E3,3.606E4,2.701E3,1.435E3,4.82E3,3.124E4,1.687E3,1.014E3,6.46E2,7.89E2,4.419E3,4.01E2,2.0223E4,1.1017E4,1.641E3,4.6E1,5.47E2,4.67E2,5.88E2,5.8E1,1.73E2,6.16E2,2.959E3,1.46E3,3.9E2,1.1E1,1.8929E4,1.294E3,1.24E2,1.0893E4],"tree_param":{"num_deleted":"0","num_feature":"35","num_nodes":"31","size_leaf_vector":"1"}},{"base_weights":[1.3198719E-2,1.4413139E-1,-1.4906832E-3,1.8799546E-1,6.197034E-2,9.240924E-2,-7.3303035E-3,2.209268E-1,1.2944561E-1,2.7538314E-2,1.5817694E-1,1.3079116E-1,1.7385257E-2,-1.1222321E-2,4.015093E-2,1.2110634E-2,9.734948E-3,9.854869E-3,2.1867612E-3,3.9223456E-3,-2.5060389E-3,9.717988E-3,-5.1630433E-3,7.971491E-3,3.314394E-4,3.6513158E-3,-2.242647E-3,4.028021E-5,-1.0588184E-3,6.6040307E-3,-5.2489503E-4],"categories":[],"categories_nodes":[],"categories_segments":[],"categories_sizes":[],"default_left":[0,0,0,0,0,0,0,0,0,0,0,0,0,0,0,0,0,0,0,0,0,0,0,0,0,0,0,0,0,0,0],"id":43,"left_children":[1,3,5,7,9,11,13,15,17,19,21,23,25,27,29,-1,-1,-1,-1,-1,-1,-1,-1,-1,-1,-1,-1,-1,-1,-1,-1],"loss_changes":[7.7487045E1,1.4634674E1,1.986429E1,5.0790024E0,4.6862683E0,6.105282E0,6.3029795E0,8.985748E-1,5.534706E0,4.1314015E0,3.5484838E0,4.987793E0,2.493172E0,3.7740371E0,1.2032829E1,0E0,0E0,0E0,0E0,0E0,0E0,0E0,0E0,0E0,0E0,0E0,0E0,0E0,0E0,0E0,0E0],"parents":[2147483647,0,0,1,1,2,2,3,3,4,4,5,5,6,6,7,7,8,8,9,9,10,10,11,11,12,12,13,13,14,14],"right_children":[2,4,6,8,10,12,14,16,18,20,22,24,26,28,30,-1,-1,-1,-1,-1,-1,-1,-1,-1,-1,-1,-1,-1,-1,-1,-1],"split_conditions":[5.9090906E-1,6.6E0,2.6E0,1.2339567E1,4E0,9.7780675E-1,5E0,7.51564E0,1.3E0,1.2E0,1.4999999E1,9.1E0,2.6039999E1,4E0,1.2777778E0,7.859305E-3,3.168607E-3,2.7307644E-3,4.3894054E-4,1.6697198E-3,-8.396238E-4,5.6155026E-3,-2.9285774E-3,3.571126E-3,2.8811395E-4,2.406782E-3,-2.8424026E-3,1.9235164E-5,-1.9966306E-3,4.130849E-3,-1.0842935E-3],"split_indices":[9,29,0,21,13,20,13,21,27,27,29,29,33,29,9,0,0,0,0,0,0,0,0,0,0,0,0,0,0,0,0],"split_type":[0,0,0,0,0,0,0,0,0,0,0,0,0,0,0,0,0,0,0,0,0,0,0,0,0,0,0,0,0,0,0],"sum_hessian":[4.0287E4,4.063E3,3.6224E4,2.648E3,1.415E3,2.12E3,3.4104E4,1.693E3,9.55E2,1.043E3,3.72E2,1.402E3,7.18E2,3.1521E4,2.583E3,9.3E2,7.63E2,5.33E2,4.22E2,6.3E2,4.13E2,3.27E2,4.5E1,1.139E3,2.63E2,3.79E2,3.39E2,1.4274E4,1.7247E4,9.17E2,1.666E3],"tree_param":{"num_deleted":"0","num_feature":"35","num_nodes":"31","size_leaf_vector":"1"}},{"base_weights":[1.3207406E-2,1.604033E-1,1.3565944E-4,2.2186221E-1,1.10481195E-1,4.4531807E-2,-1.0263537E-2,2.324263E-1,1.2326389E-1,1.7518637E-1,4.051724E-2,1.4607755E-2,1.5885596E-1,-3.8502328E-3,-2.7271615E-2,1.2083708E-2,9.15493E-3,8.715596E-3,-1.7361112E-3,1.0179539E-2,3.5272278E-3,-8.913043E-3,3.6871694E-3,3.6255722E-3,-6.022907E-4,9.07318E-3,-6.485849E-3,-3.380511E-4,2.5526558E-3,-1.2142858E-2,-1.3170822E-3],"categories":[],"categories_nodes":[],"categories_segments":[],"categories_sizes":[],"default_left":[0,0,0,0,0,0,0,0,0,0,0,0,0,0,0,0,0,0,0,0,0,0,0,0,0,0,0,0,0,0,0],"id":44,"left_children":[1,3,5,7,9,11,13,15,17,19,21,23,25,27,29,-1,-1,-1,-1,-1,-1,-1,-1,-1,-1,-1,-1,-1,-1,-1,-1],"loss_changes":[7.721249E1,1.00175705E1,1.7016754E1,1.4983444E0,8.177771E0,2.3927868E1,3.2572906E0,5.5926514E-1,1.1673954E0,2.776619E0,6.337309E0,8.558693E0,9.489792E0,3.4661891E0,1.632998E0,0E0,0E0,0E0,0E0,0E0,0E0,0E0,0E0,0E0,0E0,0E0,0E0,0E0,0E0,0E0,0E0],"parents":[2147483647,0,0,1,1,2,2,3,3,4,4,5,5,6,6,7,7,8,8,9,9,10,10,11,11,12,12,13,13,14,14],"right_children":[2,4,6,8,10,12,14,16,18,20,22,24,26,28,30,-1,-1,-1,-1,-1,-1,-1,-1,-1,-1,-1,-1,-1,-1,-1,-1],"split_conditions":[4.3443644E-1,3.8000002E0,9.6669686E-1,9.047619E-1,2.85243E-1,4E0,3.9888391E0,1.4E1,2.0942602E0,1.06E1,2E0,2.8999999E0,2.6900002E1,7E0,1.51081085E1,5.940532E-3,2.4314045E-3,3.31764E-3,-4.5012534E-4,4.4015558E-3,2.4986372E-3,-2.549863E-3,1.6134024E-3,9.85375E-4,-1.6524048E-4,4.0104315E-3,-4.346335E-3,-8.766294E-4,4.3727877E-3,-3.6749896E-2,-9.2214E-3],"split_indices":[20,29,20,9,20,13,20,3,19,29,13,29,28,13,10,0,0,0,0,0,0,0,0,0,0,0,0,0,0,0,0],"split_type":[0,0,0,0,0,0,0,0,0,0,0,0,0,0,0,0,0,0,0,0,0,0,0,0,0,0,0,0,0,0,0],"sum_hessian":[4.0128E4,3.272E3,3.6856E4,1.465E3,1.807E3,6.994E3,2.9862E4,1.322E3,1.43E2,9.38E2,8.69E2,5.544E3,1.45E3,2.1686E4,8.176E3,1.11E3,2.12E2,1.08E2,3.5E1,7.37E2,2.01E2,1.14E2,7.55E2,1.747E3,3.797E3,1.345E3,1.05E2,2.0595E4,1.091E3,3.4E1,8.142E3],"tree_param":{"num_deleted":"0","num_feature":"35","num_nodes":"31","size_leaf_vector":"1"}},{"base_weights":[1.0632477E-2,1.3233589E-1,-3.9836196E-3,2.010125E-1,8.8492215E-2,4.1224316E-2,-1.2766984E-2,2.0491312E-1,-2.0454546E-2,3.486884E-2,1.6666667E-1,1.0845676E-1,3.6686233E-3,-7.4158143E-3,-2.9236196E-2,1.118647E-2,3.796729E-3,5.2533224E-3,-4.5478172E-4,9.603659E-3,1.5441177E-3,7.698171E-3,2.6559196E-3,-1.6588332E-4,9.753788E-3,-5.9843546E-4,8.7151397E-4,-6.0072816E-3,-1.3309377E-3],"categories":[],"categories_nodes":[],"categories_segments":[],"categories_sizes":[],"default_left":[0,0,0,0,0,0,0,0,0,0,0,0,0,0,0,0,0,0,0,0,0,0,0,0,0,0,0,0,0],"id":45,"left_children":[1,3,5,7,9,11,13,15,-1,17,19,21,23,25,27,-1,-1,-1,-1,-1,-1,-1,-1,-1,-1,-1,-1,-1,-1],"loss_changes":[7.152189E1,1.2962784E1,1.4254427E1,4.0794754E0,1.1031666E1,1.4745374E1,2.6487808E0,4.0335083E0,0E0,4.8246875E0,3.6888084E0,5.2625484E0,5.0125694E0,2.5667124E0,1.750732E0,0E0,0E0,0E0,0E0,0E0,0E0,0E0,0E0,0E0,0E0,0E0,0E0,0E0,0E0],"parents":[2147483647,0,0,1,1,2,2,3,3,4,4,5,5,6,6,7,7,9,9,10,10,11,11,12,12,13,13,14,14],"right_children":[2,4,6,8,10,12,14,16,-1,18,20,22,24,26,28,-1,-1,-1,-1,-1,-1,-1,-1,-1,-1,-1,-1,-1,-1],"split_conditions":[5.216685E-1,2.85243E-1,9.6E-1,1.6551725E0,1E0,3.5E0,4.2373223E0,2.31E1,-2.615145E-3,3.7E0,9E0,1.6692238E1,1E0,3.2322605E1,2.1108186E0,5.4830657E-3,1.9346282E-3,1.2278497E-3,-9.091646E-5,3.6237724E-3,1.1448086E-3,2.5566965E-3,9.1834366E-4,-9.685457E-5,9.5828045E-3,-1.1252522E-3,4.125518E-3,-3.8260218E-2,-9.014547E-3],"split_indices":[20,20,9,9,15,29,20,28,0,29,29,21,30,21,6,0,0,0,0,0,0,0,0,0,0,0,0,0,0],"split_type":[0,0,0,0,0,0,0,0,0,0,0,0,0,0,0,0,0,0,0,0,0,0,0,0,0,0,0,0,0],"sum_hessian":[4.0206E4,4.31E3,3.5896E4,1.678E3,2.632E3,5.839E3,3.0057E4,1.668E3,1E1,1.562E3,1.07E3,2.092E3,3.747E3,2.2687E4,7.37E3,1.455E3,2.13E2,6.01E2,9.61E2,9.01E2,1.69E2,1.147E3,9.45E2,3.616E3,1.31E2,1.9174E4,3.513E3,2.05E2,7.165E3],"tree_param":{"num_deleted":"0","num_feature":"35","num_nodes":"29","size_leaf_vector":"1"}},{"base_weights":[1.3664496E-2,1.3437727E-1,-1.0383785E-4,1.6949983E-1,3.2987747E-2,-6.5212776E-3,6.714876E-2,1.3510896E-1,2.4070352E-1,1.15585774E-1,-3.467466E-2,1.20305166E-1,-8.181232E-3,1.4842027E-1,5.1791715E-3,9.441928E-3,2.919601E-3,1.2275371E-2,7.25E-3,3.1037414E-3,1.0000001E-2,5.28169E-3,-2.6994164E-3,8.934564E-3,-7.751938E-4,-5.507239E-4,1.7352503E-3,9.1285845E-3,-3.5569107E-4,6.18739E-4,-6.5277778E-3],"categories":[],"categories_nodes":[],"categories_segments":[],"categories_sizes":[],"default_left":[0,0,0,0,0,0,0,0,0,0,0,0,0,0,0,0,0,0,0,0,0,0,0,0,0,0,0,0,0,0,0],"id":46,"left_children":[1,3,5,7,9,11,13,15,17,19,21,23,25,27,29,-1,-1,-1,-1,-1,-1,-1,-1,-1,-1,-1,-1,-1,-1,-1,-1],"loss_changes":[6.686616E1,1.4662415E1,1.5586862E1,7.4582214E0,5.933705E0,6.941818E0,1.5843627E1,8.500839E0,4.218521E-1,2.1467514E0,1.5882678E0,3.3806782E0,3.954716E0,7.2305336E0,1.7459908E0,0E0,0E0,0E0,0E0,0E0,0E0,0E0,0E0,0E0,0E0,0E0,0E0,0E0,0E0,0E0,0E0],"parents":[2147483647,0,0,1,1,2,2,3,3,4,4,5,5,6,6,7,7,8,8,9,9,10,10,11,11,12,12,13,13,14,14],"right_children":[2,4,6,8,10,12,14,16,18,20,22,24,26,28,30,-1,-1,-1,-1,-1,-1,-1,-1,-1,-1,-1,-1,-1,-1,-1,-1],"split_conditions":[6E-1,8.1E0,5E0,4E0,1E0,5.8E0,1.3333334E0,1.3E0,2.6039999E1,3E0,5.2E0,2.88E1,1E0,1.96E1,9.539052E0,2.8424726E-3,6.3176453E-4,6.3305693E-3,4.0306794E-3,1.7396465E-3,5.6967842E-3,2.9713006E-3,-6.85066E-4,4.4871136E-3,-3.2361597E-4,-8.073032E-4,3.371808E-3,5.0065727E-3,-3.0114801E-4,1.3751313E-3,-2.8448535E-2],"split_indices":[9,29,13,13,27,3,9,27,33,13,3,33,30,3,19,0,0,0,0,0,0,0,0,0,0,0,0,0,0,0,0],"split_type":[0,0,0,0,0,0,0,0,0,0,0,0,0,0,0,0,0,0,0,0,0,0,0,0,0,0,0,0,0,0,0],"sum_hessian":[4.0231E4,4.118E3,3.6113E4,3.058E3,1.06E3,3.2968E4,3.145E3,2.064E3,9.94E2,4.77E2,5.83E2,4.25E2,3.2543E4,1.36E3,1.785E3,1.213E3,8.51E2,9.45E2,4.9E1,2.93E2,1.84E2,7E1,5.13E2,2.97E2,1.28E2,3.0527E4,2.016E3,1.115E3,2.45E2,1.696E3,8.9E1],"tree_param":{"num_deleted":"0","num_feature":"35","num_nodes":"31","size_leaf_vector":"1"}},{"base_weights":[1.2700617E-2,1.5373564E-1,1.01329446E-4,1.1602594E-1,2.245209E-1,5.6518335E-2,-7.652826E-3,1.9463088E-1,7.45583E-2,2.3107748E-1,-6.7307696E-2,3.2235555E-2,1.5421349E-1,-1.1786538E-2,3.9338656E-2,1.0405125E-2,-1.09375E-2,-3.3653849E-3,5.129019E-3,1.1966319E-2,5.1785717E-3,-1.0156251E-2,6.8181823E-3,3.7088764E-3,-1.0136848E-4,9.574099E-3,-2.95858E-4,-3.507729E-3,-5.0486805E-4,6.3247606E-3,-6.26392E-5],"categories":[],"categories_nodes":[],"categories_segments":[],"categories_sizes":[],"default_left":[0,0,0,0,0,0,0,0,0,0,0,0,0,0,0,0,0,0,0,0,0,0,0,0,0,0,0,0,0,0,0],"id":47,"left_children":[1,3,5,7,9,11,13,15,17,19,21,23,25,27,29,-1,-1,-1,-1,-1,-1,-1,-1,-1,-1,-1,-1,-1,-1,-1,-1],"loss_changes":[7.16338E1,8.79863E0,1.6190184E1,7.0228786E0,2.2121315E0,1.0603998E1,6.320751E0,4.1943607E0,5.632065E0,1.1563683E0,7.469132E-1,5.1491175E0,5.312502E0,2.9479408E0,9.308138E0,0E0,0E0,0E0,0E0,0E0,0E0,0E0,0E0,0E0,0E0,0E0,0E0,0E0,0E0,0E0,0E0],"parents":[2147483647,0,0,1,1,2,2,3,3,4,4,5,5,6,6,7,7,8,8,9,9,10,10,11,11,12,12,13,13,14,14],"right_children":[2,4,6,8,10,12,14,16,18,