{"learner":{"attributes":{"best_iteration":"386","best_score":"1.8358261139679637","scikit_learn":"{\"_estimator_type\": \"regressor\"}"},"feature_names":[],"feature_types":[],"gradient_booster":{"model":{"cats":{"enc":[],"feature_segments":[],"sorted_idx":[]},"gbtree_model_param":{"num_parallel_tree":"1","num_trees":"427"},"iteration_indptr":[0,1,2,3,4,5,6,7,8,9,10,11,12,13,14,15,16,17,18,19,20,21,22,23,24,25,26,27,28,29,30,31,32,33,34,35,36,37,38,39,40,41,42,43,44,45,46,47,48,49,50,51,52,53,54,55,56,57,58,59,60,61,62,63,64,65,66,67,68,69,70,71,72,73,74,75,76,77,78,79,80,81,82,83,84,85,86,87,88,89,90,91,92,93,94,95,96,97,98,99,100,101,102,103,104,105,106,107,108,109,110,111,112,113,114,115,116,117,118,119,120,121,122,123,124,125,126,127,128,129,130,131,132,133,134,135,136,137,138,139,140,141,142,143,144,145,146,147,148,149,150,151,152,153,154,155,156,157,158,159,160,161,162,163,164,165,166,167,168,169,170,171,172,173,174,175,176,177,178,179,180,181,182,183,184,185,186,187,188,189,190,191,192,193,194,195,196,197,198,199,200,201,202,203,204,205,206,207,208,209,210,211,212,213,214,215,216,217,218,219,220,221,222,223,224,225,226,227,228,229,230,231,232,233,234,235,236,237,238,239,240,241,242,243,244,245,246,247,248,249,250,251,252,253,254,255,256,257,258,259,260,261,262,263,264,265,266,267,268,269,270,271,272,273,274,275,276,277,278,279,280,281,282,283,284,285,286,287,288,289,290,291,292,293,294,295,296,297,298,299,300,301,302,303,304,305,306,307,308,309,310,311,312,313,314,315,316,317,318,319,320,321,322,323,324,325,326,327,328,329,330,331,332,333,334,335,336,337,338,339,340,341,342,343,344,345,346,347,348,349,350,351,352,353,354,355,356,357,358,359,360,361,362,363,364,365,366,367,368,369,370,371,372,373,374,375,376,377,378,379,380,381,382,383,384,385,386,387,388,389,390,391,392,393,394,395,396,397,398,399,400,401,402,403,404,405,406,407,408,409,410,411,412,413,414,415,416,417,418,419,420,421,422,423,424,425,426,427],"tree_info":[0,0,0,0,0,0,0,0,0,0,0,0,0,0,0,0,0,0,0,0,0,0,0,0,0,0,0,0,0,0,0,0,0,0,0,0,0,0,0,0,0,0,0,0,0,0,0,0,0,0,0,0,0,0,0,0,0,0,0,0,0,0,0,0,0,0,0,0,0,0,0,0,0,0,0,0,0,0,0,0,0,0,0,0,0,0,0,0,0,0,0,0,0,0,0,0,0,0,0,0,0,0,0,0,0,0,0,0,0,0,0,0,0,0,0,0,0,0,0,0,0,0,0,0,0,0,0,0,0,0,0,0,0,0,0,0,0,0,0,0,0,0,0,0,0,0,0,0,0,0,0,0,0,0,0,0,0,0,0,0,0,0,0,0,0,0,0,0,0,0,0,0,0,0,0,0,0,0,0,0,0,0,0,0,0,0,0,0,0,0,0,0,0,0,0,0,0,0,0,0,0,0,0,0,0,0,0,0,0,0,0,0,0,0,0,0,0,0,0,0,0,0,0,0,0,0,0,0,0,0,0,0,0,0,0,0,0,0,0,0,0,0,0,0,0,0,0,0,0,0,0,0,0,0,0,0,0,0,0,0,0,0,0,0,0,0,0,0,0,0,0,0,0,0,0,0,0,0,0,0,0,0,0,0,0,0,0,0,0,0,0,0,0,0,0,0,0,0,0,0,0,0,0,0,0,0,0,0,0,0,0,0,0,0,0,0,0,0,0,0,0,0,0,0,0,0,0,0,0,0,0,0,0,0,0,0,0,0,0,0,0,0,0,0,0,0,0,0,0,0,0,0,0,0,0,0,0,0,0,0,0,0,0,0,0,0,0,0,0,0,0,0,0,0,0,0,0,0,0,0,0,0,0,0,0,0,0,0,0,0,0,0,0,0,0,0,0,0,0,0,0,0,0,0,0,0,0,0,0,0,0,0,0,0,0,0,0,0,0,0,0,0,0,0,0,0,0],"trees":[{"base_weights":[-1.8248424E-3,-1.7632575E-1,5.8538747E-1,-2.60393E-1,5.318284E-2,3.6853984E-1,7E-1,-3.1502244E-1,-1.6759697E-1,-1.8483672E-2,1.8727103E-1,2.491839E-1,4.6047977E-1,5.838609E-1,7E-1,-1.7310312E-2,-1.2542664E-2,-9.9118985E-3,-3.2455612E-3,-5.4190587E-3,5.7466875E-4,8.178458E-3,2.0326896E-2,8.03592E-3,1.5465683E-2,1.900596E-2,2.7770532E-2,2.8113147E-2,3.5E-2,1.8711329E-2,3.5E-2],"categories":[],"categories_nodes":[],"categories_segments":[],"categories_sizes":[],"default_left":[0,0,0,0,0,0,0,0,0,0,0,0,0,0,0,0,0,0,0,0,0,0,0,0,0,0,0,0,0,0,0],"id":0,"left_children":[1,3,5,7,9,11,13,15,17,19,21,23,25,27,29,-1,-1,-1,-1,-1,-1,-1,-1,-1,-1,-1,-1,-1,-1,-1,-1],"loss_changes":[2.0746678E4,3.0115283E3,2.0411562E3,5.7907324E2,4.0212634E2,2.6466504E2,1.05356445E2,1.4380078E2,1.3318738E2,7.3493866E1,7.5682526E1,5.581067E1,1.0375781E2,2.6295654E1,6.0283203E0,0E0,0E0,0E0,0E0,0E0,0E0,0E0,0E0,0E0,0E0,0E0,0E0,0E0,0E0,0E0,0E0],"parents":[2147483647,0,0,1,1,2,2,3,3,4,4,5,5,6,6,7,7,8,8,9,9,10,10,11,11,12,12,13,13,14,14],"right_children":[2,4,6,8,10,12,14,16,18,20,22,24,26,28,30,-1,-1,-1,-1,-1,-1,-1,-1,-1,-1,-1,-1,-1,-1,-1,-1],"split_conditions":[3.5294118E0,2.0370371E0,5.4E0,1.4E0,3.2E0,4E0,5.5070424E0,1.86E1,2.4E0,1.8E0,5.2E0,9.6E0,4.7065215E0,7.6E0,2.4363636E1,-1.7310312E-2,-1.2542664E-2,-9.9118985E-3,-3.2455612E-3,-5.4190587E-3,5.7466875E-4,8.178458E-3,2.0326896E-2,8.03592E-3,1.5465683E-2,1.900596E-2,2.7770532E-2,2.8113147E-2,3.5E-2,1.8711329E-2,3.5E-2],"split_indices":[10,10,2,2,2,2,10,3,2,2,2,4,10,2,11,0,0,0,0,0,0,0,0,0,0,0,0,0,0,0,0],"split_type":[0,0,0,0,0,0,0,0,0,0,0,0,0,0,0,0,0,0,0,0,0,0,0,0,0,0,0,0,0,0,0],"sum_hessian":[2.0246566E5,1.5608333E5,4.638233E4,1.14238516E5,4.1844816E4,2.4127875E4,2.2254451E4,7.1905195E4,4.2333316E4,2.727039E4,1.4574425E4,1.0500233E4,1.3627642E4,7.846218E3,1.4408234E4,4.8386688E4,2.3518508E4,3.2603604E4,9.729713E3,6.8188564E3,2.0451533E4,1.3154249E4,1.4201754E3,4.250454E3,6.2497793E3,7.382898E3,6.244743E3,6.9900835E3,8.5613416E2,6.0433E1,1.4347801E4],"tree_param":{"num_deleted":"0","num_feature":"17","num_nodes":"31","size_leaf_vector":"1"}},{"base_weights":[3.2539756E-4,-1.6325825E-1,5.8772546E-1,-2.6583803E-1,3.4897137E-2,3.8791695E-1,7E-1,-3.3414572E-1,-2.0370682E-1,-3.6424246E-2,1.4124955E-1,3.276109E-1,4.6431738E-1,5.896812E-1,7E-1,-1.7702306E-2,-1.3389073E-2,-1.2600009E-2,-8.3362935E-3,-2.7233271E-3,4.9690194E-3,5.97334E-3,1.492817E-2,1.3699422E-2,2.0024778E-2,2.0504117E-2,2.7726809E-2,2.797485E-2,3.2501634E-2,2.7776316E-2,3.5E-2],"categories":[],"categories_nodes":[],"categories_segments":[],"categories_sizes":[],"default_left":[0,0,0,0,0,0,0,0,0,0,0,0,0,0,0,0,0,0,0,0,0,0,0,0,0,0,0,0,0,0,0],"id":1,"left_children":[1,3,5,7,9,11,13,15,17,19,21,23,25,27,29,-1,-1,-1,-1,-1,-1,-1,-1,-1,-1,-1,-1,-1,-1,-1,-1],"loss_changes":[1.9500684E4,3.226622E3,1.5661934E3,4.4383008E2,4.107112E2,1.00322754E2,8.978223E1,6.569873E1,9.778296E1,7.942089E1,7.444513E1,4.75343E1,4.6831055E1,1.3148682E1,1.703711E1,0E0,0E0,0E0,0E0,0E0,0E0,0E0,0E0,0E0,0E0,0E0,0E0,0E0,0E0,0E0,0E0],"parents":[2147483647,0,0,1,1,2,2,3,3,4,4,5,5,6,6,7,7,8,8,9,9,10,10,11,11,12,12,13,13,14,14],"right_children":[2,4,6,8,10,12,14,16,18,20,22,24,26,28,30,-1,-1,-1,-1,-1,-1,-1,-1,-1,-1,-1,-1,-1,-1,-1,-1],"split_conditions":[4E0,2E0,5.6E0,1E0,3E0,4.8E0,6.4E0,1.86E1,1.9489796E1,3.254762E1,2.1555555E1,1.4E1,2.0666666E1,1.16E2,2.5205883E1,-1.7702306E-2,-1.3389073E-2,-1.2600009E-2,-8.3362935E-3,-2.7233271E-3,4.9690194E-3,5.97334E-3,1.492817E-2,1.3699422E-2,2.0024778E-2,2.0504117E-2,2.7726809E-2,2.797485E-2,3.2501634E-2,2.7776316E-2,3.5E-2],"split_indices":[2,2,2,2,2,2,2,3,11,11,8,4,8,15,11,0,0,0,0,0,0,0,0,0,0,0,0,0,0,0,0],"split_type":[0,0,0,0,0,0,0,0,0,0,0,0,0,0,0,0,0,0,0,0,0,0,0,0,0,0,0,0,0,0,0],"sum_hessian":[2.0294189E5,1.5873647E5,4.420542E4,1.0459176E5,5.4144715E4,2.1806176E4,2.2399244E4,4.9817496E4,5.4774258E4,3.2410469E4,2.1734244E4,1.2189661E4,9.616516E3,7.416606E3,1.4982639E4,3.8321766E4,1.149573E4,2.3751451E4,3.1022807E4,2.8610082E4,3.8003875E3,1.9092348E4,2.6418977E3,7.025578E3,5.1640825E3,6.009468E3,3.6070479E3,4.950789E3,2.465817E3,8.387366E2,1.4143902E4],"tree_param":{"num_deleted":"0","num_feature":"17","num_nodes":"31","size_leaf_vector":"1"}},{"base_weights":[4.2481988E-4,-1.9277796E-1,4.734606E-1,-2.8009832E-1,-3.34276E-2,3.1598502E-1,7E-1,-3.3118886E-1,-2.1476409E-1,-9.774816E-2,4.5457654E-2,2.1320269E-1,4.2286137E-1,5.746227E-1,7E-1,-1.8343998E-2,-1.417533E-2,-1.277244E-2,-9.186921E-3,-9.009666E-3,-3.5876965E-3,-6.9087106E-3,2.9407314E-3,3.7769247E-3,1.3088629E-2,1.1691494E-2,2.2702804E-2,1.871408E-2,3.0022977E-2,2.1135688E-2,3.5E-2],"categories":[],"categories_nodes":[],"categories_segments":[],"categories_sizes":[],"default_left":[0,0,0,0,0,0,0,0,0,0,0,0,0,0,0,0,0,0,0,0,0,0,0,0,0,0,0,0,0,0,0],"id":2,"left_children":[1,3,5,7,9,11,13,15,17,19,21,23,25,27,29,-1,-1,-1,-1,-1,-1,-1,-1,-1,-1,-1,-1,-1,-1,-1,-1],"loss_changes":[1.850049E4,1.9998921E3,2.6740898E3,3.0985352E2,2.58167E2,4.235564E2,1.1631055E2,8.856445E1,5.138733E1,6.0053284E1,5.6062042E1,1.314436E2,1.1137402E2,3.8236572E1,1.7700195E1,0E0,0E0,0E0,0E0,0E0,0E0,0E0,0E0,0E0,0E0,0E0,0E0,0E0,0E0,0E0,0E0],"parents":[2147483647,0,0,1,1,2,2,3,3,4,4,5,5,6,6,7,7,8,8,9,9,10,10,11,11,12,12,13,13,14,14],"right_children":[2,4,6,8,10,12,14,16,18,20,22,24,26,28,30,-1,-1,-1,-1,-1,-1,-1,-1,-1,-1,-1,-1,-1,-1,-1,-1],"split_conditions":[3.090909E0,1.5714285E0,5.418605E0,1.86E1,2.357143E0,4.037037E0,6.185185E0,8.4615386E-1,1.0769231E0,1.88E1,1.42E1,2.5E1,7.6E0,2.72E1,2.26E1,-1.8343998E-2,-1.417533E-2,-1.277244E-2,-9.186921E-3,-9.009666E-3,-3.5876965E-3,-6.9087106E-3,2.9407314E-3,3.7769247E-3,1.3088629E-2,1.1691494E-2,2.2702804E-2,1.871408E-2,3.0022977E-2,2.1135688E-2,3.5E-2],"split_indices":[10,10,10,3,10,10,10,10,10,3,3,3,4,3,3,0,0,0,0,0,0,0,0,0,0,0,0,0,0,0,0],"split_type":[0,0,0,0,0,0,0,0,0,0,0,0,0,0,0,0,0,0,0,0,0,0,0,0,0,0,0,0,0,0,0],"sum_hessian":[2.0242847E5,1.4372658E5,5.8701887E4,9.284751E4,5.087907E4,3.8564887E4,2.0137E4,5.210106E4,4.0746453E4,2.8026723E4,2.285235E4,1.96605E4,1.8904389E4,7.4293936E3,1.2707606E4,2.979342E4,2.2307639E4,1.762593E4,2.3120521E4,6.716922E3,2.13098E4,1.5488867E3,2.1303463E4,5.128129E3,1.4532371E4,2.678978E3,1.622541E4,8.5044653E2,6.578947E3,2.3558958E2,1.2472017E4],"tree_param":{"num_deleted":"0","num_feature":"17","num_nodes":"31","size_leaf_vector":"1"}},{"base_weights":[1.9817275E-3,-1.9019614E-1,4.513351E-1,-2.7564707E-1,-3.4519944E-2,2.7330947E-1,6.95263E-1,-3.352679E-1,-2.1763395E-1,-9.05835E-2,8.133248E-2,1.7819986E-1,3.7435287E-1,5.009395E-1,7E-1,-1.78747E-2,-1.4106936E-2,-1.177639E-2,-5.397631E-3,-9.395142E-3,-3.1342865E-3,2.438241E-3,1.1556834E-2,2.4944067E-3,1.0760818E-2,1.5328175E-2,2.3916129E-2,2.4128577E-2,3.4867473E-2,3.1713586E-2,3.5E-2],"categories":[],"categories_nodes":[],"categories_segments":[],"categories_sizes":[],"default_left":[0,0,0,0,0,0,0,0,0,0,0,0,0,0,0,0,0,0,0,0,0,0,0,0,0,0,0,0,0,0,0],"id":3,"left_children":[1,3,5,7,9,11,13,15,17,19,21,23,25,27,29,-1,-1,-1,-1,-1,-1,-1,-1,-1,-1,-1,-1,-1,-1,-1,-1],"loss_changes":[1.745711E4,1.8835972E3,2.6295361E3,3.1611963E2,3.259323E2,3.363794E2,4.1191992E2,5.313379E1,9.0914795E1,9.179932E1,7.9828766E1,8.56546E1,1.1948828E2,3.726367E1,2.6082031E1,0E0,0E0,0E0,0E0,0E0,0E0,0E0,0E0,0E0,0E0,0E0,0E0,0E0,0E0,0E0,0E0],"parents":[2147483647,0,0,1,1,2,2,3,3,4,4,5,5,6,6,7,7,8,8,9,9,10,10,11,11,12,12,13,13,14,14],"right_children":[2,4,6,8,10,12,14,16,18,20,22,24,26,28,30,-1,-1,-1,-1,-1,-1,-1,-1,-1,-1,-1,-1,-1,-1,-1,-1],"split_conditions":[3.0526316E0,1.5714285E0,5.4E0,1E0,2.8E0,4E0,5.6860466E0,4.8E0,2.2E0,1.4E0,4.2E0,6.6E0,4.7065215E0,7.8E0,6.5625E0,-1.78747E-2,-1.4106936E-2,-1.177639E-2,-5.397631E-3,-9.395142E-3,-3.1342865E-3,2.438241E-3,1.1556834E-2,2.4944067E-3,1.0760818E-2,1.5328175E-2,2.3916129E-2,2.4128577E-2,3.4867473E-2,3.1713586E-2,3.5E-2],"split_indices":[10,10,2,2,2,2,10,4,2,2,2,4,10,2,10,0,0,0,0,0,0,0,0,0,0,0,0,0,0,0,0],"split_type":[0,0,0,0,0,0,0,0,0,0,0,0,0,0,0,0,0,0,0,0,0,0,0,0,0,0,0,0,0,0,0],"sum_hessian":[2.0215134E5,1.4159505E5,6.0556293E4,9.141593E4,5.017912E4,3.5008324E4,2.5547969E4,4.5080902E4,4.6335023E4,3.3815344E4,1.6363778E4,1.8035105E4,1.697322E4,1.0421294E4,1.5126676E4,3.178024E4,1.3300664E4,3.9835035E4,6.4999883E3,7.5326206E3,2.6282725E4,1.344265E4,2.9211277E3,4.0385315E3,1.3996574E4,1.0276668E4,6.6965522E3,9.53322E3,8.880742E2,6.1496416E3,8.977033E3],"tree_param":{"num_deleted":"0","num_feature":"17","num_nodes":"31","size_leaf_vector":"1"}},{"base_weights":[1.8378067E-3,-1.837311E-1,4.3802825E-1,-2.6960254E-1,-1.9203436E-2,3.1856593E-1,7E-1,-3.312828E-1,-2.1330434E-1,-8.706115E-2,5.2070353E-2,2.0241478E-1,4.0854558E-1,5.5848974E-1,7E-1,-1.780947E-2,-1.4172676E-2,-1.3326828E-2,-9.4032055E-3,-8.050569E-3,-3.4056231E-3,-1.3348337E-3,4.0772194E-3,2.841867E-3,1.1746687E-2,1.1170758E-2,2.1780489E-2,2.5532013E-2,3.0947296E-2,2.9833008E-2,3.5E-2],"categories":[],"categories_nodes":[],"categories_segments":[],"categories_sizes":[],"default_left":[0,0,0,0,0,0,0,0,0,0,0,0,0,0,0,0,0,0,0,0,0,0,0,0,0,0,0,0,0,0,0],"id":4,"left_children":[1,3,5,7,9,11,13,15,17,19,21,23,25,27,29,-1,-1,-1,-1,-1,-1,-1,-1,-1,-1,-1,-1,-1,-1,-1,-1],"loss_changes":[1.6394984E4,2.0075674E3,2.1491748E3,3.241421E2,2.3569289E2,4.523589E2,1.5966895E2,5.297168E1,6.5538086E1,3.4970566E1,5.5181747E1,8.9455505E1,1.2211963E2,2.2820557E1,1.0045898E1,0E0,0E0,0E0,0E0,0E0,0E0,0E0,0E0,0E0,0E0,0E0,0E0,0E0,0E0,0E0,0E0],"parents":[2147483647,0,0,1,1,2,2,3,3,4,4,5,5,6,6,7,7,8,8,9,9,10,10,11,11,12,12,13,13,14,14],"right_children":[2,4,6,8,10,12,14,16,18,20,22,24,26,28,30,-1,-1,-1,-1,-1,-1,-1,-1,-1,-1,-1,-1,-1,-1,-1,-1],"split_conditions":[3.142857E0,1.625E0,5.8534484E0,9.411765E-1,2.357143E0,4.037037E0,6.7272725E0,4.6E0,6E0,6E0,6.6E0,8.2E0,9E0,2.12E1,9.6E0,-1.780947E-2,-1.4172676E-2,-1.3326828E-2,-9.4032055E-3,-8.050569E-3,-3.4056231E-3,-1.3348337E-3,4.0772194E-3,2.841867E-3,1.1746687E-2,1.1170758E-2,2.1780489E-2,2.5532013E-2,3.0947296E-2,2.9833008E-2,3.5E-2],"split_indices":[10,10,10,10,10,10,10,4,0,0,4,0,0,0,4,0,0,0,0,0,0,0,0,0,0,0,0,0,0,0,0],"split_type":[0,0,0,0,0,0,0,0,0,0,0,0,0,0,0,0,0,0,0,0,0,0,0,0,0,0,0,0,0,0,0],"sum_hessian":[2.0254678E5,1.4209553E5,6.0451258E4,9.336511E4,4.873042E4,4.3289734E4,1.716152E4,4.455063E4,4.881448E4,2.496333E4,2.376709E4,1.8898135E4,2.4391602E4,7.9970063E3,9.164515E3,2.9291133E4,1.5259494E4,1.5697833E4,3.311665E4,5.0902676E3,1.9873062E4,6.471803E3,1.7295287E4,3.4511475E3,1.5446987E4,3.1121877E3,2.1279412E4,4.4691973E3,3.527809E3,9.855091E2,8.179005E3],"tree_param":{"num_deleted":"0","num_feature":"17","num_nodes":"31","size_leaf_vector":"1"}},{"base_weights":[2.379619E-3,-1.7078744E-1,4.4662884E-1,-2.65805E-1,-1.2779481E-2,3.0112413E-1,6.6209954E-1,-3.2331872E-1,-2.0494919E-1,-8.131999E-2,6.749646E-2,2.2078003E-1,3.921156E-1,5.2620417E-1,7E-1,-1.723644E-2,-1.2643307E-2,-1.235245E-2,-8.512925E-3,-4.6128924E-3,4.9829013E-3,2.1618123E-3,8.482797E-3,9.805402E-3,1.5487677E-2,1.1249715E-2,2.0346202E-2,2.544639E-2,3.0195227E-2,1.4443979E-2,3.5E-2],"categories":[],"categories_nodes":[],"categories_segments":[],"categories_sizes":[],"default_left":[0,0,0,0,0,0,0,0,0,0,0,0,0,0,0,0,0,0,0,0,0,0,0,0,0,0,0,0,0,0,0],"id":5,"left_children":[1,3,5,7,9,11,13,15,17,19,21,23,25,27,29,-1,-1,-1,-1,-1,-1,-1,-1,-1,-1,-1,-1,-1,-1,-1,-1],"loss_changes":[1.5581211E4,2.1879648E3,1.780792E3,3.1845947E2,3.0112476E2,2.4781812E2,3.2745508E2,7.048486E1,6.454175E1,5.844847E1,6.2464622E1,3.947632E1,3.92583E1,1.5729248E1,2.6085938E1,0E0,0E0,0E0,0E0,0E0,0E0,0E0,0E0,0E0,0E0,0E0,0E0,0E0,0E0,0E0,0E0],"parents":[2147483647,0,0,1,1,2,2,3,3,4,4,5,5,6,6,7,7,8,8,9,9,10,10,11,11,12,12,13,13,14,14],"right_children":[2,4,6,8,10,12,14,16,18,20,22,24,26,28,30,-1,-1,-1,-1,-1,-1,-1,-1,-1,-1,-1,-1,-1,-1,-1,-1],"split_conditions":[3.6E0,1.8E0,5.8E0,1E0,2.6E0,4.6E0,7.2E0,1.86E1,1.9489796E1,3.3411766E1,1.8644444E1,2.1117647E1,8.2E0,2.6434782E1,2.62E1,-1.723644E-2,-1.2643307E-2,-1.235245E-2,-8.512925E-3,-4.6128924E-3,4.9829013E-3,2.1618123E-3,8.482797E-3,9.805402E-3,1.5487677E-2,1.1249715E-2,2.0346202E-2,2.544639E-2,3.0195227E-2,1.4443979E-2,3.5E-2],"split_indices":[2,2,2,2,2,2,2,3,11,11,8,8,0,8,3,0,0,0,0,0,0,0,0,0,0,0,0,0,0,0,0],"split_type":[0,0,0,0,0,0,0,0,0,0,0,0,0,0,0,0,0,0,0,0,0,0,0,0,0,0,0,0,0,0,0],"sum_hessian":[2.0253728E5,1.4573198E5,5.680529E4,9.100546E4,5.4726527E4,3.390921E4,2.2896076E4,4.6785273E4,4.422019E4,2.9521082E4,2.5205445E4,1.8010041E4,1.5899172E4,1.1945248E4,1.0950829E4,3.587824E4,1.0907033E4,1.9974035E4,2.4246154E4,2.7839049E4,1.682032E3,2.0369613E4,4.8358315E3,1.4102639E4,3.907402E3,1.2954565E3,1.4603715E4,9.77858E3,2.166668E3,1.5622737E2,1.0794602E4],"tree_param":{"num_deleted":"0","num_feature":"17","num_nodes":"31","size_leaf_vector":"1"}},{"base_weights":[1.6169638E-3,-1.855196E-1,3.9126235E-1,-2.6791954E-1,-3.5084125E-2,2.584431E-1,6.3424146E-1,-3.274486E-1,-2.1057208E-1,-1.02768034E-1,4.4475228E-2,1.52937E-1,3.4852627E-1,4.9855515E-1,7E-1,-1.847892E-2,-1.4905617E-2,-1.1477062E-2,-4.977324E-3,-7.4297497E-3,-2.6176318E-3,1.0974095E-3,1.0306592E-2,2.85021E-3,9.756191E-3,1.4161042E-2,2.1715002E-2,2.3387097E-2,3.0802537E-2,2.9999513E-2,3.5E-2],"categories":[],"categories_nodes":[],"categories_segments":[],"categories_sizes":[],"default_left":[0,0,0,0,0,0,0,0,0,0,0,0,0,0,0,0,0,0,0,0,0,0,0,0,0,0,0,0,0,0,0],"id":6,"left_children":[1,3,5,7,9,11,13,15,17,19,21,23,25,27,29,-1,-1,-1,-1,-1,-1,-1,-1,-1,-1,-1,-1,-1,-1,-1,-1],"loss_changes":[1.4694545E4,1.6875659E3,2.1099443E3,3.002129E2,2.594528E2,4.0176367E2,4.7045996E2,5.3229492E1,9.433728E1,6.0139923E1,8.0651215E1,7.880026E1,1.2761743E2,5.0643555E1,8.143066E0,0E0,0E0,0E0,0E0,0E0,0E0,0E0,0E0,0E0,0E0,0E0,0E0,0E0,0E0,0E0,0E0],"parents":[2147483647,0,0,1,1,2,2,3,3,4,4,5,5,6,6,7,7,8,8,9,9,10,10,11,11,12,12,13,13,14,14],"right_children":[2,4,6,8,10,12,14,16,18,20,22,24,26,28,30,-1,-1,-1,-1,-1,-1,-1,-1,-1,-1,-1,-1,-1,-1,-1,-1],"split_conditions":[3E0,1.5714285E0,5.8E0,1E0,2.4E0,4E0,6.7272725E0,6.1538464E-1,2.2E0,2.0648148E0,4.2E0,2.8E0,4.7065215E0,7.6E0,1.2222222E1,-1.847892E-2,-1.4905617E-2,-1.1477062E-2,-4.977324E-3,-7.4297497E-3,-2.6176318E-3,1.0974095E-3,1.0306592E-2,2.85021E-3,9.756191E-3,1.4161042E-2,2.1715002E-2,2.3387097E-2,3.0802537E-2,2.9999513E-2,3.5E-2],"split_indices":[10,10,2,2,2,2,10,10,2,10,2,2,10,2,8,0,0,0,0,0,0,0,0,0,0,0,0,0,0,0,0],"split_type":[0,0,0,0,0,0,0,0,0,0,0,0,0,0,0,0,0,0,0,0,0,0,0,0,0,0,0,0,0,0,0],"sum_hessian":[2.0152256E5,1.3613903E5,6.5383523E4,8.7959234E4,4.81798E4,4.2276215E4,2.310731E4,4.3156375E4,4.480286E4,2.6032639E4,2.2147162E4,1.9472537E4,2.2803676E4,1.406686E4,9.04045E3,1.7710604E4,2.5445771E4,3.8264203E4,6.538654E3,1.3635863E4,1.2396774E4,1.9439396E4,2.7077664E3,5.9483477E3,1.3524189E4,1.2949009E4,9.854668E3,1.114822E4,2.91864E3,8.6213855E2,8.178312E3],"tree_param":{"num_deleted":"0","num_feature":"17","num_nodes":"31","size_leaf_vector":"1"}},{"base_weights":[7.390278E-5,-1.83832E-1,3.7148607E-1,-2.654564E-1,-3.7648167E-2,2.1686813E-1,5.498159E-1,-3.254464E-1,-2.0825352E-1,-1.06634274E-1,4.1818548E-2,1.253223E-1,2.9029125E-1,4.4637412E-1,7E-1,-1.8361587E-2,-1.4895744E-2,-1.1303935E-2,-5.2630804E-3,-7.62759E-3,-2.7817506E-3,8.520468E-4,1.0811782E-2,2.2157738E-3,8.237248E-3,4.362563E-3,1.5565142E-2,1.9954246E-2,2.5356283E-2,2.4824014E-2,3.5E-2],"categories":[],"categories_nodes":[],"categories_segments":[],"categories_sizes":[],"default_left":[0,0,0,0,0,0,0,0,0,0,0,0,0,0,0,0,0,0,0,0,0,0,0,0,0,0,0,0,0,0,0],"id":7,"left_children":[1,3,5,7,9,11,13,15,17,19,21,23,25,27,29,-1,-1,-1,-1,-1,-1,-1,-1,-1,-1,-1,-1,-1,-1,-1,-1],"loss_changes":[1.3810493E4,1.6135713E3,1.8461514E3,2.9771387E2,2.6563596E2,2.4103772E2,6.9548926E2,4.8615234E1,8.152942E1,6.073175E1,9.730873E1,5.0975693E1,8.487903E1,6.22041E1,2.0427246E1,0E0,0E0,0E0,0E0,0E0,0E0,0E0,0E0,0E0,0E0,0E0,0E0,0E0,0E0,0E0,0E0],"parents":[2147483647,0,0,1,1,2,2,3,3,4,4,5,5,6,6,7,7,8,8,9,9,10,10,11,11,12,12,13,13,14,14],"right_children":[2,4,6,8,10,12,14,16,18,20,22,24,26,28,30,-1,-1,-1,-1,-1,-1,-1,-1,-1,-1,-1,-1,-1,-1,-1,-1],"split_conditions":[3E0,1.5714285E0,5.2E0,1E0,2.4E0,3.7931035E0,6.7272725E0,6E-1,2.2E0,2.0648148E0,4.2E0,1.04E1,2.8E0,5.5070424E0,8E0,-1.8361587E-2,-1.4895744E-2,-1.1303935E-2,-5.2630804E-3,-7.62759E-3,-2.7817506E-3,8.520468E-4,1.0811782E-2,2.2157738E-3,8.237248E-3,4.362563E-3,1.5565142E-2,1.9954246E-2,2.5356283E-2,2.4824014E-2,3.5E-2],"split_indices":[10,10,2,2,2,10,10,10,2,10,2,0,2,10,4,0,0,0,0,0,0,0,0,0,0,0,0,0,0,0,0],"split_type":[0,0,0,0,0,0,0,0,0,0,0,0,0,0,0,0,0,0,0,0,0,0,0,0,0,0,0,0,0,0,0],"sum_hessian":[2.0218692E5,1.3522858E5,6.695835E4,8.6775234E4,4.845334E4,3.5864684E4,3.1093666E4,4.2353465E4,4.442177E4,2.5936863E4,2.2516477E4,1.5963585E4,1.99011E4,2.1721564E4,9.372102E3,1.6817219E4,2.5536248E4,3.7866824E4,6.5549453E3,1.364737E4,1.2289493E4,1.9716639E4,2.7998389E3,5.226385E3,1.07372E4,1.8668114E3,1.803429E4,1.2218338E4,9.503227E3,5.0399844E2,8.868103E3],"tree_param":{"num_deleted":"0","num_feature":"17","num_nodes":"31","size_leaf_vector":"1"}},{"base_weights":[1.7062577E-3,-1.7997652E-1,3.5789424E-1,-2.6173386E-1,-3.4579415E-2,2.8848004E-1,7E-1,-3.229952E-1,-2.0395926E-1,-1.1454261E-1,3.307468E-2,1.7825894E-1,3.9487508E-1,3.8990352E-1,7E-1,-1.8378247E-2,-1.4697172E-2,-1.1074755E-2,-5.1473086E-3,-7.771434E-3,-3.1746384E-3,3.353847E-4,7.9872785E-3,5.98268E-3,1.2455924E-2,1.5879644E-2,2.2147644E-2,2.7516184E-2,9.86448E-3,2.7193604E-2,3.5E-2],"categories":[],"categories_nodes":[],"categories_segments":[],"categories_sizes":[],"default_left":[0,0,0,0,0,0,0,0,0,0,0,0,0,0,0,0,0,0,0,0,0,0,0,0,0,0,0,0,0,0,0],"id":8,"left_children":[1,3,5,7,9,11,13,15,17,19,21,23,25,27,29,-1,-1,-1,-1,-1,-1,-1,-1,-1,-1,-1,-1,-1,-1,-1,-1],"loss_changes":[1.3086368E4,1.5918687E3,1.8174053E3,3.03313E2,2.607557E2,6.7940186E2,5.575244E1,5.37583E1,7.812219E1,4.6098022E1,8.720494E1,1.1816022E2,1.09399414E2,1.7963974E1,2.3559082E1,0E0,0E0,0E0,0E0,0E0,0E0,0E0,0E0,0E0,0E0,0E0,0E0,0E0,0E0,0E0,0E0],"parents":[2147483647,0,0,1,1,2,2,3,3,4,4,5,5,6,6,7,7,8,8,9,9,10,10,11,11,12,12,13,13,14,14],"right_children":[2,4,6,8,10,12,14,16,18,20,22,24,26,28,30,-1,-1,-1,-1,-1,-1,-1,-1,-1,-1,-1,-1,-1,-1,-1,-1],"split_conditions":[3E0,1.5714285E0,6.7272725E0,1E0,2.2E0,4.6E0,5.4E0,6E-1,2.2E0,2.0648148E0,3.8E0,3.8666666E0,4.7065215E0,1E0,1.2314815E1,-1.8378247E-2,-1.4697172E-2,-1.1074755E-2,-5.1473086E-3,-7.771434E-3,-3.1746384E-3,3.353847E-4,7.9872785E-3,5.98268E-3,1.2455924E-2,1.5879644E-2,2.2147644E-2,2.7516184E-2,9.86448E-3,2.7193604E-2,3.5E-2],"split_indices":[10,10,10,2,2,2,2,10,2,10,2,10,10,13,8,0,0,0,0,0,0,0,0,0,0,0,0,0,0,0,0],"split_type":[0,0,0,0,0,0,0,0,0,0,0,0,0,0,0,0,0,0,0,0,0,0,0,0,0,0,0,0,0,0,0],"sum_hessian":[2.0221895E5,1.3391347E5,6.8305484E4,8.571487E4,4.8198594E4,5.794003E4,1.0365456E4,4.1599848E4,4.411502E4,2.2089455E4,2.610914E4,2.8459637E4,2.9480396E4,5.838879E2,9.781567E3,1.6411107E4,2.5188742E4,3.7588477E4,6.5265435E3,1.2264617E4,9.824837E3,2.1611652E4,4.4974883E3,1.557818E4,1.2881456E4,1.1309174E4,1.8171223E4,3.1755356E2,2.6633435E2,9.855821E2,8.795985E3],"tree_param":{"num_deleted":"0","num_feature":"17","num_nodes":"31","size_leaf_vector":"1"}},{"base_weights":[5.793822E-4,-1.7902388E-1,3.3721077E-1,-2.661675E-1,-5.701834E-2,2.0619945E-1,5.124695E-1,-3.0938926E-1,-1.9662687E-1,-1.0976015E-1,1.8163487E-2,1.3971812E-1,2.8266636E-1,4.3060306E-1,7E-1,-1.720021E-2,-1.3147113E-2,-1.2042049E-2,-8.669266E-3,-6.0407803E-3,2.2793685E-3,7.8326346E-5,5.2734693E-3,5.802024E-3,1.20648155E-2,1.0234113E-2,1.5183252E-2,1.9670304E-2,2.4375258E-2,3.0483643E-2,3.5E-2],"categories":[],"categories_nodes":[],"categories_segments":[],"categories_sizes":[],"default_left":[0,0,0,0,0,0,0,0,0,0,0,0,0,0,0,0,0,0,0,0,0,0,0,0,0,0,0,0,0,0,0],"id":9,"left_children":[1,3,5,7,9,11,13,15,17,19,21,23,25,27,29,-1,-1,-1,-1,-1,-1,-1,-1,-1,-1,-1,-1,-1,-1,-1,-1],"loss_changes":[1.2225674E4,1.4019155E3,1.6152188E3,2.3113281E2,2.1785767E2,2.0462268E2,5.4390674E2,7.617236E1,3.0257935E1,5.546118E1,3.2824013E1,5.177295E1,3.0597046E1,4.6549316E1,1.9095215E1,0E0,0E0,0E0,0E0,0E0,0E0,0E0,0E0,0E0,0E0,0E0,0E0,0E0,0E0,0E0,0E0],"parents":[2147483647,0,0,1,1,2,2,3,3,4,4,5,5,6,6,7,7,8,8,9,9,10,10,11,11,12,12,13,13,14,14],"right_children":[2,4,6,8,10,12,14,16,18,20,22,24,26,28,30,-1,-1,-1,-1,-1,-1,-1,-1,-1,-1,-1,-1,-1,-1,-1,-1],"split_conditions":[3.2E0,1.6E0,5.4E0,1.86E1,2.4E0,4.2E0,8E0,8E-1,1E0,3.2658535E1,3.2658535E1,1.66E1,1.1E1,6.6E0,8.6E0,-1.720021E-2,-1.3147113E-2,-1.2042049E-2,-8.669266E-3,-6.0407803E-3,2.2793685E-3,7.8326346E-5,5.2734693E-3,5.802024E-3,1.20648155E-2,1.0234113E-2,1.5183252E-2,1.9670304E-2,2.4375258E-2,3.0483643E-2,3.5E-2],"split_indices":[2,2,2,3,2,2,2,2,2,11,11,4,0,2,2,0,0,0,0,0,0,0,0,0,0,0,0,0,0,0,0],"split_type":[0,0,0,0,0,0,0,0,0,0,0,0,0,0,0,0,0,0,0,0,0,0,0,0,0,0,0,0,0,0,0],"sum_hessian":[2.0220864E5,1.3185852E5,7.035013E4,7.691795E4,5.4940562E4,4.025812E4,3.009201E4,4.743321E4,2.948474E4,3.2288773E4,2.2651791E4,2.1536676E4,1.8721445E4,2.2082428E4,8.009583E3,2.717469E4,2.0258523E4,1.0155615E4,1.9329125E4,3.0143783E4,2.144989E3,1.9034354E4,3.6174363E3,1.7467244E4,4.0694316E3,3.9739402E3,1.4747505E4,1.3358114E4,8.7243125E3,2.3994312E3,5.610152E3],"tree_param":{"num_deleted":"0","num_feature":"17","num_nodes":"31","size_leaf_vector":"1"}},{"base_weights":[1.0793948E-3,-1.7554513E-1,3.2272992E-1,-2.615449E-1,-5.5028755E-2,2.06418E-1,4.9974313E-1,-3.0504823E-1,-1.928899E-1,-1.0480804E-1,1.6181134E-2,1.431838E-1,2.9500523E-1,4.379992E-1,7E-1,-1.7014949E-2,-1.2921775E-2,-1.0644489E-2,-7.392789E-3,-5.670134E-3,3.663385E-3,-7.8562545E-5,5.2147675E-3,6.403246E-3,1.3205187E-2,5.0886436E-3,1.52688E-2,1.9922063E-2,2.521574E-2,2.6433915E-2,3.5E-2],"categories":[],"categories_nodes":[],"categories_segments":[],"categories_sizes":[],"default_left":[0,0,0,0,0,0,0,0,0,0,0,0,0,0,0,0,0,0,0,0,0,0,0,0,0,0,0,0,0,0,0],"id":10,"left_children":[1,3,5,7,9,11,13,15,17,19,21,23,25,27,29,-1,-1,-1,-1,-1,-1,-1,-1,-1,-1,-1,-1,-1,-1,-1,-1],"loss_changes":[1.1456687E4,1.3492041E3,1.4716514E3,2.2683594E2,1.9216986E2,2.4161621E2,4.0748535E2,7.631787E1,2.6510498E1,4.8842102E1,3.489122E1,4.5988525E1,3.5974365E1,5.882959E1,1.9707275E1,0E0,0E0,0E0,0E0,0E0,0E0,0E0,0E0,0E0,0E0,0E0,0E0,0E0,0E0,0E0,0E0],"parents":[2147483647,0,0,1,1,2,2,3,3,4,4,5,5,6,6,7,7,8,8,9,9,10,10,11,11,12,12,13,13,14,14],"right_children":[2,4,6,8,10,12,14,16,18,20,22,24,26,28,30,-1,-1,-1,-1,-1,-1,-1,-1,-1,-1,-1,-1,-1,-1,-1,-1],"split_conditions":[3.2E0,1.6E0,5.6E0,1.86E1,2.4E0,4.4E0,8.6E0,8E-1,2.7556818E1,3.3307693E1,3.254762E1,2.3285715E1,7E0,7E0,3.1807339E1,-1.7014949E-2,-1.2921775E-2,-1.0644489E-2,-7.392789E-3,-5.670134E-3,3.663385E-3,-7.8562545E-5,5.2147675E-3,6.403246E-3,1.3205187E-2,5.0886436E-3,1.52688E-2,1.9922063E-2,2.521574E-2,2.6433915E-2,3.5E-2],"split_indices":[2,2,2,3,2,2,2,2,11,11,11,8,8,2,11,0,0,0,0,0,0,0,0,0,0,0,0,0,0,0,0],"split_type":[0,0,0,0,0,0,0,0,0,0,0,0,0,0,0,0,0,0,0,0,0,0,0,0,0,0,0,0,0,0,0],"sum_hessian":[2.0165988E5,1.301774E5,7.148247E4,7.596677E4,5.421062E4,4.3138906E4,2.8343566E4,4.6499117E4,2.9467658E4,3.1906152E4,2.230447E4,2.517292E4,1.7965986E4,2.250151E4,5.8420557E3,2.6472822E4,2.0026295E4,2.0402904E4,9.064755E3,3.043748E4,1.4686713E3,1.8565133E4,3.7393376E3,2.237712E4,2.795802E3,9.156693E2,1.7050316E4,1.4098578E4,8.402933E3,6.871124E2,5.1549434E3],"tree_param":{"num_deleted":"0","num_feature":"17","num_nodes":"31","size_leaf_vector":"1"}},{"base_weights":[8.3927007E-4,-1.7424381E-1,3.1239867E-1,-2.6108876E-1,-5.478988E-2,2.0892951E-1,4.86185E-1,-3.232278E-1,-2.1433955E-1,-1.1871886E-1,8.452803E-4,1.2998225E-1,2.779557E-1,4.142249E-1,6.6430885E-1,-1.6988346E-2,-1.231669E-2,-1.2721746E-2,-9.068835E-3,-8.38349E-3,-4.519332E-3,-7.8973325E-4,4.6007414E-3,4.8094294E-3,9.301974E-3,1.0546525E-2,1.5015538E-2,1.9467706E-2,2.3772491E-2,2.7499232E-2,3.5E-2],"categories":[],"categories_nodes":[],"categories_segments":[],"categories_sizes":[],"default_left":[0,0,0,0,0,0,0,0,0,0,0,0,0,0,0,0,0,0,0,0,0,0,0,0,0,0,0,0,0,0,0],"id":11,"left_children":[1,3,5,7,9,11,13,15,17,19,21,23,25,27,29,-1,-1,-1,-1,-1,-1,-1,-1,-1,-1,-1,-1,-1,-1,-1,-1],"loss_changes":[1.0976221E4,1.3364084E3,1.3016504E3,2.166206E2,1.9288733E2,2.472533E2,3.4601074E2,4.0641846E1,5.6218628E1,3.4983154E1,4.3993065E1,4.0086334E1,3.621118E1,2.9118896E1,4.7571045E1,0E0,0E0,0E0,0E0,0E0,0E0,0E0,0E0,0E0,0E0,0E0,0E0,0E0,0E0,0E0,0E0],"parents":[2147483647,0,0,1,1,2,2,3,3,4,4,5,5,6,6,7,7,8,8,9,9,10,10,11,11,12,12,13,13,14,14],"right_children":[2,4,6,8,10,12,14,16,18,20,22,24,26,28,30,-1,-1,-1,-1,-1,-1,-1,-1,-1,-1,-1,-1,-1,-1,-1,-1],"split_conditions":[3.2E0,1.6E0,5.8E0,8E-1,2.2E0,4.2E0,8.2E0,1.86E1,1.84E1,2.0142857E1,3.254762E1,1.3E1,2.7024391E1,7.2E0,1.9571428E1,-1.6988346E-2,-1.231669E-2,-1.2721746E-2,-9.068835E-3,-8.38349E-3,-4.519332E-3,-7.8973325E-4,4.6007414E-3,4.8094294E-3,9.301974E-3,1.0546525E-2,1.5015538E-2,1.9467706E-2,2.3772491E-2,2.7499232E-2,3.5E-2],"split_indices":[2,2,2,2,2,2,2,3,3,11,11,4,11,2,8,0,0,0,0,0,0,0,0,0,0,0,0,0,0,0,0],"split_type":[0,0,0,0,0,0,0,0,0,0,0,0,0,0,0,0,0,0,0,0,0,0,0,0,0,0,0,0,0,0,0],"sum_hessian":[2.0121644E5,1.2882354E5,7.239289E4,7.459244E4,5.4231105E4,4.5377914E4,2.7014973E4,3.2022393E4,4.2570043E4,2.5234098E4,2.8997008E4,2.1169098E4,2.4208816E4,1.924395E4,7.7710234E3,2.6351113E4,5.6712793E3,1.9203992E4,2.3366053E4,9.249086E3,1.5985012E4,2.452214E4,4.474868E3,1.3208921E4,7.960177E3,6.057517E3,1.81513E4,1.3690113E4,5.553837E3,2.5745532E3,5.19647E3],"tree_param":{"num_deleted":"0","num_feature":"17","num_nodes":"31","size_leaf_vector":"1"}},{"base_weights":[2.1404305E-3,-1.789816E-1,2.9343876E-1,-2.5581846E-1,-5.255946E-2,1.9741881E-1,4.786381E-1,-3.1351066E-1,-1.9871621E-1,-1.0762476E-1,2.2580411E-2,1.2976654E-1,2.8413182E-1,4.1657305E-1,7E-1,-1.798193E-2,-1.4146755E-2,-1.0678342E-2,-5.2597527E-3,-7.3054666E-3,-2.505523E-3,1.96893E-4,7.0103854E-3,-3.301641E-3,7.1208E-3,1.12310555E-2,1.5707297E-2,1.8416634E-2,2.3997473E-2,2.3520822E-2,3.5E-2],"categories":[],"categories_nodes":[],"categories_segments":[],"categories_sizes":[],"default_left":[0,0,0,0,0,0,0,0,0,0,0,0,0,0,0,0,0,0,0,0,0,0,0,0,0,0,0,0,0,0,0],"id":12,"left_children":[1,3,5,7,9,11,13,15,17,19,21,23,25,27,29,-1,-1,-1,-1,-1,-1,-1,-1,-1,-1,-1,-1,-1,-1,-1,-1],"loss_changes":[1.0680101E4,1.2124482E3,1.380002E3,2.5568896E2,1.9523633E2,2.9979932E2,4.427588E2,5.436035E1,5.41687E1,6.0264404E1,4.3760532E1,7.112479E1,3.993799E1,6.610913E1,8.312744E0,0E0,0E0,0E0,0E0,0E0,0E0,0E0,0E0,0E0,0E0,0E0,0E0,0E0,0E0,0E0,0E0],"parents":[2147483647,0,0,1,1,2,2,3,3,4,4,5,5,6,6,7,7,8,8,9,9,10,10,11,11,12,12,13,13,14,14],"right_children":[2,4,6,8,10,12,14,16,18,20,22,24,26,28,30,-1,-1,-1,-1,-1,-1,-1,-1,-1,-1,-1,-1,-1,-1,-1,-1],"split_conditions":[2.8181818E0,1.5E0,5.418605E0,1E0,2.4E0,4.4E0,8.280702E0,6E-1,2.2E0,2.0648148E0,4E0,1.8E0,4.037037E0,6.8E0,9E0,-1.798193E-2,-1.4146755E-2,-1.0678342E-2,-5.2597527E-3,-7.3054666E-3,-2.505523E-3,1.96893E-4,7.0103854E-3,-3.301641E-3,7.1208E-3,1.12310555E-2,1.5707297E-2,1.8416634E-2,2.3997473E-2,2.3520822E-2,3.5E-2],"split_indices":[10,10,10,2,2,2,10,10,2,10,2,2,10,2,4,0,0,0,0,0,0,0,0,0,0,0,0,0,0,0,0],"split_type":[0,0,0,0,0,0,0,0,0,0,0,0,0,0,0,0,0,0,0,0,0,0,0,0,0,0,0,0,0,0,0],"sum_hessian":[2.0242388E5,1.24816484E5,7.760739E4,7.763218E4,4.718431E4,5.1110363E4,2.6497027E4,3.8614375E4,3.9017805E4,2.722926E4,1.9955049E4,2.871209E4,2.2398273E4,2.168034E4,4.8166875E3,1.5388171E4,2.3226203E4,3.3669934E4,5.3478726E3,1.631252E4,1.091674E4,1.7225969E4,2.729081E3,1.7421013E3,2.6969988E4,7.512101E3,1.4886173E4,1.2314037E4,9.366303E3,1.6600754E2,4.6506797E3],"tree_param":{"num_deleted":"0","num_feature":"17","num_nodes":"31","size_leaf_vector":"1"}},{"base_weights":[2.607588E-3,-1.7666811E-1,2.74423E-1,-2.6886842E-1,-7.783733E-2,1.6886538E-1,4.2352125E-1,-3.041404E-1,-2.0087026E-1,-1.2656677E-1,-6.926931E-3,1.007832E-1,2.3496777E-1,3.7589842E-1,6.230565E-1,-1.6700065E-2,-1.2883203E-2,-1.0929653E-2,-7.874134E-3,-6.697851E-3,2.5662293E-3,-1.3146289E-3,3.6921788E-3,4.2827E-3,1.0210065E-2,8.084575E-3,1.27647E-2,1.7697068E-2,2.257872E-2,2.7417643E-2,3.5E-2],"categories":[],"categories_nodes":[],"categories_segments":[],"categories_sizes":[],"default_left":[0,0,0,0,0,0,0,0,0,0,0,0,0,0,0,0,0,0,0,0,0,0,0,0,0,0,0,0,0,0,0],"id":13,"left_children":[1,3,5,7,9,11,13,15,17,19,21,23,25,27,29,-1,-1,-1,-1,-1,-1,-1,-1,-1,-1,-1,-1,-1,-1,-1,-1],"loss_changes":[9.819232E3,1.1063892E3,1.2603086E3,1.5060156E2,2.0250244E2,2.109967E2,3.1519434E2,5.7313477E1,1.6465698E1,4.5671265E1,3.733987E1,3.6126266E1,3.5391846E1,4.437329E1,4.940918E1,0E0,0E0,0E0,0E0,0E0,0E0,0E0,0E0,0E0,0E0,0E0,0E0,0E0,0E0,0E0,0E0],"parents":[2147483647,0,0,1,1,2,2,3,3,4,4,5,5,6,6,7,7,8,8,9,9,10,10,11,11,12,12,13,13,14,14],"right_children":[2,4,6,8,10,12,14,16,18,20,22,24,26,28,30,-1,-1,-1,-1,-1,-1,-1,-1,-1,-1,-1,-1,-1,-1,-1,-1],"split_conditions":[3E0,1.4E0,5.4E0,1.86E1,2.2E0,4E0,8.6E0,8E-1,2.7556818E1,1.5E1,3.151064E1,2.1555555E1,1.1E1,7.4E0,1E1,-1.6700065E-2,-1.2883203E-2,-1.0929653E-2,-7.874134E-3,-6.697851E-3,2.5662293E-3,-1.3146289E-3,3.6921788E-3,4.2827E-3,1.0210065E-2,8.084575E-3,1.27647E-2,1.7697068E-2,2.257872E-2,2.7417643E-2,3.5E-2],"split_indices":[2,2,2,3,2,2,2,2,11,4,11,8,0,2,2,0,0,0,0,0,0,0,0,0,0,0,0,0,0,0,0],"split_type":[0,0,0,0,0,0,0,0,0,0,0,0,0,0,0,0,0,0,0,0,0,0,0,0,0,0,0,0,0,0,0],"sum_hessian":[2.0150127E5,1.2141947E5,8.008179E4,6.2816016E4,5.8603453E4,4.688827E4,3.319352E4,4.1358867E4,2.1457145E4,3.473374E4,2.3869717E4,2.3099475E4,2.3788793E4,2.6800068E4,6.3934526E3,2.5176727E4,1.6182143E4,1.5231427E4,6.2257188E3,3.3348566E4,1.3851705E3,1.9254021E4,4.615696E3,2.0153078E4,2.9463975E3,5.167793E3,1.8621E4,2.0777299E4,6.0227705E3,3.815012E3,2.5784407E3],"tree_param":{"num_deleted":"0","num_feature":"17","num_nodes":"31","size_leaf_vector":"1"}},{"base_weights":[3.2992367E-4,-1.8412562E-1,2.4660073E-1,-2.669202E-1,-8.721068E-2,1.2424466E-1,3.6826286E-1,-3.040211E-1,-1.9606186E-1,-1.2579137E-1,-1.5980583E-2,7.568835E-2,1.8988651E-1,3.1659105E-1,5.5611396E-1,-1.665752E-2,-1.2899935E-2,-1.1359693E-2,-8.49682E-3,-8.395793E-3,-4.7353352E-3,-1.5439313E-3,3.3741978E-3,2.6669032E-3,7.519805E-3,8.546908E-3,1.3249733E-2,1.4475266E-2,1.831359E-2,2.4593802E-2,3.445339E-2],"categories":[],"categories_nodes":[],"categories_segments":[],"categories_sizes":[],"default_left":[0,0,0,0,0,0,0,0,0,0,0,0,0,0,0,0,0,0,0,0,0,0,0,0,0,0,0,0,0,0,0],"id":14,"left_children":[1,3,5,7,9,11,13,15,17,19,21,23,25,27,29,-1,-1,-1,-1,-1,-1,-1,-1,-1,-1,-1,-1,-1,-1,-1,-1],"loss_changes":[9.193343E3,9.2845776E2,1.290103E3,1.6398877E2,1.4650458E2,1.377174E2,4.216421E2,5.481787E1,1.7405518E1,4.5265503E1,2.329405E1,4.1468964E1,2.6102661E1,4.575952E1,7.971704E1,0E0,0E0,0E0,0E0,0E0,0E0,0E0,0E0,0E0,0E0,0E0,0E0,0E0,0E0,0E0,0E0],"parents":[2147483647,0,0,1,1,2,2,3,3,4,4,5,5,6,6,7,7,8,8,9,9,10,10,11,11,12,12,13,13,14,14],"right_children":[2,4,6,8,10,12,14,16,18,20,22,24,26,28,30,-1,-1,-1,-1,-1,-1,-1,-1,-1,-1,-1,-1,-1,-1,-1,-1],"split_conditions":[2.8E0,1.4E0,4.8E0,1.86E1,2.2E0,3.8E0,8E0,8E-1,1E0,2.2E1,1.66E1,1.8644444E1,2.2075E1,6.4E0,9.8E0,-1.665752E-2,-1.2899935E-2,-1.1359693E-2,-8.49682E-3,-8.395793E-3,-4.7353352E-3,-1.5439313E-3,3.3741978E-3,2.6669032E-3,7.519805E-3,8.546908E-3,1.3249733E-2,1.4475266E-2,1.831359E-2,2.4593802E-2,3.445339E-2],"split_indices":[2,2,2,3,2,2,2,2,2,3,8,8,8,2,2,0,0,0,0,0,0,0,0,0,0,0,0,0,0,0,0],"split_type":[0,0,0,0,0,0,0,0,0,0,0,0,0,0,0,0,0,0,0,0,0,0,0,0,0,0,0,0,0,0,0],"sum_hessian":[2.0237858E5,1.15711516E5,8.666706E4,6.240072E4,5.3310793E4,4.321131E4,4.3455758E4,4.0954152E4,2.1446566E4,3.458019E4,1.8730602E4,2.4839383E4,1.8371926E4,3.408324E4,9.37252E3,2.5076238E4,1.5877915E4,9.782147E3,1.1664419E4,1.4680914E4,1.989928E4,1.5894191E4,2.8364114E3,1.9120748E4,5.718634E3,1.4673386E4,3.6985413E3,2.2061973E4,1.2021265E4,6.3224604E3,3.0500583E3],"tree_param":{"num_deleted":"0","num_feature":"17","num_nodes":"31","size_leaf_vector":"1"}},{"base_weights":[1.2434395E-3,-1.719068E-1,2.5548282E-1,-2.6370144E-1,-7.629585E-2,1.5868194E-1,3.8454983E-1,-3.0038723E-1,-1.937521E-1,-1.2032734E-1,-1.2466155E-2,9.838899E-2,2.1721065E-1,3.2853845E-1,5.268805E-1,-1.647217E-2,-1.2745649E-2,-1.1066966E-2,-8.512879E-3,-8.019106E-3,-4.2968667E-3,-1.2734549E-3,4.300389E-3,4.3803933E-3,1.026234E-2,9.830995E-3,1.3968776E-2,1.6184505E-2,2.452261E-2,2.4169302E-2,3.405998E-2],"categories":[],"categories_nodes":[],"categories_segments":[],"categories_sizes":[],"default_left":[0,0,0,0,0,0,0,0,0,0,0,0,0,0,0,0,0,0,0,0,0,0,0,0,0,0,0,0,0,0,0],"id":15,"left_children":[1,3,5,7,9,11,13,15,17,19,21,23,25,27,29,-1,-1,-1,-1,-1,-1,-1,-1,-1,-1,-1,-1,-1,-1,-1,-1],"loss_changes":[8.905857E3,1.0561982E3,1.02394727E3,1.5749707E2,1.6567468E2,1.6525879E2,2.7985498E2,5.3128906E1,1.3654663E1,4.8038727E1,3.0816689E1,2.6562546E1,3.0365112E1,1.9630127E1,6.623877E1,0E0,0E0,0E0,0E0,0E0,0E0,0E0,0E0,0E0,0E0,0E0,0E0,0E0,0E0,0E0,0E0],"parents":[2147483647,0,0,1,1,2,2,3,3,4,4,5,5,6,6,7,7,8,8,9,9,10,10,11,11,12,12,13,13,14,14],"right_children":[2,4,6,8,10,12,14,16,18,20,22,24,26,28,30,-1,-1,-1,-1,-1,-1,-1,-1,-1,-1,-1,-1,-1,-1,-1,-1],"split_conditions":[3E0,1.4E0,5.4E0,1.86E1,2.2E0,4E0,8E0,8E-1,1E0,2.28E1,1.8857143E1,2.3285715E1,2.2075E1,1.1678572E1,1.04E1,-1.647217E-2,-1.2745649E-2,-1.1066966E-2,-8.512879E-3,-8.019106E-3,-4.2968667E-3,-1.2734549E-3,4.300389E-3,4.3803933E-3,1.026234E-2,9.830995E-3,1.3968776E-2,1.6184505E-2,2.452261E-2,2.4169302E-2,3.405998E-2],"split_indices":[2,2,2,3,2,2,2,2,2,3,8,8,8,9,2,0,0,0,0,0,0,0,0,0,0,0,0,0,0,0,0],"split_type":[0,0,0,0,0,0,0,0,0,0,0,0,0,0,0,0,0,0,0,0,0,0,0,0,0,0,0,0,0,0,0],"sum_hessian":[2.023045E5,1.2034419E5,8.196032E4,6.1396535E4,5.8947652E4,4.683561E4,3.512471E4,4.0272055E4,2.1124479E4,3.48833E4,2.406435E4,2.307142E4,2.376419E4,2.5207941E4,9.916769E3,2.456792E4,1.5704136E4,9.712117E3,1.1412362E4,1.6112758E4,1.8770545E4,2.1258078E4,2.8062708E3,2.0958672E4,2.1127485E3,1.7854457E4,5.909732E3,2.447797E4,7.299718E2,7.7395293E3,2.1772388E3],"tree_param":{"num_deleted":"0","num_feature":"17","num_nodes":"31","size_leaf_vector":"1"}},{"base_weights":[8.727913E-4,-1.7035043E-1,2.5472847E-1,-2.461684E-1,-4.994845E-2,1.5175265E-1,3.6534515E-1,-3.00067E-1,-1.8253538E-1,-1.0398218E-1,-3.8066271E-3,9.778118E-2,2.0407592E-1,3.2738763E-1,6.084733E-1,-1.6821068E-2,-1.2508883E-2,-1.1993923E-2,-8.06753E-3,-8.592788E-3,-4.1893497E-3,-6.017485E-3,3.4831616E-4,1.52091E-3,6.741808E-3,3.6790401E-3,1.09791E-2,1.5240294E-2,2.0337215E-2,3.5E-2,2.8597787E-2],"categories":[],"categories_nodes":[],"categories_segments":[],"categories_sizes":[],"default_left":[0,0,0,0,0,0,0,0,0,0,0,0,0,0,0,0,0,0,0,0,0,0,0,0,0,0,0,0,0,0,0],"id":16,"left_children":[1,3,5,7,9,11,13,15,17,19,21,23,25,27,29,-1,-1,-1,-1,-1,-1,-1,-1,-1,-1,-1,-1,-1,-1,-1,-1],"loss_changes":[8.780256E3,1.1012253E3,9.2678955E2,2.5382178E2,1.16218124E2,1.1898425E2,3.6181445E2,7.259985E1,4.1202026E1,2.9416E1,3.156963E1,5.1779724E1,4.327832E1,6.068286E1,1.9625854E1,0E0,0E0,0E0,0E0,0E0,0E0,0E0,0E0,0E0,0E0,0E0,0E0,0E0,0E0,0E0,0E0],"parents":[2147483647,0,0,1,1,2,2,3,3,4,4,5,5,6,6,7,7,8,8,9,9,10,10,11,11,12,12,13,13,14,14],"right_children":[2,4,6,8,10,12,14,16,18,20,22,24,26,28,30,-1,-1,-1,-1,-1,-1,-1,-1,-1,-1,-1,-1,-1,-1,-1,-1],"split_conditions":[2.8181818E0,1.5E0,4.7065215E0,1.84E1,2.0370371E0,3.642857E0,8.280702E0,8.4615386E-1,8.965517E-1,6E0,1.42E1,2.64E1,7.4E0,6.7272725E0,3.8235295E0,-1.6821068E-2,-1.2508883E-2,-1.1993923E-2,-8.06753E-3,-8.592788E-3,-4.1893497E-3,-6.017485E-3,3.4831616E-4,1.52091E-3,6.741808E-3,3.6790401E-3,1.09791E-2,1.5240294E-2,2.0337215E-2,3.5E-2,2.8597787E-2],"split_indices":[10,10,10,3,10,10,10,10,10,0,3,3,0,10,9,0,0,0,0,0,0,0,0,0,0,0,0,0,0,0,0],"split_type":[0,0,0,0,0,0,0,0,0,0,0,0,0,0,0,0,0,0,0,0,0,0,0,0,0,0,0,0,0,0,0],"sum_hessian":[2.0200092E5,1.2063447E5,8.136646E4,7.402154E4,4.661292E4,4.2139824E4,3.9226637E4,4.007413E4,3.3947414E4,2.1469783E4,2.514314E4,2.0744611E4,2.1395213E4,3.3931543E4,5.295096E3,2.3178348E4,1.6895781E4,9.155345E3,2.4792068E4,4.9215474E3,1.6548236E4,2.126647E3,2.3016494E4,7.3623223E3,1.338229E4,2.2728928E3,1.912232E4,2.6418678E4,7.5128647E3,1.3631667E3,3.9319294E3],"tree_param":{"num_deleted":"0","num_feature":"17","num_nodes":"31","size_leaf_vector":"1"}},{"base_weights":[1.1136115E-3,-1.659608E-1,2.4458304E-1,-2.565066E-1,-6.487029E-2,1.6902253E-1,3.9316878E-1,-3.0207315E-1,-1.9264933E-1,-1.1929232E-1,6.799333E-4,1.1315383E-1,2.3576726E-1,3.4485468E-1,5.867476E-1,-1.7323704E-2,-1.3433233E-2,-1.1051997E-2,-7.906772E-3,-7.2023496E-3,-2.6601085E-3,-8.356077E-4,5.012607E-3,1.2768935E-3,6.918444E-3,3.2336637E-3,1.2208328E-2,1.5861837E-2,1.999195E-2,3.464331E-2,2.768497E-2],"categories":[],"categories_nodes":[],"categories_segments":[],"categories_sizes":[],"default_left":[0,0,0,0,0,0,0,0,0,0,0,0,0,0,0,0,0,0,0,0,0,0,0,0,0,0,0,0,0,0,0],"id":17,"left_children":[1,3,5,7,9,11,13,15,17,19,21,23,25,27,29,-1,-1,-1,-1,-1,-1,-1,-1,-1,-1,-1,-1,-1,-1,-1,-1],"loss_changes":[8.1866826E3,1.0924731E3,9.1948535E2,1.8314111E2,2.011816E2,2.0243799E2,2.5801562E2,5.4406982E1,2.5658203E1,5.0403503E1,4.430537E1,6.529651E1,3.55354E1,3.3429443E1,1.8950806E1,0E0,0E0,0E0,0E0,0E0,0E0,0E0,0E0,0E0,0E0,0E0,0E0,0E0,0E0,0E0,0E0],"parents":[2147483647,0,0,1,1,2,2,3,3,4,4,5,5,6,6,7,7,8,8,9,9,10,10,11,11,12,12,13,13,14,14],"right_children":[2,4,6,8,10,12,14,16,18,20,22,24,26,28,30,-1,-1,-1,-1,-1,-1,-1,-1,-1,-1,-1,-1,-1,-1,-1,-1],"split_conditions":[2.8181818E0,1.3421053E0,5.5070424E0,1.84E1,2.2E0,4.037037E0,8.280702E0,6.666667E-1,1.4E0,2.0648148E0,3.8E0,7.4E0,2.8E0,6.7272725E0,3.785235E0,-1.7323704E-2,-1.3433233E-2,-1.1051997E-2,-7.906772E-3,-7.2023496E-3,-2.6601085E-3,-8.356077E-4,5.012607E-3,1.2768935E-3,6.918444E-3,3.2336637E-3,1.2208328E-2,1.5861837E-2,1.999195E-2,3.464331E-2,2.768497E-2],"split_indices":[10,10,10,3,2,10,10,10,2,10,2,4,2,10,9,0,0,0,0,0,0,0,0,0,0,0,0,0,0,0,0],"split_type":[0,0,0,0,0,0,0,0,0,0,0,0,0,0,0,0,0,0,0,0,0,0,0,0,0,0,0,0,0,0,0],"sum_hessian":[2.0125622E5,1.1935342E5,8.190279E4,6.2959586E4,5.6393832E4,5.429448E4,2.760831E4,3.6739617E4,2.6219973E4,3.0811914E4,2.558192E4,2.9556717E4,2.4737764E4,2.2096234E4,5.512076E3,1.5770612E4,2.0969002E4,1.43831875E4,1.1836784E4,2.2414994E4,8.396921E3,2.1778707E4,3.8032126E3,6.605672E3,2.2951045E4,1.1579962E3,2.3579768E4,1.47129E4,7.383334E3,1.3042206E3,4.2078555E3],"tree_param":{"num_deleted":"0","num_feature":"17","num_nodes":"31","size_leaf_vector":"1"}},{"base_weights":[1.2322007E-3,-1.7836335E-1,2.1517421E-1,-2.5312936E-1,-8.3247915E-2,1.2502782E-1,3.4360752E-1,-3.0352145E-1,-1.9476326E-1,-1.2861107E-1,-3.5052896E-2,7.2486214E-2,1.9053265E-1,3.073348E-1,5.54805E-1,-1.7157098E-2,-1.3561845E-2,-1.1898742E-2,-8.516735E-3,-1.0242308E-2,-5.5255992E-3,-5.272077E-3,-9.3666714E-4,8.1985904E-4,4.9917875E-3,4.7820113E-3,1.0477683E-2,1.4216221E-2,1.9095523E-2,2.662687E-2,3.5E-2],"categories":[],"categories_nodes":[],"categories_segments":[],"categories_sizes":[],"default_left":[0,0,0,0,0,0,0,0,0,0,0,0,0,0,0,0,0,0,0,0,0,0,0,0,0,0,0,0,0,0,0],"id":18,"left_children":[1,3,5,7,9,11,13,15,17,19,21,23,25,27,29,-1,-1,-1,-1,-1,-1,-1,-1,-1,-1,-1,-1,-1,-1,-1,-1],"loss_changes":[7.785214E3,7.833076E2,1.0705249E3,1.8133105E2,1.0598572E2,1.869878E2,2.9196777E2,4.2239746E1,3.0126587E1,3.443512E1,2.7001411E1,4.6251404E1,4.3628845E1,5.5743164E1,2.4013306E1,0E0,0E0,0E0,0E0,0E0,0E0,0E0,0E0,0E0,0E0,0E0,0E0,0E0,0E0,0E0,0E0],"parents":[2147483647,0,0,1,1,2,2,3,3,4,4,5,5,6,6,7,7,8,8,9,9,10,10,11,11,12,12,13,13,14,14],"right_children":[2,4,6,8,10,12,14,16,18,20,22,24,26,28,30,-1,-1,-1,-1,-1,-1,-1,-1,-1,-1,-1,-1,-1,-1,-1,-1],"split_conditions":[2.5714285E0,1.3333334E0,4.8510637E0,1.72E1,1.8070176E0,3.642857E0,8.280702E0,6.666667E-1,8.965517E-1,1.64E1,1.76E1,2.56E1,7.6E0,6.7272725E0,1.23E2,-1.7157098E-2,-1.3561845E-2,-1.1898742E-2,-8.516735E-3,-1.0242308E-2,-5.5255992E-3,-5.272077E-3,-9.3666714E-4,8.1985904E-4,4.9917875E-3,4.7820113E-3,1.0477683E-2,1.4216221E-2,1.9095523E-2,2.662687E-2,3.5E-2],"split_indices":[10,10,10,3,10,10,10,10,10,3,3,3,4,10,15,0,0,0,0,0,0,0,0,0,0,0,0,0,0,0,0],"split_type":[0,0,0,0,0,0,0,0,0,0,0,0,0,0,0,0,0,0,0,0,0,0,0,0,0,0,0,0,0,0,0],"sum_hessian":[2.026164E5,1.1015009E5,9.246632E4,6.1671332E4,4.8478758E4,5.433263E4,3.8133695E4,3.309425E4,2.8577086E4,2.4972207E4,2.350655E4,3.015074E4,2.4181887E4,3.2546383E4,5.5873115E3,1.485462E4,1.8239627E4,1.0317594E4,1.825949E4,4.789226E3,2.018298E4,4.423196E3,1.9083355E4,9.883347E3,2.0267393E4,4.0388403E3,2.0143047E4,2.487575E4,7.6706323E3,5.0737075E3,5.136043E2],"tree_param":{"num_deleted":"0","num_feature":"17","num_nodes":"31","size_leaf_vector":"1"}},{"base_weights":[1.9958047E-3,-1.6989963E-1,2.0907576E-1,-2.4937496E-1,-8.0779515E-2,1.1341357E-1,3.142787E-1,-2.903591E-1,-1.8112963E-1,-1.2772778E-1,-3.287667E-2,7.239579E-2,1.7685457E-1,2.9054517E-1,5.161034E-1,-1.5903357E-2,-1.225198E-2,-9.556367E-3,-5.3353356E-3,-8.212924E-3,-5.1759332E-3,-2.9350189E-3,-1.8211453E-4,2.4657182E-3,5.6738625E-3,8.04478E-3,1.1561237E-2,1.3295389E-2,1.8228196E-2,2.3606913E-2,3.155978E-2],"categories":[],"categories_nodes":[],"categories_segments":[],"categories_sizes":[],"default_left":[0,0,0,0,0,0,0,0,0,0,0,0,0,0,0,0,0,0,0,0,0,0,0,0,0,0,0,0,0,0,0],"id":19,"left_children":[1,3,5,7,9,11,13,15,17,19,21,23,25,27,29,-1,-1,-1,-1,-1,-1,-1,-1,-1,-1,-1,-1,-1,-1,-1,-1],"loss_changes":[7.1953823E3,7.823032E2,9.226907E2,1.6325E2,1.1709616E2,1.2495111E2,2.0900684E2,4.5726807E1,1.6281677E1,2.3238586E1,1.9457396E1,2.7651154E1,1.6324097E1,7.115747E1,2.2943726E1,0E0,0E0,0E0,0E0,0E0,0E0,0E0,0E0,0E0,0E0,0E0,0E0,0E0,0E0,0E0,0E0],"parents":[2147483647,0,0,1,1,2,2,3,3,4,4,5,5,6,6,7,7,8,8,9,9,10,10,11,11,12,12,13,13,14,14],"right_children":[2,4,6,8,10,12,14,16,18,20,22,24,26,28,30,-1,-1,-1,-1,-1,-1,-1,-1,-1,-1,-1,-1,-1,-1,-1,-1],"split_conditions":[2.8E0,1.4E0,5E0,1.8E1,2E0,4E0,9.4E0,8E-1,3.08E1,2.0044117E1,8.6E0,1.24E1,2.2075E1,7.4E0,1.12E1,-1.5903357E-2,-1.225198E-2,-9.556367E-3,-5.3353356E-3,-8.212924E-3,-5.1759332E-3,-2.9350189E-3,-1.8211453E-4,2.4657182E-3,5.6738625E-3,8.04478E-3,1.1561237E-2,1.3295389E-2,1.8228196E-2,2.3606913E-2,3.155978E-2],"split_indices":[2,2,2,3,2,2,2,2,3,11,4,4,8,2,2,0,0,0,0,0,0,0,0,0,0,0,0,0,0,0,0],"split_type":[0,0,0,0,0,0,0,0,0,0,0,0,0,0,0,0,0,0,0,0,0,0,0,0,0,0,0,0,0,0,0],"sum_hessian":[2.0213761E5,1.1045225E5,9.168536E4,5.8384484E4,5.206777E4,4.8021215E4,4.366415E4,3.6475918E4,2.1908564E4,2.629505E4,2.5772719E4,2.9166045E4,1.885517E4,3.9071934E4,4.592215E3,2.263253E4,1.3843389E4,1.9312611E4,2.5959534E3,1.0478132E4,1.581692E4,1.3684094E4,1.2088626E4,1.8675502E4,1.0490541E4,1.4579646E4,4.2755234E3,2.931795E4,9.753983E3,3.326571E3,1.2656437E3],"tree_param":{"num_deleted":"0","num_feature":"17","num_nodes":"31","size_leaf_vector":"1"}},{"base_weights":[1.757776E-3,-1.8022995E-1,1.9208546E-1,-2.5222895E-1,-9.215771E-2,1.05398215E-1,3.107468E-1,-2.9588604E-1,-1.8582627E-1,-1.3532752E-1,-3.599444E-2,6.208087E-2,1.7376858E-1,2.799512E-1,4.9630794E-1,-1.6896294E-2,-1.2975243E-2,-1.1412197E-2,-8.36819E-3,-7.3937564E-3,-3.0219627E-3,-1.9753084E-3,1.7195832E-2,3.372923E-4,4.733627E-3,6.9703357E-3,1.06410505E-2,1.2985519E-2,1.7383287E-2,2.9986689E-2,2.3308553E-2],"categories":[],"categories_nodes":[],"categories_segments":[],"categories_sizes":[],"default_left":[0,0,0,0,0,0,0,0,0,0,0,0,0,0,0,0,0,0,0,0,0,0,0,0,0,0,0,0,0,0,0],"id":20,"left_children":[1,3,5,7,9,11,13,15,17,19,21,23,25,27,29,-1,-1,-1,-1,-1,-1,-1,-1,-1,-1,-1,-1,-1,-1,-1,-1],"loss_changes":[6.996923E3,6.547925E2,1.0156504E3,1.6465381E2,1.1261478E2,1.689762E2,2.3805396E2,5.233789E1,1.7613708E1,2.4669128E1,2.6947533E1,6.299518E1,2.9666016E1,4.89104E1,1.8208984E1,0E0,0E0,0E0,0E0,0E0,0E0,0E0,0E0,0E0,0E0,0E0,0E0,0E0,0E0,0E0,0E0],"parents":[2147483647,0,0,1,1,2,2,3,3,4,4,5,5,6,6,7,7,8,8,9,9,10,10,11,11,12,12,13,13,14,14],"right_children":[2,4,6,8,10,12,14,16,18,20,22,24,26,28,30,-1,-1,-1,-1,-1,-1,-1,-1,-1,-1,-1,-1,-1,-1,-1,-1],"split_conditions":[2.4285715E0,1.2777778E0,4.7065215E0,1.86E1,2E0,3.642857E0,8.280702E0,6.875E-1,1E0,2.0648148E0,5.4E0,2.64E1,4.6E0,6.7272725E0,3.785235E0,-1.6896294E-2,-1.2975243E-2,-1.1412197E-2,-8.36819E-3,-7.3937564E-3,-3.0219627E-3,-1.9753084E-3,1.7195832E-2,3.372923E-4,4.733627E-3,6.9703357E-3,1.06410505E-2,1.2985519E-2,1.7383287E-2,2.9986689E-2,2.3308553E-2],"split_indices":[10,10,10,3,2,10,10,10,2,10,2,3,2,10,9,0,0,0,0,0,0,0,0,0,0,0,0,0,0,0,0],"split_type":[0,0,0,0,0,0,0,0,0,0,0,0,0,0,0,0,0,0,0,0,0,0,0,0,0,0,0,0,0,0,0],"sum_hessian":[2.020034E5,1.0326419E5,9.873921E4,5.68156E4,4.644859E4,5.7057863E4,4.1681348E4,3.427664E4,2.253896E4,2.62614E4,2.0187191E4,3.4929516E4,2.2128352E4,3.5750695E4,5.9306514E3,1.5897816E4,1.8378822E4,6.8317017E3,1.5707259E4,2.249188E4,3.769518E3,2.0003188E4,1.8400444E2,1.2947725E4,2.198179E4,1.1773514E4,1.0354838E4,2.752725E4,8.223445E3,1.3339185E3,4.596733E3],"tree_param":{"num_deleted":"0","num_feature":"17","num_nodes":"31","size_leaf_vector":"1"}},{"base_weights":[5.268384E-4,-1.705112E-1,1.9260673E-1,-2.456719E-1,-7.881698E-2,1.1026606E-1,2.9488575E-1,-3.0665043E-1,-2.012943E-1,-1.2898234E-1,-2.5158655E-2,7.4737705E-2,1.846298E-1,2.6692694E-1,4.671533E-1,-1.6956283E-2,-1.3432403E-2,-1.1964744E-2,-8.493854E-3,-7.278677E-3,-3.1005284E-3,-1.7999776E-3,5.549486E-3,-8.0562866E-4,4.502968E-3,1.0260627E-2,6.379828E-3,1.1766512E-2,1.5412792E-2,2.0682769E-2,2.5846658E-2],"categories":[],"categories_nodes":[],"categories_segments":[],"categories_sizes":[],"default_left":[0,0,0,0,0,0,0,0,0,0,0,0,0,0,0,0,0,0,0,0,0,0,0,0,0,0,0,0,0,0,0],"id":21,"left_children":[1,3,5,7,9,11,13,15,17,19,21,23,25,27,29,-1,-1,-1,-1,-1,-1,-1,-1,-1,-1,-1,-1,-1,-1,-1,-1],"loss_changes":[6.643459E3,7.371831E2,8.0213574E2,1.5901001E2,1.2970273E2,1.3940564E2,2.0448145E2,3.04646E1,4.058191E1,2.7661957E1,3.4369854E1,4.9710236E1,2.0000366E1,4.7658447E1,1.5579956E1,0E0,0E0,0E0,0E0,0E0,0E0,0E0,0E0,0E0,0E0,0E0,0E0,0E0,0E0,0E0,0E0],"parents":[2147483647,0,0,1,1,2,2,3,3,4,4,5,5,6,6,7,7,8,8,9,9,10,10,11,11,12,12,13,13,14,14],"right_children":[2,4,6,8,10,12,14,16,18,20,22,24,26,28,30,-1,-1,-1,-1,-1,-1,-1,-1,-1,-1,-1,-1,-1,-1,-1,-1],"split_conditions":[2.5714285E0,1.3218391E0,4.7065215E0,8E-1,2E0,4.4E0,8.280702E0,6.511628E-1,5.4E0,2.0648148E0,4E0,6.4E0,3E0,6.108108E0,9.634147E0,-1.6956283E-2,-1.3432403E-2,-1.1964744E-2,-8.493854E-3,-7.278677E-3,-3.1005284E-3,-1.7999776E-3,5.549486E-3,-8.0562866E-4,4.502968E-3,1.0260627E-2,6.379828E-3,1.1766512E-2,1.5412792E-2,2.0682769E-2,2.5846658E-2],"split_indices":[10,10,10,2,2,2,10,10,4,10,2,0,14,10,10,0,0,0,0,0,0,0,0,0,0,0,0,0,0,0,0],"split_type":[0,0,0,0,0,0,0,0,0,0,0,0,0,0,0,0,0,0,0,0,0,0,0,0,0,0,0,0,0,0,0],"sum_hessian":[2.0221594E5,1.06967E5,9.524894E4,5.8782215E4,4.818479E4,5.2768918E4,4.248002E4,2.4757469E4,3.4024746E4,2.4902217E4,2.3282572E4,3.5709965E4,1.7058951E4,3.6550473E4,5.9295464E3,1.3345255E4,1.1412214E4,1.5395983E4,1.8628762E4,1.995701E4,4.945207E3,2.1566094E4,1.7164778E3,5.1532915E3,3.0556674E4,1.2533231E4,4.52572E3,2.0717916E4,1.5832556E4,2.8625247E3,3.0670217E3],"tree_param":{"num_deleted":"0","num_feature":"17","num_nodes":"31","size_leaf_vector":"1"}},{"base_weights":[-1.9865409E-4,-1.7038475E-1,1.8842348E-1,-2.4551968E-1,-7.712762E-2,1.0503025E-1,2.907751E-1,-2.9170686E-1,-1.8172686E-1,-1.1942946E-1,-1.317695E-2,6.1870217E-2,1.633464E-1,2.5264424E-1,4.0625614E-1,-1.6727043E-2,-1.2806754E-2,-1.1472363E-2,-7.842406E-3,-7.069792E-3,-3.2818958E-3,-1.3949972E-3,2.9690664E-3,5.31233E-4,4.5915195E-3,6.492857E-3,1.0104855E-2,7.867803E-3,1.3158073E-2,1.850944E-2,2.4281971E-2],"categories":[],"categories_nodes":[],"categories_segments":[],"categories_sizes":[],"default_left":[0,0,0,0,0,0,0,0,0,0,0,0,0,0,0,0,0,0,0,0,0,0,0,0,0,0,0,0,0,0,0],"id":22,"left_children":[1,3,5,7,9,11,13,15,17,19,21,23,25,27,29,-1,-1,-1,-1,-1,-1,-1,-1,-1,-1,-1,-1,-1,-1,-1,-1],"loss_changes":[6.4956846E3,7.4533545E2,8.191797E2,1.7352197E2,1.2840182E2,1.331062E2,1.8964038E2,5.197754E1,2.9339294E1,3.374652E1,2.0190022E1,4.666591E1,2.9164856E1,3.2425293E1,3.0440186E1,0E0,0E0,0E0,0E0,0E0,0E0,0E0,0E0,0E0,0E0,0E0,0E0,0E0,0E0,0E0,0E0],"parents":[2147483647,0,0,1,1,2,2,3,3,4,4,5,5,6,6,7,7,8,8,9,9,10,10,11,11,12,12,13,13,14,14],"right_children":[2,4,6,8,10,12,14,16,18,20,22,24,26,28,30,-1,-1,-1,-1,-1,-1,-1,-1,-1,-1,-1,-1,-1,-1,-1,-1],"split_conditions":[2.5714285E0,1.3333334E0,4.7065215E0,1.84E1,2.2E0,3.642857E0,7.259259E0,6.875E-1,8.965517E-1,1.9375E0,3.6E0,2.64E1,4.6E0,2.56E1,9.634147E0,-1.6727043E-2,-1.2806754E-2,-1.1472363E-2,-7.842406E-3,-7.069792E-3,-3.2818958E-3,-1.3949972E-3,2.9690664E-3,5.31233E-4,4.5915195E-3,6.492857E-3,1.0104855E-2,7.867803E-3,1.3158073E-2,1.850944E-2,2.4281971E-2],"split_indices":[10,10,10,3,2,10,10,10,10,10,2,3,2,3,10,0,0,0,0,0,0,0,0,0,0,0,0,0,0,0,0],"split_type":[0,0,0,0,0,0,0,0,0,0,0,0,0,0,0,0,0,0,0,0,0,0,0,0,0,0,0,0,0,0,0],"sum_hessian":[2.0235033E5,1.0637373E5,9.597659E4,5.890988E4,4.746385E4,5.288742E4,4.3089176E4,3.4168023E4,2.4741854E4,2.8566758E4,1.8897094E4,3.0394432E4,2.2492988E4,3.239561E4,1.0693565E4,1.5497815E4,1.867021E4,8.475878E3,1.6265976E4,2.0282531E4,8.284227E3,1.5709959E4,3.1871348E3,1.121427E4,1.9180162E4,1.206794E4,1.0425049E4,3.2217607E3,2.9173848E4,7.356738E3,3.3368274E3],"tree_param":{"num_deleted":"0","num_feature":"17","num_nodes":"31","size_leaf_vector":"1"}},{"base_weights":[-1.2892988E-4,-1.7722778E-1,1.6720395E-1,-2.7896544E-1,-1.2059775E-1,7.7286765E-2,2.6224452E-1,-3.102636E-1,-2.1369414E-1,-1.6403238E-1,-6.2327202E-2,4.5357015E-2,1.5268375E-1,2.3398975E-1,4.1647854E-1,-1.6997227E-2,-1.4069264E-2,3.2463581E-3,-1.0847651E-2,-1.0294426E-2,-6.653165E-3,-5.3781737E-3,-1.2711979E-3,-3.5792644E-4,3.6135823E-3,5.9317304E-3,9.40014E-3,1.0185341E-2,1.36885345E-2,2.0068701E-2,2.9907424E-2],"categories":[],"categories_nodes":[],"categories_segments":[],"categories_sizes":[],"default_left":[0,0,0,0,0,0,0,0,0,0,0,0,0,0,0,0,0,0,0,0,0,0,0,0,0,0,0,0,0,0,0],"id":23,"left_children":[1,3,5,7,9,11,13,15,17,19,21,23,25,27,29,-1,-1,-1,-1,-1,-1,-1,-1,-1,-1,-1,-1,-1,-1,-1,-1],"loss_changes":[6.003341E3,5.6699146E2,8.90124E2,7.182666E1,1.6001434E2,1.2884955E2,2.2057397E2,2.0290771E1,1.0373352E1,4.6928223E1,4.5075974E1,5.3149567E1,1.9126709E1,5.1505127E1,2.1270386E1,0E0,0E0,0E0,0E0,0E0,0E0,0E0,0E0,0E0,0E0,0E0,0E0,0E0,0E0,0E0,0E0],"parents":[2147483647,0,0,1,1,2,2,3,3,4,4,5,5,6,6,7,7,8,8,9,9,10,10,11,11,12,12,13,13,14,14],"right_children":[2,4,6,8,10,12,14,16,18,20,22,24,26,28,30,-1,-1,-1,-1,-1,-1,-1,-1,-1,-1,-1,-1,-1,-1,-1,-1],"split_conditions":[2.357143E0,9.6E-1,4.4135337E0,1.78E1,1.8E0,4.2E0,7.814815E0,5.9090906E-1,1.1578947E0,1.88E1,1.625E0,2.5E1,5E0,5.8534484E0,1.22833336E2,-1.6997227E-2,-1.4069264E-2,3.2463581E-3,-1.0847651E-2,-1.0294426E-2,-6.653165E-3,-5.3781737E-3,-1.2711979E-3,-3.5792644E-4,3.6135823E-3,5.9317304E-3,9.40014E-3,1.0185341E-2,1.36885345E-2,2.0068701E-2,2.9907424E-2],"split_indices":[10,10,10,3,2,2,10,10,9,3,10,3,2,10,15,0,0,0,0,0,0,0,0,0,0,0,0,0,0,0,0],"split_type":[0,0,0,0,0,0,0,0,0,0,0,0,0,0,0,0,0,0,0,0,0,0,0,0,0,0,0,0,0,0,0],"sum_hessian":[2.0257772E5,9.84169E4,1.0416082E5,3.5191082E4,6.3225816E4,5.352399E4,5.063683E4,2.3783113E4,1.1407969E4,3.6223297E4,2.7002518E4,3.7601703E4,1.5922285E4,4.2798844E4,7.837988E3,1.1723257E4,1.2059855E4,1.316713E2,1.1276298E4,1.5401635E4,2.0821664E4,1.2130701E4,1.4871817E4,1.274145E4,2.4860252E4,8.1091025E3,7.813183E3,2.4303852E4,1.849499E4,7.239302E3,5.986861E2],"tree_param":{"num_deleted":"0","num_feature":"17","num_nodes":"31","size_leaf_vector":"1"}},{"base_weights":[2.0103157E-3,-1.7252152E-1,1.6336255E-1,-2.5997493E-1,-1.06796764E-1,8.925251E-2,2.635587E-1,-2.992069E-1,-2.0042203E-1,-1.5154637E-1,-5.4660633E-2,4.0142063E-2,1.3912866E-1,2.3836736E-1,4.0635931E-1,-1.6938644E-2,-1.3356003E-2,-1.2599836E-2,-9.158526E-3,-9.656386E-3,-5.9344545E-3,-4.6074535E-3,-1.05219E-3,-4.798398E-3,2.513681E-3,5.3108037E-3,8.5219E-3,1.0723861E-2,1.3988997E-2,1.498503E-2,2.136335E-2],"categories":[],"categories_nodes":[],"categories_segments":[],"categories_sizes":[],"default_left":[0,0,0,0,0,0,0,0,0,0,0,0,0,0,0,0,0,0,0,0,0,0,0,0,0,0,0,0,0,0,0],"id":24,"left_children":[1,3,5,7,9,11,13,15,17,19,21,23,25,27,29,-1,-1,-1,-1,-1,-1,-1,-1,-1,-1,-1,-1,-1,-1,-1,-1],"loss_changes":[5.7123022E3,5.6005566E2,7.8263965E2,9.762256E1,1.2978973E2,1.4840427E2,1.6111206E2,3.1905518E1,1.47300415E1,4.0878784E1,3.2383537E1,4.2106415E1,3.0957764E1,3.762964E1,1.4854126E1,0E0,0E0,0E0,0E0,0E0,0E0,0E0,0E0,0E0,0E0,0E0,0E0,0E0,0E0,0E0,0E0],"parents":[2147483647,0,0,1,1,2,2,3,3,4,4,5,5,6,6,7,7,8,8,9,9,10,10,11,11,12,12,13,13,14,14],"right_children":[2,4,6,8,10,12,14,16,18,20,22,24,26,28,30,-1,-1,-1,-1,-1,-1,-1,-1,-1,-1,-1,-1,-1,-1,-1,-1],"split_conditions":[2.357143E0,1.0769231E0,4.7065215E0,1.7E1,1.8E0,3.6E0,8.280702E0,5.9090906E-1,8E-1,1.96E1,1.6923077E0,1.42E1,4.6E0,6.269231E0,1.9571428E1,-1.6938644E-2,-1.3356003E-2,-1.2599836E-2,-9.158526E-3,-9.656386E-3,-5.9344545E-3,-4.6074535E-3,-1.05219E-3,-4.798398E-3,2.513681E-3,5.3108037E-3,8.5219E-3,1.0723861E-2,1.3988997E-2,1.498503E-2,2.136335E-2],"split_indices":[10,10,10,3,2,2,10,10,2,3,10,3,2,10,8,0,0,0,0,0,0,0,0,0,0,0,0,0,0,0,0],"split_type":[0,0,0,0,0,0,0,0,0,0,0,0,0,0,0,0,0,0,0,0,0,0,0,0,0,0,0,0,0,0,0],"sum_hessian":[2.0284173E5,9.744123E4,1.0540051E5,4.1808223E4,5.5633E4,6.058829E4,4.4812215E4,2.5201842E4,1.660638E4,2.9936191E4,2.569681E4,3.052939E4,3.0058896E4,3.8094645E4,6.71757E3,1.1281358E4,1.3920482E4,4.1590327E3,1.2447349E4,1.3211708E4,1.6724482E4,1.2148002E4,1.3548809E4,2.1144766E3,2.8414914E4,1.4656393E4,1.5402505E4,2.416213E4,1.3932515E4,1.1034985E3,5.6140713E3],"tree_param":{"num_deleted":"0","num_feature":"17","num_nodes":"31","size_leaf_vector":"1"}},{"base_weights":[1.2993313E-4,-1.7238556E-1,1.576302E-1,-2.581369E-1,-1.0821205E-1,7.342091E-2,2.45672E-1,-3.0034184E-1,-2.0763023E-1,-1.526235E-1,-5.6661345E-2,3.4894638E-2,1.1904211E-1,2.1760975E-1,3.6774552E-1,-1.6888604E-2,-1.3370915E-2,-1.3002964E-2,-9.503713E-3,-9.7482735E-3,-6.0963472E-3,-4.6180463E-3,-1.2436474E-3,-5.8940034E-3,2.2573147E-3,5.079723E-3,9.018102E-3,9.305402E-3,1.2443907E-2,1.6278086E-2,2.217251E-2],"categories":[],"categories_nodes":[],"categories_segments":[],"categories_sizes":[],"default_left":[0,0,0,0,0,0,0,0,0,0,0,0,0,0,0,0,0,0,0,0,0,0,0,0,0,0,0,0,0,0,0],"id":25,"left_children":[1,3,5,7,9,11,13,15,17,19,21,23,25,27,29,-1,-1,-1,-1,-1,-1,-1,-1,-1,-1,-1,-1,-1,-1,-1,-1],"loss_changes":[5.5003784E3,5.3162305E2,7.84541E2,8.8086426E1,1.265058E2,9.506479E1,1.7714087E2,2.766858E1,1.7280884E1,3.8559387E1,2.9022194E1,4.593644E1,2.6476562E1,4.1389282E1,3.073108E1,0E0,0E0,0E0,0E0,0E0,0E0,0E0,0E0,0E0,0E0,0E0,0E0,0E0,0E0,0E0,0E0],"parents":[2147483647,0,0,1,1,2,2,3,3,4,4,5,5,6,6,7,7,8,8,9,9,10,10,11,11,12,12,13,13,14,14],"right_children":[2,4,6,8,10,12,14,16,18,20,22,24,26,28,30,-1,-1,-1,-1,-1,-1,-1,-1,-1,-1,-1,-1,-1,-1,-1,-1],"split_conditions":[2.357143E0,1.0769231E0,4.4135337E0,1.58E1,1.8E0,3.6E0,7.5147057E0,6E-1,6.7241377E-1,1.9E1,1.6923077E0,1.36E1,5.4E0,5.8E0,9.634147E0,-1.6888604E-2,-1.3370915E-2,-1.3002964E-2,-9.503713E-3,-9.7482735E-3,-6.0963472E-3,-4.6180463E-3,-1.2436474E-3,-5.8940034E-3,2.2573147E-3,5.079723E-3,9.018102E-3,9.305402E-3,1.2443907E-2,1.6278086E-2,2.217251E-2],"split_indices":[10,10,10,3,2,2,10,10,10,3,10,3,2,2,10,0,0,0,0,0,0,0,0,0,0,0,0,0,0,0,0],"split_type":[0,0,0,0,0,0,0,0,0,0,0,0,0,0,0,0,0,0,0,0,0,0,0,0,0,0,0,0,0,0,0],"sum_hessian":[2.0243188E5,9.661072E4,1.0582116E5,4.1351746E4,5.5258973E4,5.4088754E4,5.1732402E4,2.2524572E4,1.8827176E4,2.968397E4,2.5575002E4,2.9325594E4,2.476316E4,4.2065234E4,9.667169E3,1.0536514E4,1.1988059E4,4.7193965E3,1.4107778E4,1.2473301E4,1.7210672E4,1.2045519E4,1.3529484E4,1.8434333E3,2.748216E4,1.9279988E4,5.4831733E3,2.0957893E4,2.1107342E4,6.2113887E3,3.4557805E3],"tree_param":{"num_deleted":"0","num_feature":"17","num_nodes":"31","size_leaf_vector":"1"}},{"base_weights":[4.1568227E-4,-1.6097812E-1,1.5381749E-1,-2.6433814E-1,-1.0484711E-1,6.9267705E-2,2.2719257E-1,-2.888261E-1,-1.9606014E-1,-1.4456673E-1,-5.192445E-2,2.883992E-2,1.0229705E-1,2.0055482E-1,3.1340528E-1,-1.67385E-2,-1.3388534E-2,-1.0571304E-2,-7.182866E-3,-9.568922E-3,-5.9372517E-3,-3.1103815E-3,4.502324E-3,1.7684661E-3,-3.2936067E-3,3.8417957E-3,6.6393204E-3,8.202067E-3,1.0984284E-2,1.487499E-2,2.1892114E-2],"categories":[],"categories_nodes":[],"categories_segments":[],"categories_sizes":[],"default_left":[0,0,0,0,0,0,0,0,0,0,0,0,0,0,0,0,0,0,0,0,0,0,0,0,0,0,0,0,0,0,0],"id":26,"left_children":[1,3,5,7,9,11,13,15,17,19,21,23,25,27,29,-1,-1,-1,-1,-1,-1,-1,-1,-1,-1,-1,-1,-1,-1,-1,-1],"loss_changes":[5.003517E3,5.7133887E2,6.427866E2,5.7893555E1,1.3415594E2,6.428166E1,1.2732959E2,2.4585693E1,7.339203E0,4.4048035E1,3.995729E1,1.3389843E1,2.0557892E1,2.956836E1,2.5781982E1,0E0,0E0,0E0,0E0,0E0,0E0,0E0,0E0,0E0,0E0,0E0,0E0,0E0,0E0,0E0,0E0],"parents":[2147483647,0,0,1,1,2,2,3,3,4,4,5,5,6,6,7,7,8,8,9,9,10,10,11,11,12,12,13,13,14,14],"right_children":[2,4,6,8,10,12,14,16,18,20,22,24,26,28,30,-1,-1,-1,-1,-1,-1,-1,-1,-1,-1,-1,-1,-1,-1,-1,-1],"split_conditions":[2.6E0,1E0,4.6E0,1.82E1,1.8E0,3.4E0,7.8E0,2E0,2.7556818E1,1.82E1,3.3307693E1,5E0,1.6E1,5.4E0,1.12E1,-1.67385E-2,-1.3388534E-2,-1.0571304E-2,-7.182866E-3,-9.568922E-3,-5.9372517E-3,-3.1103815E-3,4.502324E-3,1.7684661E-3,-3.2936067E-3,3.8417957E-3,6.6393204E-3,8.202067E-3,1.0984284E-2,1.487499E-2,2.1892114E-2],"split_indices":[2,2,2,3,2,2,2,4,11,3,11,14,0,2,2,0,0,0,0,0,0,0,0,0,0,0,0,0,0,0,0],"split_type":[0,0,0,0,0,0,0,0,0,0,0,0,0,0,0,0,0,0,0,0,0,0,0,0,0,0,0,0,0,0,0],"sum_hessian":[2.0209416E5,9.848168E4,1.0361248E5,3.465818E4,6.3823504E4,4.8141355E4,5.5471125E4,2.5506879E4,9.1513E3,3.645871E4,2.7364791E4,2.1647174E4,2.6494182E4,4.238E4,1.3091123E4,8.011198E3,1.749568E4,7.073982E3,2.0773179E3,1.2959051E4,2.3499662E4,2.5517107E4,1.8476836E3,2.025166E4,1.3955131E3,1.4439513E4,1.2054668E4,1.4573793E4,2.7806209E4,1.1610472E4,1.4806521E3],"tree_param":{"num_deleted":"0","num_feature":"17","num_nodes":"31","size_leaf_vector":"1"}},{"base_weights":[-1.2108978E-3,-1.6775659E-1,1.4600217E-1,-2.6503098E-1,-1.1402019E-1,8.346011E-2,2.3792063E-1,-2.954805E-1,-1.9375113E-1,-1.6599853E-1,-6.80515E-2,4.5567364E-2,1.3945398E-1,2.150875E-1,3.5875663E-1,-1.798208E-2,-1.3981203E-2,6.0748775E-3,-9.876761E-3,-1.0581064E-2,-6.4761597E-3,-5.074979E-3,-1.3302246E-3,6.269167E-4,4.060587E-3,3.933411E-3,7.6058926E-3,9.6277995E-3,1.2313374E-2,1.717217E-2,2.5904058E-2],"categories":[],"categories_nodes":[],"categories_segments":[],"categories_sizes":[],"default_left":[0,0,0,0,0,0,0,0,0,0,0,0,0,0,0,0,0,0,0,0,0,0,0,0,0,0,0,0,0,0,0],"id":27,"left_children":[1,3,5,7,9,11,13,15,17,19,21,23,25,27,29,-1,-1,-1,-1,-1,-1,-1,-1,-1,-1,-1,-1,-1,-1,-1,-1],"loss_changes":[4.958483E3,4.959756E2,6.1711694E2,7.322827E1,1.4604071E2,1.3554346E2,1.198501E2,2.3966797E1,1.2083893E1,4.771051E1,4.4969147E1,4.4857277E1,1.9835876E1,2.5637695E1,1.6672546E1,0E0,0E0,0E0,0E0,0E0,0E0,0E0,0E0,0E0,0E0,0E0,0E0,0E0,0E0,0E0,0E0],"parents":[2147483647,0,0,1,1,2,2,3,3,4,4,5,5,6,6,7,7,8,8,9,9,10,10,11,11,12,12,13,13,14,14],"right_children":[2,4,6,8,10,12,14,16,18,20,22,24,26,28,30,-1,-1,-1,-1,-1,-1,-1,-1,-1,-1,-1,-1,-1,-1,-1,-1],"split_conditions":[2.357143E0,9.722222E-1,4.8510637E0,1.86E1,1.6E0,3.642857E0,8.280702E0,6E0,1.1578947E0,1.86E1,1.7142857E0,3.2E0,2.48E1,6.185185E0,1.23E2,-1.798208E-2,-1.3981203E-2,6.0748775E-3,-9.876761E-3,-1.0581064E-2,-6.4761597E-3,-5.074979E-3,-1.3302246E-3,6.269167E-4,4.060587E-3,3.933411E-3,7.6058926E-3,9.6277995E-3,1.2313374E-2,1.717217E-2,2.5904058E-2],"split_indices":[10,10,10,3,2,10,10,3,9,3,10,2,3,10,15,0,0,0,0,0,0,0,0,0,0,0,0,0,0,0,0],"split_type":[0,0,0,0,0,0,0,0,0,0,0,0,0,0,0,0,0,0,0,0,0,0,0,0,0,0,0,0,0,0,0],"sum_hessian":[2.0223895E5,9.488881E4,1.0735014E5,3.376428E4,6.112453E4,6.3884508E4,4.346563E4,2.3655799E4,1.0108481E4,2.868586E4,3.2438674E4,3.810173E4,2.578278E4,3.656004E4,6.905591E3,4.6833823E3,1.8972418E4,1.1952847E2,9.988953E3,1.2742701E4,1.5943158E4,1.7950791E4,1.4487882E4,1.9777096E4,1.8324633E4,4.446598E3,2.1336182E4,2.1227588E4,1.533245E4,6.3029473E3,6.026433E2],"tree_param":{"num_deleted":"0","num_feature":"17","num_nodes":"31","size_leaf_vector":"1"}},{"base_weights":[9.3873916E-4,-1.629226E-1,1.4569049E-1,-2.4998465E-1,-9.8551795E-2,5.810704E-2,2.1260354E-1,-3.0627105E-1,-2.141632E-1,-1.4153706E-1,-5.246739E-2,-1.5603707E-2,7.7130556E-2,1.785422E-1,3.0763727E-1,-1.5995177E-2,-1.2389939E-2,-1.3054269E-2,-9.484757E-3,-1.0016511E-2,-6.2175854E-3,-5.529125E-3,-1.9010965E-3,-5.9641767E-3,-7.674364E-5,2.0343491E-3,5.436327E-3,6.746461E-3,9.444643E-3,1.3649247E-2,1.8677708E-2],"categories":[],"categories_nodes":[],"categories_segments":[],"categories_sizes":[],"default_left":[0,0,0,0,0,0,0,0,0,0,0,0,0,0,0,0,0,0,0,0,0,0,0,0,0,0,0,0,0,0,0],"id":28,"left_children":[1,3,5,7,9,11,13,15,17,19,21,23,25,27,29,-1,-1,-1,-1,-1,-1,-1,-1,-1,-1,-1,-1,-1,-1,-1,-1],"loss_changes":[4.7898105E3,5.307925E2,6.2835376E2,8.111206E1,1.07868164E2,6.512007E1,1.9669775E2,1.2400391E1,2.8201416E1,2.8442627E1,2.2059875E1,1.3896978E1,4.2499664E1,2.0174683E1,3.65271E1,0E0,0E0,0E0,0E0,0E0,0E0,0E0,0E0,0E0,0E0,0E0,0E0,0E0,0E0,0E0,0E0],"parents":[2147483647,0,0,1,1,2,2,3,3,4,4,5,5,6,6,7,7,8,8,9,9,10,10,11,11,12,12,13,13,14,14],"right_children":[2,4,6,8,10,12,14,16,18,20,22,24,26,28,30,-1,-1,-1,-1,-1,-1,-1,-1,-1,-1,-1,-1,-1,-1,-1,-1],"split_conditions":[2.3823528E0,1.088E0,4.037037E0,6.511628E-1,1.5714285E0,6.6E0,6.7272725E0,5.2E0,3.8E0,5.2E0,6E0,3.5208026E-1,3.090909E0,1.14E1,8.941176E0,-1.5995177E-2,-1.2389939E-2,-1.3054269E-2,-9.484757E-3,-1.0016511E-2,-6.2175854E-3,-5.529125E-3,-1.9010965E-3,-5.9641767E-3,-7.674364E-5,2.0343491E-3,5.436327E-3,6.746461E-3,9.444643E-3,1.3649247E-2,1.8677708E-2],"split_indices":[10,10,10,10,10,4,10,4,4,0,0,5,10,0,10,0,0,0,0,0,0,0,0,0,0,0,0,0,0,0,0],"split_type":[0,0,0,0,0,0,0,0,0,0,0,0,0,0,0,0,0,0,0,0,0,0,0,0,0,0,0,0,0,0,0],"sum_hessian":[2.0193597E5,9.47159E4,1.0722007E5,4.0260438E4,5.445546E4,4.643825E4,6.0781816E4,1.5654665E4,2.4605771E4,2.8174035E4,2.6281426E4,9.526385E3,3.6911867E4,4.474684E4,1.60349795E4,1.2691289E4,2.9633752E3,8.429985E3,1.6175786E4,6.3701875E3,2.1803848E4,5.2308184E3,2.1050607E4,1.137337E3,8.389047E3,1.714207E4,1.9769795E4,8.585495E3,3.6161344E4,1.0513306E4,5.521674E3],"tree_param":{"num_deleted":"0","num_feature":"17","num_nodes":"31","size_leaf_vector":"1"}},{"base_weights":[-6.9906696E-4,-1.5387197E-1,1.4031248E-1,-2.3495027E-1,-8.897194E-2,7.3676564E-2,2.1571423E-1,-2.668349E-1,-1.635361E-1,-1.2771142E-1,-5.1411625E-2,3.464408E-2,1.0841466E-1,1.8974063E-1,2.9210404E-1,-1.7022869E-2,-1.2493729E-2,-8.641725E-3,-2.8621422E-3,-7.5715813E-3,-4.6501053E-3,-2.9445612E-3,2.4721196E-3,1.0888487E-3,4.632675E-3,4.7550034E-3,7.998471E-3,8.1115905E-3,1.0305182E-2,1.3906771E-2,1.9272765E-2],"categories":[],"categories_nodes":[],"categories_segments":[],"categories_sizes":[],"default_left":[0,0,0,0,0,0,0,0,0,0,0,0,0,0,0,0,0,0,0,0,0,0,0,0,0,0,0,0,0,0,0],"id":29,"left_children":[1,3,5,7,9,11,13,15,17,19,21,23,25,27,29,-1,-1,-1,-1,-1,-1,-1,-1,-1,-1,-1,-1,-1,-1,-1,-1],"loss_changes":[4.3831934E3,5.1182397E2,5.30876E2,9.8427E1,7.8607574E1,7.605307E1,9.829663E1,3.7244385E1,1.3185547E1,2.1882599E1,2.0696991E1,1.971459E1,2.0356964E1,1.661914E1,1.6291504E1,0E0,0E0,0E0,0E0,0E0,0E0,0E0,0E0,0E0,0E0,0E0,0E0,0E0,0E0,0E0,0E0],"parents":[2147483647,0,0,1,1,2,2,3,3,4,4,5,5,6,6,7,7,8,8,9,9,10,10,11,11,12,12,13,13,14,14],"right_children":[2,4,6,8,10,12,14,16,18,20,22,24,26,28,30,-1,-1,-1,-1,-1,-1,-1,-1,-1,-1,-1,-1,-1,-1,-1,-1],"split_conditions":[2.6E0,1.2E0,5E0,1.86E1,1.8E0,3.6E0,8E0,6E0,3.16E1,2.44E1,3.3307693E1,1.96E1,2.2075E1,5.8E0,1.12E1,-1.7022869E-2,-1.2493729E-2,-8.641725E-3,-2.8621422E-3,-7.5715813E-3,-4.6501053E-3,-2.9445612E-3,2.4721196E-3,1.0888487E-3,4.632675E-3,4.7550034E-3,7.998471E-3,8.1115905E-3,1.0305182E-2,1.3906771E-2,1.9272765E-2],"split_indices":[2,2,2,3,2,2,2,3,3,3,11,0,8,2,2,0,0,0,0,0,0,0,0,0,0,0,0,0,0,0,0],"split_type":[0,0,0,0,0,0,0,0,0,0,0,0,0,0,0,0,0,0,0,0,0,0,0,0,0,0,0,0,0,0,0],"sum_hessian":[2.0293162E5,9.727125E4,1.05660375E5,4.3244344E4,5.4026906E4,5.6091645E4,4.956873E4,2.9894473E4,1.334987E4,2.65948E4,2.7432105E4,2.6414137E4,2.9677508E4,3.699381E4,1.2574923E4,5.593748E3,2.4300725E4,1.2275407E4,1.074463E3,1.5796301E4,1.0798499E4,2.553852E4,1.8935863E3,2.1619973E4,4.7941636E3,2.3588389E4,6.089119E3,1.3801764E4,2.3192045E4,1.0941648E4,1.6332747E3],"tree_param":{"num_deleted":"0","num_feature":"17","num_nodes":"31","size_leaf_vector":"1"}},{"base_weights":[-2.0029689E-5,-1.5817636E-1,1.348079E-1,-2.5975904E-1,-1.0507822E-1,7.705244E-2,2.1644177E-1,-2.985515E-1,-2.0770954E-1,-1.4333908E-1,-5.2490335E-2,2.3818083E-2,1.0959825E-1,1.9187365E-1,2.9908973E-1,-1.7745076E-2,-1.4015992E-2,6.864597E-4,-1.0589819E-2,-8.86956E-3,-5.0864737E-3,-5.98348E-3,-1.9962923E-3,-4.4810977E-3,1.5600104E-3,8.7812723E-4,6.102526E-3,5.7180827E-3,1.0035704E-2,5.6969407E-3,1.5439472E-2],"categories":[],"categories_nodes":[],"categories_segments":[],"categories_sizes":[],"default_left":[0,0,0,0,0,0,0,0,0,0,0,0,0,0,0,0,0,0,0,0,0,0,0,0,0,0,0,0,0,0,0],"id":30,"left_children":[1,3,5,7,9,11,13,15,17,19,21,23,25,27,29,-1,-1,-1,-1,-1,-1,-1,-1,-1,-1,-1,-1,-1,-1,-1,-1],"loss_changes":[4.306559E3,5.0127344E2,5.139912E2,6.435474E1,1.22802734E2,1.1062018E2,9.1663574E1,1.8677368E1,1.2335144E1,5.0042114E1,2.1694084E1,2.0290667E1,4.540924E1,2.3839478E1,1.855066E1,0E0,0E0,0E0,0E0,0E0,0E0,0E0,0E0,0E0,0E0,0E0,0E0,0E0,0E0,0E0,0E0],"parents":[2147483647,0,0,1,1,2,2,3,3,4,4,5,5,6,6,7,7,8,8,9,9,10,10,11,11,12,12,13,13,14,14],"right_children":[2,4,6,8,10,12,14,16,18,20,22,24,26,28,30,-1,-1,-1,-1,-1,-1,-1,-1,-1,-1,-1,-1,-1,-1,-1,-1],"split_conditions":[2.3823528E0,9.6E-1,4.8510637E0,1.54E1,1.5714285E0,3.142857E0,7.5147057E0,6E0,1.1578947E0,2.28E1,1.66E1,1.44E1,7.4E0,2.64E1,8.6E0,-1.7745076E-2,-1.4015992E-2,6.864597E-4,-1.0589819E-2,-8.86956E-3,-5.0864737E-3,-5.98348E-3,-1.9962923E-3,-4.4810977E-3,1.5600104E-3,8.7812723E-4,6.102526E-3,5.7180827E-3,1.0035704E-2,5.6969407E-3,1.5439472E-2],"split_indices":[10,10,10,3,10,10,10,3,9,3,3,3,0,3,4,0,0,0,0,0,0,0,0,0,0,0,0,0,0,0,0],"split_type":[0,0,0,0,0,0,0,0,0,0,0,0,0,0,0,0,0,0,0,0,0,0,0,0,0,0,0,0,0,0,0],"sum_hessian":[2.0195733E5,9.293832E4,1.09019016E5,3.190212E4,6.10362E4,6.3848523E4,4.5170492E4,1.8276166E4,1.3625953E4,3.532987E4,2.5706332E4,2.4225393E4,3.962313E4,3.482242E4,1.0348069E4,4.463142E3,1.3813024E4,2.4687967E2,1.3379073E4,1.9427605E4,1.5902264E4,4.048968E3,2.1657363E4,1.4794689E3,2.2745924E4,4.722343E3,3.490079E4,3.5664072E3,3.1256014E4,5.157635E2,9.832307E3],"tree_param":{"num_deleted":"0","num_feature":"17","num_nodes":"31","size_leaf_vector":"1"}},{"base_weights":[-2.322763E-4,-1.6090164E-1,1.269917E-1,-2.5446263E-1,-1.0863649E-1,5.331638E-2,1.9188653E-1,-2.9352105E-1,-2.0638816E-1,-1.4394623E-1,-4.727269E-2,1.6033938E-2,9.262613E-2,1.7489523E-1,3.072001E-1,-1.683831E-2,-1.3493286E-2,-1.2628677E-2,-9.346872E-3,-7.925969E-3,-3.5128405E-3,-3.4074136E-3,1.2238752E-3,8.182543E-7,3.3461337E-3,-1.1443729E-3,5.1647066E-3,7.364308E-3,1.0093334E-2,3.743217E-3,1.5748186E-2],"categories":[],"categories_nodes":[],"categories_segments":[],"categories_sizes":[],"default_left":[0,0,0,0,0,0,0,0,0,0,0,0,0,0,0,0,0,0,0,0,0,0,0,0,0,0,0,0,0,0,0],"id":31,"left_children":[1,3,5,7,9,11,13,15,17,19,21,23,25,27,29,-1,-1,-1,-1,-1,-1,-1,-1,-1,-1,-1,-1,-1,-1,-1,-1],"loss_changes":[4.1446763E3,4.3813257E2,5.410209E2,6.023999E1,1.2456091E2,7.766724E1,1.17828125E2,1.8032227E1,1.2887878E1,3.9177124E1,3.1455807E1,2.2171501E1,3.1791168E1,3.9020264E1,1.3911133E1,0E0,0E0,0E0,0E0,0E0,0E0,0E0,0E0,0E0,0E0,0E0,0E0,0E0,0E0,0E0,0E0],"parents":[2147483647,0,0,1,1,2,2,3,3,4,4,5,5,6,6,7,7,8,8,9,9,10,10,11,11,12,12,13,13,14,14],"right_children":[2,4,6,8,10,12,14,16,18,20,22,24,26,28,30,-1,-1,-1,-1,-1,-1,-1,-1,-1,-1,-1,-1,-1,-1,-1,-1],"split_conditions":[2.28E0,1E0,4.2E0,8.125E-1,1.5714285E0,3.142857E0,8.280702E0,2.2E0,3.2E0,2.2E0,2.8E0,3.6E0,6.4E0,5.8E0,8.4E0,-1.683831E-2,-1.3493286E-2,-1.2628677E-2,-9.346872E-3,-7.925969E-3,-3.5128405E-3,-3.4074136E-3,1.2238752E-3,8.182543E-7,3.3461337E-3,-1.1443729E-3,5.1647066E-3,7.364308E-3,1.0093334E-2,3.743217E-3,1.5748186E-2],"split_indices":[10,2,10,10,10,10,10,4,4,2,2,2,0,2,4,0,0,0,0,0,0,0,0,0,0,0,0,0,0,0,0],"split_type":[0,0,0,0,0,0,0,0,0,0,0,0,0,0,0,0,0,0,0,0,0,0,0,0,0,0,0,0,0,0,0],"sum_hessian":[2.0276092E5,8.9602695E4,1.13158234E5,3.2112871E4,5.7489824E4,5.299483E4,6.0163402E4,1.771505E4,1.439782E4,3.6490977E4,2.0998848E4,2.7199494E4,2.5795336E4,5.2439086E4,7.724316E3,6.2591807E3,1.1455869E4,4.2631245E3,1.0134695E4,3.0464941E4,6.0260347E3,1.626626E4,4.732588E3,2.0688613E4,6.5108804E3,2.1807634E3,2.3614572E4,2.5916434E4,2.652265E4,2.5010976E2,7.474206E3],"tree_param":{"num_deleted":"0","num_feature":"17","num_nodes":"31","size_leaf_vector":"1"}},{"base_weights":[-1.8498221E-4,-1.5564202E-1,1.2560403E-1,-2.5073633E-1,-1.03543036E-1,4.871315E-2,1.841214E-1,-2.8120565E-1,-1.8135417E-1,-1.5272282E-1,-6.045585E-2,-1.6105196E-2,6.528984E-2,1.5879156E-1,2.6391637E-1,-1.6634496E-2,-1.3026207E-2,-9.266351E-3,7.7481675E-3,-9.6908305E-3,-6.0050027E-3,-4.575523E-3,-1.1980395E-3,-5.214469E-3,4.924345E-4,1.5428172E-3,4.707556E-3,4.570615E-3,8.389323E-3,8.586878E-3,1.389377E-2],"categories":[],"categories_nodes":[],"categories_segments":[],"categories_sizes":[],"default_left":[0,0,0,0,0,0,0,0,0,0,0,0,0,0,0,0,0,0,0,0,0,0,0,0,0,0,0,0,0,0,0],"id":32,"left_children":[1,3,5,7,9,11,13,15,17,19,21,23,25,27,29,-1,-1,-1,-1,-1,-1,-1,-1,-1,-1,-1,-1,-1,-1,-1,-1],"loss_changes":[3.944518E3,4.469463E2,5.0166833E2,6.745508E1,1.23503235E2,5.177511E1,1.2792554E2,2.3536499E1,1.3051788E1,3.6466003E1,3.521058E1,2.2462854E1,3.8131424E1,2.9112549E1,1.9579712E1,0E0,0E0,0E0,0E0,0E0,0E0,0E0,0E0,0E0,0E0,0E0,0E0,0E0,0E0,0E0,0E0],"parents":[2147483647,0,0,1,1,2,2,3,3,4,4,5,5,6,6,7,7,8,8,9,9,10,10,11,11,12,12,13,13,14,14],"right_children":[2,4,6,8,10,12,14,16,18,20,22,24,26,28,30,-1,-1,-1,-1,-1,-1,-1,-1,-1,-1,-1,-1,-1,-1,-1,-1],"split_conditions":[2.3333333E0,9.722222E-1,4.037037E0,1.86E1,1.6E0,6.6E0,6.981132E0,7.6E0,3.38E1,1.86E1,1.6923077E0,1.8E0,3.0526316E0,3.8E0,1.12E1,-1.6634496E-2,-1.3026207E-2,-9.266351E-3,7.7481675E-3,-9.6908305E-3,-6.0050027E-3,-4.575523E-3,-1.1980395E-3,-5.214469E-3,4.924345E-4,1.5428172E-3,4.707556E-3,4.570615E-3,8.389323E-3,8.586878E-3,1.389377E-2],"split_indices":[10,10,10,3,2,4,10,3,3,3,10,2,10,2,4,0,0,0,0,0,0,0,0,0,0,0,0,0,0,0,0],"split_type":[0,0,0,0,0,0,0,0,0,0,0,0,0,0,0,0,0,0,0,0,0,0,0,0,0,0,0,0,0,0,0],"sum_hessian":[2.0171422E5,9.0217805E4,1.1149641E5,3.1931193E4,5.8286613E4,4.818453E4,6.331187E4,2.2185387E4,9.745806E3,2.721772E4,3.1068895E4,9.813135E3,3.83714E4,4.805913E4,1.5252742E4,6.353642E3,1.5831745E4,9.632468E3,1.13337715E2,1.2042836E4,1.5174884E4,1.6784777E4,1.4284117E4,2.2307249E3,7.5824097E3,1.7497611E4,2.0873785E4,5.661432E3,4.2397695E4,2.0077545E3,1.3244987E4],"tree_param":{"num_deleted":"0","num_feature":"17","num_nodes":"31","size_leaf_vector":"1"}},{"base_weights":[1.2072955E-3,-1.6619197E-1,1.1467139E-1,-2.510268E-1,-1.1501031E-1,4.291444E-2,1.7833357E-1,-2.888293E-1,-1.9343048E-1,-1.5447016E-1,-8.333505E-2,1.9920578E-3,7.5231716E-2,1.6248244E-1,2.7132487E-1,-1.603205E-2,-1.282408E-2,3.0471763E-2,-9.743696E-3,-6.9919624E-3,-1.0942629E-2,-1.6448535E-3,-5.3860447E-3,-5.4993937E-3,5.692468E-4,1.610753E-3,4.739269E-3,7.170159E-3,9.705729E-3,1.29511235E-2,1.8225681E-2],"categories":[],"categories_nodes":[],"categories_segments":[],"categories_sizes":[],"default_left":[0,0,0,0,0,0,0,0,0,0,0,0,0,0,0,0,0,0,0,0,0,0,0,0,0,0,0,0,0,0,0],"id":33,"left_children":[1,3,5,7,9,11,13,15,17,19,21,23,25,27,29,-1,-1,-1,-1,-1,-1,-1,-1,-1,-1,-1,-1,-1,-1,-1,-1],"loss_changes":[3.8481143E3,3.5534692E2,5.516123E2,6.699866E1,6.379486E1,7.507596E1,9.4270386E1,1.904895E1,1.4264648E1,2.1381104E1,3.4829987E1,2.6349468E1,2.6676926E1,3.29657E1,1.0586853E1,0E0,0E0,0E0,0E0,0E0,0E0,0E0,0E0,0E0,0E0,0E0,0E0,0E0,0E0,0E0,0E0],"parents":[2147483647,0,0,1,1,2,2,3,3,4,4,5,5,6,6,7,7,8,8,9,9,10,10,11,11,12,12,13,13,14,14],"right_children":[2,4,6,8,10,12,14,16,18,20,22,24,26,28,30,-1,-1,-1,-1,-1,-1,-1,-1,-1,-1,-1,-1,-1,-1,-1,-1],"split_conditions":[2.0370371E0,9.6E-1,4.037037E0,1.62E1,2.16E1,2.8181818E0,7.814815E0,5.9090906E-1,8.5714287E-1,4E0,2.318919E1,1.42E1,2.62E1,5.8534484E0,3.16E1,-1.603205E-2,-1.282408E-2,3.0471763E-2,-9.743696E-3,-6.9919624E-3,-1.0942629E-2,-1.6448535E-3,-5.3860447E-3,-5.4993937E-3,5.692468E-4,1.610753E-3,4.739269E-3,7.170159E-3,9.705729E-3,1.29511235E-2,1.8225681E-2],"split_indices":[10,10,10,3,3,10,10,10,9,14,11,3,3,10,0,0,0,0,0,0,0,0,0,0,0,0,0,0,0,0,0],"split_type":[0,0,0,0,0,0,0,0,0,0,0,0,0,0,0,0,0,0,0,0,0,0,0,0,0,0,0,0,0,0,0],"sum_hessian":[2.0259642E5,8.1845375E4,1.2075105E5,3.0796127E4,5.1049246E4,5.6767324E4,6.3983723E4,1.8590504E4,1.2205623E4,2.272964E4,2.8319604E4,2.5049268E4,3.1718057E4,5.4667883E4,9.315841E3,9.368422E3,9.222083E3,2.11484E1,1.2184475E4,1.8523371E4,4.20627E3,9.230411E3,1.9089191E4,1.9377003E3,2.3111568E4,9.912942E3,2.1805113E4,3.4103516E4,2.0564367E4,8.232765E3,1.0830759E3],"tree_param":{"num_deleted":"0","num_feature":"17","num_nodes":"31","size_leaf_vector":"1"}},{"base_weights":[2.0928E-3,-1.4856713E-1,1.197667E-1,-2.2262037E-1,-8.2780965E-2,5.3570975E-2,1.7528045E-1,-2.8428778E-1,-1.8520023E-1,-1.23944044E-1,-3.9977245E-2,-1.1826376E-1,6.0827788E-2,1.5117668E-1,2.44275E-1,-1.5008921E-2,-1.0553323E-2,-1.0810337E-2,-7.205453E-3,-8.416236E-3,-4.9933726E-3,-2.6166015E-3,3.954985E-3,-2.3779224E-3,-9.807588E-3,2.073752E-3,5.143122E-3,4.428962E-3,8.009984E-3,1.0729385E-2,1.3828905E-2],"categories":[],"categories_nodes":[],"categories_segments":[],"categories_sizes":[],"default_left":[0,0,0,0,0,0,0,0,0,0,0,0,0,0,0,0,0,0,0,0,0,0,0,0,0,0,0,0,0,0,0],"id":34,"left_children":[1,3,5,7,9,11,13,15,17,19,21,23,25,27,29,-1,-1,-1,-1,-1,-1,-1,-1,-1,-1,-1,-1,-1,-1,-1,-1],"loss_changes":[3.5917295E3,4.328037E2,4.1799304E2,9.639429E1,8.289398E1,6.470552E1,1.0284766E2,1.829956E1,3.3113525E1,2.5611145E1,3.3939335E1,1.1570438E1,4.0493225E1,2.58833E1,1.52994995E1,0E0,0E0,0E0,0E0,0E0,0E0,0E0,0E0,0E0,0E0,0E0,0E0,0E0,0E0,0E0,0E0],"parents":[2147483647,0,0,1,1,2,2,3,3,4,4,5,5,6,6,7,7,8,8,9,9,10,10,11,11,12,12,13,13,14,14],"right_children":[2,4,6,8,10,12,14,16,18,20,22,24,26,28,30,-1,-1,-1,-1,-1,-1,-1,-1,-1,-1,-1,-1,-1,-1,-1,-1],"split_conditions":[2.3333333E0,1.1666666E0,4.2E0,6.875E-1,1.8E0,1.42E1,6.981132E0,1.86E1,1.2E0,1.82E1,3.6E0,2E0,3.5294118E0,2.56E1,8.280702E0,-1.5008921E-2,-1.0553323E-2,-1.0810337E-2,-7.205453E-3,-8.416236E-3,-4.9933726E-3,-2.6166015E-3,3.954985E-3,-2.3779224E-3,-9.807588E-3,2.073752E-3,5.143122E-3,4.428962E-3,8.009984E-3,1.0729385E-2,1.3828905E-2],"split_indices":[10,10,10,10,2,3,10,3,2,3,2,9,10,3,10,0,0,0,0,0,0,0,0,0,0,0,0,0,0,0,0],"split_type":[0,0,0,0,0,0,0,0,0,0,0,0,0,0,0,0,0,0,0,0,0,0,0,0,0,0,0,0,0,0,0],"sum_hessian":[2.0259161E5,8.8843484E4,1.1374812E5,4.179448E4,4.7049004E4,5.188334E4,6.1864777E4,1.5781078E4,2.6013402E4,2.3983184E4,2.306582E4,2.1016997E3,4.978164E4,4.584994E4,1.6014835E4,1.2964413E4,2.8166655E3,1.4823587E4,1.1189815E4,8.432838E3,1.5550346E4,2.0898107E4,2.1677148E3,1.1024899E3,9.992098E2,3.4089035E4,1.5692605E4,5.7777104E3,4.007223E4,8.349284E3,7.665551E3],"tree_param":{"num_deleted":"0","num_feature":"17","num_nodes":"31","size_leaf_vector":"1"}},{"base_weights":[8.901444E-4,-1.4736669E-1,1.11738E-1,-2.3788023E-1,-9.654042E-2,4.7577355E-2,1.7097862E-1,-2.8936818E-1,-2.035143E-1,-1.3422914E-1,-6.2053096E-2,9.63916E-3,7.4034505E-2,1.5390566E-1,2.3008586E-1,-1.7043762E-2,-1.3385027E-2,-1.1518023E-2,-8.373577E-3,-8.80499E-3,-5.22354E-3,-3.4158495E-3,2.6716152E-3,3.2151372E-3,2.397454E-5,2.5787845E-3,4.971029E-3,6.4541996E-3,8.291965E-3,1.0741397E-2,1.4352388E-2],"categories":[],"categories_nodes":[],"categories_segments":[],"categories_sizes":[],"default_left":[0,0,0,0,0,0,0,0,0,0,0,0,0,0,0,0,0,0,0,0,0,0,0,0,0,0,0,0,0,0,0],"id":35,"left_children":[1,3,5,7,9,11,13,15,17,19,21,23,25,27,29,-1,-1,-1,-1,-1,-1,-1,-1,-1,-1,-1,-1,-1,-1,-1,-1],"loss_changes":[3.3292036E3,3.986825E2,4.4057336E2,5.5085083E1,7.2132996E1,5.5855064E1,6.0782715E1,1.3828491E1,1.8049377E1,3.3024933E1,2.0970375E1,1.1448159E1,1.8686691E1,1.3830566E1,1.1675598E1,0E0,0E0,0E0,0E0,0E0,0E0,0E0,0E0,0E0,0E0,0E0,0E0,0E0,0E0,0E0,0E0],"parents":[2147483647,0,0,1,1,2,2,3,3,4,4,5,5,6,6,7,7,8,8,9,9,10,10,11,11,12,12,13,13,14,14],"right_children":[2,4,6,8,10,12,14,16,18,20,22,24,26,28,30,-1,-1,-1,-1,-1,-1,-1,-1,-1,-1,-1,-1,-1,-1,-1,-1],"split_conditions":[2.4E0,1E0,4.6E0,1.1E1,1.6E0,3.2E0,8E0,5E0,1.86E1,5.4E0,3.3307693E1,3.60401E0,1.22E1,5.4E0,1.06E1,-1.7043762E-2,-1.3385027E-2,-1.1518023E-2,-8.373577E-3,-8.80499E-3,-5.22354E-3,-3.4158495E-3,2.6716152E-3,3.2151372E-3,2.397454E-5,2.5787845E-3,4.971029E-3,6.4541996E-3,8.291965E-3,1.0741397E-2,1.4352388E-2],"split_indices":[2,2,2,3,2,2,2,3,3,4,11,7,4,2,2,0,0,0,0,0,0,0,0,0,0,0,0,0,0,0,0],"split_type":[0,0,0,0,0,0,0,0,0,0,0,0,0,0,0,0,0,0,0,0,0,0,0,0,0,0,0,0,0,0,0],"sum_hessian":[2.0257884E5,8.666533E4,1.1591351E5,3.1163816E4,5.550151E4,5.5646875E4,6.0266633E4,1.2471408E4,1.869241E4,2.6518479E4,2.8983035E4,2.2863355E4,3.278352E4,4.6762902E4,1.3503729E4,3.6885273E3,8.782881E3,1.0709858E4,7.9825513E3,1.1015088E4,1.5503391E4,2.749227E4,1.4907642E3,3.2803975E3,1.9582959E4,1.7396254E4,1.5387265E4,1.518673E4,3.1576174E4,1.0654546E4,2.849182E3],"tree_param":{"num_deleted":"0","num_feature":"17","num_nodes":"31","size_leaf_vector":"1"}},{"base_weights":[8.8646455E-4,-1.5801778E-1,1.01362586E-1,-2.403969E-1,-1.0898905E-1,2.5893116E-2,1.5064053E-1,-2.7048686E-1,-1.6943601E-1,-1.4641234E-1,-6.859308E-2,-3.4018952E-4,6.1906822E-2,1.3100797E-1,2.2394155E-1,-1.5268499E-2,-1.1931779E-2,-8.656458E-4,-8.857364E-3,-9.481694E-3,-6.046438E-3,-4.195336E-3,-3.1765198E-4,-1.7515467E-3,1.0156034E-3,1.5891116E-3,4.3120068E-3,3.7654222E-3,7.015364E-3,1.0002916E-2,1.4763649E-2],"categories":[],"categories_nodes":[],"categories_segments":[],"categories_sizes":[],"default_left":[0,0,0,0,0,0,0,0,0,0,0,0,0,0,0,0,0,0,0,0,0,0,0,0,0,0,0,0,0,0,0],"id":36,"left_children":[1,3,5,7,9,11,13,15,17,19,21,23,25,27,29,-1,-1,-1,-1,-1,-1,-1,-1,-1,-1,-1,-1,-1,-1,-1,-1],"loss_changes":[3.2395173E3,3.1742395E2,4.6227515E2,6.256726E1,7.448035E1,4.639093E1,1.0819006E2,2.2804688E1,1.0243088E1,2.8148926E1,2.2586395E1,2.0355085E1,1.5166695E1,3.0713379E1,2.7002869E1,0E0,0E0,0E0,0E0,0E0,0E0,0E0,0E0,0E0,0E0,0E0,0E0,0E0,0E0,0E0,0E0],"parents":[2147483647,0,0,1,1,2,2,3,3,4,4,5,5,6,6,7,7,8,8,9,9,10,10,11,11,12,12,13,13,14,14],"right_children":[2,4,6,8,10,12,14,16,18,20,22,24,26,28,30,-1,-1,-1,-1,-1,-1,-1,-1,-1,-1,-1,-1,-1,-1,-1,-1],"split_conditions":[2E0,9.514563E-1,3.642857E0,1.86E1,1.6E0,3.2E0,6.981132E0,5.9090906E-1,1.155E1,6E0,2.8E0,2.36E1,3.5E1,2.56E1,9.634147E0,-1.5268499E-2,-1.1931779E-2,-8.656458E-4,-8.857364E-3,-9.481694E-3,-6.046438E-3,-4.195336E-3,-3.1765198E-4,-1.7515467E-3,1.0156034E-3,1.5891116E-3,4.3120068E-3,3.7654222E-3,7.015364E-3,1.0002916E-2,1.4763649E-2],"split_indices":[10,10,10,3,2,2,10,10,11,0,2,3,12,3,10,0,0,0,0,0,0,0,0,0,0,0,0,0,0,0,0],"split_type":[0,0,0,0,0,0,0,0,0,0,0,0,0,0,0,0,0,0,0,0,0,0,0,0,0,0,0,0,0,0,0],"sum_hessian":[2.0289794E5,7.859631E4,1.2430163E5,2.9323107E4,4.9273203E4,4.9102457E4,7.519917E4,2.0589574E4,8.733534E3,2.5576352E4,2.3696852E4,2.8409348E4,2.0693107E4,5.9315277E4,1.5883899E4,9.822985E3,1.0766589E4,4.2150833E2,8.312025E3,9.484202E3,1.6092148E4,1.9017424E4,4.6794272E3,1.060121E4,1.7808139E4,9.247291E3,1.1445817E4,8.487459E3,5.0827816E4,1.1902499E4,3.9814001E3],"tree_param":{"num_deleted":"0","num_feature":"17","num_nodes":"31","size_leaf_vector":"1"}},{"base_weights":[3.4721423E-4,-1.4136544E-1,1.04257226E-1,-2.2853862E-1,-9.278895E-2,3.4088038E-2,1.5129331E-1,-2.6064637E-1,-1.7537282E-1,-1.2940246E-1,-5.9053205E-2,-7.5407214E-3,4.8320714E-2,1.3417068E-1,2.1870196E-1,-1.713145E-2,-1.234107E-2,-9.116194E-3,-3.2871303E-3,-8.316791E-3,-4.9854196E-3,-3.3800674E-3,1.4308933E-3,1.3087041E-6,-5.849616E-3,2.3244312E-3,2.2663085E-2,5.764402E-3,7.853112E-3,9.893369E-3,1.3471941E-2],"categories":[],"categories_nodes":[],"categories_segments":[],"categories_sizes":[],"default_left":[0,0,0,0,0,0,0,0,0,0,0,0,0,0,0,0,0,0,0,0,0,0,0,0,0,0,0,0,0,0,0],"id":37,"left_children":[1,3,5,7,9,11,13,15,17,19,21,23,25,27,29,-1,-1,-1,-1,-1,-1,-1,-1,-1,-1,-1,-1,-1,-1,-1,-1],"loss_changes":[2.9843203E3,3.6303796E2,3.8591467E2,5.2325073E1,6.800003E1,2.7803608E1,8.076904E1,2.159253E1,8.793243E0,2.8938812E1,2.1478424E1,9.902879E0,2.5922928E1,2.4112793E1,1.4934265E1,0E0,0E0,0E0,0E0,0E0,0E0,0E0,0E0,0E0,0E0,0E0,0E0,0E0,0E0,0E0,0E0],"parents":[2147483647,0,0,1,1,2,2,3,3,4,4,5,5,6,6,7,7,8,8,9,9,10,10,11,11,12,12,13,13,14,14],"right_children":[2,4,6,8,10,12,14,16,18,20,22,24,26,28,30,-1,-1,-1,-1,-1,-1,-1,-1,-1,-1,-1,-1,-1,-1,-1,-1],"split_conditions":[2.4E0,1E0,4.2E0,1.56E1,1.6E0,2.8E0,8E0,4.4E0,3.08E1,1.9489796E1,1.86E1,5E0,3.48E1,5.8E0,1E1,-1.713145E-2,-1.234107E-2,-9.116194E-3,-3.2871303E-3,-8.316791E-3,-4.9854196E-3,-3.3800674E-3,1.4308933E-3,1.3087041E-6,-5.849616E-3,2.3244312E-3,2.2663085E-2,5.764402E-3,7.853112E-3,9.893369E-3,1.3471941E-2],"split_indices":[2,2,2,3,2,2,2,3,3,11,0,14,0,2,2,0,0,0,0,0,0,0,0,0,0,0,0,0,0,0,0],"split_type":[0,0,0,0,0,0,0,0,0,0,0,0,0,0,0,0,0,0,0,0,0,0,0,0,0,0,0,0,0,0,0],"sum_hessian":[2.0266333E5,8.573603E4,1.169273E5,3.0678344E4,5.5057684E4,4.6925223E4,7.000208E4,1.9124697E4,1.1553646E4,2.6401367E4,2.8656318E4,1.195598E4,3.4969242E4,5.5824863E4,1.4177215E4,2.756253E3,1.6368444E4,1.0864146E4,6.8949927E2,1.1764337E4,1.463703E4,2.6110691E4,2.545627E3,1.1183793E4,7.7218756E2,3.4812855E4,1.5639017E2,3.0594379E4,2.5230482E4,1.0053676E4,4.123539E3],"tree_param":{"num_deleted":"0","num_feature":"17","num_nodes":"31","size_leaf_vector":"1"}},{"base_weights":[-1.3620659E-3,-1.5243089E-1,9.467949E-2,-2.3575811E-1,-1.058882E-1,2.3218838E-2,1.3973562E-1,-3.0300352E-1,-2.1030614E-1,-1.4248505E-1,-7.878206E-2,-3.4500763E-3,5.2963883E-2,1.19987704E-1,2.0293371E-1,-1.384868E-2,-1.7058333E-2,-1.3602428E-2,-9.5103765E-3,-6.5824515E-3,-1.2320881E-2,-4.867679E-3,-2.584981E-3,-2.6920044E-3,2.5789262E-4,-2.887719E-4,3.4054355E-3,2.2895415E-3,6.2984037E-3,6.3717957E-3,1.0857366E-2],"categories":[],"categories_nodes":[],"categories_segments":[],"categories_sizes":[],"default_left":[0,0,0,0,0,0,0,0,0,0,0,0,0,0,0,0,0,0,0,0,0,0,0,0,0,0,0,0,0,0,0],"id":38,"left_children":[1,3,5,7,9,11,13,15,17,19,21,23,25,27,29,-1,-1,-1,-1,-1,-1,-1,-1,-1,-1,-1,-1,-1,-1,-1,-1],"loss_changes":[2.9396099E3,3.0537024E2,3.98802E2,4.8235474E1,5.011078E1,3.799602E1,9.478296E1,7.6002197E0,2.535614E1,2.4179077E1,1.4595566E1,1.0955046E1,2.0143604E1,2.5677856E1,1.9378906E1,0E0,0E0,0E0,0E0,0E0,0E0,0E0,0E0,0E0,0E0,0E0,0E0,0E0,0E0,0E0,0E0],"parents":[2147483647,0,0,1,1,2,2,3,3,4,4,5,5,6,6,7,7,8,8,9,9,10,10,11,11,12,12,13,13,14,14],"right_children":[2,4,6,8,10,12,14,16,18,20,22,24,26,28,30,-1,-1,-1,-1,-1,-1,-1,-1,-1,-1,-1,-1,-1,-1,-1,-1],"split_conditions":[2.0370371E0,9.411765E-1,3.642857E0,2.4E0,1.3333334E0,2.8181818E0,6.7272725E0,4E0,5.3246754E-1,5E0,8.4E0,5.6E0,7E0,7.6E0,1.12E1,-1.384868E-2,-1.7058333E-2,-1.3602428E-2,-9.5103765E-3,-6.5824515E-3,-1.2320881E-2,-4.867679E-3,-2.584981E-3,-2.6920044E-3,2.5789262E-4,-2.887719E-4,3.4054355E-3,2.2895415E-3,6.2984037E-3,6.3717957E-3,1.0857366E-2],"split_indices":[10,10,10,4,10,10,10,14,10,14,4,0,4,0,4,0,0,0,0,0,0,0,0,0,0,0,0,0,0,0,0],"split_type":[0,0,0,0,0,0,0,0,0,0,0,0,0,0,0,0,0,0,0,0,0,0,0,0,0,0,0,0,0,0,0],"sum_hessian":[2.026056E5,7.8744164E4,1.2386143E5,2.821882E4,5.0525344E4,4.789684E4,7.596459E4,7.7450625E3,2.0473758E4,2.1497139E4,2.9028205E4,2.5254742E4,2.2642098E4,5.7881027E4,1.8083564E4,4.6093945E3,3.1356677E3,5.024888E3,1.5448869E4,1.9469514E4,2.0276256E3,1.7218314E4,1.1809892E4,3.6839558E3,2.1570787E4,4.6413203E3,1.8000777E4,4.317952E3,5.3563074E4,2.8666855E3,1.5216879E4],"tree_param":{"num_deleted":"0","num_feature":"17","num_nodes":"31","size_leaf_vector":"1"}},{"base_weights":[-1.1057397E-3,-1.42894E-1,9.99533E-2,-2.4411793E-1,-9.947152E-2,3.954296E-2,1.4687563E-1,-2.8915414E-1,-2.0557182E-1,-1.3445063E-1,-5.0075773E-2,-7.385326E-2,4.717233E-2,1.3489987E-1,2.3312601E-1,-1.5889112E-2,-1.3128521E-2,-1.2907221E-2,-8.999857E-3,-8.605183E-3,-5.441703E-3,-2.7956278E-3,5.8193896E-3,2.4550056E-4,-6.2638144E-3,6.0648326E-4,3.3603595E-3,4.795493E-3,7.328754E-3,3.32278E-3,1.2023739E-2],"categories":[],"categories_nodes":[],"categories_segments":[],"categories_sizes":[],"default_left":[0,0,0,0,0,0,0,0,0,0,0,0,0,0,0,0,0,0,0,0,0,0,0,0,0,0,0,0,0,0,0],"id":39,"left_children":[1,3,5,7,9,11,13,15,17,19,21,23,25,27,29,-1,-1,-1,-1,-1,-1,-1,-1,-1,-1,-1,-1,-1,-1,-1,-1],"loss_changes":[2.8993171E3,3.7007666E2,3.3486572E2,4.3819824E1,1.01807495E2,4.4685616E1,6.864819E1,8.786072E0,1.8270142E1,3.3254883E1,2.374355E1,1.318899E1,3.3973946E1,2.6564575E1,9.911499E0,0E0,0E0,0E0,0E0,0E0,0E0,0E0,0E0,0E0,0E0,0E0,0E0,0E0,0E0,0E0,0E0],"parents":[2147483647,0,0,1,1,2,2,3,3,4,4,5,5,6,6,7,7,8,8,9,9,10,10,11,11,12,12,13,13,14,14],"right_children":[2,4,6,8,10,12,14,16,18,20,22,24,26,28,30,-1,-1,-1,-1,-1,-1,-1,-1,-1,-1,-1,-1,-1,-1,-1,-1],"split_conditions":[2.25E0,8.965517E-1,4.037037E0,3.4E0,1.8E0,4.6E0,8.280702E0,2E0,5.9090906E-1,5.4E0,4.2E0,1.7035715E1,2.8181818E0,4.6E0,9.8E0,-1.5889112E-2,-1.3128521E-2,-1.2907221E-2,-8.999857E-3,-8.605183E-3,-5.441703E-3,-2.7956278E-3,5.8193896E-3,2.4550056E-4,-6.2638144E-3,6.0648326E-4,3.3603595E-3,4.795493E-3,7.328754E-3,3.32278E-3,1.2023739E-2],"split_indices":[10,10,10,4,2,0,10,4,10,4,2,11,10,2,4,0,0,0,0,0,0,0,0,0,0,0,0,0,0,0,0],"split_type":[0,0,0,0,0,0,0,0,0,0,0,0,0,0,0,0,0,0,0,0,0,0,0,0,0,0,0,0,0,0,0],"sum_hessian":[2.0233731E5,8.4200945E4,1.1813636E5,2.527552E4,5.8925426E4,5.164615E4,6.649021E4,1.1653452E4,1.3622068E4,3.4495824E4,2.4429602E4,3.2551917E3,4.8390957E4,5.8385953E4,8.1042554E3,5.605707E3,6.047745E3,4.4550166E3,9.167051E3,1.396434E4,2.0531484E4,2.3602676E4,8.2692633E2,1.2861438E3,1.969048E3,1.7603154E4,3.0787805E4,1.3456488E4,4.492947E4,3.4266345E2,7.761592E3],"tree_param":{"num_deleted":"0","num_feature":"17","num_nodes":"31","size_leaf_vector":"1"}},{"base_weights":[1.7530397E-4,-1.4710754E-1,9.1781236E-2,-2.2806397E-1,-9.8777205E-2,3.810545E-2,1.4563891E-1,-2.7940914E-1,-1.9568501E-1,-1.3629211E-1,-6.106507E-2,-7.1577E-3,6.5902986E-2,1.2458452E-1,1.9745213E-1,-1.639236E-2,-1.2981745E-2,-1.1136208E-2,-7.713468E-3,-9.404068E-3,-5.322386E-3,-4.2007803E-3,-1.0480286E-3,-2.7220168E-3,1.356326E-4,-8.570409E-3,3.4055852E-3,6.1120614E-3,1.4518074E-2,9.012107E-3,1.2607043E-2],"categories":[],"categories_nodes":[],"categories_segments":[],"categories_sizes":[],"default_left":[0,0,0,0,0,0,0,0,0,0,0,0,0,0,0,0,0,0,0,0,0,0,0,0,0,0,0,0,0,0,0],"id":40,"left_children":[1,3,5,7,9,11,13,15,17,19,21,23,25,27,29,-1,-1,-1,-1,-1,-1,-1,-1,-1,-1,-1,-1,-1,-1,-1,-1],"loss_changes":[2.7377476E3,3.0442786E2,3.6165417E2,4.830237E1,6.892734E1,7.8839E1,6.8097534E1,1.0687256E1,1.9945435E1,3.7733063E1,2.2365181E1,1.1126702E1,2.0359055E1,1.7214722E1,1.693512E1,0E0,0E0,0E0,0E0,0E0,0E0,0E0,0E0,0E0,0E0,0E0,0E0,0E0,0E0,0E0,0E0],"parents":[2147483647,0,0,1,1,2,2,3,3,4,4,5,5,6,6,7,7,8,8,9,9,10,10,11,11,12,12,13,13,14,14],"right_children":[2,4,6,8,10,12,14,16,18,20,22,24,26,28,30,-1,-1,-1,-1,-1,-1,-1,-1,-1,-1,-1,-1,-1,-1,-1,-1],"split_conditions":[2.0370371E0,9.722222E-1,4.6E0,6E-1,1.6E0,2.8181818E0,6.7272725E0,1.8E0,5.2E0,6E0,2.4E0,1.082E2,2.4E0,9.4E0,9.634147E0,-1.639236E-2,-1.2981745E-2,-1.1136208E-2,-7.713468E-3,-9.404068E-3,-5.322386E-3,-4.2007803E-3,-1.0480286E-3,-2.7220168E-3,1.356326E-4,-8.570409E-3,3.4055852E-3,6.1120614E-3,1.4518074E-2,9.012107E-3,1.2607043E-2],"split_indices":[10,10,2,10,2,10,10,4,4,0,2,15,0,2,10,0,0,0,0,0,0,0,0,0,0,0,0,0,0,0,0],"split_type":[0,0,0,0,0,0,0,0,0,0,0,0,0,0,0,0,0,0,0,0,0,0,0,0,0,0,0,0,0,0,0],"sum_hessian":[2.0291464E5,7.7810805E4,1.2510383E5,2.908606E4,4.8724746E4,6.265858E4,6.2445254E4,1.1245614E4,1.7840447E4,2.4424932E4,2.4299814E4,2.3840107E4,3.881847E4,4.4404727E4,1.804053E4,3.2555046E3,7.99011E3,1.0790953E4,7.049494E3,8.927562E3,1.5497369E4,1.5454562E4,8.845253E3,4.11642E3,1.9723688E4,3.5725577E2,3.846121E4,4.3787516E4,6.1720776E2,1.3725536E4,4.3149927E3],"tree_param":{"num_deleted":"0","num_feature":"17","num_nodes":"31","size_leaf_vector":"1"}},{"base_weights":[-6.194478E-4,-1.4515859E-1,8.873349E-2,-2.2589651E-1,-9.7270146E-2,1.8646536E-2,1.2889497E-1,-2.547341E-1,-1.6073753E-1,-1.3479552E-1,-5.9068296E-2,1.9515461E-3,5.9496578E-2,1.0799212E-1,1.6851896E-1,-1.1656569E-2,-1.5344009E-2,-4.8348834E-4,-8.371103E-3,-8.584825E-3,-5.331268E-3,-3.96653E-3,-1.1954666E-3,-4.163898E-3,4.4343178E-4,3.3763186E-3,-3.9035317E-3,2.8020702E-3,5.7421154E-3,7.6063597E-3,1.0325079E-2],"categories":[],"categories_nodes":[],"categories_segments":[],"categories_sizes":[],"default_left":[0,0,0,0,0,0,0,0,0,0,0,0,0,0,0,0,0,0,0,0,0,0,0,0,0,0,0,0,0,0,0],"id":41,"left_children":[1,3,5,7,9,11,13,15,17,19,21,23,25,27,29,-1,-1,-1,-1,-1,-1,-1,-1,-1,-1,-1,-1,-1,-1,-1,-1],"loss_changes":[2.6241382E3,3.000974E2,3.534322E2,5.426013E1,6.984064E1,3.1195202E1,6.609546E1,2.2493164E1,8.954041E0,2.5531921E1,1.7200111E1,1.9144297E1,1.46643715E1,1.8590942E1,1.7130554E1,0E0,0E0,0E0,0E0,0E0,0E0,0E0,0E0,0E0,0E0,0E0,0E0,0E0,0E0,0E0,0E0],"parents":[2147483647,0,0,1,1,2,2,3,3,4,4,5,5,6,6,7,7,8,8,9,9,10,10,11,11,12,12,13,13,14,14],"right_children":[2,4,6,8,10,12,14,16,18,20,22,24,26,28,30,-1,-1,-1,-1,-1,-1,-1,-1,-1,-1,-1,-1,-1,-1,-1,-1],"split_conditions":[2.0370371E0,9.722222E-1,3.5666666E0,1.86E1,1.6E0,3.6E0,6.108108E0,4E0,1.155E1,1.86E1,2.4E0,1.42E1,6E0,7.6E0,8.280702E0,-1.1656569E-2,-1.5344009E-2,-4.8348834E-4,-8.371103E-3,-8.584825E-3,-5.331268E-3,-3.96653E-3,-1.1954666E-3,-4.163898E-3,4.4343178E-4,3.3763186E-3,-3.9035317E-3,2.8020702E-3,5.7421154E-3,7.6063597E-3,1.0325079E-2],"split_indices":[10,10,10,3,2,2,10,14,11,3,2,3,14,4,10,0,0,0,0,0,0,0,0,0,0,0,0,0,0,0,0],"split_type":[0,0,0,0,0,0,0,0,0,0,0,0,0,0,0,0,0,0,0,0,0,0,0,0,0,0,0,0,0,0,0],"sum_hessian":[2.0318334E5,7.762115E4,1.25562195E5,2.8897486E4,4.872366E4,4.5740535E4,7.982166E4,2.0029895E4,8.867591E3,2.457818E4,2.4145482E4,3.2471016E4,1.3269521E4,5.225781E4,2.7563846E4,1.416655E4,5.8633457E3,3.7585507E2,8.491736E3,1.0638014E4,1.3940166E4,1.5316974E4,8.828509E3,2.436645E3,3.0034371E4,1.2538178E4,7.313437E2,6.089E3,4.616881E4,1.9257912E4,8.305935E3],"tree_param":{"num_deleted":"0","num_feature":"17","num_nodes":"31","size_leaf_vector":"1"}},{"base_weights":[9.051683E-4,-1.4519063E-1,8.597005E-2,-2.3207955E-1,-1.0279023E-1,1.9944139E-2,1.2779929E-1,-2.656569E-1,-1.7677133E-1,-1.3407452E-1,-6.449099E-2,-5.067593E-3,5.0106257E-2,9.8324984E-2,1.5869315E-1,-1.5670463E-2,-1.20322015E-2,7.880035E-3,-9.038073E-3,-8.873439E-3,-5.3843274E-3,-3.9356984E-3,-5.6899915E-4,-3.9608665E-3,4.3464537E-5,2.8225507E-3,-3.1613742E-3,1.78728E-3,5.4006353E-3,7.169947E-3,1.0553966E-2],"categories":[],"categories_nodes":[],"categories_segments":[],"categories_sizes":[],"default_left":[0,0,0,0,0,0,0,0,0,0,0,0,0,0,0,0,0,0,0,0,0,0,0,0,0,0,0,0,0,0,0],"id":42,"left_children":[1,3,5,7,9,11,13,15,17,19,21,23,25,27,29,-1,-1,-1,-1,-1,-1,-1,-1,-1,-1,-1,-1,-1,-1,-1,-1],"loss_changes":[2.5133503E3,2.7415625E2,3.5300433E2,4.5276978E1,5.9920044E1,3.7397854E1,7.123303E1,1.8061157E1,1.2333099E1,3.1503815E1,1.6987457E1,1.1930313E1,1.616293E1,2.4273743E1,3.0576843E1,0E0,0E0,0E0,0E0,0E0,0E0,0E0,0E0,0E0,0E0,0E0,0E0,0E0,0E0,0E0,0E0],"parents":[2147483647,0,0,1,1,2,2,3,3,4,4,5,5,6,6,7,7,8,8,9,9,10,10,11,11,12,12,13,13,14,14],"right_children":[2,4,6,8,10,12,14,16,18,20,22,24,26,28,30,-1,-1,-1,-1,-1,-1,-1,-1,-1,-1,-1,-1,-1,-1,-1,-1],"split_conditions":[1.960396E0,8.965517E-1,3.642857E0,1.6E1,1.3965517E0,2.8181818E0,5.5070424E0,7.6E0,1.0833334E0,1.84E1,5.8E0,1.42E1,6E0,7.6E0,8.280702E0,-1.5670463E-2,-1.20322015E-2,7.880035E-3,-9.038073E-3,-8.873439E-3,-5.3843274E-3,-3.9356984E-3,-5.6899915E-4,-3.9608665E-3,4.3464537E-5,2.8225507E-3,-3.1613742E-3,1.78728E-3,5.4006353E-3,7.169947E-3,1.0553966E-2],"split_indices":[10,10,10,3,10,10,10,3,9,3,1,3,14,4,10,0,0,0,0,0,0,0,0,0,0,0,0,0,0,0,0],"split_type":[0,0,0,0,0,0,0,0,0,0,0,0,0,0,0,0,0,0,0,0,0,0,0,0,0,0,0,0,0,0,0],"sum_hessian":[2.0223703E5,7.442101E4,1.2781603E5,2.4404883E4,5.001612E4,4.957119E4,7.8244836E4,1.5183345E4,9.221538E3,2.7527826E4,2.2488295E4,2.7099746E4,2.2471445E4,4.0044527E4,3.8200312E4,5.2152744E3,9.96807E3,1.0829092E2,9.113247E3,1.0407413E4,1.7120414E4,1.7737705E4,4.75059E3,2.0080104E3,2.5091734E4,2.1280598E4,1.1908478E3,5.368774E3,3.4675754E4,2.9570816E4,8.629496E3],"tree_param":{"num_deleted":"0","num_feature":"17","num_nodes":"31","size_leaf_vector":"1"}},{"base_weights":[1.1350845E-3,-1.4421919E-1,8.333932E-2,-2.2209492E-1,-9.7256675E-2,2.3084247E-2,1.2586088E-1,-2.5814053E-1,-1.7157535E-1,-1.1796142E-1,-4.7556538E-2,-5.094402E-2,3.3974227E-2,1.10124975E-1,1.792149E-1,-1.5277E-2,-1.1750858E-2,4.7867554E-3,-8.792537E-3,-7.2296523E-3,-4.2546196E-3,-1.5025493E-3,-4.9226466E-3,-3.593551E-3,1.6754145E-3,1.3172263E-3,5.5267345E-3,3.2709804E-3,5.853921E-3,7.464678E-3,1.060662E-2],"categories":[],"categories_nodes":[],"categories_segments":[],"categories_sizes":[],"default_left":[0,0,0,0,0,0,0,0,0,0,0,0,0,0,0,0,0,0,0,0,0,0,0,0,0,0,0,0,0,0,0],"id":43,"left_children":[1,3,5,7,9,11,13,15,17,19,21,23,25,27,29,-1,-1,-1,-1,-1,-1,-1,-1,-1,-1,-1,-1,-1,-1,-1,-1],"loss_changes":[2.4250837E3,2.681167E2,3.3215326E2,5.0179688E1,4.706021E1,4.324203E1,6.379138E1,1.7567383E1,1.3145142E1,2.8249939E1,1.1982679E1,1.2159618E1,2.7310642E1,1.8238403E1,1.7016724E1,0E0,0E0,0E0,0E0,0E0,0E0,0E0,0E0,0E0,0E0,0E0,0E0,0E0,0E0,0E0,0E0],"parents":[2147483647,0,0,1,1,2,2,3,3,4,4,5,5,6,6,7,7,8,8,9,9,10,10,11,11,12,12,13,13,14,14],"right_children":[2,4,6,8,10,12,14,16,18,20,22,24,26,28,30,-1,-1,-1,-1,-1,-1,-1,-1,-1,-1,-1,-1,-1,-1,-1,-1],"split_conditions":[1.9375E0,9.6E-1,3.7931035E0,1.6E1,2E0,1.8E0,6.981132E0,7.6E0,1.1222222E0,2.24E1,2.7024391E1,1.34E1,5E0,2.56E1,5.976584E-1,-1.5277E-2,-1.1750858E-2,4.7867554E-3,-8.792537E-3,-7.2296523E-3,-4.2546196E-3,-1.5025493E-3,-4.9226466E-3,-3.593551E-3,1.6754145E-3,1.3172263E-3,5.5267345E-3,3.2709804E-3,5.853921E-3,7.464678E-3,1.060662E-2],"split_indices":[10,10,10,3,2,2,10,3,9,3,11,0,2,3,5,0,0,0,0,0,0,0,0,0,0,0,0,0,0,0,0],"split_type":[0,0,0,0,0,0,0,0,0,0,0,0,0,0,0,0,0,0,0,0,0,0,0,0,0,0,0,0,0,0,0],"sum_hessian":[2.0295531E5,7.3316195E4,1.2963912E5,2.757919E4,4.5737008E4,5.363596E4,7.600316E4,1.6092859E4,1.148633E4,3.2285648E4,1.3451359E4,6.8778433E3,4.675812E4,5.8695047E4,1.7308105E4,5.2725996E3,1.0820259E4,1.8048384E2,1.1305847E4,1.783319E4,1.445246E4,1.0010046E4,3.4413137E3,5.51211E3,1.3657333E3,4.2521906E4,4.236213E3,7.9019497E3,5.0793098E4,9.069581E3,8.238523E3],"tree_param":{"num_deleted":"0","num_feature":"17","num_nodes":"31","size_leaf_vector":"1"}},{"base_weights":[5.570705E-4,-1.2481487E-1,8.9628324E-2,-2.0309544E-1,-7.355147E-2,5.5440422E-2,1.3861713E-1,-2.672092E-1,-1.7314434E-1,-1.0685454E-1,-3.8048487E-2,3.142747E-2,8.573622E-2,1.2500672E-1,2.023068E-1,-1.6687635E-2,-1.25546325E-2,-1.1045049E-2,-6.980692E-3,-8.713819E-3,-4.890848E-3,-4.2635137E-3,-1.3495382E-3,-2.4752396E-3,1.8844305E-3,1.5312539E-3,4.7501214E-3,6.038999E-3,1.0609574E-2,1.0346784E-2,-2.1223119E-3],"categories":[],"categories_nodes":[],"categories_segments":[],"categories_sizes":[],"default_left":[0,0,0,0,0,0,0,0,0,0,0,0,0,0,0,0,0,0,0,0,0,0,0,0,0,0,0,0,0,0,0],"id":44,"left_children":[1,3,5,7,9,11,13,15,17,19,21,23,25,27,29,-1,-1,-1,-1,-1,-1,-1,-1,-1,-1,-1,-1,-1,-1,-1,-1],"loss_changes":[2.2585547E3,3.3710095E2,1.9803094E2,6.378955E1,6.001883E1,5.066304E1,4.2104187E1,1.1266052E1,3.6256287E1,1.5943573E1,1.2828728E1,1.9689419E1,1.5722244E1,1.47317505E1,9.701752E0,0E0,0E0,0E0,0E0,0E0,0E0,0E0,0E0,0E0,0E0,0E0,0E0,0E0,0E0,0E0,0E0],"parents":[2147483647,0,0,1,1,2,2,3,3,4,4,5,5,6,6,7,7,8,8,9,9,10,10,11,11,12,12,13,13,14,14],"right_children":[2,4,6,8,10,12,14,16,18,20,22,24,26,28,30,-1,-1,-1,-1,-1,-1,-1,-1,-1,-1,-1,-1,-1,-1,-1,-1],"split_conditions":[2.357143E0,1.0769231E0,5E0,6E-1,1.5714285E0,3.642857E0,8.280702E0,1.4E0,4.2E0,3.6E0,6E0,4.6E0,8.8E0,1.12E1,8.5E1,-1.6687635E-2,-1.25546325E-2,-1.1045049E-2,-6.980692E-3,-8.713819E-3,-4.890848E-3,-4.2635137E-3,-1.3495382E-3,-2.4752396E-3,1.8844305E-3,1.5312539E-3,4.7501214E-3,6.038999E-3,1.0609574E-2,1.0346784E-2,-2.1223119E-3],"split_indices":[10,10,10,10,10,10,10,4,4,0,0,0,0,1,12,0,0,0,0,0,0,0,0,0,0,0,0,0,0,0,0],"split_type":[0,0,0,0,0,0,0,0,0,0,0,0,0,0,0,0,0,0,0,0,0,0,0,0,0,0,0,0,0,0,0],"sum_hessian":[2.022499E5,8.400648E4,1.1824343E5,3.3242043E4,5.0764434E4,6.964339E4,4.8600035E4,1.058204E4,2.2660002E4,2.6192715E4,2.4571719E4,3.8851273E4,3.079212E4,4.0045355E4,8.554679E3,2.0593774E3,8.522662E3,9.344822E3,1.3315181E4,3.0938462E3,2.309887E4,4.660868E3,1.9910852E4,2.7893174E3,3.6061957E4,4.4327075E3,2.6359412E4,3.8195992E4,1.8493662E3,8.396044E3,1.5863521E2],"tree_param":{"num_deleted":"0","num_feature":"17","num_nodes":"31","size_leaf_vector":"1"}},{"base_weights":[-4.1330696E-4,-1.3749047E-1,7.761586E-2,-2.2251405E-1,-9.7419366E-2,2.2432325E-2,1.194198E-1,-2.558594E-1,-1.6421238E-1,-1.2255815E-1,-3.6729872E-2,-1.1146361E-2,4.7759447E-2,1.0059138E-1,1.5795183E-1,-1.12576345E-2,-1.46927005E-2,8.983441E-3,-8.400092E-3,-7.7917823E-3,-4.8923967E-3,-1.4543216E-3,-7.133372E-3,-7.676426E-3,-1.874584E-4,2.3167632E-3,2.819693E-2,4.035491E-3,5.8510588E-3,7.85383E-3,3.5E-2],"categories":[],"categories_nodes":[],"categories_segments":[],"categories_sizes":[],"default_left":[0,0,0,0,0,0,0,0,0,0,0,0,0,0,0,0,0,0,0,0,0,0,0,0,0,0,0,0,0,0,0],"id":45,"left_children":[1,3,5,7,9,11,13,15,17,19,21,23,25,27,29,-1,-1,-1,-1,-1,-1,-1,-1,-1,-1,-1,-1,-1,-1,-1,-1],"loss_changes":[2.1675635E3,2.5043005E2,2.9790955E2,4.5734985E1,7.622586E1,4.7339912E1,5.3291748E1,1.7408081E1,1.1198242E1,2.9036499E1,1.1847113E1,2.5207396E1,2.3300285E1,1.6114502E1,1.3441345E1,0E0,0E0,0E0,0E0,0E0,0E0,0E0,0E0,0E0,0E0,0E0,0E0,0E0,0E0,0E0,0E0],"parents":[2147483647,0,0,1,1,2,2,3,3,4,4,5,5,6,6,7,7,8,8,9,9,10,10,11,11,12,