{"learner":{"attributes":{"best_iteration":"324","best_score":"5.9909033066490895","scikit_learn":"{\"_estimator_type\": \"regressor\"}"},"feature_names":[],"feature_types":[],"gradient_booster":{"model":{"cats":{"enc":[],"feature_segments":[],"sorted_idx":[]},"gbtree_model_param":{"num_parallel_tree":"1","num_trees":"365"},"iteration_indptr":[0,1,2,3,4,5,6,7,8,9,10,11,12,13,14,15,16,17,18,19,20,21,22,23,24,25,26,27,28,29,30,31,32,33,34,35,36,37,38,39,40,41,42,43,44,45,46,47,48,49,50,51,52,53,54,55,56,57,58,59,60,61,62,63,64,65,66,67,68,69,70,71,72,73,74,75,76,77,78,79,80,81,82,83,84,85,86,87,88,89,90,91,92,93,94,95,96,97,98,99,100,101,102,103,104,105,106,107,108,109,110,111,112,113,114,115,116,117,118,119,120,121,122,123,124,125,126,127,128,129,130,131,132,133,134,135,136,137,138,139,140,141,142,143,144,145,146,147,148,149,150,151,152,153,154,155,156,157,158,159,160,161,162,163,164,165,166,167,168,169,170,171,172,173,174,175,176,177,178,179,180,181,182,183,184,185,186,187,188,189,190,191,192,193,194,195,196,197,198,199,200,201,202,203,204,205,206,207,208,209,210,211,212,213,214,215,216,217,218,219,220,221,222,223,224,225,226,227,228,229,230,231,232,233,234,235,236,237,238,239,240,241,242,243,244,245,246,247,248,249,250,251,252,253,254,255,256,257,258,259,260,261,262,263,264,265,266,267,268,269,270,271,272,273,274,275,276,277,278,279,280,281,282,283,284,285,286,287,288,289,290,291,292,293,294,295,296,297,298,299,300,301,302,303,304,305,306,307,308,309,310,311,312,313,314,315,316,317,318,319,320,321,322,323,324,325,326,327,328,329,330,331,332,333,334,335,336,337,338,339,340,341,342,343,344,345,346,347,348,349,350,351,352,353,354,355,356,357,358,359,360,361,362,363,364,365],"tree_info":[0,0,0,0,0,0,0,0,0,0,0,0,0,0,0,0,0,0,0,0,0,0,0,0,0,0,0,0,0,0,0,0,0,0,0,0,0,0,0,0,0,0,0,0,0,0,0,0,0,0,0,0,0,0,0,0,0,0,0,0,0,0,0,0,0,0,0,0,0,0,0,0,0,0,0,0,0,0,0,0,0,0,0,0,0,0,0,0,0,0,0,0,0,0,0,0,0,0,0,0,0,0,0,0,0,0,0,0,0,0,0,0,0,0,0,0,0,0,0,0,0,0,0,0,0,0,0,0,0,0,0,0,0,0,0,0,0,0,0,0,0,0,0,0,0,0,0,0,0,0,0,0,0,0,0,0,0,0,0,0,0,0,0,0,0,0,0,0,0,0,0,0,0,0,0,0,0,0,0,0,0,0,0,0,0,0,0,0,0,0,0,0,0,0,0,0,0,0,0,0,0,0,0,0,0,0,0,0,0,0,0,0,0,0,0,0,0,0,0,0,0,0,0,0,0,0,0,0,0,0,0,0,0,0,0,0,0,0,0,0,0,0,0,0,0,0,0,0,0,0,0,0,0,0,0,0,0,0,0,0,0,0,0,0,0,0,0,0,0,0,0,0,0,0,0,0,0,0,0,0,0,0,0,0,0,0,0,0,0,0,0,0,0,0,0,0,0,0,0,0,0,0,0,0,0,0,0,0,0,0,0,0,0,0,0,0,0,0,0,0,0,0,0,0,0,0,0,0,0,0,0,0,0,0,0,0,0,0,0,0,0,0,0,0,0,0,0,0,0,0,0,0,0,0,0,0,0,0,0,0,0,0,0,0,0],"trees":[{"base_weights":[-6.481736E-4,-1.7170852E-1,3.7775856E-1,-2.638893E-1,-3.184866E-2,2.2640592E-1,5.829484E-1,-3.2776812E-1,-2.0020783E-1,-8.9920275E-2,2.6086098E-2,1.5753081E-1,3.1694478E-1,4.7869053E-1,7E-1,-1.8449897E-2,-1.4678481E-2,-1.0604728E-2,-5.408973E-3,-5.343978E-3,-1.3628096E-3,7.3668554E-5,5.2937767E-3,6.529908E-3,1.147481E-2,1.51956E-2,2.4284558E-2,1.9428032E-2,2.561911E-2,3.125326E-2,3.5E-2],"categories":[],"categories_nodes":[],"categories_segments":[],"categories_sizes":[],"default_left":[0,0,0,0,0,0,0,0,0,0,0,0,0,0,0,0,0,0,0,0,0,0,0,0,0,0,0,0,0,0,0],"id":0,"left_children":[1,3,5,7,9,11,13,15,17,19,21,23,25,27,29,-1,-1,-1,-1,-1,-1,-1,-1,-1,-1,-1,-1,-1,-1,-1,-1],"loss_changes":[5.782775E4,7.931922E3,8.63725E3,1.5084297E3,8.222956E2,9.980674E2,1.6372266E3,2.6091797E2,2.0312012E2,1.2971759E2,2.4027762E2,1.7616992E2,1.519375E2,2.016289E2,1.145625E2,0E0,0E0,0E0,0E0,0E0,0E0,0E0,0E0,0E0,0E0,0E0,0E0,0E0,0E0,0E0,0E0],"parents":[2147483647,0,0,1,1,2,2,3,3,4,4,5,5,6,6,7,7,8,8,9,9,10,10,11,11,12,12,13,13,14,14],"right_children":[2,4,6,8,10,12,14,16,18,20,22,24,26,28,30,-1,-1,-1,-1,-1,-1,-1,-1,-1,-1,-1,-1,-1,-1,-1,-1],"split_conditions":[1.3248036E1,7.858749E0,2.0025E1,4.769732E0,1.0223725E1,1.662407E1,2.4197369E1,2.9146476E0,1.3200001E1,8.3E0,1.3E1,1.5416667E1,2.2520317E1,2.0047394E1,2.6434782E1,-1.8449897E-2,-1.4678481E-2,-1.0604728E-2,-5.408973E-3,-5.343978E-3,-1.3628096E-3,7.3668554E-5,5.2937767E-3,6.529908E-3,1.147481E-2,1.51956E-2,2.4284558E-2,1.9428032E-2,2.561911E-2,3.125326E-2,3.5E-2],"split_indices":[18,18,7,18,18,18,7,18,34,29,7,7,18,18,7,0,0,0,0,0,0,0,0,0,0,0,0,0,0,0,0],"split_type":[0,0,0,0,0,0,0,0,0,0,0,0,0,0,0,0,0,0,0,0,0,0,0,0,0,0,0,0,0,0,0],"sum_hessian":[8.9336125E5,6.1524E5,2.7812128E5,3.7082834E5,2.4441162E5,1.6005972E5,1.1806155E5,1.851253E5,1.8570305E5,1.2206137E5,1.2235025E5,9.0907164E4,6.9152555E4,6.646378E4,5.159776E4,8.3929695E4,1.0119561E5,1.6445953E5,2.1243523E4,9.60625E4,2.5998871E4,9.3507055E4,2.8843193E4,6.615269E4,2.4754482E4,6.4197215E4,4.9553403E3,1.8088104E4,4.837568E4,2.0488E4,3.1109762E4],"tree_param":{"num_deleted":"0","num_feature":"35","num_nodes":"31","size_leaf_vector":"1"}},{"base_weights":[1.6528218E-3,-1.6855206E-1,3.645752E-1,-2.7683106E-1,-5.4147013E-2,2.1736616E-1,5.627894E-1,-3.4409875E-1,-2.28534E-1,-1.1062259E-1,2.1608222E-2,1.5565076E-1,3.1276062E-1,4.6285403E-1,7E-1,-1.7855348E-2,-1.2136498E-2,-1.256743E-2,-9.526566E-3,-6.665524E-3,-3.1818764E-3,-2.0198875E-5,4.705333E-3,6.4135888E-3,1.1635244E-2,1.250687E-2,1.7447408E-2,2.125345E-2,2.7483657E-2,3.118952E-2,3.5E-2],"categories":[],"categories_nodes":[],"categories_segments":[],"categories_sizes":[],"default_left":[0,0,0,0,0,0,0,0,0,0,0,0,0,0,0,0,0,0,0,0,0,0,0,0,0,0,0,0,0,0,0],"id":1,"left_children":[1,3,5,7,9,11,13,15,17,19,21,23,25,27,29,-1,-1,-1,-1,-1,-1,-1,-1,-1,-1,-1,-1,-1,-1,-1,-1],"loss_changes":[5.535808E4,7.5573047E3,8.3483125E3,1.01818555E3,1.2691392E3,9.6653613E2,1.7500273E3,1.7263477E2,1.5813086E2,1.811543E2,2.0218927E2,2.1028271E2,1.4606396E2,2.3578125E2,1.0257617E2,0E0,0E0,0E0,0E0,0E0,0E0,0E0,0E0,0E0,0E0,0E0,0E0,0E0,0E0,0E0,0E0],"parents":[2147483647,0,0,1,1,2,2,3,3,4,4,5,5,6,6,7,7,8,8,9,9,10,10,11,11,12,12,13,13,14,14],"right_children":[2,4,6,8,10,12,14,16,18,20,22,24,26,28,30,-1,-1,-1,-1,-1,-1,-1,-1,-1,-1,-1,-1,-1,-1,-1,-1],"split_conditions":[1.3248036E1,6.9476337E0,2.0047394E1,3.8395526E0,1.0154592E1,1.60625E1,2.4615385E1,2.4300001E1,5.7775493E0,9.285714E0,1.3E1,1.6463964E1,1.696453E1,2.2075E1,2.6434782E1,-1.7855348E-2,-1.2136498E-2,-1.256743E-2,-9.526566E-3,-6.665524E-3,-3.1818764E-3,-2.0198875E-5,4.705333E-3,6.4135888E-3,1.1635244E-2,1.250687E-2,1.7447408E-2,2.125345E-2,2.7483657E-2,3.118952E-2,3.5E-2],"split_indices":[18,18,18,18,18,7,7,28,18,7,7,18,18,7,7,0,0,0,0,0,0,0,0,0,0,0,0,0,0,0,0],"split_type":[0,0,0,0,0,0,0,0,0,0,0,0,0,0,0,0,0,0,0,0,0,0,0,0,0,0,0,0,0,0,0],"sum_hessian":[8.9617794E5,6.100668E5,2.8611116E5,3.1342412E5,2.9664266E5,1.6418033E5,1.21930836E5,1.3098432E5,1.8243981E5,1.6994677E5,1.2669588E5,9.968913E4,6.44912E4,7.1944664E4,4.9986176E4,1.1608512E5,1.4899206E4,1.13997016E5,6.84428E4,1.1460506E5,5.5341695E4,9.718827E4,2.9507607E4,7.355582E4,2.613331E4,2.3621555E4,4.0869645E4,5.013222E4,2.1812441E4,1.7745277E4,3.2240898E4],"tree_param":{"num_deleted":"0","num_feature":"35","num_nodes":"31","size_leaf_vector":"1"}},{"base_weights":[1.747086E-4,-1.5658171E-1,3.5779828E-1,-2.677893E-1,-4.443217E-2,2.563909E-1,6.087827E-1,-3.4595564E-1,-2.2834778E-1,-1.14990525E-1,2.5293361E-2,1.8067873E-1,3.7252757E-1,5.579824E-1,7E-1,-1.8231409E-2,-1.1489109E-2,-1.2517008E-2,-7.5405254E-3,-6.6237687E-3,-1.4326472E-3,-8.44215E-4,3.0592803E-3,7.3765675E-3,1.2752342E-2,-3.2846015E-3,1.8833479E-2,2.5662934E-2,3.076458E-2,3.5E-2,2.2222793E-2],"categories":[],"categories_nodes":[],"categories_segments":[],"categories_sizes":[],"default_left":[0,0,0,0,0,0,0,0,0,0,0,0,0,0,0,0,0,0,0,0,0,0,0,0,0,0,0,0,0,0,0],"id":2,"left_children":[1,3,5,7,9,11,13,15,17,19,21,23,25,27,29,-1,-1,-1,-1,-1,-1,-1,-1,-1,-1,-1,-1,-1,-1,-1,-1],"loss_changes":[5.0144145E4,7.75608E3,6.9377188E3,9.6259766E2,1.5233098E3,1.7070771E3,5.453457E2,2.2707422E2,3.538623E2,2.3232031E2,2.3576273E2,2.8968872E2,1.3909766E2,1.5199023E2,1.980957E1,0E0,0E0,0E0,0E0,0E0,0E0,0E0,0E0,0E0,0E0,0E0,0E0,0E0,0E0,0E0,0E0],"parents":[2147483647,0,0,1,1,2,2,3,3,4,4,5,5,6,6,7,7,8,8,9,9,10,10,11,11,12,12,13,13,14,14],"right_children":[2,4,6,8,10,12,14,16,18,20,22,24,26,28,30,-1,-1,-1,-1,-1,-1,-1,-1,-1,-1,-1,-1,-1,-1,-1,-1],"split_conditions":[1.3444445E1,1.9358622E1,2.2075E1,1.1012269E1,9.227273E0,1.8E1,2.8842106E1,1.04E1,7.818182E0,1E1,4.1000004E0,1.60625E1,2.34E1,9.648E1,2.326451E-2,-1.8231409E-2,-1.1489109E-2,-1.2517008E-2,-7.5405254E-3,-6.6237687E-3,-1.4326472E-3,-8.44215E-4,3.0592803E-3,7.3765675E-3,1.2752342E-2,-3.2846015E-3,1.8833479E-2,2.5662934E-2,3.076458E-2,3.5E-2,2.2222793E-2],"split_indices":[7,21,7,21,7,7,7,29,7,29,29,7,3,33,32,0,0,0,0,0,0,0,0,0,0,0,0,0,0,0,0],"split_type":[0,0,0,0,0,0,0,0,0,0,0,0,0,0,0,0,0,0,0,0,0,0,0,0,0,0,0,0,0,0,0],"sum_hessian":[8.944742E5,6.218851E5,2.725891E5,3.1225316E5,3.0963194E5,1.941479E5,7.8441195E4,1.04716086E5,2.075371E5,1.5389655E5,1.5573539E5,1.1752997E5,7.661793E4,5.9422875E4,1.9018322E4,9.021389E4,1.4502191E4,1.6167731E5,4.585977E4,1.2797821E5,2.5918338E4,7.1598805E4,8.4136586E4,8.1297164E4,3.6232812E4,7.172674E2,7.5900664E4,3.3381875E4,2.6041E4,1.87085E4,3.098223E2],"tree_param":{"num_deleted":"0","num_feature":"35","num_nodes":"31","size_leaf_vector":"1"}},{"base_weights":[-2.5777318E-4,-1.6332898E-1,3.3254984E-1,-2.7109903E-1,-4.9357787E-2,2.138331E-1,5.19521E-1,-3.3767557E-1,-2.2222868E-1,-1.0200875E-1,2.252572E-2,1.4791018E-1,2.9636002E-1,4.577283E-1,6.663573E-1,-1.7548552E-2,-1.1731681E-2,-1.1750994E-2,-7.020823E-3,-6.659388E-3,-3.1980865E-3,3.2520707E-5,4.666545E-3,4.69542E-3,9.001498E-3,1.2703115E-2,1.7619802E-2,1.9446222E-2,2.5742313E-2,3.1089384E-2,3.5E-2],"categories":[],"categories_nodes":[],"categories_segments":[],"categories_sizes":[],"default_left":[0,0,0,0,0,0,0,0,0,0,0,0,0,0,0,0,0,0,0,0,0,0,0,0,0,0,0,0,0,0,0],"id":3,"left_children":[1,3,5,7,9,11,13,15,17,19,21,23,25,27,29,-1,-1,-1,-1,-1,-1,-1,-1,-1,-1,-1,-1,-1,-1,-1,-1],"loss_changes":[4.8501324E4,7.367041E3,6.523252E3,1.0029629E3,1.1032925E3,9.779082E2,1.0352852E3,1.787002E2,1.8601465E2,1.9959937E2,1.9089423E2,1.7332007E2,1.8911084E2,3.1549805E2,1.0356348E2,0E0,0E0,0E0,0E0,0E0,0E0,0E0,0E0,0E0,0E0,0E0,0E0,0E0,0E0,0E0,0E0],"parents":[2147483647,0,0,1,1,2,2,3,3,4,4,5,5,6,6,7,7,8,8,9,9,10,10,11,11,12,12,13,13,14,14],"right_children":[2,4,6,8,10,12,14,16,18,20,22,24,26,28,30,-1,-1,-1,-1,-1,-1,-1,-1,-1,-1,-1,-1,-1,-1,-1,-1],"split_conditions":[1.3248036E1,6.998722E0,2.0666666E1,3.9058526E0,1.0223725E1,1.696453E1,2.7003708E1,2.4300001E1,1.0200001E1,8.69789E0,1.3E1,1.3327103E1,1.8E1,2.2538462E1,3.0689655E1,-1.7548552E-2,-1.1731681E-2,-1.1750994E-2,-7.020823E-3,-6.659388E-3,-3.1980865E-3,3.2520707E-5,4.666545E-3,4.69542E-3,9.001498E-3,1.2703115E-2,1.7619802E-2,1.9446222E-2,2.5742313E-2,3.1089384E-2,3.5E-2],"split_indices":[18,18,7,18,18,18,18,28,29,18,7,7,7,7,7,0,0,0,0,0,0,0,0,0,0,0,0,0,0,0,0],"split_type":[0,0,0,0,0,0,0,0,0,0,0,0,0,0,0,0,0,0,0,0,0,0,0,0,0,0,0,0,0,0,0],"sum_hessian":[8.9368006E5,5.997911E5,2.9388897E5,3.0828162E5,2.9150947E5,1.7975575E5,1.1413322E5,1.304976E5,1.7778403E5,1.682642E5,1.2324527E5,9.99322E4,7.982355E4,8.03316E4,3.3801613E4,1.15581734E5,1.4915861E4,1.5374447E5,2.4039557E4,9.24776E4,7.578659E4,9.4156555E4,2.908872E4,3.7272043E4,6.266016E4,4.549105E4,3.4332496E4,3.6441848E4,4.3889758E4,2.3263598E4,1.0538016E4],"tree_param":{"num_deleted":"0","num_feature":"35","num_nodes":"31","size_leaf_vector":"1"}},{"base_weights":[-3.1498927E-4,-1.6117233E-1,3.2411054E-1,-2.5967914E-1,-3.4678217E-2,1.9403784E-1,4.8567292E-1,-3.3426842E-1,-2.091663E-1,-9.048714E-2,2.2658454E-2,1.3697848E-1,2.7569205E-1,4.2023727E-1,6.1965233E-1,-1.7375771E-2,-1.1447912E-2,-1.1955371E-2,-8.630257E-3,-5.9967176E-3,-2.6494146E-3,-9.826983E-4,2.9666792E-3,5.4917396E-3,9.706772E-3,1.08452225E-2,1.5414408E-2,1.8928781E-2,2.4082048E-2,2.8416334E-2,3.5E-2],"categories":[],"categories_nodes":[],"categories_segments":[],"categories_sizes":[],"default_left":[0,0,0,0,0,0,0,0,0,0,0,0,0,0,0,0,0,0,0,0,0,0,0,0,0,0,0,0,0,0,0],"id":4,"left_children":[1,3,5,7,9,11,13,15,17,19,21,23,25,27,29,-1,-1,-1,-1,-1,-1,-1,-1,-1,-1,-1,-1,-1,-1,-1,-1],"loss_changes":[4.6744332E4,7.4615527E3,6.239342E3,1.268332E3,8.389077E2,7.6631494E2,1.1606953E3,1.8954688E2,2.196875E2,1.4669482E2,2.0067241E2,1.5019958E2,1.2958545E2,2.2742578E2,1.9277539E2,0E0,0E0,0E0,0E0,0E0,0E0,0E0,0E0,0E0,0E0,0E0,0E0,0E0,0E0,0E0,0E0],"parents":[2147483647,0,0,1,1,2,2,3,3,4,4,5,5,6,6,7,7,8,8,9,9,10,10,11,11,12,12,13,13,14,14],"right_children":[2,4,6,8,10,12,14,16,18,20,22,24,26,28,30,-1,-1,-1,-1,-1,-1,-1,-1,-1,-1,-1,-1,-1,-1,-1,-1],"split_conditions":[1.3358157E1,7.540833E0,2.0047394E1,4.027404E0,1.0154592E1,1.60625E1,2.564626E1,2.4300001E1,5.9507847E0,5.2E0,1.0952381E1,1.6161507E1,1.696453E1,2.2075E1,2.9585365E1,-1.7375771E-2,-1.1447912E-2,-1.1955371E-2,-8.630257E-3,-5.9967176E-3,-2.6494146E-3,-9.826983E-4,2.9666792E-3,5.4917396E-3,9.706772E-3,1.08452225E-2,1.5414408E-2,1.8928781E-2,2.4082048E-2,2.8416334E-2,3.5E-2],"split_indices":[18,18,18,18,18,7,7,28,18,29,7,18,18,7,7,0,0,0,0,0,0,0,0,0,0,0,0,0,0,0,0],"split_type":[0,0,0,0,0,0,0,0,0,0,0,0,0,0,0,0,0,0,0,0,0,0,0,0,0,0,0,0,0,0,0],"sum_hessian":[8.9571956E5,5.9881456E5,2.9690497E5,3.366492E5,2.6216538E5,1.6448306E5,1.3242192E5,1.3592756E5,2.0072164E5,1.3285234E5,1.2931302E5,9.682508E4,6.7657984E4,8.897205E4,4.344987E4,1.2073766E5,1.5189903E4,1.1034828E5,9.037336E4,7.441405E4,5.8438297E4,6.004223E4,6.927079E4,6.565068E4,3.1174402E4,2.4135992E4,4.352199E4,5.301153E4,3.596051E4,2.732473E4,1.612514E4],"tree_param":{"num_deleted":"0","num_feature":"35","num_nodes":"31","size_leaf_vector":"1"}},{"base_weights":[-3.5277865E-4,-1.6036856E-1,3.1004775E-1,-2.684559E-1,-5.027044E-2,1.9245468E-1,4.6414292E-1,-3.3558887E-1,-2.2213183E-1,-1.0325883E-1,2.025798E-2,1.3711452E-1,2.6998213E-1,3.8361737E-1,5.581979E-1,-1.7507903E-2,-1.2649384E-2,-1.18249245E-2,-7.5148144E-3,-6.112016E-3,-2.2341867E-3,-1.9308134E-5,4.4267955E-3,5.468769E-3,9.687768E-3,1.1983456E-2,1.5680198E-2,1.7981468E-2,2.213734E-2,2.5955994E-2,3.2907262E-2],"categories":[],"categories_nodes":[],"categories_segments":[],"categories_sizes":[],"default_left":[0,0,0,0,0,0,0,0,0,0,0,0,0,0,0,0,0,0,0,0,0,0,0,0,0,0,0,0,0,0,0],"id":5,"left_children":[1,3,5,7,9,11,13,15,17,19,21,23,25,27,29,-1,-1,-1,-1,-1,-1,-1,-1,-1,-1,-1,-1,-1,-1,-1,-1],"loss_changes":[4.4501367E4,7.035292E3,5.522465E3,9.2766016E2,1.0945227E3,7.415923E2,9.988457E2,1.4648926E2,1.8213867E2,1.8592957E2,1.7709811E2,1.5845325E2,9.5125E1,1.0064551E2,2.3728906E2,0E0,0E0,0E0,0E0,0E0,0E0,0E0,0E0,0E0,0E0,0E0,0E0,0E0,0E0,0E0,0E0],"parents":[2147483647,0,0,1,1,2,2,3,3,4,4,5,5,6,6,7,7,8,8,9,9,10,10,11,11,12,12,13,13,14,14],"right_children":[2,4,6,8,10,12,14,16,18,20,22,24,26,28,30,-1,-1,-1,-1,-1,-1,-1,-1,-1,-1,-1,-1,-1,-1,-1,-1],"split_conditions":[1.3248036E1,6.9476337E0,2.0269312E1,3.8395526E0,1.0154592E1,1.60625E1,2.4197369E1,1E1,9.5E0,7.7000003E0,1.3E1,1.6014133E1,1.8302662E1,2.2075E1,2.9585365E1,-1.7507903E-2,-1.2649384E-2,-1.18249245E-2,-7.5148144E-3,-6.112016E-3,-2.2341867E-3,-1.9308134E-5,4.4267955E-3,5.468769E-3,9.687768E-3,1.1983456E-2,1.5680198E-2,1.7981468E-2,2.213734E-2,2.5955994E-2,3.2907262E-2],"split_indices":[18,18,18,18,18,7,7,29,29,29,7,18,18,7,7,0,0,0,0,0,0,0,0,0,0,0,0,0,0,0,0],"split_type":[0,0,0,0,0,0,0,0,0,0,0,0,0,0,0,0,0,0,0,0,0,0,0,0,0,0,0,0,0,0,0],"sum_hessian":[8.9595706E5,5.9119056E5,3.0476647E5,2.9831875E5,2.9287184E5,1.7285762E5,1.3190883E5,1.21799836E5,1.765189E5,1.6723031E5,1.2564153E5,1.00863E5,7.1994625E4,7.106842E4,6.084041E4,1.0353507E5,1.8264766E4,1.4709795E5,2.9420947E4,1.2630094E5,4.0929367E4,9.647337E4,2.9168164E4,6.770719E4,3.3155816E4,4.2480914E4,2.9513707E4,5.0562836E4,2.050559E4,4.3743484E4,1.7096926E4],"tree_param":{"num_deleted":"0","num_feature":"35","num_nodes":"31","size_leaf_vector":"1"}},{"base_weights":[-2.5171257E-4,-1.6307352E-1,2.8295702E-1,-2.6308364E-1,-5.5594306E-2,1.7134291E-1,4.344328E-1,-3.3094665E-1,-2.1555692E-1,-1.0923647E-1,9.6329383E-4,1.2278256E-1,2.5132638E-1,3.6482733E-1,5.198704E-1,-1.7271636E-2,-1.0814021E-2,-1.129281E-2,-6.065711E-3,-7.0651383E-3,-3.947709E-3,-1.545964E-3,1.9092355E-3,4.933045E-3,9.418825E-3,1.0239624E-2,1.398509E-2,1.4019971E-2,1.9136632E-2,2.3791974E-2,3.0173982E-2],"categories":[],"categories_nodes":[],"categories_segments":[],"categories_sizes":[],"default_left":[0,0,0,0,0,0,0,0,0,0,0,0,0,0,0,0,0,0,0,0,0,0,0,0,0,0,0,0,0,0,0],"id":6,"left_children":[1,3,5,7,9,11,13,15,17,19,21,23,25,27,29,-1,-1,-1,-1,-1,-1,-1,-1,-1,-1,-1,-1,-1,-1,-1,-1],"loss_changes":[4.1128824E4,6.08746E3,5.50467E3,9.460996E2,8.2816437E2,7.2808496E2,8.212578E2,2.0062598E2,1.6743604E2,1.3602869E2,1.576876E2,1.8454456E2,9.345166E1,1.1496484E2,2.2799805E2,0E0,0E0,0E0,0E0,0E0,0E0,0E0,0E0,0E0,0E0,0E0,0E0,0E0,0E0,0E0,0E0],"parents":[2147483647,0,0,1,1,2,2,3,3,4,4,5,5,6,6,7,7,8,8,9,9,10,10,11,11,12,12,13,13,14,14],"right_children":[2,4,6,8,10,12,14,16,18,20,22,24,26,28,30,-1,-1,-1,-1,-1,-1,-1,-1,-1,-1,-1,-1,-1,-1,-1,-1],"split_conditions":[1.2773665E1,6.9476337E0,2.0047394E1,3.8395526E0,9.649502E0,1.60625E1,2.4197369E1,2.47E1,1.342E1,2.1651833E1,1.0952381E1,1.6161507E1,1.696453E1,1.8644444E1,2.8842106E1,-1.7271636E-2,-1.0814021E-2,-1.129281E-2,-6.065711E-3,-7.0651383E-3,-3.947709E-3,-1.545964E-3,1.9092355E-3,4.933045E-3,9.418825E-3,1.0239624E-2,1.398509E-2,1.4019971E-2,1.9136632E-2,2.3791974E-2,3.0173982E-2],"split_indices":[18,18,18,18,18,7,7,28,34,21,7,18,18,7,7,0,0,0,0,0,0,0,0,0,0,0,0,0,0,0,0],"split_type":[0,0,0,0,0,0,0,0,0,0,0,0,0,0,0,0,0,0,0,0,0,0,0,0,0,0,0,0,0,0,0],"sum_hessian":[8.919203E5,5.663284E5,3.2559197E5,2.9335666E5,2.729717E5,1.8746302E5,1.3812897E5,1.2082526E5,1.725314E5,1.4009623E5,1.3287547E5,1.1664616E5,7.081685E4,7.611989E4,6.200908E4,1.0727138E5,1.3553872E4,1.555327E5,1.6998703E4,6.804202E4,7.205421E4,7.157067E4,6.130479E4,8.5285555E4,3.13606E4,2.6828332E4,4.398852E4,1.3321652E4,6.279824E4,4.0622707E4,2.1386371E4],"tree_param":{"num_deleted":"0","num_feature":"35","num_nodes":"31","size_leaf_vector":"1"}},{"base_weights":[-1.1629353E-3,-1.6288726E-1,2.707643E-1,-2.5544465E-1,-5.0596606E-2,1.5555921E-1,4.0729585E-1,-3.2491305E-1,-2.0517665E-1,-1.0449464E-1,-1.8984142E-3,1.0731488E-1,2.2950682E-1,3.250261E-1,4.8154256E-1,-1.692575E-2,-1.0824177E-2,-1.1516086E-2,-8.389741E-3,-6.6864355E-3,-3.562864E-3,-1.607355E-3,1.4811922E-3,4.0606107E-3,7.590834E-3,9.473666E-3,1.2999508E-2,1.396163E-2,1.7489607E-2,2.2493621E-2,2.9739518E-2],"categories":[],"categories_nodes":[],"categories_segments":[],"categories_sizes":[],"default_left":[0,0,0,0,0,0,0,0,0,0,0,0,0,0,0,0,0,0,0,0,0,0,0,0,0,0,0,0,0,0,0],"id":7,"left_children":[1,3,5,7,9,11,13,15,17,19,21,23,25,27,29,-1,-1,-1,-1,-1,-1,-1,-1,-1,-1,-1,-1,-1,-1,-1,-1],"loss_changes":[3.9344457E4,5.830699E3,5.2479414E3,1.0738223E3,6.6532587E2,6.455576E2,9.3251953E2,1.9033496E2,1.6767236E2,1.168988E2,1.269757E2,1.2720068E2,8.713965E1,8.2052734E1,2.8758008E2,0E0,0E0,0E0,0E0,0E0,0E0,0E0,0E0,0E0,0E0,0E0,0E0,0E0,0E0,0E0,0E0],"parents":[2147483647,0,0,1,1,2,2,3,3,4,4,5,5,6,6,7,7,8,8,9,9,10,10,11,11,12,12,13,13,14,14],"right_children":[2,4,6,8,10,12,14,16,18,20,22,24,26,28,30,-1,-1,-1,-1,-1,-1,-1,-1,-1,-1,-1,-1,-1,-1,-1,-1],"split_conditions":[1.266895E1,7.234249E0,1.9344538E1,4.027404E0,9.58024E0,1.6463964E1,2.2948277E1,2.4300001E1,5.9507847E0,2.2558512E1,1.0666667E1,1.44E1,1.8118914E1,1.98E1,2.9585365E1,-1.692575E-2,-1.0824177E-2,-1.1516086E-2,-8.389741E-3,-6.6864355E-3,-3.562864E-3,-1.607355E-3,1.4811922E-3,4.0606107E-3,7.590834E-3,9.473666E-3,1.2999508E-2,1.396163E-2,1.7489607E-2,2.2493621E-2,2.9739518E-2],"split_indices":[18,18,7,18,18,18,7,28,18,21,7,7,18,0,7,0,0,0,0,0,0,0,0,0,0,0,0,0,0,0,0],"split_type":[0,0,0,0,0,0,0,0,0,0,0,0,0,0,0,0,0,0,0,0,0,0,0,0,0,0,0,0,0,0,0],"sum_hessian":[8.946528E5,5.6100475E5,3.336481E5,3.0752284E5,2.5348189E5,1.8095812E5,1.5268998E5,1.2910256E5,1.7842028E5,1.20316836E5,1.3316505E5,1.0951295E5,7.1445164E4,7.243409E4,8.025589E4,1.14710586E5,1.4391973E4,1.0666585E5,7.175442E4,6.4011887E4,5.630495E4,6.795529E4,6.520976E4,6.90275E4,4.0485453E4,3.0887758E4,4.055741E4,2.542829E4,4.7005805E4,6.2720766E4,1.7535123E4],"tree_param":{"num_deleted":"0","num_feature":"35","num_nodes":"31","size_leaf_vector":"1"}},{"base_weights":[6.316434E-4,-1.5968032E-1,2.6132694E-1,-2.6537046E-1,-6.42609E-2,1.516454E-1,3.9049298E-1,-3.356005E-1,-2.2389798E-1,-1.1420877E-1,-4.2144037E-3,1.11466564E-1,2.2946255E-1,3.2726958E-1,4.7536975E-1,-1.7494492E-2,-1.1298936E-2,-1.187225E-2,-7.040201E-3,-7.384664E-3,-4.1997465E-3,-2.2445165E-3,1.4635891E-3,3.7071917E-3,6.9917976E-3,1.3838211E-2,1.02169E-2,1.5327369E-2,1.9614838E-2,2.236365E-2,2.9058343E-2],"categories":[],"categories_nodes":[],"categories_segments":[],"categories_sizes":[],"default_left":[0,0,0,0,0,0,0,0,0,0,0,0,0,0,0,0,0,0,0,0,0,0,0,0,0,0,0,0,0,0,0],"id":8,"left_children":[1,3,5,7,9,11,13,15,17,19,21,23,25,27,29,-1,-1,-1,-1,-1,-1,-1,-1,-1,-1,-1,-1,-1,-1,-1,-1],"loss_changes":[3.7419723E4,5.591329E3,4.830082E3,7.6610547E2,8.7388306E2,5.764512E2,8.399883E2,1.5290527E2,1.8614453E2,1.6090942E2,1.8022081E2,1.2873975E2,7.455493E1,1.20791016E2,1.9840723E2,0E0,0E0,0E0,0E0,0E0,0E0,0E0,0E0,0E0,0E0,0E0,0E0,0E0,0E0,0E0,0E0],"parents":[2147483647,0,0,1,1,2,2,3,3,4,4,5,5,6,6,7,7,8,8,9,9,10,10,11,11,12,12,13,13,14,14],"right_children":[2,4,6,8,10,12,14,16,18,20,22,24,26,28,30,-1,-1,-1,-1,-1,-1,-1,-1,-1,-1,-1,-1,-1,-1,-1,-1],"split_conditions":[1.266895E1,6.536006E0,1.9344538E1,3.4527433E0,9.58024E0,1.696453E1,2.4197369E1,2.4300001E1,1.0200001E1,7.875E0,4.1E0,1.3327103E1,5.7629436E-1,2.377592E1,3.0689655E1,-1.7494492E-2,-1.1298936E-2,-1.187225E-2,-7.040201E-3,-7.384664E-3,-4.1997465E-3,-2.2445165E-3,1.4635891E-3,3.7071917E-3,6.9917976E-3,1.3838211E-2,1.02169E-2,1.5327369E-2,1.9614838E-2,2.236365E-2,2.9058343E-2],"split_indices":[18,18,7,18,18,18,7,28,29,7,29,7,4,18,7,0,0,0,0,0,0,0,0,0,0,0,0,0,0,0,0],"split_type":[0,0,0,0,0,0,0,0,0,0,0,0,0,0,0,0,0,0,0,0,0,0,0,0,0,0,0,0,0,0,0],"sum_hessian":[8.9536575E5,5.544269E5,3.4093888E5,2.6305522E5,2.9137166E5,1.8437703E5,1.5656184E5,9.766349E4,1.6539173E5,1.590608E5,1.3231084E5,1.2159636E5,6.278067E4,8.9729E4,6.683285E4,8.639907E4,1.1264421E4,1.4220575E5,2.318599E4,7.544498E4,8.361583E4,5.9741746E4,7.256909E4,5.25134E4,6.908296E4,2.1775049E4,4.100562E4,6.80494E4,2.1679602E4,5.281254E4,1.402031E4],"tree_param":{"num_deleted":"0","num_feature":"35","num_nodes":"31","size_leaf_vector":"1"}},{"base_weights":[-8.213616E-5,-1.561322E-1,2.5037086E-1,-2.7648216E-1,-7.1835674E-2,1.4613709E-1,3.7036926E-1,-3.4148228E-1,-2.3581657E-1,-1.3480966E-1,-1.420744E-2,9.759038E-2,2.0664337E-1,3.2060006E-1,4.663953E-1,-1.7710937E-2,-1.1923573E-2,-1.2587442E-2,-7.945643E-3,-7.410326E-3,-2.7152866E-3,-2.3178775E-3,1.3823574E-3,2.7446887E-3,6.372675E-3,9.08324E-3,1.2591555E-2,1.4038703E-2,1.7845696E-2,2.168155E-2,2.6477367E-2],"categories":[],"categories_nodes":[],"categories_segments":[],"categories_sizes":[],"default_left":[0,0,0,0,0,0,0,0,0,0,0,0,0,0,0,0,0,0,0,0,0,0,0,0,0,0,0,0,0,0,0],"id":9,"left_children":[1,3,5,7,9,11,13,15,17,19,21,23,25,27,29,-1,-1,-1,-1,-1,-1,-1,-1,-1,-1,-1,-1,-1,-1,-1,-1],"loss_changes":[3.4993934E4,5.5965303E3,4.299133E3,6.0055664E2,1.1773464E3,5.4029175E2,7.6344727E2,1.1464453E2,1.7123096E2,1.6718091E2,2.2795285E2,1.3012476E2,9.237891E1,1.520957E2,1.12618164E2,0E0,0E0,0E0,0E0,0E0,0E0,0E0,0E0,0E0,0E0,0E0,0E0,0E0,0E0,0E0,0E0],"parents":[2147483647,0,0,1,1,2,2,3,3,4,4,5,5,6,6,7,7,8,8,9,9,10,10,11,11,12,12,13,13,14,14],"right_children":[2,4,6,8,10,12,14,16,18,20,22,24,26,28,30,-1,-1,-1,-1,-1,-1,-1,-1,-1,-1,-1,-1,-1,-1,-1,-1],"split_conditions":[1.266895E1,5.9507847E0,1.94445E1,3.2542698E0,8.818051E0,1.5871984E1,2.5229166E1,2.4300001E1,9.5E0,1E1,1.0575758E1,1.2875E1,1.8E1,2.126087E1,2.9585365E1,-1.7710937E-2,-1.1923573E-2,-1.2587442E-2,-7.945643E-3,-7.410326E-3,-2.7152866E-3,-2.3178775E-3,1.3823574E-3,2.7446887E-3,6.372675E-3,9.08324E-3,1.2591555E-2,1.4038703E-2,1.7845696E-2,2.168155E-2,2.6477367E-2],"split_indices":[18,18,18,18,18,18,7,28,29,29,7,7,7,7,7,0,0,0,0,0,0,0,0,0,0,0,0,0,0,0,0],"split_type":[0,0,0,0,0,0,0,0,0,0,0,0,0,0,0,0,0,0,0,0,0,0,0,0,0,0,0,0,0,0,0],"sum_hessian":[8.9536794E5,5.516506E5,3.437173E5,2.2723111E5,3.2441953E5,1.8394234E5,1.5977497E5,8.744732E4,1.3978378E5,1.5501911E5,1.6940044E5,1.0205888E5,8.188346E4,1.05236445E5,5.453852E4,7.7822734E4,9.624585E3,1.1579261E5,2.3991178E4,1.3290175E5,2.2117355E4,9.580717E4,7.359326E4,4.200512E4,6.0053758E4,5.2736918E4,2.9146541E4,5.0195215E4,5.504123E4,3.591376E4,1.8624758E4],"tree_param":{"num_deleted":"0","num_feature":"35","num_nodes":"31","size_leaf_vector":"1"}},{"base_weights":[-6.726486E-4,-1.5459554E-1,2.412343E-1,-2.5119343E-1,-5.125586E-2,1.307423E-1,3.4635776E-1,-3.3130094E-1,-2.1029672E-1,-8.973239E-2,1.1049192E-2,9.047648E-2,1.7450197E-1,3.0127144E-1,4.3575856E-1,-1.7381197E-2,-1.1486418E-2,-1.1343099E-2,-6.501734E-3,-6.552259E-3,-3.166329E-3,-1.797781E-3,2.2225145E-3,5.456283E-3,1.6357116E-3,1.1067248E-2,7.3342784E-3,1.41095985E-2,1.8059067E-2,2.0068875E-2,2.4449985E-2],"categories":[],"categories_nodes":[],"categories_segments":[],"categories_sizes":[],"default_left":[0,0,0,0,0,0,0,0,0,0,0,0,0,0,0,0,0,0,0,0,0,0,0,0,0,0,0,0,0,0,0],"id":10,"left_children":[1,3,5,7,9,11,13,15,17,19,21,23,25,27,29,-1,-1,-1,-1,-1,-1,-1,-1,-1,-1,-1,-1,-1,-1,-1,-1],"loss_changes":[3.3245465E4,5.446963E3,4.032748E3,9.2389453E2,6.319983E2,2.9825464E2,7.170215E2,1.5795215E2,2.4821582E2,1.777876E2,1.580236E2,9.496423E1,1.05664795E2,1.3509375E2,1.0898242E2,0E0,0E0,0E0,0E0,0E0,0E0,0E0,0E0,0E0,0E0,0E0,0E0,0E0,0E0,0E0,0E0],"parents":[2147483647,0,0,1,1,2,2,3,3,4,4,5,5,6,6,7,7,8,8,9,9,10,10,11,11,12,12,13,13,14,14],"right_children":[2,4,6,8,10,12,14,16,18,20,22,24,26,28,30,-1,-1,-1,-1,-1,-1,-1,-1,-1,-1,-1,-1,-1,-1,-1,-1],"split_conditions":[1.266895E1,6.998722E0,1.8670979E1,3.4527433E0,1.0223725E1,1.5314512E1,2.5337202E1,1.04E1,9.5E0,2.0872768E1,3.8000002E0,6.522642E-1,5.599022E-1,2.94E1,2.9343384E1,-1.7381197E-2,-1.1486418E-2,-1.1343099E-2,-6.501734E-3,-6.552259E-3,-3.166329E-3,-1.797781E-3,2.2225145E-3,5.456283E-3,1.6357116E-3,1.1067248E-2,7.3342784E-3,1.41095985E-2,1.8059067E-2,2.0068875E-2,2.4449985E-2],"split_indices":[18,18,18,18,18,18,18,29,29,21,29,4,4,34,18,0,0,0,0,0,0,0,0,0,0,0,0,0,0,0,0],"split_type":[0,0,0,0,0,0,0,0,0,0,0,0,0,0,0,0,0,0,0,0,0,0,0,0,0,0,0,0,0,0,0],"sum_hessian":[8.928528E5,5.456572E5,3.4719566E5,2.820275E5,2.636297E5,1.6927658E5,1.7791908E5,9.531654E4,1.8671095E5,1.629805E5,1.0064917E5,8.815923E4,8.111736E4,1.1827524E5,5.9643836E4,8.211759E4,1.3198945E4,1.5476686E5,3.1944102E4,6.3550156E4,9.943035E4,4.181024E4,5.8838934E4,6.664217E4,2.1517057E4,3.0219898E4,5.089746E4,8.971079E4,2.8564459E4,3.6246047E4,2.3397791E4],"tree_param":{"num_deleted":"0","num_feature":"35","num_nodes":"31","size_leaf_vector":"1"}},{"base_weights":[-6.8895577E-4,-1.744843E-1,2.0319358E-1,-2.697764E-1,-9.306148E-2,9.437634E-2,3.2578498E-1,-3.292342E-1,-2.2623524E-1,-1.34114E-1,-4.1108333E-2,4.0973265E-2,1.4208198E-1,2.6327148E-1,4.0150976E-1,-1.6994419E-2,-7.5254627E-3,-1.1700328E-2,-4.5647384E-3,-7.4169226E-3,-3.5685261E-3,-3.1690446E-3,1.4424365E-4,-5.1794975E-4,3.3830558E-3,5.647645E-3,9.299295E-3,1.1219079E-2,1.4865944E-2,1.7983695E-2,2.2586577E-2],"categories":[],"categories_nodes":[],"categories_segments":[],"categories_sizes":[],"default_left":[0,0,0,0,0,0,0,0,0,0,0,0,0,0,0,0,0,0,0,0,0,0,0,0,0,0,0,0,0,0,0],"id":11,"left_children":[1,3,5,7,9,11,13,15,17,19,21,23,25,27,29,-1,-1,-1,-1,-1,-1,-1,-1,-1,-1,-1,-1,-1,-1,-1,-1],"loss_changes":[3.1552207E4,3.729669E3,5.466174E3,5.733154E2,5.52845E2,5.5302246E2,9.120293E2,1.7822852E2,1.3405957E2,1.29219E2,1.1211104E2,1.4031516E2,1.4660693E2,1.3969531E2,1.8290918E2,0E0,0E0,0E0,0E0,0E0,0E0,0E0,0E0,0E0,0E0,0E0,0E0,0E0,0E0,0E0,0E0],"parents":[2147483647,0,0,1,1,2,2,3,3,4,4,5,5,6,6,7,7,8,8,9,9,10,10,11,11,12,12,13,13,14,14],"right_children":[2,4,6,8,10,12,14,16,18,20,22,24,26,28,30,-1,-1,-1,-1,-1,-1,-1,-1,-1,-1,-1,-1,-1,-1,-1,-1],"split_conditions":[1.1187958E1,5.9507847E0,1.8118914E1,3.4527433E0,8.69789E0,1.3327103E1,2.2948277E1,2.9300001E1,1.8560001E1,9.227273E0,6.6E0,3.5E0,1.60625E1,1.1550001E1,2.7003708E1,-1.6994419E-2,-7.5254627E-3,-1.1700328E-2,-4.5647384E-3,-7.4169226E-3,-3.5685261E-3,-3.1690446E-3,1.4424365E-4,-5.1794975E-4,3.3830558E-3,5.647645E-3,9.299295E-3,1.1219079E-2,1.4865944E-2,1.7983695E-2,2.2586577E-2],"split_indices":[18,18,18,18,18,7,7,28,34,7,29,29,7,34,18,0,0,0,0,0,0,0,0,0,0,0,0,0,0,0,0],"split_type":[0,0,0,0,0,0,0,0,0,0,0,0,0,0,0,0,0,0,0,0,0,0,0,0,0,0,0,0,0,0,0],"sum_hessian":[8.9045225E5,4.8069453E5,4.0975772E5,2.2148281E5,2.592117E5,2.1707484E5,1.9268289E5,9.3625516E4,1.278573E5,1.4479528E5,1.1441642E5,1.0242226E5,1.1465259E5,1.05551125E5,8.713176E4,8.835745E4,5.2680635E3,1.20894164E5,6.963132E3,1.1803452E5,2.6760764E4,7.595967E4,3.8456746E4,3.503515E4,6.738711E4,6.8925766E4,4.572683E4,4.9275188E4,5.627594E4,4.7538926E4,3.9592832E4],"tree_param":{"num_deleted":"0","num_feature":"35","num_nodes":"31","size_leaf_vector":"1"}},{"base_weights":[-8.055608E-5,-1.6842127E-1,1.9931917E-1,-2.6680952E-1,-8.784791E-2,9.923391E-2,3.1797233E-1,-3.411784E-1,-2.3273775E-1,-1.3155043E-1,-3.624026E-2,5.1683165E-2,1.525387E-1,2.6185393E-1,3.8441664E-1,-1.7790018E-2,-1.1169314E-2,-1.2231294E-2,-6.8264687E-3,-7.79362E-3,-4.623259E-3,-2.9183705E-3,2.8898538E-4,1.3469903E-3,4.7034803E-3,5.924606E-3,9.151355E-3,1.0960843E-2,1.435878E-2,1.7916324E-2,2.3375243E-2],"categories":[],"categories_nodes":[],"categories_segments":[],"categories_sizes":[],"default_left":[0,0,0,0,0,0,0,0,0,0,0,0,0,0,0,0,0,0,0,0,0,0,0,0,0,0,0,0,0,0,0],"id":12,"left_children":[1,3,5,7,9,11,13,15,17,19,21,23,25,27,29,-1,-1,-1,-1,-1,-1,-1,-1,-1,-1,-1,-1,-1,-1,-1,-1],"loss_changes":[3.0068389E4,3.8504512E3,4.869573E3,5.540303E2,6.0225806E2,5.6379224E2,6.9949805E2,1.1825781E2,1.7149854E2,1.374375E2,1.13846634E2,1.23296295E2,1.088374E2,1.097583E2,1.8606152E2,0E0,0E0,0E0,0E0,0E0,0E0,0E0,0E0,0E0,0E0,0E0,0E0,0E0,0E0,0E0,0E0],"parents":[2147483647,0,0,1,1,2,2,3,3,4,4,5,5,6,6,7,7,8,8,9,9,10,10,11,11,12,12,13,13,14,14],"right_children":[2,4,6,8,10,12,14,16,18,20,22,24,26,28,30,-1,-1,-1,-1,-1,-1,-1,-1,-1,-1,-1,-1,-1,-1,-1,-1],"split_conditions":[1.1348168E1,5.9507847E0,1.8E1,2.9146476E0,8.69789E0,1.4607492E1,2.3285715E1,2.5E1,2.4300001E1,2.1651833E1,1.0473684E1,1.3115385E1,1.662407E1,8.4E0,2.9585365E1,-1.7790018E-2,-1.1169314E-2,-1.2231294E-2,-6.8264687E-3,-7.79362E-3,-4.623259E-3,-2.9183705E-3,2.8898538E-4,1.3469903E-3,4.7034803E-3,5.924606E-3,9.151355E-3,1.0960843E-2,1.435878E-2,1.7916324E-2,2.3375243E-2],"split_indices":[18,18,7,18,18,18,7,28,28,21,7,7,18,28,7,0,0,0,0,0,0,0,0,0,0,0,0,0,0,0,0],"split_type":[0,0,0,0,0,0,0,0,0,0,0,0,0,0,0,0,0,0,0,0,0,0,0,0,0,0,0,0,0,0,0],"sum_hessian":[8.9576794E5,4.857119E5,4.10056E5,2.186796E5,2.670323E5,2.2243308E5,1.8762292E5,6.870572E4,1.4997386E5,1.445893E5,1.2244302E5,1.1756276E5,1.0487033E5,1.01717766E5,8.5905164E4,6.1117027E4,7.5886934E3,1.3347883E5,1.649504E4,8.912536E4,5.5463938E4,8.020681E4,4.223621E4,7.423135E4,4.3331406E4,4.9546418E4,5.5323914E4,3.7904023E4,6.381374E4,6.5380598E4,2.0524566E4],"tree_param":{"num_deleted":"0","num_feature":"35","num_nodes":"31","size_leaf_vector":"1"}},{"base_weights":[-3.517E-4,-1.6954489E-1,1.8665183E-1,-2.6326445E-1,-8.93103E-2,9.3583256E-2,3.0470952E-1,-3.2941955E-1,-2.2508994E-1,-1.3898699E-1,-4.847152E-2,4.0016443E-2,1.4162576E-1,2.4909846E-1,3.6934614E-1,-1.721103E-2,-1.0848234E-2,-1.2106458E-2,-7.2624176E-3,-7.684957E-3,-2.3823294E-3,-3.5492487E-3,-2.944204E-4,6.5009364E-5,3.4934436E-3,5.961536E-3,9.961955E-3,9.7372895E-3,1.369175E-2,1.715643E-2,2.1628251E-2],"categories":[],"categories_nodes":[],"categories_segments":[],"categories_sizes":[],"default_left":[0,0,0,0,0,0,0,0,0,0,0,0,0,0,0,0,0,0,0,0,0,0,0,0,0,0,0,0,0,0,0],"id":13,"left_children":[1,3,5,7,9,11,13,15,17,19,21,23,25,27,29,-1,-1,-1,-1,-1,-1,-1,-1,-1,-1,-1,-1,-1,-1,-1,-1],"loss_changes":[2.8216234E4,3.5205889E3,4.654295E3,5.4529395E2,5.1173364E2,6.0958057E2,6.711211E2,1.3144043E2,1.8625684E2,1.5292944E2,1.3272021E2,1.2944469E2,1.6109692E2,1.349043E2,1.4298047E2,0E0,0E0,0E0,0E0,0E0,0E0,0E0,0E0,0E0,0E0,0E0,0E0,0E0,0E0,0E0,0E0],"parents":[2147483647,0,0,1,1,2,2,3,3,4,4,5,5,6,6,7,7,8,8,9,9,10,10,11,11,12,12,13,13,14,14],"right_children":[2,4,6,8,10,12,14,16,18,20,22,24,26,28,30,-1,-1,-1,-1,-1,-1,-1,-1,-1,-1,-1,-1,-1,-1,-1,-1],"split_conditions":[1.10967245E1,5.9507847E0,1.8670979E1,3.1928644E0,8.117815E0,1.4006214E1,2.3285715E1,2.4300001E1,9.5E0,1E1,6.5E0,4E0,1.7166666E1,7.6E0,2.8842106E1,-1.721103E-2,-1.0848234E-2,-1.2106458E-2,-7.2624176E-3,-7.684957E-3,-2.3823294E-3,-3.5492487E-3,-2.944204E-4,6.5009364E-5,3.4934436E-3,5.961536E-3,9.961955E-3,9.7372895E-3,1.369175E-2,1.715643E-2,2.1628251E-2],"split_indices":[18,18,18,18,18,18,7,28,29,29,29,29,7,28,7,0,0,0,0,0,0,0,0,0,0,0,0,0,0,0,0],"split_type":[0,0,0,0,0,0,0,0,0,0,0,0,0,0,0,0,0,0,0,0,0,0,0,0,0,0,0,0,0,0,0],"sum_hessian":[8.9179575E5,4.6819344E5,4.236023E5,2.1594842E5,2.5224503E5,2.3687116E5,1.8673114E5,7.901339E4,1.3693503E5,1.1380686E5,1.3843817E5,1.1199733E5,1.2487383E5,1.00376E5,8.635514E4,6.9821586E4,9.191802E3,1.1284948E5,2.4085557E4,9.801841E4,1.5788453E4,9.055931E4,4.787886E4,4.8760207E4,6.323712E4,8.992277E4,3.4951062E4,3.1397121E4,6.8978875E4,6.1045387E4,2.5309756E4],"tree_param":{"num_deleted":"0","num_feature":"35","num_nodes":"31","size_leaf_vector":"1"}},{"base_weights":[-1.2845757E-3,-1.644607E-1,1.8048845E-1,-2.670198E-1,-9.221412E-2,8.827222E-2,2.907662E-1,-3.3438146E-1,-2.2950044E-1,-1.4193083E-1,-4.501536E-2,4.369176E-2,1.3979258E-1,2.546316E-1,3.7960768E-1,-1.7089847E-2,-4.473472E-3,-1.2319762E-2,-7.6016337E-3,-8.59168E-3,-5.3051184E-3,-3.0971025E-3,7.6390576E-4,8.987126E-4,4.319412E-3,5.7355734E-3,8.964925E-3,1.0407936E-2,1.3982641E-2,1.7495228E-2,2.116189E-2],"categories":[],"categories_nodes":[],"categories_segments":[],"categories_sizes":[],"default_left":[0,0,0,0,0,0,0,0,0,0,0,0,0,0,0,0,0,0,0,0,0,0,0,0,0,0,0,0,0,0,0],"id":14,"left_children":[1,3,5,7,9,11,13,15,17,19,21,23,25,27,29,-1,-1,-1,-1,-1,-1,-1,-1,-1,-1,-1,-1,-1,-1,-1,-1],"loss_changes":[2.6568822E4,3.4974307E3,4.309038E3,4.9297168E2,6.4984546E2,5.3001074E2,6.19376E2,1.2670996E2,1.6395361E2,1.4447876E2,1.4499081E2,1.3584357E2,1.0604907E2,1.5945117E2,7.215381E1,0E0,0E0,0E0,0E0,0E0,0E0,0E0,0E0,0E0,0E0,0E0,0E0,0E0,0E0,0E0,0E0],"parents":[2147483647,0,0,1,1,2,2,3,3,4,4,5,5,6,6,7,7,8,8,9,9,10,10,11,11,12,12,13,13,14,14],"right_children":[2,4,6,8,10,12,14,16,18,20,22,24,26,28,30,-1,-1,-1,-1,-1,-1,-1,-1,-1,-1,-1,-1,-1,-1,-1,-1],"split_conditions":[1.1187958E1,5.6093845E0,1.8E1,2.9812872E0,8.177499E0,1.4607492E1,2.564626E1,1.64E1,9.5E0,5E0,1.1210526E1,1.3E1,1.7451948E1,2.0269312E1,2.9343384E1,-1.7089847E-2,-4.473472E-3,-1.2319762E-2,-7.6016337E-3,-8.59168E-3,-5.3051184E-3,-3.0971025E-3,7.6390576E-4,8.987126E-4,4.319412E-3,5.7355734E-3,8.964925E-3,1.0407936E-2,1.3982641E-2,1.7495228E-2,2.116189E-2],"split_indices":[18,18,7,18,18,18,7,29,29,29,7,7,18,18,18,0,0,0,0,0,0,0,0,0,0,0,0,0,0,0,0],"split_type":[0,0,0,0,0,0,0,0,0,0,0,0,0,0,0,0,0,0,0,0,0,0,0,0,0,0,0,0,0,0,0],"sum_hessian":[8.9574675E5,4.720192E5,4.237276E5,1.9508277E5,2.769364E5,2.3076205E5,1.9296555E5,6.978464E4,1.25298125E5,1.348697E5,1.4206669E5,1.2371423E5,1.0704782E5,1.3717577E5,5.578979E4,6.7733414E4,2.051233E3,1.028628E5,2.2435332E4,7.351208E4,6.135763E4,1.109256E5,3.1141092E4,7.720969E4,4.6504535E4,6.5480285E4,4.156753E4,4.8011465E4,8.91643E4,3.319786E4,2.2591928E4],"tree_param":{"num_deleted":"0","num_feature":"35","num_nodes":"31","size_leaf_vector":"1"}},{"base_weights":[-7.3297136E-4,-1.658691E-1,1.7519276E-1,-2.570002E-1,-8.9182794E-2,8.581787E-2,2.811974E-1,-3.168687E-1,-2.1439722E-1,-1.383539E-1,-5.3219005E-2,3.4307607E-2,1.2607032E-1,2.3255412E-1,3.3716053E-1,-1.6598796E-2,-9.852454E-3,-1.1318549E-2,-6.3417824E-3,-7.983435E-3,-4.7874544E-3,-3.9579156E-3,-6.689029E-4,4.855579E-5,3.2263608E-3,5.1348424E-3,8.760677E-3,9.754098E-3,1.2691202E-2,1.5475023E-2,1.9132176E-2],"categories":[],"categories_nodes":[],"categories_segments":[],"categories_sizes":[],"default_left":[0,0,0,0,0,0,0,0,0,0,0,0,0,0,0,0,0,0,0,0,0,0,0,0,0,0,0,0,0,0,0],"id":15,"left_children":[1,3,5,7,9,11,13,15,17,19,21,23,25,27,29,-1,-1,-1,-1,-1,-1,-1,-1,-1,-1,-1,-1,-1,-1,-1,-1],"loss_changes":[2.6021727E4,3.2288105E3,4.1087666E3,5.3842285E2,4.4367114E2,4.8786975E2,5.399707E2,1.5881836E2,1.2929883E2,9.623181E1,1.4975638E2,1.03982994E2,1.5169946E2,8.454492E1,1.159375E2,0E0,0E0,0E0,0E0,0E0,0E0,0E0,0E0,0E0,0E0,0E0,0E0,0E0,0E0,0E0,0E0],"parents":[2147483647,0,0,1,1,2,2,3,3,4,4,5,5,6,6,7,7,8,8,9,9,10,10,11,11,12,12,13,13,14,14],"right_children":[2,4,6,8,10,12,14,16,18,20,22,24,26,28,30,-1,-1,-1,-1,-1,-1,-1,-1,-1,-1,-1,-1,-1,-1,-1,-1],"split_conditions":[1.10967245E1,5.9507847E0,1.8E1,3.4527433E0,7.991428E0,1.3800588E1,2.3285715E1,2.47E1,2.36E1,3.696E1,9.666667E0,1.0499999E1,1.7451948E1,8.3E0,2.7980303E1,-1.6598796E-2,-9.852454E-3,-1.1318549E-2,-6.3417824E-3,-7.983435E-3,-4.7874544E-3,-3.9579156E-3,-6.689029E-4,4.855579E-5,3.2263608E-3,5.1348424E-3,8.760677E-3,9.754098E-3,1.2691202E-2,1.5475023E-2,1.9132176E-2],"split_indices":[18,18,7,18,18,18,7,28,28,33,7,28,18,28,18,0,0,0,0,0,0,0,0,0,0,0,0,0,0,0,0],"split_type":[0,0,0,0,0,0,0,0,0,0,0,0,0,0,0,0,0,0,0,0,0,0,0,0,0,0,0,0,0,0,0],"sum_hessian":[8.957022E5,4.6201903E5,4.3368316E5,2.1112442E5,2.5089461E5,2.3529906E5,1.983841E5,8.77733E4,1.23351125E5,1.0598496E5,1.4490966E5,1.0321661E5,1.3208245E5,1.06135766E5,9.2248336E4,7.794411E4,9.829187E3,1.0851101E5,1.4840114E4,7.064111E4,3.5343855E4,8.776644E4,5.7143215E4,4.907785E4,5.413876E4,8.951193E4,4.257052E4,3.8434383E4,6.770138E4,5.7368203E4,3.4880133E4],"tree_param":{"num_deleted":"0","num_feature":"35","num_nodes":"31","size_leaf_vector":"1"}},{"base_weights":[-8.693238E-4,-1.6896577E-1,1.6093977E-1,-2.774602E-1,-1.0731375E-1,6.795354E-2,2.6047054E-1,-3.2906651E-1,-2.4222465E-1,-1.5135948E-1,-5.594078E-2,3.0308275E-2,1.1060014E-1,2.1221294E-1,3.2336828E-1,-1.7202994E-2,-1.0074849E-2,-1.3216312E-2,-9.123186E-3,-8.174149E-3,-3.2276057E-3,-4.3723923E-3,-1.6174099E-3,6.2382215E-4,4.7530937E-3,8.5657E-3,4.718666E-3,9.362363E-3,1.21903885E-2,1.4855447E-2,1.8198278E-2],"categories":[],"categories_nodes":[],"categories_segments":[],"categories_sizes":[],"default_left":[0,0,0,0,0,0,0,0,0,0,0,0,0,0,0,0,0,0,0,0,0,0,0,0,0,0,0,0,0,0,0],"id":16,"left_children":[1,3,5,7,9,11,13,15,17,19,21,23,25,27,29,-1,-1,-1,-1,-1,-1,-1,-1,-1,-1,-1,-1,-1,-1,-1,-1],"loss_changes":[2.4306996E4,2.931793E3,4.214176E3,2.8871484E2,6.324158E2,3.77938E2,6.674912E2,1.2317969E2,1.24615234E2,1.5835327E2,9.58996E1,1.4437881E2,1.0872351E2,9.812012E1,1.0167871E2,0E0,0E0,0E0,0E0,0E0,0E0,0E0,0E0,0E0,0E0,0E0,0E0,0E0,0E0,0E0,0E0],"parents":[2147483647,0,0,1,1,2,2,3,3,4,4,5,5,6,6,7,7,8,8,9,9,10,10,11,11,12,12,13,13,14,14],"right_children":[2,4,6,8,10,12,14,16,18,20,22,24,26,28,30,-1,-1,-1,-1,-1,-1,-1,-1,-1,-1,-1,-1,-1,-1,-1,-1],"split_conditions":[1.0608522E1,5.005668E0,1.7605955E1,2.9146476E0,7.9268217E0,1.3800588E1,2.3515066E1,2.55E1,1.7099998E1,1.3200001E1,9.7E0,1.404E1,5.208333E-1,1.5050001E1,2.7980303E1,-1.7202994E-2,-1.0074849E-2,-1.3216312E-2,-9.123186E-3,-8.174149E-3,-3.2276057E-3,-4.3723923E-3,-1.6174099E-3,6.2382215E-4,4.7530937E-3,8.5657E-3,4.718666E-3,9.362363E-3,1.21903885E-2,1.4855447E-2,1.8198278E-2],"split_indices":[18,18,18,18,18,18,18,28,28,34,28,34,4,34,18,0,0,0,0,0,0,0,0,0,0,0,0,0,0,0,0],"split_type":[0,0,0,0,0,0,0,0,0,0,0,0,0,0,0,0,0,0,0,0,0,0,0,0,0,0,0,0,0,0,0],"sum_hessian":[8.936529E5,4.3831078E5,4.553421E5,1.5881923E5,2.7949156E5,2.354115E5,2.1993061E5,6.4436535E4,9.4382695E4,1.5047588E5,1.29015695E5,1.25038484E5,1.1037302E5,1.244512E5,9.54794E4,5.7658223E4,6.7783154E3,6.889835E4,2.5484346E4,1.32035E5,1.8440863E4,5.524082E4,7.3774875E4,9.804113E4,2.699735E4,2.3275709E4,8.709731E4,6.952259E4,5.4928605E4,5.798291E4,3.7496492E4],"tree_param":{"num_deleted":"0","num_feature":"35","num_nodes":"31","size_leaf_vector":"1"}},{"base_weights":[-8.236406E-5,-1.6857433E-1,1.540691E-1,-2.6313004E-1,-1.0026471E-1,6.862712E-2,2.577309E-1,-3.2823807E-1,-2.2460572E-1,-1.39512E-1,-5.1722385E-2,2.1858392E-2,1.12521835E-1,2.1846808E-1,3.2424095E-1,-1.7214814E-2,-9.610162E-3,-1.1503833E-2,-2.2983356E-4,-7.639248E-3,-2.9656177E-3,-3.419713E-3,3.4002247E-4,-9.783313E-4,2.5871329E-3,4.6384535E-3,7.3005552E-3,8.772218E-3,1.193217E-2,1.4842095E-2,1.8351352E-2],"categories":[],"categories_nodes":[],"categories_segments":[],"categories_sizes":[],"default_left":[0,0,0,0,0,0,0,0,0,0,0,0,0,0,0,0,0,0,0,0,0,0,0,0,0,0,0,0,0,0,0],"id":17,"left_children":[1,3,5,7,9,11,13,15,17,19,21,23,25,27,29,-1,-1,-1,-1,-1,-1,-1,-1,-1,-1,-1,-1,-1,-1,-1,-1],"loss_changes":[2.3140305E4,2.7493652E3,4.1208486E3,4.4773047E2,4.708181E2,5.2358264E2,5.488877E2,1.4490771E2,1.3501074E2,1.4545093E2,1.07798584E2,1.5286642E2,8.7017944E1,1.1469971E2,9.1365234E1,0E0,0E0,0E0,0E0,0E0,0E0,0E0,0E0,0E0,0E0,0E0,0E0,0E0,0E0,0E0,0E0],"parents":[2147483647,0,0,1,1,2,2,3,3,4,4,5,5,6,6,7,7,8,8,9,9,10,10,11,11,12,12,13,13,14,14],"right_children":[2,4,6,8,10,12,14,16,18,20,22,24,26,28,30,-1,-1,-1,-1,-1,-1,-1,-1,-1,-1,-1,-1,-1,-1,-1,-1],"split_conditions":[1.04534025E1,5.4546585E0,1.8118914E1,2.9812872E0,8.117815E0,1.3E1,2.4197369E1,2.55E1,2.7E1,1.2120001E1,8.3E0,4.2E0,1.60625E1,1.911215E1,2.8647182E1,-1.7214814E-2,-9.610162E-3,-1.1503833E-2,-2.2983356E-4,-7.639248E-3,-2.9656177E-3,-3.419713E-3,3.4002247E-4,-9.783313E-4,2.5871329E-3,4.6384535E-3,7.3005552E-3,8.772218E-3,1.193217E-2,1.4842095E-2,1.8351352E-2],"split_indices":[18,18,18,18,18,7,7,28,34,34,29,29,7,7,18,0,0,0,0,0,0,0,0,0,0,0,0,0,0,0,0],"split_type":[0,0,0,0,0,0,0,0,0,0,0,0,0,0,0,0,0,0,0,0,0,0,0,0,0,0,0,0,0,0,0],"sum_hessian":[8.9092525E5,4.2566312E5,4.6526216E5,1.7853214E5,2.47131E5,2.550456E5,2.1021655E5,6.63648E4,1.1216734E5,1.366474E5,1.1048359E5,1.2348107E5,1.3156453E5,1.3218703E5,7.8029516E4,5.9356523E4,7.008272E3,1.0944573E5,2.7216172E3,1.17242914E5,1.9404492E4,8.5987484E4,2.4496111E4,5.1748543E4,7.173252E4,8.275651E4,4.8808016E4,4.2201746E4,8.998528E4,4.7572992E4,3.0456527E4],"tree_param":{"num_deleted":"0","num_feature":"35","num_nodes":"31","size_leaf_vector":"1"}},{"base_weights":[-1.3050361E-3,-1.6093054E-1,1.5168135E-1,-2.4930842E-1,-8.511304E-2,7.031835E-2,2.4437712E-1,-3.1382498E-1,-2.1072832E-1,-1.2703055E-1,-4.814244E-2,2.814109E-2,1.12341054E-1,1.9780247E-1,2.940598E-1,-1.6463207E-2,-9.755064E-3,-1.091394E-2,-3.1513365E-3,-7.104322E-3,-1.9500165E-3,-3.4885295E-3,-4.769073E-4,-8.95636E-5,3.055098E-3,4.8123426E-3,7.720401E-3,9.019107E-3,1.1681992E-2,1.3967045E-2,1.8470619E-2],"categories":[],"categories_nodes":[],"categories_segments":[],"categories_sizes":[],"default_left":[0,0,0,0,0,0,0,0,0,0,0,0,0,0,0,0,0,0,0,0,0,0,0,0,0,0,0,0,0,0,0],"id":18,"left_children":[1,3,5,7,9,11,13,15,17,19,21,23,25,27,29,-1,-1,-1,-1,-1,-1,-1,-1,-1,-1,-1,-1,-1,-1,-1,-1],"loss_changes":[2.190707E4,2.94162E3,3.4547002E3,5.045E2,3.6619006E2,4.3236633E2,4.9540723E2,1.38979E2,1.4146191E2,1.467666E2,1.0483435E2,1.2011836E2,8.271619E1,6.895361E1,1.1480176E2,0E0,0E0,0E0,0E0,0E0,0E0,0E0,0E0,0E0,0E0,0E0,0E0,0E0,0E0,0E0,0E0],"parents":[2147483647,0,0,1,1,2,2,3,3,4,4,5,5,6,6,7,7,8,8,9,9,10,10,11,11,12,12,13,13,14,14],"right_children":[2,4,6,8,10,12,14,16,18,20,22,24,26,28,30,-1,-1,-1,-1,-1,-1,-1,-1,-1,-1,-1,-1,-1,-1,-1,-1],"split_conditions":[1.0770516E1,5.9507847E0,1.8118914E1,3.2542698E0,8.117815E0,1.3327103E1,2.2538462E1,2.4300001E1,1.953E1,1E1,9.798657E0,5.2E0,1.729E1,2.1E1,3.0689655E1,-1.6463207E-2,-9.755064E-3,-1.091394E-2,-3.1513365E-3,-7.104322E-3,-1.9500165E-3,-3.4885295E-3,-4.769073E-4,-8.95636E-5,3.055098E-3,4.8123426E-3,7.720401E-3,9.019107E-3,1.1681992E-2,1.3967045E-2,1.8470619E-2],"split_indices":[18,18,18,18,18,7,7,28,34,29,7,29,34,34,7,0,0,0,0,0,0,0,0,0,0,0,0,0,0,0,0],"split_type":[0,0,0,0,0,0,0,0,0,0,0,0,0,0,0,0,0,0,0,0,0,0,0,0,0,0,0,0,0,0,0],"sum_hessian":[8.9707394E5,4.390111E5,4.5806284E5,2.0271306E5,2.3629805E5,2.4394434E5,2.141185E5,7.585517E4,1.2685789E5,1.10739016E5,1.2555903E5,1.2174912E5,1.2219522E5,1.1051866E5,1.0359984E5,6.7124375E4,8.730795E3,1.20687875E5,6.1700156E3,9.456488E4,1.6174131E4,8.047302E4,4.5086004E4,6.3806355E4,5.794276E4,8.838405E4,3.381117E4,7.4372586E4,3.6146066E4,8.6674125E4,1.6925717E4],"tree_param":{"num_deleted":"0","num_feature":"35","num_nodes":"31","size_leaf_vector":"1"}},{"base_weights":[4.7766956E-4,-1.5372318E-1,1.4735445E-1,-2.5521857E-1,-9.116349E-2,6.166561E-2,2.2835971E-1,-3.068264E-1,-2.1336825E-1,-1.3278444E-1,-4.8552472E-2,-1.8886548E-3,8.24486E-2,1.8060483E-1,2.6853687E-1,-1.6024223E-2,-8.40565E-3,-1.1426055E-2,-6.7729424E-3,-7.6632905E-3,-3.0645214E-3,-3.930678E-3,-7.702699E-4,-1.3279356E-3,3.3177976E-3,3.3754744E-3,7.449033E-3,6.984503E-3,1.0597977E-2,1.22121E-2,1.5793147E-2],"categories":[],"categories_nodes":[],"categories_segments":[],"categories_sizes":[],"default_left":[0,0,0,0,0,0,0,0,0,0,0,0,0,0,0,0,0,0,0,0,0,0,0,0,0,0,0,0,0,0,0],"id":19,"left_children":[1,3,5,7,9,11,13,15,17,19,21,23,25,27,29,-1,-1,-1,-1,-1,-1,-1,-1,-1,-1,-1,-1,-1,-1,-1,-1],"loss_changes":[2.024932E4,2.769377E3,3.1784404E3,3.5915723E2,4.785559E2,2.9391876E2,4.5157812E2,1.4104443E2,1.08398926E2,1.9987354E2,1.3285889E2,9.2324615E1,1.6665918E2,1.3794824E2,1.469043E2,0E0,0E0,0E0,0E0,0E0,0E0,0E0,0E0,0E0,0E0,0E0,0E0,0E0,0E0,0E0,0E0],"parents":[2147483647,0,0,1,1,2,2,3,3,4,4,5,5,6,6,7,7,8,8,9,9,10,10,11,11,12,12,13,13,14,14],"right_children":[2,4,6,8,10,12,14,16,18,20,22,24,26,28,30,-1,-1,-1,-1,-1,-1,-1,-1,-1,-1,-1,-1,-1,-1,-1,-1],"split_conditions":[1.1E1,5.2E0,1.76E1,3E0,2.08E1,2.45E1,2.24E1,1.22E1,9.6E0,8.7E0,8.8E0,2.981983E0,3.275E1,3.2282608E1,2.82E1,-1.6024223E-2,-8.40565E-3,-1.1426055E-2,-6.7729424E-3,-7.6632905E-3,-3.0645214E-3,-3.930678E-3,-7.702699E-4,-1.3279356E-3,3.3177976E-3,3.3754744E-3,7.449033E-3,6.984503E-3,1.0597977E-2,1.22121E-2,1.5793147E-2],"split_indices":[0,0,0,0,10,10,0,29,29,29,0,20,10,10,0,0,0,0,0,0,0,0,0,0,0,0,0,0,0,0,0],"split_type":[0,0,0,0,0,0,0,0,0,0,0,0,0,0,0,0,0,0,0,0,0,0,0,0,0,0,0,0,0,0,0],"sum_hessian":[8.940658E5,4.361583E5,4.5790753E5,1.663206E5,2.6983772E5,2.225217E5,2.3538583E5,7.447508E4,9.1845516E4,1.3650362E5,1.333341E5,5.4835633E4,1.6768608E5,1.07552984E5,1.27832836E5,6.77982E4,6.676874E3,7.688916E4,1.4956355E4,1.06105695E5,3.0397928E4,6.992119E4,6.3412906E4,4.0276504E4,1.4559129E4,1.3693964E5,3.0746434E4,4.6665113E4,6.0887875E4,8.447415E4,4.3358684E4],"tree_param":{"num_deleted":"0","num_feature":"35","num_nodes":"31","size_leaf_vector":"1"}},{"base_weights":[9.97653E-4,-1.4295202E-1,1.5106636E-1,-2.4876018E-1,-7.9042E-2,7.6560624E-2,2.3319393E-1,-3.1124872E-1,-2.0785461E-1,-1.2472162E-1,-2.9455382E-2,4.6127338E-2,1.2028026E-1,1.9076289E-1,2.7360865E-1,-1.6663438E-2,-8.37307E-3,-1.1330199E-2,-7.898825E-3,-7.899936E-3,-4.5678485E-3,-2.7065014E-3,1.728607E-3,-4.3652067E-3,2.808509E-3,8.009143E-3,5.0708293E-3,4.484044E-3,9.959186E-3,1.1231499E-2,1.4566006E-2],"categories":[],"categories_nodes":[],"categories_segments":[],"categories_sizes":[],"default_left":[0,0,0,0,0,0,0,0,0,0,0,0,0,0,0,0,0,0,0,0,0,0,0,0,0,0,0,0,0,0,0],"id":20,"left_children":[1,3,5,7,9,11,13,15,17,19,21,23,25,27,29,-1,-1,-1,-1,-1,-1,-1,-1,-1,-1,-1,-1,-1,-1,-1,-1],"loss_changes":[1.9296775E4,3.083082E3,2.6760576E3,4.3879004E2,6.438385E2,3.0510217E2,3.5668555E2,2.1499951E2,9.700537E1,1.642522E2,2.1532845E2,1.8117886E2,7.0822754E1,8.6366455E1,9.236035E1,0E0,0E0,0E0,0E0,0E0,0E0,0E0,0E0,0E0,0E0,0E0,0E0,0E0,0E0,0E0,0E0],"parents":[2147483647,0,0,1,1,2,2,3,3,4,4,5,5,6,6,7,7,8,8,9,9,10,10,11,11,12,12,13,13,14,14],"right_children":[2,4,6,8,10,12,14,16,18,20,22,24,26,28,30,-1,-1,-1,-1,-1,-1,-1,-1,-1,-1,-1,-1,-1,-1,-1,-1],"split_conditions":[1.0952381E1,5.4E0,1.8E1,1.047104E1,8.8E0,1.52E1,2.2538462E1,1.06E1,6.5E0,1.9491444E1,7.8E0,2.0481527E1,5.7629436E-1,2.6E0,5.9E0,-1.6663438E-2,-8.37307E-3,-1.1330199E-2,-7.898825E-3,-7.899936E-3,-4.5678485E-3,-2.7065014E-3,1.728607E-3,-4.3652067E-3,2.808509E-3,8.009143E-3,5.0708293E-3,4.484044E-3,9.959186E-3,1.1231499E-2,1.4566006E-2],"split_indices":[7,0,7,21,0,0,7,29,7,21,29,21,4,28,28,0,0,0,0,0,0,0,0,0,0,0,0,0,0,0,0],"split_type":[0,0,0,0,0,0,0,0,0,0,0,0,0,0,0,0,0,0,0,0,0,0,0,0,0,0,0,0,0,0,0],"sum_hessian":[8.932702E5,4.5593038E5,4.373398E5,1.716866E5,2.8424378E5,2.2931145E5,2.0802836E5,6.792136E4,1.0376524E5,1.4794972E5,1.3629406E5,1.3520039E5,9.411108E4,1.0148541E5,1.06542945E5,5.889993E4,9.021428E3,7.541347E4,2.835177E4,7.407016E4,7.387956E4,9.8380695E4,3.7913367E4,9.463146E3,1.25737234E5,3.0206764E4,6.3904312E4,7.805176E3,9.3680234E4,2.8299146E4,7.82438E4],"tree_param":{"num_deleted":"0","num_feature":"35","num_nodes":"31","size_leaf_vector":"1"}},{"base_weights":[-5.475318E-4,-1.5753599E-1,1.3554065E-1,-2.639949E-1,-9.9611126E-2,5.7196975E-2,2.1803512E-1,-3.2387954E-1,-2.3308206E-1,-1.3774976E-1,-5.240033E-2,2.3198685E-2,9.814795E-2,1.8104488E-1,2.6486608E-1,-1.6979288E-2,-9.711777E-3,-1.2524301E-2,-6.9253244E-3,-7.4963006E-3,-2.6701407E-3,-3.40079E-3,1.7033407E-4,5.120672E-4,4.149269E-3,6.9566937E-3,4.101114E-3,1.0397301E-2,8.046206E-3,1.2410573E-2,1.5316739E-2],"categories":[],"categories_nodes":[],"categories_segments":[],"categories_sizes":[],"default_left":[0,0,0,0,0,0,0,0,0,0,0,0,0,0,0,0,0,0,0,0,0,0,0,0,0,0,0,0,0,0,0],"id":21,"left_children":[1,3,5,7,9,11,13,15,17,19,21,23,25,27,29,-1,-1,-1,-1,-1,-1,-1,-1,-1,-1,-1,-1,-1,-1,-1,-1],"loss_changes":[1.909713E4,2.559539E3,3.0945225E3,2.7068066E2,4.84E2,3.4191864E2,4.0396875E2,1.01322266E2,1.5875E2,1.5270093E2,1.046792E2,1.03949524E2,7.361719E1,7.049805E1,7.100635E1,0E0,0E0,0E0,0E0,0E0,0E0,0E0,0E0,0E0,0E0,0E0,0E0,0E0,0E0,0E0,0E0],"parents":[2147483647,0,0,1,1,2,2,3,3,4,4,5,5,6,6,7,7,8,8,9,9,10,10,11,11,12,12,13,13,14,14],"right_children":[2,4,6,8,10,12,14,16,18,20,22,24,26,28,30,-1,-1,-1,-1,-1,-1,-1,-1,-1,-1,-1,-1,-1,-1,-1,-1],"split_conditions":[1.04534025E1,4.9495616E0,1.7605955E1,2.6304624E0,7.9268217E0,1.3800588E1,2.3515066E1,2.55E1,1.01E1,1.30199995E1,8.3E0,1.62E1,5.374321E-1,5.7427067E-1,3E1,-1.6979288E-2,-9.711777E-3,-1.2524301E-2,-6.9253244E-3,-7.4963006E-3,-2.6701407E-3,-3.40079E-3,1.7033407E-4,5.120672E-4,4.149269E-3,6.9566937E-3,4.101114E-3,1.0397301E-2,8.046206E-3,1.2410573E-2,1.5316739E-2],"split_indices":[18,18,18,18,18,18,18,28,29,34,29,34,4,4,0,0,0,0,0,0,0,0,0,0,0,0,0,0,0,0,0],"split_type":[0,0,0,0,0,0,0,0,0,0,0,0,0,0,0,0,0,0,0,0,0,0,0,0,0,0,0,0,0,0,0],"sum_hessian":[8.9387956E5,4.1506694E5,4.788126E5,1.4625827E5,2.688087E5,2.455856E5,2.3322702E5,4.9791766E4,9.64665E4,1.4868969E5,1.20119E5,1.3418455E5,1.1140104E5,1.30306805E5,1.0292021E5,4.440994E4,5.3818276E3,8.14722E4,1.4994293E4,1.2993205E5,1.875763E4,9.3856586E4,2.6262416E4,1.1028424E5,2.3900309E4,3.145235E4,7.9948695E4,5.5754504E4,7.4552305E4,7.343447E4,2.9485742E4],"tree_param":{"num_deleted":"0","num_feature":"35","num_nodes":"31","size_leaf_vector":"1"}},{"base_weights":[-1.3495287E-3,-1.5474857E-1,1.3001502E-1,-2.6213756E-1,-9.7755775E-2,4.8454423E-2,2.0437284E-1,-2.8073516E-1,-1.6153759E-1,-1.3562039E-1,-5.1115364E-2,1.886343E-2,8.750254E-2,1.6599014E-1,2.549344E-1,-1.65407E-2,-1.1986512E-2,-8.217908E-3,3.5E-2,-8.203703E-3,-5.150267E-3,-3.3295061E-3,1.6563402E-4,-5.1061425E-4,2.654924E-3,3.488235E-3,6.2098554E-3,6.8649813E-3,9.804638E-3,1.1591253E-2,1.431627E-2],"categories":[],"categories_nodes":[],"categories_segments":[],"categories_sizes":[],"default_left":[0,0,0,0,0,0,0,0,0,0,0,0,0,0,0,0,0,0,0,0,0,0,0,0,0,0,0,0,0,0,0],"id":22,"left_children":[1,3,5,7,9,11,13,15,17,19,21,23,25,27,29,-1,-1,-1,-1,-1,-1,-1,-1,-1,-1,-1,-1,-1,-1,-1,-1],"loss_changes":[1.8027307E4,2.5257988E3,2.9226294E3,2.6765137E2,4.7612622E2,2.6555634E2,4.8918066E2,2.4789258E2,6.766034E1,1.3807446E2,1.0175055E2,1.3014749E2,6.448096E1,1.2373926E2,7.884717E1,0E0,0E0,0E0,0E0,0E0,0E0,0E0,0E0,0E0,0E0,0E0,0E0,0E0,0E0,0E0,0E0],"parents":[2147483647,0,0,1,1,2,2,3,3,4,4,5,5,6,6,7,7,8,8,9,9,10,10,11,11,12,12,13,13,14,14],"right_children":[2,4,6,8,10,12,14,16,18,20,22,24,26,28,30,-1,-1,-1,-1,-1,-1,-1,-1,-1,-1,-1,-1,-1,-1,-1,-1],"split_conditions":[1.04534025E1,4.9495616E0,1.696453E1,1.01E1,7.9268217E0,1.3327103E1,2.3250801E1,1.0307984E1,2.96E1,4.9999995E0,8.3E0,5.3E0,7.1119995E1,1.9822222E1,1.04159996E2,-1.65407E-2,-1.1986512E-2,-8.217908E-3,3.5E-2,-8.203703E-3,-5.150267E-3,-3.3295061E-3,1.6563402E-4,-5.1061425E-4,2.654924E-3,3.488235E-3,6.2098554E-3,6.8649813E-3,9.804638E-3,1.1591253E-2,1.431627E-2],"split_indices":[18,18,18,29,18,7,18,21,29,29,29,29,33,7,33,0,0,0,0,0,0,0,0,0,0,0,0,0,0,0,0],"split_type":[0,0,0,0,0,0,0,0,0,0,0,0,0,0,0,0,0,0,0,0,0,0,0,0,0,0,0,0,0,0,0],"sum_hessian":[8.946002E5,4.1268872E5,4.8191147E5,1.4308205E5,2.696067E5,2.2982538E5,2.520861E5,1.2075639E5,2.2325662E4,1.4880155E5,1.2080513E5,1.3074624E5,9.907913E4,1.4330419E5,1.0878191E5,5.436003E4,6.639636E4,2.2271404E4,5.4257446E1,7.9468484E4,6.933306E4,9.406168E4,2.6743451E4,7.070091E4,6.0045336E4,6.6794266E4,3.2284865E4,7.337588E4,6.992831E4,6.2660793E4,4.6121117E4],"tree_param":{"num_deleted":"0","num_feature":"35","num_nodes":"31","size_leaf_vector":"1"}},{"base_weights":[-1.1747655E-3,-1.4238198E-1,1.2938562E-1,-2.2870779E-1,-7.244295E-2,6.216763E-2,2.0962287E-1,-2.893231E-1,-1.8916374E-1,-1.22683495E-1,-4.1071385E-2,1.8610375E-2,9.237477E-2,1.713716E-1,2.4059369E-1,-1.5598555E-2,-8.579608E-3,-1.0309205E-2,-4.770155E-3,-6.9724396E-3,-2.4172827E-3,-3.138973E-3,6.2040874E-4,-1.1677368E-3,2.2076506E-3,4.0537524E-3,8.085515E-3,-5.838918E-3,8.67421E-3,9.951005E-3,1.3150814E-2],"categories":[],"categories_nodes":[],"categories_segments":[],"categories_sizes":[],"default_left":[0,0,0,0,0,0,0,0,0,0,0,0,0,0,0,0,0,0,0,0,0,0,0,0,0,0,0,0,0,0,0],"id":23,"left_children":[1,3,5,7,9,11,13,15,17,19,21,23,25,27,29,-1,-1,-1,-1,-1,-1,-1,-1,-1,-1,-1,-1,-1,-1,-1,-1],"loss_changes":[1.6505178E4,2.596712E3,2.5088242E3,4.6135254E2,3.7448303E2,3.330406E2,2.5116699E2,2.0258447E2,1.8589453E2,1.13821045E2,1.6980981E2,1.11110634E2,1.17089355E2,5.7776123E1,1.09174805E2,0E0,0E0,0E0,0E0,0E0,0E0,0E0,0E0,0E0,0E0,0E0,0E0,0E0,0E0,0E0,0E0],"parents":[2147483647,0,0,1,1,2,2,3,3,4,4,5,5,6,6,7,7,8,8,9,9,10,10,11,11,12,12,13,13,14,14],"right_children":[2,4,6,8,10,12,14,16,18,20,22,24,26,28,30,-1,-1,-1,-1,-1,-1,-1,-1,-1,-1,-1,-1,-1,-1,-1,-1],"split_conditions":[1.0473684E1,1.7218042E1,1.8338709E1,1.1012269E1,7.1585364E0,1.3115385E1,2.2075E1,1E1,1.01E1,1.01E1,7.3E0,3.3999999E0,9.3E0,2.4008028E1,6.72E1,-1.5598555E-2,-8.579608E-3,-1.0309205E-2,-4.770155E-3,-6.9724396E-3,-2.4172827E-3,-3.138973E-3,6.2040874E-4,-1.1677368E-3,2.2076506E-3,4.0537524E-3,8.085515E-3,-5.838918E-3,8.67421E-3,9.951005E-3,1.3150814E-2],"split_indices":[7,21,7,21,7,7,7,29,29,29,29,29,29,21,33,0,0,0,0,0,0,0,0,0,0,0,0,0,0,0,0],"split_type":[0,0,0,0,0,0,0,0,0,0,0,0,0,0,0,0,0,0,0,0,0,0,0,0,0,0,0,0,0,0,0],"sum_hessian":[8.952636E5,4.3009522E5,4.6516838E5,1.9249556E5,2.3759966E5,2.5312072E5,2.1204766E5,7.599693E4,1.1649863E5,9.13318E4,1.4626786E5,1.0365573E5,1.4946498E5,9.487563E4,1.1717203E5,6.3734605E4,1.2262326E4,9.85988E4,1.7899836E4,7.452372E4,1.6808082E4,1.0403748E5,4.2230383E4,3.9219836E4,6.4435895E4,1.2852176E5,2.0943234E4,6.9013165E2,9.41855E4,4.1057477E4,7.6114555E4],"tree_param":{"num_deleted":"0","num_feature":"35","num_nodes":"31","size_leaf_vector":"1"}},{"base_weights":[-6.7537994E-4,-1.4885382E-1,1.24888934E-1,-2.348007E-1,-8.078414E-2,4.682107E-2,1.8579286E-1,-3.105635E-1,-1.9961078E-1,-1.206154E-1,-4.9225673E-2,1.6890278E-2,8.170227E-2,1.525253E-1,2.3649801E-1,-1.6401248E-2,-1.0283855E-2,-1.0825559E-2,-6.0779997E-3,-6.77239E-3,-1.8383878E-3,-3.3822462E-3,-5.772862E-4,-1.1813234E-3,1.9260928E-3,2.9205265E-3,5.394475E-3,6.637407E-3,9.010001E-3,1.1241982E-2,1.4611757E-2],"categories":[],"categories_nodes":[],"categories_segments":[],"categories_sizes":[],"default_left":[0,0,0,0,0,0,0,0,0,0,0,0,0,0,0,0,0,0,0,0,0,0,0,0,0,0,0,0,0,0,0],"id":24,"left_children":[1,3,5,7,9,11,13,15,17,19,21,23,25,27,29,-1,-1,-1,-1,-1,-1,-1,-1,-1,-1,-1,-1,-1,-1,-1,-1],"loss_changes":[1.6677352E4,2.4053584E3,2.3069282E3,4.8439844E2,2.884004E2,2.219967E2,4.597295E2,1.0548096E2,1.6365088E2,1.2613269E2,8.884598E1,1.0030144E2,5.9889038E1,9.005664E1,7.01001E1,0E0,0E0,0E0,0E0,0E0,0E0,0E0,0E0,0E0,0E0,0E0,0E0,0E0,0E0,0E0,0E0],"parents":[2147483647,0,0,1,1,2,2,3,3,4,4,5,5,6,6,7,7,8,8,9,9,10,10,11,11,12,12,13,13,14,14],"right_children":[2,4,6,8,10,12,14,16,18,20,22,24,26,28,30,-1,-1,-1,-1,-1,-1,-1,-1,-1,-1,-1,-1,-1,-1,-1,-1],"split_conditions":[1.0608522E1,5.7775493E0,1.6463964E1,2.9146476E0,7.858749E0,1.3E1,2.2948277E1,1.04E1,9.5E0,1E1,9.857142E0,3.5E0,1.07E1,1.5050001E1,3.0689655E1,-1.6401248E-2,-1.0283855E-2,-1.0825559E-2,-6.0779997E-3,-6.77239E-3,-1.8383878E-3,-3.3822462E-3,-5.772862E-4,-1.1813234E-3,1.9260928E-3,2.9205265E-3,5.394475E-3,6.637407E-3,9.010001E-3,1.1241982E-2,1.4611757E-2],"split_indices":[18,18,18,18,18,7,7,29,29,29,7,29,28,34,7,0,0,0,0,0,0,0,0,0,0,0,0,0,0,0,0],"split_type":[0,0,0,0,0,0,0,0,0,0,0,0,0,0,0,0,0,0,0,0,0,0,0,0,0,0,0,0,0,0,0],"sum_hessian":[8.9634425E5,4.1114816E5,4.8519612E5,1.8171136E5,2.294368E5,2.1263638E5,2.7255975E5,5.762933E4,1.2408204E5,1.01423336E5,1.2801345E5,1.1443969E5,9.819668E4,1.6458189E5,1.0797786E5,4.9402656E4,8.22667E3,1.019952E5,2.2086834E4,8.617808E4,1.5245258E4,8.598181E4,4.203165E4,3.983227E4,7.4607414E4,5.197326E4,4.622342E4,9.599024E4,6.859165E4,8.930351E4,1.867435E4],"tree_param":{"num_deleted":"0","num_feature":"35","num_nodes":"31","size_leaf_vector":"1"}},{"base_weights":[-1.9455972E-3,-1.5873867E-1,1.08389094E-1,-2.57561E-1,-1.0453493E-1,3.6816873E-2,1.80372E-1,-3.353905E-1,-2.338461E-1,-1.3654022E-1,-6.192701E-2,-1.4229437E-3,6.999907E-2,1.4739959E-1,2.2390434E-1,-1.7190348E-2,-3.9713345E-3,-1.2609909E-2,-7.201747E-3,-7.641854E-3,-2.823075E-3,-4.8470516E-3,-1.8736739E-3,-9.6464093E-4,2.7021393E-3,2.3995317E-3,4.6740877E-3,6.023249E-3,8.6347675E-3,8.885832E-3,1.202858E-2],"categories":[],"categories_nodes":[],"categories_segments":[],"categories_sizes":[],"default_left":[0,0,0,0,0,0,0,0,0,0,0,0,0,0,0,0,0,0,0,0,0,0,0,0,0,0,0,0,0,0,0],"id":25,"left_children":[1,3,5,7,9,11,13,15,17,19,21,23,25,27,29,-1,-1,-1,-1,-1,-1,-1,-1,-1,-1,-1,-1,-1,-1,-1,-1],"loss_changes":[1.5478436E4,1.9795176E3,2.7056318E3,2.4152832E2,3.2544263E2,3.3414105E2,3.7579004E2,6.582715E1,1.6533496E2,1.7784692E2,8.765024E1,1.2126491E2,7.286224E1,1.0149072E2,8.682617E1,0E0,0E0,0E0,0E0,0E0,0E0,0E0,0E0,0E0,0E0,0E0,0E0,0E0,0E0,0E0,0E0],"parents":[2147483647,0,0,1,1,2,2,3,3,4,4,5,5,6,6,7,7,8,8,9,9,10,10,11,11,12,12,13,13,14,14],"right_children":[2,4,6,8,10,12,14,16,18,20,22,24,26,28,30,-1,-1,-1,-1,-1,-1,-1,-1,-1,-1,-1,-1,-1,-1,-1,-1],"split_conditions":[9.734091E0,4.769732E0,1.696453E1,2.0917523E0,7.818182E0,1.193985E1,2.3250801E1,1.64E1,2.12E1,1.01E1,2.06E1,8.2E0,1.423588E1,1.9571428E1,6.2000003E0,-1.7190348E-2,-3.9713345E-3,-1.2609909E-2,-7.201747E-3,-7.641854E-3,-2.823075E-3,-4.8470516E-3,-1.8736739E-3,-9.6464093E-4,2.7021393E-3,2.3995317E-3,4.6740877E-3,6.023249E-3,8.6347675E-3,8.885832E-3,1.202858E-2],"split_indices":[18,18,18,18,7,7,18,29,28,29,3,29,18,7,28,0,0,0,0,0,0,0,0,0,0,0,0,0,0,0,0],"split_type":[0,0,0,0,0,0,0,0,0,0,0,0,0,0,0,0,0,0,0,0,0,0,0,0,0,0,0,0,0,0,0],"sum_hessian":[8.9472E5,3.6955575E5,5.251642E5,1.30899914E5,2.3865584E5,2.6333406E5,2.6183014E5,3.0567586E4,1.0033233E5,1.3628333E5,1.02372516E5,1.2234372E5,1.4099036E5,1.4898775E5,1.128424E5,2.9594145E4,9.734413E2,8.33074E4,1.7024928E4,1.1323741E5,2.3045918E4,4.209518E4,6.027734E4,9.253241E4,2.9811314E4,7.278132E4,6.820904E4,7.215924E4,7.68285E4,2.99255E4,8.29169E4],"tree_param":{"num_deleted":"0","num_feature":"35","num_nodes":"31","size_leaf_vector":"1"}},{"base_weights":[6.275707E-5,-1.3421491E-1,1.1842707E-1,-2.1917361E-1,-6.7168355E-2,4.4244163E-2,1.764467E-1,-2.9081324E-1,-1.8186675E-1,-9.9376515E-2,-2.0704206E-2,-4.64485E-2,5.5670746E-2,1.44473E-1,2.1821202E-1,-1.550775E-2,-6.880217E-3,-1.006643E-2,-4.50343E-3,-6.8640434E-3,-3.1975885E-3,-2.2420376E-3,1.4891202E-3,-5.6969686E-3,-5.876521E-4,1.9358773E-3,4.8352564E-3,-2.3982988E-3,7.340912E-3,1.0168227E-2,1.3310015E-2],"categories":[],"categories_nodes":[],"categories_segments":[],"categories_sizes":[],"default_left":[0,0,0,0,0,0,0,0,0,0,0,0,0,0,0,0,0,0,0,0,0,0,0,0,0,0,0,0,0,0,0],"id":26,"left_children":[1,3,5,7,9,11,13,15,17,19,21,23,25,27,29,-1,-1,-1,-1,-1,-1,-1,-1,-1,-1,-1,-1,-1,-1,-1,-1],"loss_changes":[1.4199373E4,2.3841929E3,2.0437134E3,4.9337012E2,3.5010083E2,2.1596066E2,3.5577637E2,1.8729199E2,2.1687451E2,1.8551636E2,1.16712616E2,5.46018E1,1.2874597E2,6.811621E1,8.226172E1,0E0,0E0,0E0,0E0,0E0,0E0,0E0,0E0,0E0,0E0,0E0,0E0,0E0,0E0,0E0,0E0],"parents":[2147483647,0,0,1,1,2,2,3,3,4,4,5,5,6,6,7,7,8,8,9,9,10,10,11,11,12,12,13,13,14,14],"right_children":[2,4,6,8,10,12,14,16,18,20,22,24,26,28,30,-1,-1,-1,-1,-1,-1,-1,-1,-1,-1,-1,-1,-1,-1,-1,-1],"split_conditions":[1.0473684E1,1.7218042E1,1.60625E1,3E0,9.4E0,2.2424412E1,2.2538462E1,2.47E1,9.5E0,7.1034484E0,7.4E0,1.8E1,1.58E1,2.34E1,3.02E1,-1.550775E-2,-6.880217E-3,-1.006643E-2,-4.50343E-3,-6.8640434E-3,-3.1975885E-3,-2.2420376E-3,1.4891202E-3,-5.6969686E-3,-5.876521E-4,1.9358773E-3,4.8352564E-3,-2.3982988E-3,7.340912E-3,1.0168227E-2,1.3310015E-2],"split_indices":[7,21,7,0,0,21,7,28,29,7,29,3,0,3,0,0,0,0,0,0,0,0,0,0,0,0,0,0,0,0,0],"split_type":[0,0,0,0,0,0,0,0,0,0,0,0,0,0,0,0,0,0,0,0,0,0,0,0,0,0,0,0,0,0,0],"sum_hessian":[8.9339525E5,4.1856106E5,4.748342E5,1.8461811E5,2.3394297E5,2.0839094E5,2.6644325E5,6.321699E4,1.2140112E5,1.3816689E5,9.577607E4,2.331746E4,1.8507348E5,1.5091428E5,1.1552895E5,5.612988E4,7.087111E3,1.00164375E5,2.1236742E4,6.6746016E4,7.1420875E4,6.4797785E4,3.097829E4,7.9162324E3,1.5401228E4,1.3096692E5,5.4106562E4,1.816792E3,1.490975E5,8.82346E4,2.7294346E4],"tree_param":{"num_deleted":"0","num_feature":"35","num_nodes":"31","size_leaf_vector":"1"}},{"base_weights":[1.0871994E-4,-1.4312871E-1,1.1248321E-1,-2.5083995E-1,-9.180327E-2,4.2220417E-2,1.6974576E-1,-3.269921E-1,-2.2561437E-1,-1.3971278E-1,-6.088188E-2,1.3990387E-2,7.2959825E-2,1.3957743E-1,2.1104637E-1,-1.682177E-2,-4.496346E-3,-1.2148618E-2,-6.5965876E-3,-7.816373E-3,-3.753068E-3,-3.8487276E-3,-6.7900587E-4,-1.0181131E-3,1.7410055E-3,6.762588E-3,3.0645237E-3,5.974209E-3,8.26834E-3,8.57501E-3,1.1250625E-2],"categories":[],"categories_nodes":[],"categories_segments":[],"categories_sizes":[],"default_left":[0,0,0,0,0,0,0,0,0,0,0,0,0,0,0,0,0,0,0,0,0,0,0,0,0,0,0,0,0,0,0],"id":27,"left_children":[1,3,5,7,9,11,13,15,17,19,21,23,25,27,29,-1,-1,-1,-1,-1,-1,-1,-1,-1,-1,-1,-1,-1,-1,-1,-1],"loss_changes":[1.4398832E4,2.1740977E3,2.0168477E3,2.4373242E2,3.9457275E2,1.9532587E2,3.4409375E2,7.066431E1,1.5500537E2,1.122124E2,1.2322174E2,8.396061E1,7.831976E1,8.2687256E1,6.4350586E1,0E0,0E0,0E0,0E0,0E0,0E0,0E0,0E0,0E0,0E0,0E0,0E0,0E0,0E0,0E0,0E0],"parents":[2147483647,0,0,1,1,2,2,3,3,4,4,5,5,6,6,7,7,8,8,9,9,10,10,11,11,12,12,13,13,14,14],"right_children":[2,4,6,8,10,12,14,16,18,20,22,24,26,28,30,-1,-1,-1,-1,-1,-1,-1,-1,-1,-1,-1,-1,-1,-1,-1,-1],"split_conditions":[1.0376636E1,4.769732E0,1.662407E1,2.1788363E0,6.9476337E0,1.3248036E1,2.3250801E1,1.59E1,1.01E1,7.92E0,7.7000003E0,3.5E0,-5.233307E-1,1.4849998E1,6.2000003E0,-1.682177E-2,-4.496346E-3,-1.2148618E-2,-6.5965876E-3,-7.816373E-3,-3.753068E-3,-3.8487276E-3,-6.7900587E-4,-1.0181131E-3,1.7410055E-3,6.762588E-3,3.0645237E-3,5.974209E-3,8.26834E-3,8.57501E-3,1.1250625E-2],"split_indices":[18,18,18,18,18,18,18,29,29,34,29,29,26,34,28,0,0,0,0,0,0,0,0,0,0,0,0,0,0,0,0],"split_type":[0,0,0,0,0,0,0,0,0,0,0,0,0,0,0,0,0,0,0,0,0,0,0,0,0,0,0,0,0,0,0],"sum_hessian":[8.9454475E5,3.9326797E5,5.0127678E5,1.2691696E5,2.66351E5,2.2508848E5,2.7618828E5,3.1577482E4,9.533948E4,1.0447468E5,1.6187631E5,1.17334195E5,1.0775429E5,1.5960675E5,1.1658154E5,3.03674E4,1.2100819E3,8.0434555E4,1.4904921E4,8.311391E4,2.136077E4,1.20783555E5,4.1092758E4,4.4290215E4,7.3043984E4,1.6999422E4,9.075487E4,8.971372E4,6.989303E4,3.0429982E4,8.615156E4],"tree_param":{"num_deleted":"0","num_feature":"35","num_nodes":"31","size_leaf_vector":"1"}},{"base_weights":[-7.2640093E-4,-1.5342937E-1,9.927873E-2,-2.4415526E-1,-9.8851174E-2,3.1384397E-2,1.6165979E-1,-2.9885557E-1,-2.0721588E-1,-1.2779523E-1,-6.0571976E-2,-2.451022E-3,5.977169E-2,1.2066714E-1,1.8964456E-1,-1.5426804E-2,-1.7730257E-3,-1.1229056E-2,-6.5409527E-3,-7.174066E-3,-2.4729103E-3,-4.8586926E-3,-1.7688948E-3,-1.4565154E-3,1.4287465E-3,1.8543393E-3,4.211532E-3,7.2009186E-3,4.8486697E-3,6.672377E-3,9.96993E-3],"categories":[],"categories_nodes":[],"categories_segments":[],"categories_sizes":[],"default_left":[0,0,0,0,0,0,0,0,0,0,0,0,0,0,0,0,0,0,0,0,0,0,0,0,0,0,0,0,0,0,0],"id":28,"left_children":[1,3,5,7,9,11,13,15,17,19,21,23,25,27,29,-1,-1,-1,-1,-1,-1,-1,-1,-1,-1,-1,-1,-1,-1,-1,-1],"loss_changes":[1.3627128E4,1.7485664E3,2.283748E3,2.6795068E2,2.4428809E2,2.4799965E2,3.2235254E2,1.3631396E2,1.05011475E2,1.5427563E2,8.754434E1,9.750726E1,7.789972E1,6.3067627E1,9.1515625E1,0E0,0E0,0E0,0E0,0E0,0E0,0E0,0E0,0E0,0E0,0E0,0E0,0E0,0E0,0E0,0E0],"parents":[2147483647,0,0,1,1,2,2,3,3,4,4,5,5,6,6,7,7,8,8,9,9,10,10,11,11,12,12,13,13,14,14],"right_children":[2,4,6,8,10,12,14,16,18,20,22,24,26,28,30,-1,-1,-1,-1,-1,-1,-1,-1,-1,-1,-1,-1,-1,-1,-1,-1],"split_conditions":[9.58024E0,4.9495616E0,1.6463964E1,2.9146476E0,7.818182E0,1.168E1,2.0915743E1,1.64E1,9.5E0,1.01E1,2.06E1,5.3999996E0,1.08E1,5.821378E-1,4E0,-1.5426804E-2,-1.7730257E-3,-1.1229056E-2,-6.5409527E-3,-7.174066E-3,-2.4729103E-3,-4.8586926E-3,-1.7688948E-3,-1.4565154E-3,1.4287465E-3,1.8543393E-3,4.211532E-3,7.2009186E-3,4.8486697E-3,6.672377E-3,9.96993E-3],"split_indices":[18,18,18,18,7,7,18,29,29,29,3,29,28,4,28,0,0,0,0,0,0,0,0,0,0,0,0,0,0,0,0],"split_type":[0,0,0,0,0,0,0,0,0,0,0,0,0,0,0,0,0,0,0,0,0,0,0,0,0,0,0,0,0,0,0],"sum_hessian":[8.923466E5,3.5313147E5,5.392151E5,1.326397E5,2.2049178E5,2.5819848E5,2.8101666E5,5.3463375E4,7.917633E4,1.25554164E5,9.493761E4,1.1779592E5,1.4040256E5,1.1401313E5,1.6700353E5,5.1567934E4,1.8954424E3,6.4510867E4,1.4665463E4,1.0460699E5,2.0947176E4,3.8704695E4,5.6232914E4,6.3334504E4,5.446142E4,7.284429E4,6.7558266E4,5.7419055E4,5.6594074E4,2.4701676E4,1.4230186E5],"tree_param":{"num_deleted":"0","num_feature":"35","num_nodes":"31","size_leaf_vector":"1"}},{"base_weights":[-1.023872E-3,-1.2791796E-1,1.074063E-1,-2.1175098E-1,-6.2268317E-2,4.643644E-2,1.6173169E-1,-2.765542E-1,-1.7706376E-1,-9.2681065E-2,-2.1944102E-2,4.692363E-3,6.372459E-2,1.3739787E-1,2.0615648E-1,-1.49420025E-2,-6.475282E-3,-9.539664E-3,-3.4484335E-3,-5.327965E-3,-1.9043809E-3,-2.469516E-3,4.239885E-5,-4.4005937E-3,8.6412014E-4,2.0688733E-3,4.1270717E-3,5.1568644E-3,7.4423137E-3,9.117011E-3,1.1786839E-2],"categories":[],"categories_nodes":[],"categories_segments":[],"categories_sizes":[],"default_left":[0,0,0,0,0,0,0,0,0,0,0,0,0,0,0,0,0,0,0,0,0,0,0,0,0,0,0,0,0,0,0],"id":29,"left_children":[1,3,5,7,9,11,13,15,17,19,21,23,25,27,29,-1,-1,-1,-1,-1,-1,-1,-1,-1,-1,-1,-1,-1,-1,-1,-1],"loss_changes":[1.2348243E4,2.2758408E3,1.6028931E3,4.081797E2,2.8440857E2,1.6456015E2,2.7661865E2,2.0745361E2,1.7554663E2,1.0016138E2,6.237429E1,7.79442E1,6.780084E1,6.483887E1,6.3760254E1,0E0,0E0,0E0,0E0,0E0,0E0,0E0,0E0,0E0,0E0,0E0,0E0,0E0,0E0,0E0,0E0],"parents":[2147483647,0,0,1,1,2,2,3,3,4,4,5,5,6,6,7,7,8,8,9,9,10,10,11,11,12,12,13,13,14,14],"right_children":[2,4,6,8,10,12,14,16,18,20,22,24,26,28,30,-1,-1,-1,-1,-1,-1,-1,-1,-1,-1,-1,-1,-1,-1,-1,-1],"split_conditions":[1.0473684E1,1.7218042E1,1.6758064E1,1.047104E1,2.4259945E1,2.6603748E1,2.4197369E1,2.36E1,2.47E1,1.9900002E1,2.1857393E0,1.8E1,1.3444445E1,6.3E0,1.0586001E2,-1.49420025E-2,-6.475282E-3,-9.539664E-3,-3.4484335E-3,-5.327965E-3,-1.9043809E-3,-2.469516E-3,4.239885E-5,-4.4005937E-3,8.6412014E-4,2.0688733E-3,4.1270717E-3,5.1568644E-3,7.4423137E-3,9.117011E-3,1.1786839E-2],"split_indices":[7,21,7,21,21,21,7,28,28,28,20,3,7,28,33,0,0,0,0,0,0,0,0,0,0,0,0,0,0,0,0],"split_type":[0,0,0,0,0,0,0,0,0,0,0,0,0,0,0,0,0,0,0,0,0,0,0,0,0,0,0,0,0,0,0],"sum_hessian":[8.974549E5,4.135195E5,4.8393538E5,1.8160808E5,2.3191142E5,2.2802394E5,2.5591144E5,6.3315027E4,1.18293055E5,1.3220236E5,9.9709055E4,6.677935E4,1.612446E5,1.6534645E5,9.056498E4,5.4981332E4,8.333694E3,1.0496086E5,1.3332197E4,1.0540607E5,2.6796293E4,4.5235414E4,5.4473637E4,7.984093E3,5.8795258E4,7.370949E4,8.75351E4,4.1415645E4,1.23930805E5,5.01746E4,4.039038E4],"tree_param":{"num_deleted":"0","num_feature":"35","num_nodes":"31","size_leaf_vector":"1"}},{"base_weights":[-2.3795746E-4,-1.396577E-1,1.0011454E-1,-2.4301887E-1,-8.938877E-2,4.805676E-2,1.6486828E-1,-2.9375234E-1,-2.0231982E-1,-1.3028784E-1,-5.5558283E-2,1.1702443E-2,7.898493E-2,1.4583857E-1,2.0983927E-1,-1.5106623E-2,-1.9204592E-3,-1.1327837E-2,-6.7152353E-3,-6.914478E-3,2.196586E-3,-4.8199217E-3,-1.7312523E-3,-9.1585604E-4,1.5794057E-3,6.005145E-3,3.2009424E-3,4.6027345E-3,7.6453323E-3,9.782764E-3,1.2152168E-2],"categories":[],"categories_nodes":[],"categories_segments":[],"categories_sizes":[],"default_left":[0,0,0,0,0,0,0,0,0,0,0,0,0,0,0,0,0,0,0,0,0,0,0,0,0,0,0,0,0,0,0],"id":30,"left_children":[1,3,5,7,9,11,13,15,17,19,21,23,25,27,29,-1,-1,-1,-1,-1,-1,-1,-1,-1,-1,-1,-1,-1,-1,-1,-1],"loss_changes":[1.2485636E4,1.9406157E3,1.7491699E3,2.5228174E2,3.476836E2,3.234253E2,1.978711E2,1.16387695E2,1.1176001E2,1.5859204E2,1.17573456E2,7.893486E1,9.5636475E1,6.1757812E1,3.2333984E1,0E0,0E0,0E0,0E0,0E0,0E0,0E0,0E0,0E0,0E0,0E0,0E0,0E0,0E0,0E0,0E0],"parents":[2147483647,0,0,1,1,2,2,3,3,4,4,5,5,6,6,7,7,8,8,9,9,10,10,11,11,12,12,13,13,14,14],"right_children":[2,4,6,8,10,12,14,16,18,20,22,24,26,28,30,-1,-1,-1,-1,-1,-1,-1,-1,-1,-1,-1,-1,-1,-1,-1,-1],"split_conditions":[1.0154592E1,4.769732E0,1.850185E1,2.9812872E0,1.960077E1,1.3358157E1,2.564626E1,1.64E1,8E0,3.0800001E1,7.285714E0,3.7000003E0,5.34936E-1,3.4E0,3.0689655E1,-1.5106623E-2,-1.9204592E-3,-1.1327837E-2,-6.7152353E-3,-6.914478E-3,2.196586E-3,-4.8199217E-3,-1.7312523E-3,-9.1585604E-4,1.5794057E-3,6.005145E-3,3.2009424E-3,4.6027345E-3,7.6453323E-3,9.782764E-3,1.2152168E-2],"split_indices":[18,18,18,18,21,18,7,29,29,28,7,29,4,28,7,0,0,0,0,0,0,0,0,0,0,0,0,0,0,0,0],"split_type":[0,0,0,0,0,0,0,0,0,0,0,0,0,0,0,0,0,0,0,0,0,0,0,0,0,0,0,0,0,0,0],"sum_hessian":[8.9239525E5,3.734963E5,5.1889894E5,1.2220957E5,2.5128677E5,2.876494E5,2.3124955E5,5.439596E4,6.781361E4,1.1375763E5,1.3752912E5,1.3222627E5,1.5542312E5,1.6249373E5,6.8755805E4,5.2667285E4,1.7286769E3,4.9995555E4,1.7818053E4,1.087625E5,4.995136E3,4.6603473E4,9.092565E4,5.2688055E4,7.953821E4,4.1472953E4,1.1395017E5,1.8875559E4,1.4361817E5,4.8180945E4,2.0574861E4],"tree_param":{"num_deleted":"0","num_feature":"35","num_nodes":"31","size_leaf_vector":"1"}},{"base_weights":[4.4336542E-4,-1.2813134E-1,9.943007E-2,-1.9759874E-1,-6.0514167E-2,4.8323717E-2,1.607789E-1,-2.8313172E-1,-1.6627832E-1,-8.5002065E-2,-2.516692E-2,1.332726E-3,6.626871E-2,1.4177272E-1,2.0332098E-1,-1.5364001E-2,-5.82638E-3,-9.866744E-3,-6.4573227E-3,-4.8583653E-3,-1.0779753E-3,-1.99949E-3,1.7554438E-3,-1.6161347E-3,1.5664786E-3,1.4022632E-3,4.107402E-3,5.4090847E-3,7.727197E-3,9.040812E-3,1.1265001E-2],"categories":[],"categories_nodes":[],"categories_segments":[],"categories_sizes":[],"default_left":[0,0,0,0,0,0,0,0,0,0,0,0,0,0,0,0,0,0,0,0,0,0,0,0,0,0,0,0,0,0,0],"id":31,"left_children":[1,3,5,7,9,11,13,15,17,19,21,23,25,27,29,-1,-1,-1,-1,-1,-1,-1,-1,-1,-1,-1,-1,-1,-1,-1,-1],"loss_changes":[1.1402569E4,1.8305591E3,1.5871074E3,5.1491846E2,1.709408E2,2.3287042E2,1.8598047E2,2.0724658E2,1.6223633E2,9.003949E1,7.2215576E1,7.704711E1,1.2129401E2,6.8200195E1,3.5096436E1,0E0,0E0,0E0,0E0,0E0,0E0,0E0,0E0,0E0,0E0,0E0,0E0,0E0,0E0,0E0,0E0],"parents":[2147483647,0,0,1,1,2,2,3,3,4,4,5,5,6,6,7,7,8,8,9,9,10,10,11,11,12,12,13,13,14,14],"right_children":[2,4,6,8,10,12,14,16,18,20,22,24,26,28,30,-1,-1,-1,-1,-1,-1,-1,-1,-1,-1,-1,-1,-1,-1,-1,-1],"split_conditions":[1.0076923E1,1.84E1,1.8338709E1,9.2E0,2.54E1,2.64E1,2.564626E1,2.36E1,5.826087E0,1E1,9.5E0,4E0,2.6000001E0,2.4999998E0,9.5E0,-1.5364001E-2,-5.82638E-3,-9.866744E-3,-6.4573227E-3,-4.8583653E-3,-1.0779753E-3,-1.99949E-3,1.7554438E-3,-1.6161347E-3,1.5664786E-3,1.4022632E-3,4.107402E-3,5.4090847E-3,7.727197E-3,9.040812E-3,1.1265001E-2],"split_indices":[7,3,7,3,3,3,7,28,7,29,29,29,29,29,28,0,0,0,0,0,0,0,0,0,0,0,0,0,0,0,0],"split_type":[0,0,0,0,0,0,0,0,0,0,0,0,0,0,0,0,0,0,0,0,0,0,0,0,0,0,0,0,0,0,0],"sum_hessian":[8.959202E5,3.8971528E5,5.062049E5,1.922267E5,1.9748856E5,2.7615612E5,2.300488E5,5.1520727E4,1.4070598E5,1.1666434E5,8.082423E4,7.631577E4,1.9984034E5,1.5901244E5,7.103637E4,4.4997727E4,6.5230005E3,7.661877E4,6.408721E4,9.789268E4,1.8771658E4,6.4871516E4,1.5952714E4,3.596463E4,4.0351145E4,5.865456E4,1.4118578E5,4.3805125E4,1.1520731E5,3.5102992E4,3.5933375E4],"tree_param":{"num_deleted":"0","num_feature":"35","num_nodes":"31","size_leaf_vector":"1"}},{"base_weights":[-3.9779866E-4,-1.4334574E-1,8.8857755E-2,-2.3447442E-1,-9.4029404E-2,2.7352287E-2,1.4584854E-1,-3.141178E-1,-2.0834744E-1,-1.198492E-1,-5.065367E-2,3.4014855E-3,6.3066125E-2,1.2091905E-1,1.7941442E-1,-1.6727697E-2,-9.731037E-3,-1.1395809E-2,-5.3246985E-3,-7.5602815E-3,-4.1099307E-3,-1.2134855E-3,-3.6010568E-3,-9.3707006E-4,1.54297E-3,5.1051676E-3,2.618944E-3,7.429523E-3,5.4113837E-3,7.976242E-3,1.0102765E-2],"categories":[],"categories_nodes":[],"categories_segments":[],"categories_sizes":[],"default_left":[0,0,0,0,0,0,0,0,0,0,0,0,0,0,0,0,0,0,0,0,0,0,0,0,0,0,0,0,0,0,0],"id":32,"left_children":[1,3,5,7,9,11,13,15,17,19,21,23,25,27,29,-1,-1,-1,-1,-1,-1,-1,-1,-1,-1,-1,-1,-1,-1,-1,-1],"loss_changes":[1.1375273E4,1.5401206E3,1.9238691E3,2.5033594E2,2.4903235E2,2.2579588E2,2.3836182E2,7.252026E1,1.8058276E2,1.6455066E2,4.6776474E1,9.6069756E1,4.420334E1,5.7394775E1,5.464038E1,0E0,0E0,0E0,0E0,0E0,0E0,0E0,0E0,0E0,0E0,0E0,0E0,0E0,0E0,0E0,0E0],"parents":[2147483647,0,0,1,1,2,2,3,3,4,4,5,5,6,6,7,7,8,8,9,9,10,10,11,11,12,12,13,13,14,14],"right_children":[2,4,6,8,10,12,14,16,18,20,22,24,26,28,30,-1,-1,-1,-1,-1,-1,-1,-1,-1,-1,-1,-1,-1,-1,-1,-1],"split_conditions":[9.58024E0,4.769732E0,1.662407E1,2.1788363E0,2.1651833E1,1.3358157E1,2.3250801E1,2.31E1,1.01E1,4.9999995E0,5.208333E-1,5.1000004E0,5.208333E-1,5.5057186E-1,5.8E0,-1.6727697E-2,-9.731037E-3,-1.1395809E-2,-5.3246985E-3,-7.5602815E-3,-4.1099307E-3,-1.2134855E-3,-3.6010568E-3,-9.3707006E-4,1.54297E-3,5.1051676E-3,2.618944E-3,7.429523E-3,5.4113837E-3,7.976242E-3,1.0102765E-2],"split_indices":[18,18,18,18,21,18,18,28,29,29,4,29,4,4,2,0,0,0,0,0,0,0,0,0,0,0,0,0,0,0,0],"split_type":[0,0,0,0,0,0,0,0,0,0,0,0,0,0,0,0,0,0,0,0,0,0,0,0,0,0,0,0,0,0,0],"sum_hessian":[8.915541E5,3.4269984E5,5.4885425E5,1.2033546E5,2.2236439E5,2.6397225E5,2.8488203E5,2.9722076E4,9.061338E4,1.3938967E5,8.297472E4,1.5800817E5,1.0596406E5,1.6347397E5,1.2140807E5,2.5379863E4,4.3422134E3,7.600884E4,1.4604546E4,7.6050086E4,6.333959E4,3.7129887E4,4.5844832E4,8.747003E4,7.053815E4,2.2772936E4,8.3191125E4,5.1398168E4,1.120758E5,6.4635246E4,5.6772824E4],"tree_param":{"num_deleted":"0","num_feature":"35","num_nodes":"31","size_leaf_vector":"1"}},{"base_weights":[-7.05746E-4,-1.4127317E-1,8.486905E-2,-2.3247188E-1,-8.8891506E-2,2.325728E-2,1.3434733E-1,-2.9414108E-1,-2.0081665E-1,-1.22550085E-1,-5.8418304E-2,-5.646727E-3,5.0549395E-2,9.982995E-2,1.5997607E-1,-1.5555528E-2,-8.448394E-3,-1.0530108E-2,-1.7893965E-3,-7.1527096E-3,-2.731003E-3,-4.3195984E-3,-1.6457532E-3,-1.4590696E-3,1.4062197E-3,1.7112403E-3,3.8917996E-3,6.551113E-3,4.131697E-3,7.2109248E-3,9.599504E-3],"categories":[],"categories_nodes":[],"categories_segments":[],"categories_sizes":[],"default_left":[0,0,0,0,0,0,0,0,0,0,0,0,0,0,0,0,0,0,0,0,0,0,0,0,0,0,0,0,0,0,0],"id":33,"left_children":[1,3,5,7,9,11,13,15,17,19,21,23,25,27,29,-1,-1,-1,-1,-1,-1,-1,-1,-1,-1,-1,-1,-1,-1,-1,-1],"loss_changes":[1.0770365E4,1.6185522E3,1.6966047E3,2.4124219E2,2.2072998E2,1.9554222E2,2.7304297E2,8.900195E1,1.3190234E2,1.4242322E2,8.0578705E1,9.568326E1,5.678946E1,7.053882E1,8.933252E1,0E0,0E0,0E0,0E0,0E0,0E0,0E0,0E0,0E0,0E0,0E0,0E0,0E0,0E0,0E0,0E0],"parents":[2147483647,0,0,1,1,2,2,3,3,4,4,5,5,6,6,7,7,8,8,9,9,10,10,11,11,12,12,13,13,14,14],"right_children":[2,4,6,8,10,12,14,16,18,20,22,24,26,28,30,-1,-1,-1,-1,-1,-1,-1,-1,-1,-1,-1,-1,-1,-1,-1,-1],"split_conditions":[9.518669E0,4.8963146E0,1.5871984E1,2.6304624E0,1.9491444E1,1.168E1,2.0915743E1,2.53E1,1.4299999E1,8.2E0,7.928571E0,6.1000004E0,5.6E0,5.5433166E-1,2.7003708E1,-1.5555528E-2,-8.448394E-3,-1.0530108E-2,-1.7893965E-3,-7.1527096E-3,-2.731003E-3,-4.3195984E-3,-1.6457532E-3,-1.4590696E-3,1.4062197E-3,1.7112403E-3,3.8917996E-3,6.551113E-3,4.131697E-3,7.2109248E-3,9.599504E-3],"split_indices":[18,18,18,18,21,7,18,28,29,29,7,29,29,4,18,0,0,0,0,0,0,0,0,0,0,0,0,0,0,0,0],"split_type":[0,0,0,0,0,0,0,0,0,0,0,0,0,0,0,0,0,0,0,0,0,0,0,0,0,0,0,0,0,0,0],"sum_hessian":[8.953626E5,3.388152E5,5.5654744E5,1.23606875E5,2.1520831E5,2.4788078E5,3.0866666E5,4.192411E4,8.1682766E4,1.02258086E5,1.1295023E5,1.2038575E5,1.2749502E5,1.3152733E5,1.7713933E5,3.6917754E4,5.0063545E3,7.711018E4,4.5725864E3,7.854795E4,2.3710135E4,5.386506E4,5.9085168E4,7.094513E4,4.944062E4,7.977234E4,4.772268E4,4.673919E4,8.478813E4,1.1871319E5,5.8426152E4],"tree_param":{"num_deleted":"0","num_feature":"35","num_nodes":"31","size_leaf_vector":"1"}},{"base_weights":[5.2014744E-4,-1.3839358E-1,8.434217E-2,-2.3254456E-1,-9.005918E-2,2.6956085E-2,1.3538304E-1,-2.9475683E-1,-1.9764331E-1,-1.1976114E-1,-4.9371842E-2,3.8291547E-3,6.0555372E-2,1.1180283E-1,1.671197E-1,-1.5130835E-2,-3.4227704E-3,-1.0846285E-2,-5.6061535E-3,-7.484282E-3,-4.1453363E-3,-3.96241E-3,-8.9251174E-4,-6.468354E-4,1.8692551E-3,3.7024317E-3,1.4243893E-3,4.7994656E-3,6.631568E-3,6.1726286E-3,9.049896E-3],"categories":[],"categories_nodes":[],"categories_segments":[],"categories_sizes":[],"default_left":[0,0,0,0,0,0,0,0,0,0,0,0,0,0,0,0,0,0,0,0,0,0,0,0,0,0,0,0,0,0,0],"id":34,"left_children":[1,3,5,7,9,11,13,15,17,19,21,23,25,27,29,-1,-1,-1,-1,-1,-1,-1,-1,-1,-1,-1,-1,-1,-1,-1,-1],"loss_changes":[1.0419523E4,1.5324551E3,1.6346465E3,2.4797705E2,2.689088E2,2.0414095E2,2.2102344E2,7.299829E1,1.2065723E2,1.4184033E2,8.8427185E1,8.7544685E1,4.634262E1,5.5804688E1,7.6281006E1,0E0,0E0,0E0,0E0,0E0,0E0,0E0,0E0,0E0,0E0,0E0,0E0,0E0,0E0,0E0,0E0],"parents":[2147483647,0,0,1,1,2,2,3,3,4,4,5,5,6,6,7,7,8,8,9,9,10,10,11,11,12,12,13,13,14,14],"right_children":[2,4,6,8,10,12,14,16,18,20,22,24,26,28,30,-1,-1,-1,-1,-1,-1,-1,-1,-1,-1,-1,-1,-1,-1,-1,-1],"split_conditions":[9.58024E0,4.711711E0,1.6463964E1,2.6304624E0,7.818182E0,1.3248036E1,2.2538462E1,1.64E1,9.5E0,5.5E0,2.2276257E1,8.820001E0,6.330535E-1,1.4600001E1,5.5E0,-1.5130835E-2,-3.4227704E-3,-1.0846285E-2,-5.6061535E-3,-7.484282E-3,-4.1453363E-3,-3.96241E-3,-8.9251174E-4,-6.468354E-4,1.8692551E-3,3.7024317E-3,1.4243893E-3,4.7994656E-3,6.631568E-3,6.1726286E-3,9.049896E-3],"split_indices":[18,18,18,18,7,18,7,29,29,29,21,34,4,34,28,0,0,0,0,0,0,0,0,0,0,0,0,0,0,0,0],"split_type":[0,0,0,0,0,0,0,0,0,0,0,0,0,0,0,0,0,0,0,0,0,0,0,0,0,0,0,0,0,0,0],"sum_hessian":[8.948363E5,3.36753E5,5.580833E5,1.1423325E5,2.2251977E5,2.6271272E5,2.953706E5,4.105117E4,7.3182086E4,1.2862265E5,9.389711E4,1.5560702E5,1.071057E5,1.6946402E5,1.2590659E5,3.9672926E4,1.3782465E3,5.9716227E4,1.34658545E4,7.098349E4,5.7639156E4,4.820583E4,4.569128E4,1.0376338E5,5.184363E4,7.538445E4,3.1721246E4,9.6332016E4,7.313199E4,3.03673E4,9.553929E4],"tree_param":{"num_deleted":"0","num_feature":"35","num_nodes":"31","size_leaf_vector":"1"}},{"base_weights":[1.1142645E-3,-1.3459888E-1,8.276403E-2,-2.275314E-1,-8.7471806E-2,2.3816925E-2,1.2909673E-1,-2.432812E-1,-1.0171817E-1,-1.2216425E-1,-5.668111E-2,4.7264826E-3,5.8137417E-2,9.777948E-2,1.5585957E-1,-1.4940324E-2,-1.0154769E-2,-5.3264475E-3,3.5E-2,-6.8274015E-3,-3.1632115E-3,-3.8773343E-3,-6.653823E-4,-9.1501244E-4,1.6663823E-3,2.7173962E-3,9.231613E-3,5.9659192E-3,4.010156E-3,7.0676203E-3,8.902051E-3],"categories":[],"categories_nodes":[],"categories_segments":[],"categories_sizes":[],"default_left":[0,0,0,0,0,0,0,0,0,0,0,0,0,0,0,0,0,0,0,0,0,0,0,0,0,0,0,0,0,0,0],"id":35,"left_children":[1,3,5,7,9,11,13,15,17,19,21,23,25,27,29,-1,-1,-1,-1,-1,-1,-1,-1,-1,-1,-1,-1,-1,-1,-1,-1],"loss_changes":[9.9238125E3,1.4733418E3,1.5271697E3,2.242749E2,2.3843542E2,1.6123216E2,2.6238916E2,2.2441162E2,6.292778E1,8.8912476E1,1.0702661E2,1.0414245E2,4.2151978E1,5.460681E1,5.4297363E1,0E0,0E0,0E0,0E0,0E0,0E0,0E0,0E0,0E0,0E0,0E0,0E0,0E0,0E0,0E0,0E0],"parents":[2147483647,0,0,1,1,2,2,3,3,4,4,5,5,6,6,7,7,8,8,9,9,10,10,11,11,12,12,13,13,14,14],"right_children":[2,4,6,8,10,12,14,16,18,20,22,24,26,28,30,-1,-1,-1,-1,-1,-1,-1,-1,-1,-1,-1,-1,-1,-1,-1,-1],"split_conditions":[9.58024E0,4.711711E0,1.5871984E1,2.55E1,6.998722E0,1.3115385E1,2.1354961E1,9.712538E0,2.96E1,9.2E0,6.8E0,5.5E0,5.1E1,5.7304424E-1,1.04159996E2,-1.4940324E-2,-1.0154769E-2,-5.3264475E-3,3.5E-2,-6.8274015E-3,-3.1632115E-3,-3.8773343E-3,-6.653823E-4,-9.1501244E-4,1.6663823E-3,2.7173962E-3,9.231613E-3,5.9659192E-3,4.010156E-3,7.0676203E-3,8.902051E-3],"split_indices":[18,18,18,28,18,7,18,21,29,29,29,29,34,4,33,0,0,0,0,0,0,0,0,0,0,0,0,0,0,0,0],"split_type":[0,0,0,0,0,0,0,0,0,0,0,0,0,0,0,0,0,0,0,0,0,0,0,0,0,0,0,0,0,0,0],"sum_hessian":[8.9557244E5,3.3641078E5,5.591616E5,1.1319378E5,2.2321702E5,2.4608269E5,3.1307897E5,1.0059941E5,1.2594368E4,1.0495704E5,1.1825998E5,1.5812714E5,8.7955555E4,1.4426647E5,1.688125E5,4.2235555E4,5.836385E4,1.2542052E4,5.2316814E1,8.435554E4,2.06015E4,7.984725E4,3.841273E4,8.760052E4,7.052662E4,8.539864E4,2.556915E3,6.4823254E4,7.94432E4,1.0206617E5,6.674632E4],"tree_param":{"num_deleted":"0","num_feature":"35","num_nodes":"31","size_leaf_vector":"1"}},{"base_weights":[4.6564723E-4,-1.2882172E-1,7.771509E-2,-2.0392087E-1,-7.405452E-2,2.4265785E-2,1.2864955E-1,-3.0152535E-1,-1.8147819E-1,-1.0601215E-1,-3.967599E-2,-4.4645816E-2,3.6190715E-2,1.05563134E-1,1.5599526E-1,-1.6162565E-2,-5.761567E-3,-1.0366444E-2,-5.465033E-3,-6.817127E-3,-4.363015E-3,-2.743393E-3,1.1007589E-3,-4.159953E-3,-8.8888744E-5,1.030482E-3,3.029281E-3,5.906736E-3,4.0847245E-3,6.8985126E-3,8.926197E-3],"categories":[],"categories_nodes":[],"categories_segments":[],"categories_sizes":[],"default_left":[0,0,0,0,0,0,0,0,0,0,0,0,0,0,0,0,0,0,0,0,0,0,0,0,0,0,0,0,0,0,0],"id":36,"left_children":[1,3,5,7,9,11,13,15,17,19,21,23,25,27,29,-1,-1,-1,-1,-1,-1,-1,-1,-1,-1,-1,-1,-1,-1,-1,-1],"loss_changes":[8.9540625E3,1.379169E3,1.5278486E3,3.0970947E2,2.1304053E2,2.2503975E2,1.8140186E2,1.0695825E2,2.1450854E2,5.7144653E1,8.755484E1,6.676588E1,8.873285E1,4.674707E1,5.339331E1,0E0,0E0,0E0,0E0,0E0,0E0,0E0,0E0,0E0,0E0,0E0,0E0,0E0,0E0,0E0,0E0],"parents":[2147483647,0,0,1,1,2,2,3,3,4,4,5,5,6,6,7,7,8,8,9,9,10,10,11,11,12,12,13,13,14,14],"right_children":[2,4,6,8,10,12,14,16,18,20,22,24,26,28,30,-1,-1,-1,-1,-1,-1,-1,-1,-1,-1,-1,-1,-1,-1,-1,-1],"split_conditions":[9.227273E0,1.5922644E1,1.60625E1,6.6E0,2.190458E1,2.2276257E1,2.2075E1,2.55E1,1.7800001E1,6.2E0,1.2E1,1.07E1,1.3444445E1,6.044951E-1,5.8E0,-1.6162565E-2,-5.761567E-3,-1.0366444E-2,-5.465033E-3,-6.817127E-3,-4.363015E-3,-2.743393E-3,1.1007589E-3,-4.159953E-3,-8.8888744E-5,1.030482E-3,3.029281E-3,5.906736E-3,4.0847245E-3,6.8985126E-3,8.926197E-3],"split_indices":[7,21,7,3,21,21,7,28,28,0,0,28,7,4,2,0,0,0,0,0,0,0,0,0,0,0,0,0,0,0,0],"split_type":[0,0,0,0,0,0,0,0,0,0,0,0,0,0,0,0,0,0,0,0,0,0,0,0,0,0,0,0,0,0,0],"sum_hessian":[8.965359E5,3.3532447E5,5.6121144E5,1.414118E5,1.9391269E5,2.73846E5,2.873654E5,2.6434445E4,1.1497736E5,1.0049362E5,9.341907E4,4.03971E4,2.3344889E5,1.5582022E5,1.315452E5,2.367293E4,2.7615164E3,8.46557E4,3.032165E4,3.839116E4,6.2102457E4,7.495981E4,1.8459254E4,2.1268447E4,1.9128654E4,1.4246075E5,9.098813E4,1.0206091E5,5.3759305E4,7.308086E4,5.846435E4],"tree_param":{"num_deleted":"0","num_feature":"35","num_nodes":"31","size_leaf_vector":"1"}},{"base_weights":[-1.7841782E-4,-1.2029221E-1,8.37827E-2,-2.160541E-1,-7.347104E-2,4.050507E-2,1.3496155E-1,-2.7181584E-1,-1.800344E-1,-1.0159614E-1,-3.7544698E-2,7.4733756E-3,6.4009875E-2,1.2066085E-1,1.6790321E-1,-1.4498389E-2,-8.020806E-3,-1.0268037E-2,-5.62154E-3,-5.6347926E-3,-1.2547061E-3,-3.3574868E-3,-8.337008E-4,-1.0952391E-3,1.4227539E-3,2.696402E-3,4.9604056E-3,4.7893077E-3,6.7361793E-3,6.737878E-3,9.013961E-3],"categories":[],"categories_nodes":[],"categories_segments":[],"categories_sizes":[],"default_left":[0,0,0,0,0,0,0,0,0,0,0,0,0,0,0,0,0,0,0,0,0,0,0,0,0,0,0,0,0,0,0],"id":37,"left_children":[1,3,5,7,9,11,13,15,17,19,21,23,25,27,29,-1,-1,-1,-1,-1,-1,-1,-1,-1,-1,-1,-1,-1,-1,-1,-1],"loss_changes":[9.036821E3,1.6529658E3,1.1681528E3,2.4310596E2,2.501847E2,2.2186832E2,1.1381592E2,9.602124E1,1.2591211E2,1.179281E2,6.717799E1,7.323346E1,5.924225E1,5.8929688E1,2.9980469E1,0E0,0E0,0E0,0E0,0E0,0E0,0E0,0E0,0E0,0E0,0E0,0E0,0E0,0E0,0E0,0E0],"parents":[2147483647,0,0,1,1,2,2,3,3,4,4,5,5,6,6,7,7,8,8,9,9,10,10,11,11,12,12,13,13,14,14],"right_children":[2,4,6,8,10,12,14,16,18,20,22,24,26,28,30,-1,-1,-1,-1,-1,-1,-1,-1,-1,-1,-1,-1,-1,-1,-1,-1],"split_conditions":[1.0376636E1,4.9495616E0,1.8E1,2.9146476E0,7.991428E0,1.3248036E1,2.564626E1,1.07E1,8E0,1.342E1,9.6E0,3.8000002E0,8.1E0,8.1E0,6E0,-1.4498389E-2,-8.020806E-3,-1.0268037E-2,-5.62154E-3,-5.6347926E-3,-1.2547061E-3,-3.3574868E-3,-8.337008E-4,-1.0952391E-3,1.4227539E-3,2.696402E-3,4.9604056E-3,4.7893077E-3,6.7361793E-3,6.737878E-3,9.013961E-3],"split_indices":[18,18,7,18,18,18,7,29,29,34,28,29,29,28,28,0,0,0,0,0,0,0,0,0,0,0,0,0,0,0,0],"split_type":[0,0,0,0,0,0,0,0,0,0,0,0,0,0,0,0,0,0,0,0,0,0,0,0,0,0,0,0,0,0,0],"sum_hessian":[8.9607344E5,3.686651E5,5.274083E5,1.2106038E5,2.476047E5,2.8576375E5,2.4164458E5,4.750766E4,7.355272E4,1.3888003E5,1.0872467E5,1.188056E5,1.6695816E5,1.6849984E5,7.3144734E4,4.084982E4,6.6578394E3,5.3505805E4,2.0046914E4,1.2128261E5,1.7597414E4,4.4954516E4,6.3770156E4,4.9498605E4,6.9307E4,1.2978605E5,3.7172117E4,6.0858613E4,1.07641234E5,1.9889139E4,5.3255594E4],"tree_param":{"num_deleted":"0","num_feature":"35","num_nodes":"31","size_leaf_vector":"1"}},{"base_weights":[-7.8399107E-4,-1.290359E-1,7.340369E-2,-2.1808457E-1,-8.448754E-2,2.5848163E-2,1.24102294E-1,-3.0160695E-1,-1.9091713E-1,-1.1703734E-1,-5.6908756E-2,-2.5107225E-3,5.1760692E-2,1.1235252E-1,1.6532359E-1,-1.5415571E-2,1.7223255E-3,-1.0817891E-2,-6.058291E-3,-6.527845E-3,-2.2858E-3,-3.9928216E-3,-1.2305356E-3,-1.56304E-3,9.980198E-4,3.2536157E-3,1.0252845E-3,5.0224527E-3,6.9455267E-3,7.804461E-3,1.156058E-2],"categories":[],"categories_nodes":[],"categories_segments":[],"categories_sizes":[],"default_left":[0,0,0,0,0,0,0,0,0,0,0,0,0,0,0,0,0,0,0,0,0,0,0,0,0,0,0,0,0,0,0],"id":38,"left_children":[1,3,5,7,9,11,13,15,17,19,21,23,25,27,29,-1,-1,-1,-1,-1,-1,-1,-1,-1,-1,-1,-1,-1,-1,-1,-1],"loss_changes":[8.5221875E3,1.3021011E3,1.3681069E3,2.4829883E2,1.9639673E2,2.1516438E2,1.330039E2,6.053247E1,1.4653345E2,9.675464E1,8.778192E1,9.031906E1,6.3654724E1,6.7552246E1,3.7028687E1,0E0,0E0,0E0,0E0,0E0,0E0,0E0,0E0,0E0,0E0,0E0,0E0,0E0,0E0,0E0,0E0],"parents":[2147483647,0,0,1,1,2,2,3,3,4,4,5,5,6,6,7,7,8,8,9,9,10,10,11,11,12,12,13,13,14,14],"right_children":[2,4,6,8,10,12,14,16,18,20,22,24,26,28,30,-1,-1,-1,-1,-1,-1,-1,-1,-1,-1,-1,-1,-1,-1,-1,-1],"split_conditions":[9.518669E0,4.711711E0,1.7451948E1,2.1788363E0,6.9476337E0,1.2773665E1,2.7003708E1,1.8599998E1,8E0,1E1,5.4000006E0,4.1E0,6.330535E-1,6.0999994E0,3.377987E1,-1.5415571E-2,1.7223255E-3,-1.0817891E-2,-6.058291E-3,-6.527845E-3,-2.2858E-3,-3.9928216E-3,-1.2305356E-3,-1.56304E-3,9.980198E-4,3.2536157E-3,1.0252845E-3,5.0224527E-3,6.9455267E-3,7.804461E-3,1.156058E-2],"split_indices":[18,18,18,18,18,18,18,29,29,29,29,29,4,29,18,0,0,0,0,0,0,0,0,0,0,0,0,0,0,0,0],"split_type":[0,0,0,0,0,0,0,0,0,0,0,0,0,0,0,0,0,0,0,0,0,0,0,0,0,0,0,0,0,0,0],"sum_hessian":[8.9568344E5,3.2823925E5,5.674442E5,1.09451125E5,2.1878811E5,2.9279897E5,2.7464522E5,2.6860941E4,8.259019E4,1.0034863E5,1.1843948E5,1.3980077E5,1.529982E5,2.1372772E5,6.09175E4,2.6335613E4,5.253274E2,6.051589E4,2.2074297E4,8.43572E4,1.5991433E4,6.924186E4,4.9197617E4,6.1331465E4,7.8469305E4,1.0729835E5,4.5699848E4,1.4758431E5,6.6143414E4,5.3432215E4,7.4852876E3],"tree_param":{"num_deleted":"0","num_feature":"35","num_nodes":"31","size_leaf_vector":"1"}},{"base_weights":[-1.3441424E-3,-1.2436928E-1,7.1108475E-2,-2.0497638E-1,-7.458841E-2,2.17097E-2,1.17256925E-1,-2.240294E-1,-8.451058E-2,-1.154125E-1,-5.1168468E-2,-4.6391387E-2,3.290224E-2,9.019505E-2,1.375284E-1,-1.5728472E-2,-9.819856E-3,-6.0549327E-3,2.135773E-3,-6.602517E-3,-3.5707192E-3,-4.012134E-3,-8.0554484E-4,-1.1717557E-2,-1.9115381E-3,1.7352293E-4,2.484316E-3,-3.0264203E-3,4.606028E-3,6.4677172E-3,8.999241E-3],"categories":[],"categories_nodes":[],"categories_segments":[],"categories_sizes":[],"default_left":[0,0,0,0,0,0,0,0,0,0,0,0,0,0,0,0,0,0,0,0,0,0,0,0,0,0,0,0,0,0,0],"id":39,"left_children":[1,3,5,7,9,11,13,15,17,19,21,23,25,27,29,-1,-1,-1,-1,-1,-1,-1,-1,-1,-1,-1,-1,-1,-1,-1,-1],"loss_changes":[7.968383E3,1.3295645E3,1.2826001E3,2.9033643E2,1.9584277E2,2.0713132E2,1.5956006E2,2.7320557E2,8.0429756E1,5.465399E1,1.326763E2,5.8827065E1,1.152896E2,3.61604E1,5.7690918E1,0E0,0E0,0E0,0E0,0E0,0E0,0E0,0E0,0E0,0E0,0E0,0E0,0E0,0E0,0E0,0E0],"parents":[2147483647,0,0,1,1,2,2,3,3,4,4,5,5,6,6,7,7,8,8,9,9,10,10,11,11,12,12,13,13,14,14],"right_children":[2,4,6,8,10,12,14,16,18,20,22,24,26,28,30,-1,-1,-1,-1,-1,-1,-1,-1,-1,-1,-1,-1,-1,-1,-1,-1],"split_conditions":[9.285714E0,1.5306128E1,1.60625E1,2.36E1,6.8E0,2.2153086E1,2.1117647E1,7E0,1.64E1,7.225E0,5.7E0,1.1E1,3.3E0,2.32E1,2.9585365E1,-1.5728472E-2,-9.819856E-3,-6.0549327E-3,2.135773E-3,-6.602517E-3,-3.5707192E-3,-4.012134E-3,-8.0554484E-4,-1.1717557E-2,-1.9115381E-3,1.7352293E-4,2.484316E-3,-3.0264203E-3,4.606028E-3,6.4677172E-3,8.999241E-3],"split_indices":[7,21,7,28,0,21,7,3,29,7,29,3,29,3,7,0,0,0,0,0,0,0,0,0,0,0,0,0,0,0,0],"split_type":[0,0,0,0,0,0,0,0,0,0,0,0,0,0,0,0,0,0,0,0,0,0,0,0,0,0,0,0,0,0,0],"sum_hessian":[8.939665E5,3.3134288E5,5.626236E5,1.2650232E5,2.0484056E5,2.717429E5,2.9088075E5,1.09226125E5,1.72762E4,7.467248E4,1.3016808E5,3.835691E4,2.3338598E5,1.24577984E5,1.6630277E5,2.5537963E4,8.368816E4,1.3417577E4,3.8586213E3,5.4181727E4,2.0490752E4,7.115553E4,5.9012543E4,1.5948889E3,3.676202E4,8.475855E4,1.4862744E5,1.5710348E3,1.23006945E5,1.3945733E5,2.6845438E4],"tree_param":{"num_deleted":"0","num_feature":"35","num_nodes":"31","size_leaf_vector":"1"}},{"base_weights":[-2.0071855E-4,-1.2515236E-1,7.000272E-2,-2.0899683E-1,-7.752314E-2,2.2112038E-2,1.1357996E-1,-2.930987E-1,-1.8492024E-1,-1.0382992E-1,-4.3365844E-2,-1.670881E-3,4.7313236E-2,9.514705E-2,1.3838376E-1,-1.5323556E-2,4.223184E-3,-1.0351506E-2,-6.276825E-3,-5.994668E-3,-1.0521065E-3,-3.5532762E-3,-7.2884193E-4,-1.5193684E-3,9.541853E-4,6.8140886E-4,3.0420339E-3,6.025434E-3,4.1674767E-3,6.447556E-3,8.533469E-3],"categories":[],"categories_nodes":[],"categories_segments":[],"categories_sizes":[],"default_left":[0,0,0,0,0,0,0,0,0,0,0,0,0,0,0,0,0,0,0,0,0,0,0,0,0,0,0,0,0,0,0],"id":40,"left_children":[1,3,5,7,9,11,13,15,17,19,21,23,25,27,29,-1,-1,-1,-1,-1,-1,-1,-1,-1,-1,-1,-1,-1,-1,-1,-1],"loss_changes":[7.86811E3,1.2885186E3,1.198511E3,2.366372E2,1.8489624E2,1.6398778E2,1.3746313E2,1.3136841E2,1.19293945E2,1.5458533E2,7.1393906E1,8.38962E1,6.0531616E1,5.1602417E1,3.901587E1,0E0,0E0,0E0,0E0,0E0,0E0,0E0,0E0,0E0,0E0,0E0,0E0,0E0,0E0,0E0,0E0],"parents":[2147483647,0,0,1,1,2,2,3,3,4,4,5,5,6,6,7,7,8,8,9,9,10,10,11,11,12,12,13,13,14,14],"right_children":[2,4,6,8,10,12,14,16,18,20,22,24,26,28,30,-1,-1,-1,-1,-1,-1,-1,-1,-1,-1,-1,-1,-1,-1,-1,-1],"split_conditions":[9.518669E0,4.9495616E0,1.662407E1,6.6E0,7.818182E0,1.2222222E1,2.3250801E1,1.64E1,8E0,1.01E1,2.2276257E1,4.2E0,6.8E0,5.5057186E-1,2.9585365E1,-1.5323556E-2,4.223184E-3,-1.0351506E-2,-6.276825E-3,-5.994668E-3,-1.0521065E-3,-3.5532762E-3,-7.2884193E-4,-1.5193684E-3,9.541853E-4,6.8140886E-4,3.0420339E-3,6.025434E-3,4.1674767E-3,6.447556E-3,8.533469E-3],"split_indices":[18,18,18,3,7,7,18,29,29,29,21,29,28,4,7,0,0,0,0,0,0,0,0,0,0,0,0,0,0,0,0],"split_type":[0,0,0,0,0,0,0,0,0,0,0,0,0,0,0,0,0,0,0,0,0,0,0,0,0,0,0,0,0,0,0],"sum_hessian":[8.9695175E5,3.2266156E5,5.742902E5,1.1688998E5,2.0577158E5,2.7360462E5,3.0068556E5,2.601298E4,9.087699E4,1.1624311E5,8.952847E4,1.4076373E5,1.3284088E5,1.7249844E5,1.2818713E5,2.5123355E4,8.8962476E2,6.621952E4,2.4657473E4,9.7353086E4,1.8890023E4,4.562672E4,4.390175E4,5.9054383E4,8.170936E4,3.8062473E4,9.47784E4,5.476294E4,1.177355E5,9.920745E4,2.8979684E4],"tree_param":{"num_deleted":"0","num_feature":"35","num_nodes":"31","size_leaf_vector":"1"}},{"base_weights":[-5.781247E-4,-1.3408405E-1,6.2239476E-2,-2.1057725E-1,-8.828043E-2,1.2577101E-2,1.0595594E-1,-2.9036096E-1,-1.8435988E-1,-1.0015767E-1,-1.6791644E-2,-1.51240695E-2,3.6747165E-2,8.540157E-2,1.3044958E-1,-1.5031636E-2,-1.9180283E-3,-9.871115E-3,-2.5389853E-3,-6.114528E-3,-3.0230796E-3,-1.7730341E-3,4.0414887E-3,-1.7963693E-3,9.567667E-4,1.6784724E-3,7.1383575E-3,2.6376022E-3,4.7146427E-3,5.963433E-3,8.29154E-3],"categories":[],"categories_nodes":[],"categories_segments":[],"categories_sizes":[],"default_left":[0,0,0,0,0,0,0,0,0,0,0,0,0,0,0,0,0,0,0,0,0,0,0,0,0,0,0,0,0,0,0],"id":41,"left_children":[1,3,5,7,9,11,13,15,17,19,21,23,25,27,29,-1,-1,-1,-1,-1,-1,-1,-1,-1,-1,-1,-1,-1,-1,-1,-1],"loss_changes":[7.5365156E3,1.0074243E3,1.3267505E3,2.2520557E2,1.5270703E2,1.9155457E2,1.6361499E2,6.892944E1,1.4142676E2,1.354939E2,4.6703564E1,9.5013275E1,5.146959E1,5.1295776E1,5.8644043E1,0E0,0E0,0E0,0E0,0E0,0E0,0E0,0E0,0E0,0E0,0E0,0E0,0E0,0E0,0E0,0E0],"parents":[2147483647,0,0,1,1,2,2,3,3,4,4,5,5,6,6,7,7,8,8,9,9,10,10,11,11,12,12,13,13,14,14],"right_children":[2,4,6,8,10,12,14,16,18,20,22,24,26,28,30,-1,-1,-1,-1,-1,-1,-1,-1,-1,-1,-1,-1,-1,-1,-1,-1],"split_conditions":[8.69789E0,4.711711E0,1.5871984E1,2.1788363E0,1.24800005E1,1.1210526E1,2.2520317E1,1.64E1,2.73E1,2.0872768E1,2.88E1,6.6E0,4.8600006E1,1.9000001E0,2.8842106E1,-1.5031636E-2,-1.9180283E-3,-9.871115E-3,-2.5389853E-3,-6.114528E-3,-3.0230796E-3,-1.7730341E-3,4.0414887E-3,-1.7963693E-3,9.567667E-4,1.6784724E-3,7.1383575E-3,2.6376022E-3,4.7146427E-3,5.963433E-3,8.29154E-3],"split_indices":[18,18,18,18,34,7,18,29,28,21,28,29,34,29,7,0,0,0,0,0,0,0,0,0,0,0,0,0,0,0,0],"split_type":[0,0,0,0,0,0,0,0,0,0,0,0,0,0,0,0,0,0,0,0,0,0,0,0,0,0,0,0,0,0,0],"sum_hessian":[8.986443E5,2.875387E5,6.111056E5,1.0769001E5,1.7984869E5,2.860973E5,3.2500828E5,2.66326E4,8.105741E4,1.5422512E5,2.562355E4,1.3331088E5,1.5278644E5,1.767169E5,1.4829139E5,2.558936E4,1.04324E3,7.383666E4,7.2207505E3,9.901588E4,5.5209246E4,2.1510531E4,4.113019E3,8.294449E4,5.0366383E4,1.4834153E5,4.4448994E3,3.782548E4,1.3889142E5,1.1268562E5,3.560577E4],"tree_param":{"num_deleted":"0","num_feature":"35","num_nodes":"31","size_leaf_vector":"1"}},{"base_weights":[-8.68185E-4,-1.2780856E-1,6.201048E-2,-2.2785544E-1,-9.244991E-2,1.5140853E-2,1.0335887E-1,-3.1760237E-1,-2.063907E-1,-1.2688364E-1,-6.3124605E-2,-3.5925654E-3,4.7868658E-2,8.502845E-2,1.2929398E-1,-1.6358024E-2,-3.864346E-3,-1.1278253E-2,-5.1584984E-3,-6.9110836E-3,-1.2459883E-3,-3.7942433E-3,-4.8190053E-4,-6.9878454E-4,2.7397578E-3,1.9597847E-3,5.907321E-3,2.2752995E-3,4.5468803E-3,5.5526355E-3,7.3827207E-3],"categories":[],"categories_nodes":[],"categories_segments":[],"categories_sizes":[],"default_left":[0,0,0,0,0,0,0,0,0,0,0,0,0,0,0,0,0,0,0,0,0,0,0,0,0,0,0,0,0,0,0],"id":42,"left_children":[1,3,5,7,9,11,13,15,17,19,21,23,25,27,29,-1,-1,-1,-1,-1,-1,-1,-1,-1,-1,-1,-1,-1,-1,-1,-1],"loss_changes":[7.1234785E3,1.0457861E3,1.1566411E3,1.4864941E2,2.2056384E2,1.7150885E2,1.5073389E2,3.419458E1,1.2328296E2,1.16142456E2,8.051434E1,1.0785592E2,6.2064423E1,4.338501E1,4.3960205E1,0E0,0E0,0E0,0E0,0E0,0E0,0E0,0E0,0E0,0E0,0E0,0E0,0E0,0E0,0E0,0E0],"parents":[2147483647,0,0,1,1,2,2,3,3,4,4,5,5,6,6,7,7,8,8,9,9,10,10,11,11,12,12,13,13,14,14],"right_children":[2,4,6,8,10,12,14,16,18,20,22,24,26,28,30,-1,-1,-1,-1,-1,-1,-1,-1,-1,-1,-1,-1,-1,-1,-1,-1],"split_conditions":[8.958442E0,3.9058526E0,1.5416667E1,1.639414E0,6.3533525E0,1.3358157E1,2.2538462E1,1.64E1,2.25E1,1.36E1,9E0,9.8E0,1.06E1,4E0,9.8E0,-1.6358024E-2,-3.864346E-3,-1.1278253E-2,-5.1584984E-3,-6.9110836E-3,-1.2459883E-3,-3.7942433E-3,-4.8190053E-4,-6.9878454E-4,2.7397578E-3,1.9597847E-3,5.907321E-3,2.2752995E-3,4.5468803E-3,5.5526355E-3,7.3827207E-3],"split_indices":[18,18,7,18,18,18,7,29,28,34,29,29,29,28,28,0,0,0,0,0,0,0,0,0,0,0,0,0,0,0,0],"split_type":[0,0,0,0,0,0,0,0,0,0,0,0,0,0,0,0,0,0,0,0,0,0,0,0,0,0,0,0,0,0,0],"sum_hessian":[8.924586E5,2.9563178E5,5.968268E5,7.7197336E4,2.1843445E5,2.797375E5,3.1708934E5,1.4897051E4,6.230028E4,1.0046513E5,1.1796932E5,1.7790527E5,1.0183222E5,1.8578467E5,1.3130467E5,1.4326866E4,5.7018414E2,5.2539344E4,9.760939E3,9.041135E4,1.0053787E4,9.52461E4,2.2723219E4,1.5104552E5,2.6859758E4,9.064704E4,1.1185176E4,2.4165588E4,1.6161908E5,6.586963E4,6.5435043E4],"tree_param":{"num_deleted":"0","num_feature":"35","num_nodes":"31","size_leaf_vector":"1"}},{"base_weights":[-9.043362E-4,-1.3027056E-1,5.808289E-2,-2.2504064E-1,-9.691566E-2,9.793487E-3,1.0018475E-1,-2.879229E-1,-1.9578627E-1,-1.300176E-1,-6.8701446E-2,-8.293765E-3,3.7128493E-2,7.225052E-2,1.17041826E-1,-1.51153235E-2,-7.692472E-3,-1.16976155E-2,-7.053251E-3,-7.15395E-3,5.4994534E-4,-3.9359275E-3,-3.948535E-4,-1.7417967E-3,5.834629E-4,1.4515115E-3,3.967484E-3,2.3132756E-3,4.294622E-3,5.4336768E-3,7.441703E-3],"categories":[],"categories_nodes":[],"categories_segments":[],"categories_sizes":[],"default_left":[0,0,0,0,0,0,0,0,0,0,0,0,0,0,0,0,0,0,0,0,0,0,0,0,0,0,0,0,0,0,0],"id":43,"left_children":[1,3,5,7,9,11,13,15,17,19,21,23,25,27,29,-1,-1,-1,-1,-1,-1,-1,-1,-1,-1,-1,-1,-1,-1,-1,-1],"loss_changes":[6.8433525E3,8.877583E2,1.2522478E3,1.3444092E2,1.9400684E2,1.4184258E2,1.5493726E2,4.471765E1,1.0418701E2,1.7606274E2,6.830859E1,9.148103E1,3.905847E1,4.389557E1,5.4579834E1,0E0,0E0,0E0,0E0,0E0,0E0,0E0,0E0,0E0,0E0,0E0,0E0,0E0,0E0,0E0,0E0],"parents":[2147483647,0,0,1,1,2,2,3,3,4,4,5,5,6,6,7,7,8,8,9,9,10,10,11,11,12,12,13,13,14,14],"right_children":[2,4,6,8,10,12,14,16,18,20,22,24,26,28,30,-1,-1,-1,-1,-1,-1,-1,-1,-1,-1,-1,-1,-1,-1,-1,-1],"split_conditions":[8.69789E0,3.8395526E0,1.5871984E1,2.0917523E0,1.7732649E1,1.266895E1,2.0269312E1,4.64E1,5.8E0,1.24E1,1.3200001E1,4E0,1.0285E2,3E0,3.773E1,-1.51153235E-2,-7.692472E-3,-1.16976155E-2,-7.053251E-3,-7.15395E-3,5.4994534E-4,-3.9359275E-3,-3.948535E-4,-1.7417967E-3,5.834629E-4,1.4515115E-3,3.967484E-3,2.3132756E-3,4.294622E-3,5.4336768E-3,7.441703E-3],"split_indices":[18,18,18,18,21,18,18,33,29,29,34,29,33,29,34,0,0,0,0,0,0,0,0,0,0,0,0,0,0,0,0],"split_type":[0,0,0,0,0,0,0,0,0,0,0,0,0,0,0,0,0,0,0,0,0,0,0,0,0,0,0,0,0,0,0],"sum_hessian":[8.9678656E5,2.80849E5,6.159375E5,7.311219E4,2.0773683E5,2.86888E5,3.2904953E5,2.3211113E4,4.9901074E4,9.558706E4,1.1214976E5,1.7264894E5,1.1423906E5,1.2383877E5,2.0521075E5,2.0961117E4,2.2499944E3,2.9395518E4,2.0505557E4,8.748399E4,8.103068E3,9.628687E4,1.5862892E4,7.411171E4,9.853722E4,9.585518E4,1.8383883E4,4.2634098E4,8.120467E4,1.624543E5,4.275647E4],"tree_param":{"num_deleted":"0","num_feature":"35","num_nodes":"31","size_leaf_vector":"1"}},{"base_weights":[-2.4854994E-4,-1.1485884E-1,6.169848E-2,-2.0144647E-1,-7.2746366E-2,1.45360725E-2,9.750421E-2,-2.7327242E-1,-1.7468475E-1,-1.2228884E-1,-5.6452E-2,-6.078735E-3,3.2837406E-2,7.056937E-2,1.1591811E-1,-1.4831545E-2,-4.265495E-3,-9.221974E-3,-2.666013E-3,-8.085707E-3,-4.7749914E-3,-3.379959E-3,4.3115715E-4,-7.7489426E-4,2.2891487E-3,2.1958228E-3,-1.4137998E-4,2.4613582E-3,4.0741777E-3,3.676967E-3,6.1408817E-3],"categories":[],"categories_nodes":[],"categories_segments":[],"categories_sizes":[],"default_left":[0,0,0,0,0,0,0,0,0,0,0,0,0,0,0,0,0,0,0,0,0,0,0,0,0,0,0,0,0,0,0],"id":44,"left_children":[1,3,5,7,9,11,13,15,17,19,21,23,25,27,29,-1,-1,-1,-1,-1,-1,-1,-1,-1,-1,-1,-1,-1,-1,-1,-1],"loss_changes":[6.3443594E3,1.1432451E3,9.7955664E2,1.9715137E2,1.702771E2,9.44469E1,1.6353271E2,1.2223584E2,8.847925E1,5.512256E1,1.151474E2,5.7510178E1,5.2398697E1,3.1183777E1,5.725415E1,0E0,0E0,0E0,0E0,0E0,0E0,0E0,0E0,0E0,0E0,0E0,0E0,0E0,0E0,0E0,0E0],"parents":[2147483647,0,0,1,1,2,2,3,3,4,4,5,5,6,6,7,7,8,8,9,9,10,10,11,11,12,12,13,13,14,14],"right_children":[2,4,6,8,10,12,14,16,18,20,22,24,26,28,30,-1,-1,-1,-1,-1,-1,-1,-1,-1,-1,-1,-1,-1,-1,-1,-1],"split_conditions":[9.518669E0,4.711711E0,1.5871984E1,7.2E0,5.9507847E0,1.220255E1,2.071388E1,2.55E1,1.36E1,9.200001E0,1E1,9.7E0,6.522642E-1,3E0,4E0,-1.4831545E-2,-4.265495E-3,-9.221974E-3,-2.666013E-3,-8.085707E-3,-4.7749914E-3,-3.379959E-3,4.3115715E-4,-7.7489426E-4,2.2891487E-3,2.1958228E-3,-1.4137998E-4,2.4613582E-3,4.0741777E-3,3.676967E-3,6.1408817E-3],"split_indices":[18,18,18,3,18,18,18,28,29,28,29,29,4,29,28,0,0,0,0,0,0,0,0,0,0,0,0,0,0,0,0],"split_type":[0,0,0,0,0,0,0,0,0,0,0,0,0,0,0,0,0,0,0,0,0,0,0,0,0,0,0,0,0,0,0],"sum_hessian":[8.93599E5,3.135285E5,5.800705E5,1.0258969E5,2.109388E5,2.5033583E5,3.2973466E5,2.7845568E4,7.4744125E4,5.2204938E4,