{"learner":{"attributes":{"best_iteration":"273","best_score":"6.000806876100242","scikit_learn":"{\"_estimator_type\": \"regressor\"}"},"feature_names":[],"feature_types":[],"gradient_booster":{"model":{"cats":{"enc":[],"feature_segments":[],"sorted_idx":[]},"gbtree_model_param":{"num_parallel_tree":"1","num_trees":"314"},"iteration_indptr":[0,1,2,3,4,5,6,7,8,9,10,11,12,13,14,15,16,17,18,19,20,21,22,23,24,25,26,27,28,29,30,31,32,33,34,35,36,37,38,39,40,41,42,43,44,45,46,47,48,49,50,51,52,53,54,55,56,57,58,59,60,61,62,63,64,65,66,67,68,69,70,71,72,73,74,75,76,77,78,79,80,81,82,83,84,85,86,87,88,89,90,91,92,93,94,95,96,97,98,99,100,101,102,103,104,105,106,107,108,109,110,111,112,113,114,115,116,117,118,119,120,121,122,123,124,125,126,127,128,129,130,131,132,133,134,135,136,137,138,139,140,141,142,143,144,145,146,147,148,149,150,151,152,153,154,155,156,157,158,159,160,161,162,163,164,165,166,167,168,169,170,171,172,173,174,175,176,177,178,179,180,181,182,183,184,185,186,187,188,189,190,191,192,193,194,195,196,197,198,199,200,201,202,203,204,205,206,207,208,209,210,211,212,213,214,215,216,217,218,219,220,221,222,223,224,225,226,227,228,229,230,231,232,233,234,235,236,237,238,239,240,241,242,243,244,245,246,247,248,249,250,251,252,253,254,255,256,257,258,259,260,261,262,263,264,265,266,267,268,269,270,271,272,273,274,275,276,277,278,279,280,281,282,283,284,285,286,287,288,289,290,291,292,293,294,295,296,297,298,299,300,301,302,303,304,305,306,307,308,309,310,311,312,313,314],"tree_info":[0,0,0,0,0,0,0,0,0,0,0,0,0,0,0,0,0,0,0,0,0,0,0,0,0,0,0,0,0,0,0,0,0,0,0,0,0,0,0,0,0,0,0,0,0,0,0,0,0,0,0,0,0,0,0,0,0,0,0,0,0,0,0,0,0,0,0,0,0,0,0,0,0,0,0,0,0,0,0,0,0,0,0,0,0,0,0,0,0,0,0,0,0,0,0,0,0,0,0,0,0,0,0,0,0,0,0,0,0,0,0,0,0,0,0,0,0,0,0,0,0,0,0,0,0,0,0,0,0,0,0,0,0,0,0,0,0,0,0,0,0,0,0,0,0,0,0,0,0,0,0,0,0,0,0,0,0,0,0,0,0,0,0,0,0,0,0,0,0,0,0,0,0,0,0,0,0,0,0,0,0,0,0,0,0,0,0,0,0,0,0,0,0,0,0,0,0,0,0,0,0,0,0,0,0,0,0,0,0,0,0,0,0,0,0,0,0,0,0,0,0,0,0,0,0,0,0,0,0,0,0,0,0,0,0,0,0,0,0,0,0,0,0,0,0,0,0,0,0,0,0,0,0,0,0,0,0,0,0,0,0,0,0,0,0,0,0,0,0,0,0,0,0,0,0,0,0,0,0,0,0,0,0,0,0,0,0,0,0,0,0,0,0,0,0,0,0,0,0,0,0,0,0,0,0,0,0,0,0,0,0,0,0,0],"trees":[{"base_weights":[-6.481736E-4,-1.6078748E-1,3.863418E-1,-2.5755328E-1,-2.1239528E-2,2.2458985E-1,5.8208734E-1,-3.4366533E-1,-2.1158576E-1,-6.230143E-2,8.6230025E-2,1.579091E-1,3.14132E-1,4.775454E-1,7E-1,-1.7833184E-2,-1.2444954E-2,-1.2827419E-2,-8.2829185E-3,-5.7519204E-3,-1.3057019E-4,2.9888356E-3,1.0392754E-2,3.1891565E-3,9.363277E-3,1.2381251E-2,1.7603448E-2,1.849018E-2,2.5259186E-2,3.125326E-2,3.5E-2],"categories":[],"categories_nodes":[],"categories_segments":[],"categories_sizes":[],"default_left":[0,0,0,0,0,0,0,0,0,0,0,0,0,0,0,0,0,0,0,0,0,0,0,0,0,0,0,0,0,0,0],"id":0,"left_children":[1,3,5,7,9,11,13,15,17,19,21,23,25,27,29,-1,-1,-1,-1,-1,-1,-1,-1,-1,-1,-1,-1,-1,-1,-1,-1],"loss_changes":[5.5363777E4,8.53263E3,8.278871E3,1.4769492E3,1.1418239E3,8.547964E2,1.6558086E3,1.5987793E2,5.02333E2,5.8932874E2,2.301311E2,2.2674829E2,1.5409668E2,1.9846094E2,1.145625E2,0E0,0E0,0E0,0E0,0E0,0E0,0E0,0E0,0E0,0E0,0E0,0E0,0E0,0E0,0E0,0E0],"parents":[2147483647,0,0,1,1,2,2,3,3,4,4,5,5,6,6,7,7,8,8,9,9,10,10,11,11,12,12,13,13,14,14],"right_children":[2,4,6,8,10,12,14,16,18,20,22,24,26,28,30,-1,-1,-1,-1,-1,-1,-1,-1,-1,-1,-1,-1,-1,-1,-1,-1],"split_conditions":[1.3444445E1,8E0,2.0025E1,3.6E0,1.28E1,1.68E1,2.4197369E1,1.1E1,1.7218042E1,9.285714E0,1.7E1,1.18E1,1.60625E1,1.88E1,2.6434782E1,-1.7833184E-2,-1.2444954E-2,-1.2827419E-2,-8.2829185E-3,-5.7519204E-3,-1.3057019E-4,2.9888356E-3,1.0392754E-2,3.1891565E-3,9.363277E-3,1.2381251E-2,1.7603448E-2,1.849018E-2,2.5259186E-2,3.125326E-2,3.5E-2],"split_indices":[7,0,7,0,0,0,7,27,19,7,0,0,7,0,7,0,0,0,0,0,0,0,0,0,0,0,0,0,0,0,0],"split_type":[0,0,0,0,0,0,0,0,0,0,0,0,0,0,0,0,0,0,0,0,0,0,0,0,0,0,0,0,0,0,0],"sum_hessian":[8.9336125E5,6.318837E5,2.6147755E5,3.7313938E5,2.5874433E5,1.4317156E5,1.1830598E5,1.2986103E5,2.4327833E5,1.872141E5,7.153023E4,8.206311E4,6.110846E4,6.670822E4,5.159776E4,1.1419505E5,1.5665987E4,1.22928E5,1.20350336E5,9.939569E4,8.7818414E4,5.8753008E4,1.2777224E4,1.9510266E4,6.255284E4,2.2199037E4,3.890942E4,1.3621631E4,5.3086586E4,2.0488E4,3.1109762E4],"tree_param":{"num_deleted":"0","num_feature":"28","num_nodes":"31","size_leaf_vector":"1"}},{"base_weights":[1.6494378E-3,-1.6863742E-1,3.6503515E-1,-2.7690166E-1,-5.423363E-2,2.1777643E-1,5.632973E-1,-3.441847E-1,-2.2857344E-1,-1.1083579E-1,2.1754874E-2,1.6080423E-1,3.153626E-1,4.7952697E-1,6.960516E-1,-1.7918918E-2,-1.2975628E-2,-1.2157395E-2,-7.827095E-3,-7.556652E-3,-4.187899E-3,-4.3518175E-4,3.0955542E-3,7.119757E-3,1.1328438E-2,1.7612291E-2,1.3590886E-2,2.1905135E-2,2.7328087E-2,3.0642515E-2,3.5E-2],"categories":[],"categories_nodes":[],"categories_segments":[],"categories_sizes":[],"default_left":[0,0,0,0,0,0,0,0,0,0,0,0,0,0,0,0,0,0,0,0,0,0,0,0,0,0,0,0,0,0,0],"id":1,"left_children":[1,3,5,7,9,11,13,15,17,19,21,23,25,27,29,-1,-1,-1,-1,-1,-1,-1,-1,-1,-1,-1,-1,-1,-1,-1,-1],"loss_changes":[5.545582E4,7.5581562E3,8.348699E3,1.01940234E3,1.2761508E3,9.1222363E2,1.3550078E3,1.5741602E2,1.9152148E2,1.8553003E2,1.549194E2,1.2539844E2,9.704492E1,2.0725977E2,1.6421484E2,0E0,0E0,0E0,0E0,0E0,0E0,0E0,0E0,0E0,0E0,0E0,0E0,0E0,0E0,0E0,0E0],"parents":[2147483647,0,0,1,1,2,2,3,3,4,4,5,5,6,6,7,7,8,8,9,9,10,10,11,11,12,12,13,13,14,14],"right_children":[2,4,6,8,10,12,14,16,18,20,22,24,26,28,30,-1,-1,-1,-1,-1,-1,-1,-1,-1,-1,-1,-1,-1,-1,-1,-1],"split_conditions":[1.3248036E1,6.9476337E0,2.0047394E1,3.8395526E0,1.0154592E1,1.696453E1,2.5337202E1,1.0200001E1,9.5E0,2.0872768E1,5.2000003E0,3.1807339E1,-3.5669103E-1,2.301623E1,2.7980303E1,-1.7918918E-2,-1.2975628E-2,-1.2157395E-2,-7.827095E-3,-7.556652E-3,-4.187899E-3,-4.3518175E-4,3.0955542E-3,7.119757E-3,1.1328438E-2,1.7612291E-2,1.3590886E-2,2.1905135E-2,2.7328087E-2,3.0642515E-2,3.5E-2],"split_indices":[16,16,16,16,16,16,16,27,27,19,27,10,24,16,16,0,0,0,0,0,0,0,0,0,0,0,0,0,0,0,0],"split_type":[0,0,0,0,0,0,0,0,0,0,0,0,0,0,0,0,0,0,0,0,0,0,0,0,0,0,0,0,0,0,0],"sum_hessian":[8.96184E5,6.1022556E5,2.8595844E5,3.1352488E5,2.9670072E5,1.6408603E5,1.218724E5,1.31058195E5,1.8246667E5,1.7004069E5,1.2666002E5,1.0360348E5,6.048256E4,7.4724516E4,4.7147883E4,1.12240086E5,1.8818105E4,1.5175836E5,3.0708305E4,6.8336945E4,1.0170375E5,7.2027734E4,5.4632293E4,8.0947484E4,2.2655994E4,3.274226E4,2.7740299E4,4.6189277E4,2.8535242E4,2.1780793E4,2.5367088E4],"tree_param":{"num_deleted":"0","num_feature":"28","num_nodes":"31","size_leaf_vector":"1"}},{"base_weights":[1.6871931E-4,-1.6805845E-1,3.4930894E-1,-2.57849E-1,-2.956808E-2,2.1325637E-1,5.3558683E-1,-3.2433876E-1,-1.9533128E-1,-8.3449E-2,2.2135668E-2,1.4970808E-1,3.049733E-1,4.3833092E-1,6.5429825E-1,-1.8167062E-2,-1.4403681E-2,-1.1068672E-2,-7.6533705E-3,-4.9948934E-3,-5.3875626E-4,-6.160239E-5,4.959503E-3,6.207418E-3,1.10302E-2,1.1996175E-2,1.6963365E-2,2.024821E-2,2.6076479E-2,2.9712716E-2,3.5E-2],"categories":[],"categories_nodes":[],"categories_segments":[],"categories_sizes":[],"default_left":[0,0,0,0,0,0,0,0,0,0,0,0,0,0,0,0,0,0,0,0,0,0,0,0,0,0,0,0,0,0,0],"id":2,"left_children":[1,3,5,7,9,11,13,15,17,19,21,23,25,27,29,-1,-1,-1,-1,-1,-1,-1,-1,-1,-1,-1,-1,-1,-1,-1,-1],"loss_changes":[5.2537574E4,7.5062773E3,7.3711016E3,1.5221738E3,6.614486E2,9.79645E2,1.4170859E3,2.5091016E2,2.0770459E2,1.3898602E2,2.1816689E2,1.7989966E2,1.5338916E2,1.8712695E2,2.8980273E2,0E0,0E0,0E0,0E0,0E0,0E0,0E0,0E0,0E0,0E0,0E0,0E0,0E0,0E0,0E0,0E0],"parents":[2147483647,0,0,1,1,2,2,3,3,4,4,5,5,6,6,7,7,8,8,9,9,10,10,11,11,12,12,13,13,14,14],"right_children":[2,4,6,8,10,12,14,16,18,20,22,24,26,28,30,-1,-1,-1,-1,-1,-1,-1,-1,-1,-1,-1,-1,-1,-1,-1,-1],"split_conditions":[1.3248036E1,7.9268217E0,2.0269312E1,4.711711E0,1.0223725E1,1.60625E1,2.4197369E1,2.9812872E0,1.960077E1,9E0,1.3E1,1.6463964E1,1.696453E1,2.2075E1,2.8842106E1,-1.8167062E-2,-1.4403681E-2,-1.1068672E-2,-7.6533705E-3,-4.9948934E-3,-5.3875626E-4,-6.160239E-5,4.959503E-3,6.207418E-3,1.10302E-2,1.1996175E-2,1.6963365E-2,2.024821E-2,2.6076479E-2,2.9712716E-2,3.5E-2],"split_indices":[16,16,16,16,16,7,7,16,19,27,7,16,16,7,7,0,0,0,0,0,0,0,0,0,0,0,0,0,0,0,0],"split_type":[0,0,0,0,0,0,0,0,0,0,0,0,0,0,0,0,0,0,0,0,0,0,0,0,0,0,0,0,0,0,0],"sum_hessian":[8.94485E5,6.036346E5,2.9085038E5,3.6620434E5,2.374303E5,1.6808648E5,1.2276389E5,1.7746262E5,1.887417E5,1.1626692E5,1.2116337E5,9.929214E4,6.879434E4,6.7482586E4,5.5281305E4,8.549996E4,9.196266E4,1.1677994E5,7.196177E4,9.48079E4,2.1459021E4,9.297002E4,2.8193348E4,7.29828E4,2.6309344E4,2.3750918E4,4.504342E4,4.8169953E4,1.9312633E4,3.6285266E4,1.899604E4],"tree_param":{"num_deleted":"0","num_feature":"28","num_nodes":"31","size_leaf_vector":"1"}},{"base_weights":[-2.5370362E-4,-1.6318329E-1,3.3183172E-1,-2.7094078E-1,-4.9287334E-2,2.0434175E-1,5.0394636E-1,-3.3754823E-1,-2.2205621E-1,-1.0190565E-1,2.2533976E-2,1.4502382E-1,2.812409E-1,4.4430336E-1,6.6008365E-1,-1.7628636E-2,-1.2672846E-2,-1.1740204E-2,-7.031963E-3,-6.652176E-3,-3.1960127E-3,-7.4537226E-4,2.4563204E-3,1.0579774E-2,6.3368576E-3,1.2152465E-2,1.6586976E-2,2.0094613E-2,2.5205502E-2,3.0156866E-2,3.5E-2],"categories":[],"categories_nodes":[],"categories_segments":[],"categories_sizes":[],"default_left":[0,0,0,0,0,0,0,0,0,0,0,0,0,0,0,0,0,0,0,0,0,0,0,0,0,0,0,0,0,0,0],"id":3,"left_children":[1,3,5,7,9,11,13,15,17,19,21,23,25,27,29,-1,-1,-1,-1,-1,-1,-1,-1,-1,-1,-1,-1,-1,-1,-1,-1],"loss_changes":[4.835365E4,7.3581035E3,6.454285E3,1.0030117E3,1.101481E3,7.7075977E2,1.1653145E3,1.6465723E2,1.84375E2,1.9896082E2,1.2270998E2,1.16106445E2,1.4183594E2,2.295293E2,9.281055E1,0E0,0E0,0E0,0E0,0E0,0E0,0E0,0E0,0E0,0E0,0E0,0E0,0E0,0E0,0E0,0E0],"parents":[2147483647,0,0,1,1,2,2,3,3,4,4,5,5,6,6,7,7,8,8,9,9,10,10,11,11,12,12,13,13,14,14],"right_children":[2,4,6,8,10,12,14,16,18,20,22,24,26,28,30,-1,-1,-1,-1,-1,-1,-1,-1,-1,-1,-1,-1,-1,-1,-1,-1],"split_conditions":[1.3248036E1,6.998722E0,2.0269312E1,3.9058526E0,1.0223725E1,1.662407E1,2.7003708E1,1E1,1.0200001E1,8.69789E0,3.8000002E0,5.208333E-1,3.2658535E1,2.3515066E1,2.9343384E1,-1.7628636E-2,-1.2672846E-2,-1.1740204E-2,-7.031963E-3,-6.652176E-3,-3.1960127E-3,-7.4537226E-4,2.4563204E-3,1.0579774E-2,6.3368576E-3,1.2152465E-2,1.6586976E-2,2.0094613E-2,2.5205502E-2,3.0156866E-2,3.5E-2],"split_indices":[16,16,16,16,16,16,16,27,27,16,27,4,10,16,16,0,0,0,0,0,0,0,0,0,0,0,0,0,0,0,0],"split_type":[0,0,0,0,0,0,0,0,0,0,0,0,0,0,0,0,0,0,0,0,0,0,0,0,0,0,0,0,0,0,0],"sum_hessian":[8.9367275E5,5.99529E5,2.9414375E5,3.0806547E5,2.9146356E5,1.6897878E5,1.2516495E5,1.3039312E5,1.7767234E5,1.6822023E5,1.2324331E5,9.539587E4,7.3582914E4,9.057135E4,3.4593598E4,1.10624734E5,1.9768379E4,1.5361773E5,2.4054604E4,9.2440914E4,7.577933E4,5.1181543E4,7.206177E4,2.0555188E4,7.484068E4,4.1900094E4,3.1682824E4,5.2996984E4,3.757437E4,1.5817986E4,1.8775611E4],"tree_param":{"num_deleted":"0","num_feature":"28","num_nodes":"31","size_leaf_vector":"1"}},{"base_weights":[-3.4307933E-4,-1.6104694E-1,3.2335258E-1,-2.595292E-1,-3.4659103E-2,2.0611107E-1,5.032838E-1,-3.341617E-1,-2.089892E-1,-9.042281E-2,2.261754E-2,1.4413965E-1,2.938981E-1,4.3344346E-1,6.2023395E-1,-1.8317398E-2,-1.5166295E-2,-1.1959171E-2,-8.602216E-3,-6.263888E-3,-3.318879E-3,-1.0728071E-3,3.05425E-3,5.5692378E-3,1.0587616E-2,1.2463396E-2,1.728989E-2,1.9329784E-2,2.421498E-2,2.848032E-2,3.5E-2],"categories":[],"categories_nodes":[],"categories_segments":[],"categories_sizes":[],"default_left":[0,0,0,0,0,0,0,0,0,0,0,0,0,0,0,0,0,0,0,0,0,0,0,0,0,0,0,0,0,0,0],"id":4,"left_children":[1,3,5,7,9,11,13,15,17,19,21,23,25,27,29,-1,-1,-1,-1,-1,-1,-1,-1,-1,-1,-1,-1,-1,-1,-1,-1],"loss_changes":[4.6597305E4,7.4506387E3,6.269039E3,1.2689453E3,8.3731573E2,9.788711E2,9.573594E2,1.3471094E2,2.2373145E2,1.1131799E2,2.192579E2,2.3357666E2,1.7238086E2,1.7471094E2,1.9189258E2,0E0,0E0,0E0,0E0,0E0,0E0,0E0,0E0,0E0,0E0,0E0,0E0,0E0,0E0,0E0,0E0],"parents":[2147483647,0,0,1,1,2,2,3,3,4,4,5,5,6,6,7,7,8,8,9,9,10,10,11,11,12,12,13,13,14,14],"right_children":[2,4,6,8,10,12,14,16,18,20,22,24,26,28,30,-1,-1,-1,-1,-1,-1,-1,-1,-1,-1,-1,-1,-1,-1,-1,-1],"split_conditions":[1.3358157E1,7.540833E0,2.0666666E1,4.027404E0,1.0154592E1,1.725337E1,2.564626E1,2.6304624E0,5.9507847E0,2.1651833E1,1.0952381E1,1.5416667E1,1.8E1,2.2538462E1,2.9585365E1,-1.8317398E-2,-1.5166295E-2,-1.1959171E-2,-8.602216E-3,-6.263888E-3,-3.318879E-3,-1.0728071E-3,3.05425E-3,5.5692378E-3,1.0587616E-2,1.2463396E-2,1.728989E-2,1.9329784E-2,2.421498E-2,2.848032E-2,3.5E-2],"split_indices":[16,16,7,16,16,16,7,16,16,19,7,7,7,7,7,0,0,0,0,0,0,0,0,0,0,0,0,0,0,0,0],"split_type":[0,0,0,0,0,0,0,0,0,0,0,0,0,0,0,0,0,0,0,0,0,0,0,0,0,0,0,0,0,0,0],"sum_hessian":[8.9577025E5,5.985908E5,2.9717944E5,3.3643628E5,2.6215453E5,1.7993661E5,1.1724285E5,1.3583825E5,2.0059805E5,1.328313E5,1.2932321E5,1.05478734E5,7.445787E4,7.340909E4,4.3833754E4,6.6458414E4,6.937983E4,1.1038086E5,9.021719E4,5.4224934E4,7.8606375E4,6.0269977E4,6.905324E4,7.105759E4,3.442114E4,4.0035695E4,3.442217E4,3.8214832E4,3.5194258E4,2.7717746E4,1.6116008E4],"tree_param":{"num_deleted":"0","num_feature":"28","num_nodes":"31","size_leaf_vector":"1"}},{"base_weights":[-3.716099E-4,-1.6023277E-1,3.0932674E-1,-2.683095E-1,-5.0198305E-2,1.7947306E-1,4.4836742E-1,-3.3543998E-1,-2.2200926E-1,-1.0315472E-1,2.027061E-2,1.2748225E-1,2.4736801E-1,3.6933336E-1,5.5672544E-1,-1.7996142E-2,-1.4756061E-2,-1.2253865E-2,-9.172195E-3,-6.862773E-3,-3.7516844E-3,-8.810008E-5,4.701473E-3,4.8024296E-3,8.621423E-3,1.0905306E-2,1.4754494E-2,1.5327712E-2,1.9924616E-2,2.5897754E-2,3.2944527E-2],"categories":[],"categories_nodes":[],"categories_segments":[],"categories_sizes":[],"default_left":[0,0,0,0,0,0,0,0,0,0,0,0,0,0,0,0,0,0,0,0,0,0,0,0,0,0,0,0,0,0,0],"id":5,"left_children":[1,3,5,7,9,11,13,15,17,19,21,23,25,27,29,-1,-1,-1,-1,-1,-1,-1,-1,-1,-1,-1,-1,-1,-1,-1,-1],"loss_changes":[4.4359477E4,7.0276973E3,5.5074023E3,9.265586E2,1.092763E3,5.56751E2,1.2613398E3,1.2001367E2,1.5692285E2,1.6031335E2,2.0417685E2,1.2619238E2,9.5456055E1,1.5581055E2,2.457461E2,0E0,0E0,0E0,0E0,0E0,0E0,0E0,0E0,0E0,0E0,0E0,0E0,0E0,0E0,0E0,0E0],"parents":[2147483647,0,0,1,1,2,2,3,3,4,4,5,5,6,6,7,7,8,8,9,9,10,10,11,11,12,12,13,13,14,14],"right_children":[2,4,6,8,10,12,14,16,18,20,22,24,26,28,30,-1,-1,-1,-1,-1,-1,-1,-1,-1,-1,-1,-1,-1,-1,-1,-1],"split_conditions":[1.3248036E1,6.9476337E0,1.9344538E1,3.8395526E0,1.0154592E1,1.6463964E1,2.4197369E1,1.047104E1,5.7775493E0,2.1651833E1,1.3E1,1.44E1,1.909021E1,2.0047394E1,2.9585365E1,-1.7996142E-2,-1.4756061E-2,-1.2253865E-2,-9.172195E-3,-6.862773E-3,-3.7516844E-3,-8.810008E-5,4.701473E-3,4.8024296E-3,8.621423E-3,1.0905306E-2,1.4754494E-2,1.5327712E-2,1.9924616E-2,2.5897754E-2,3.2944527E-2],"split_indices":[16,16,7,16,16,16,7,19,16,19,7,7,16,16,7,0,0,0,0,0,0,0,0,0,0,0,0,0,0,0,0],"split_type":[0,0,0,0,0,0,0,0,0,0,0,0,0,0,0,0,0,0,0,0,0,0,0,0,0,0,0,0,0,0,0],"sum_hessian":[8.9599106E5,5.9095194E5,3.0503912E5,2.981274E5,2.9282453E5,1.5773169E5,1.4730744E5,1.21687305E5,1.764401E5,1.6718605E5,1.2563846E5,8.9329875E4,6.840181E4,8.518194E4,6.212549E4,7.5707414E4,4.5979895E4,1.10399055E5,6.604104E4,7.555771E4,9.162834E4,9.674161E4,2.8896852E4,5.256855E4,3.676132E4,4.240541E4,2.59964E4,2.701983E4,5.816211E4,4.503959E4,1.7085896E4],"tree_param":{"num_deleted":"0","num_feature":"28","num_nodes":"31","size_leaf_vector":"1"}},{"base_weights":[-2.6272124E-4,-1.6294698E-1,2.823958E-1,-2.6293352E-1,-5.555177E-2,1.6249779E-1,4.2398962E-1,-3.3078942E-1,-2.1543655E-1,-1.0906404E-1,8.285003E-4,1.0668472E-1,2.2497512E-1,3.371878E-1,5.0187415E-1,-1.7341277E-2,-1.1645726E-2,-1.1580515E-2,-7.2042034E-3,-7.011307E-3,-3.9891363E-3,-1.6134687E-3,1.984509E-3,3.2859666E-3,7.1795704E-3,9.899923E-3,1.3717975E-2,1.4440547E-2,1.8278249E-2,2.318607E-2,3.0213246E-2],"categories":[],"categories_nodes":[],"categories_segments":[],"categories_sizes":[],"default_left":[0,0,0,0,0,0,0,0,0,0,0,0,0,0,0,0,0,0,0,0,0,0,0,0,0,0,0,0,0,0,0],"id":6,"left_children":[1,3,5,7,9,11,13,15,17,19,21,23,25,27,29,-1,-1,-1,-1,-1,-1,-1,-1,-1,-1,-1,-1,-1,-1,-1,-1],"loss_changes":[4.1015152E4,6.078966E3,5.5314434E3,9.448008E2,8.234892E2,6.152051E2,1.0098242E3,1.893789E2,1.9899023E2,1.27766235E2,1.7095848E2,1.4088123E2,1.1084717E2,9.6890625E1,3.0732227E2,0E0,0E0,0E0,0E0,0E0,0E0,0E0,0E0,0E0,0E0,0E0,0E0,0E0,0E0,0E0,0E0],"parents":[2147483647,0,0,1,1,2,2,3,3,4,4,5,5,6,6,7,7,8,8,9,9,10,10,11,11,12,12,13,13,14,14],"right_children":[2,4,6,8,10,12,14,16,18,20,22,24,26,28,30,-1,-1,-1,-1,-1,-1,-1,-1,-1,-1,-1,-1,-1,-1,-1,-1],"split_conditions":[1.2773665E1,6.9476337E0,1.9344538E1,3.8395526E0,9.649502E0,1.5871984E1,2.2948277E1,1.04E1,9.2E0,2.1651833E1,1.0952381E1,1.3327103E1,1.8869686E1,2.0047394E1,2.8842106E1,-1.7341277E-2,-1.1645726E-2,-1.1580515E-2,-7.2042034E-3,-7.011307E-3,-3.9891363E-3,-1.6134687E-3,1.984509E-3,3.2859666E-3,7.1795704E-3,9.899923E-3,1.3717975E-2,1.4440547E-2,1.8278249E-2,2.318607E-2,3.0213246E-2],"split_indices":[16,16,7,16,16,16,7,27,27,19,7,7,16,16,7,0,0,0,0,0,0,0,0,0,0,0,0,0,0,0,0],"split_type":[0,0,0,0,0,0,0,0,0,0,0,0,0,0,0,0,0,0,0,0,0,0,0,0,0,0,0,0,0,0,0],"sum_hessian":[8.919401E5,5.6611356E5,3.2582653E5,2.931682E5,2.7294538E5,1.7643123E5,1.4939531E5,1.2071067E5,1.7245753E5,1.400339E5,1.3291147E5,9.318695E4,8.324428E4,7.065551E4,7.8739805E4,1.0371511E5,1.6995562E4,1.4058772E5,3.1869803E4,6.783645E4,7.2197445E4,7.177879E4,6.1132688E4,4.4166336E4,4.9020617E4,5.3839156E4,2.9405123E4,2.6126572E4,4.4528938E4,5.7368688E4,2.1371113E4],"tree_param":{"num_deleted":"0","num_feature":"28","num_nodes":"31","size_leaf_vector":"1"}},{"base_weights":[-1.2008052E-3,-1.6277608E-1,2.7017772E-1,-2.598884E-1,-5.5875205E-2,1.547451E-1,4.0712386E-1,-3.3956322E-1,-2.1848138E-1,-1.09509766E-1,-2.0132202E-3,1.0689365E-1,2.2798815E-1,3.2290095E-1,4.8348162E-1,-1.773311E-2,-1.2091E-2,-1.1719437E-2,-7.071168E-3,-6.373407E-3,-2.6311327E-3,-2.0171416E-3,1.3832094E-3,3.990331E-3,7.664586E-3,9.649979E-3,1.3033579E-2,1.3814478E-2,1.7576497E-2,2.260694E-2,2.9767392E-2],"categories":[],"categories_nodes":[],"categories_segments":[],"categories_sizes":[],"default_left":[0,0,0,0,0,0,0,0,0,0,0,0,0,0,0,0,0,0,0,0,0,0,0,0,0,0,0,0,0,0,0],"id":7,"left_children":[1,3,5,7,9,11,13,15,17,19,21,23,25,27,29,-1,-1,-1,-1,-1,-1,-1,-1,-1,-1,-1,-1,-1,-1,-1,-1],"loss_changes":[3.923188E4,5.8220664E3,5.2783145E3,9.694121E2,7.712011E2,6.349922E2,9.819961E2,1.4822363E2,2.3699902E2,1.3664331E2,1.5151578E2,1.3771936E2,8.182324E1,9.681299E1,2.8057227E2,0E0,0E0,0E0,0E0,0E0,0E0,0E0,0E0,0E0,0E0,0E0,0E0,0E0,0E0,0E0,0E0],"parents":[2147483647,0,0,1,1,2,2,3,3,4,4,5,5,6,6,7,7,8,8,9,9,10,10,11,11,12,12,13,13,14,14],"right_children":[2,4,6,8,10,12,14,16,18,20,22,24,26,28,30,-1,-1,-1,-1,-1,-1,-1,-1,-1,-1,-1,-1,-1,-1,-1,-1],"split_conditions":[1.266895E1,6.998722E0,1.9344538E1,3.4527433E0,9.58024E0,1.6463964E1,2.2948277E1,1.04E1,9.4E0,7.7000003E0,4E0,1.44E1,1.6241379E1,3.3E0,2.9585365E1,-1.773311E-2,-1.2091E-2,-1.1719437E-2,-7.071168E-3,-6.373407E-3,-2.6311327E-3,-2.0171416E-3,1.3832094E-3,3.990331E-3,7.664586E-3,9.649979E-3,1.3033579E-2,1.3814478E-2,1.7576497E-2,2.260694E-2,2.9767392E-2],"split_indices":[16,16,7,16,16,16,7,27,27,27,27,7,7,27,7,0,0,0,0,0,0,0,0,0,0,0,0,0,0,0,0],"split_type":[0,0,0,0,0,0,0,0,0,0,0,0,0,0,0,0,0,0,0,0,0,0,0,0,0,0,0,0,0,0,0],"sum_hessian":[8.9472125E5,5.608179E5,3.3390334E5,2.938622E5,2.669557E5,1.8118431E5,1.5271903E5,1.00491234E5,1.9337095E5,1.3375972E5,1.3319597E5,1.095894E5,7.1594914E4,7.262194E4,8.00971E4,8.704262E4,1.3448622E4,1.6028142E5,3.308953E4,1.01664555E5,3.2095162E4,5.8124887E4,7.507108E4,6.9195836E4,4.0393562E4,3.45814E4,3.7013516E4,2.7636717E4,4.498522E4,6.257093E4,1.752617E4],"tree_param":{"num_deleted":"0","num_feature":"28","num_nodes":"31","size_leaf_vector":"1"}},{"base_weights":[6.003694E-4,-1.5955849E-1,2.6075664E-1,-2.6527512E-1,-6.4124346E-2,1.509121E-1,3.8952267E-1,-3.215869E-1,-2.1390063E-1,-1.1390615E-1,-4.340072E-3,1.0350344E-1,2.1028204E-1,3.3609888E-1,4.80803E-1,-1.6531264E-2,-7.907988E-3,-1.140963E-2,-6.6315033E-3,-6.533733E-3,-2.7602294E-3,-2.1877903E-3,1.3972879E-3,3.808037E-3,6.344733E-3,1.20286355E-2,8.899005E-3,1.2948013E-2,1.7584251E-2,2.2076087E-2,2.7053911E-2],"categories":[],"categories_nodes":[],"categories_segments":[],"categories_sizes":[],"default_left":[0,0,0,0,0,0,0,0,0,0,0,0,0,0,0,0,0,0,0,0,0,0,0,0,0,0,0,0,0,0,0],"id":8,"left_children":[1,3,5,7,9,11,13,15,17,19,21,23,25,27,29,-1,-1,-1,-1,-1,-1,-1,-1,-1,-1,-1,-1,-1,-1,-1,-1],"loss_changes":[3.730903E4,5.591574E3,4.825916E3,7.6063477E2,8.669005E2,5.182344E2,7.6579297E2,1.8524414E2,1.596831E2,1.5643921E2,1.6842026E2,6.546985E1,7.9944824E1,1.1903516E2,1.3705469E2,0E0,0E0,0E0,0E0,0E0,0E0,0E0,0E0,0E0,0E0,0E0,0E0,0E0,0E0,0E0,0E0],"parents":[2147483647,0,0,1,1,2,2,3,3,4,4,5,5,6,6,7,7,8,8,9,9,10,10,11,11,12,12,13,13,14,14],"right_children":[2,4,6,8,10,12,14,16,18,20,22,24,26,28,30,-1,-1,-1,-1,-1,-1,-1,-1,-1,-1,-1,-1,-1,-1,-1,-1],"split_conditions":[1.266895E1,6.536006E0,1.94445E1,4.027404E0,9.58024E0,1.5871984E1,2.5337202E1,1.4299999E1,1E1,8.1E0,4.1E0,2.8705128E1,-3.6026248E-1,3.1166666E1,2.9343384E1,-1.6531264E-2,-7.907988E-3,-1.140963E-2,-6.6315033E-3,-6.533733E-3,-2.7602294E-3,-2.1877903E-3,1.3972879E-3,3.808037E-3,6.344733E-3,1.20286355E-2,8.899005E-3,1.2948013E-2,1.7584251E-2,2.2076087E-2,2.7053911E-2],"split_indices":[16,16,16,16,16,16,16,27,27,27,27,10,24,10,16,0,0,0,0,0,0,0,0,0,0,0,0,0,0,0,0],"split_type":[0,0,0,0,0,0,0,0,0,0,0,0,0,0,0,0,0,0,0,0,0,0,0,0,0,0,0,0,0,0,0],"sum_hessian":[8.9542206E5,5.5422644E5,3.4119562E5,2.629468E5,2.9127966E5,1.8412716E5,1.5706845E5,1.25443016E5,1.375038E5,1.5893502E5,1.3234462E5,1.0237802E5,8.174913E4,9.908278E4,5.7985676E4,1.18867984E5,6.575031E3,1.1693772E5,2.0566082E4,1.2362071E5,3.5314312E4,5.9592066E4,7.2752555E4,4.7204035E4,5.5173984E4,4.218466E4,3.956447E4,1.6657818E4,8.242496E4,3.5111727E4,2.2873947E4],"tree_param":{"num_deleted":"0","num_feature":"28","num_nodes":"31","size_leaf_vector":"1"}},{"base_weights":[-1.1135155E-4,-1.5600948E-1,2.4982475E-1,-2.7645475E-1,-7.161232E-2,1.4501086E-1,3.7088692E-1,-3.4121853E-1,-2.3604053E-1,-1.3438174E-1,-1.4243425E-2,9.3472295E-2,2.043234E-1,3.104804E-1,4.5270345E-1,-1.7360097E-2,-6.199255E-3,-1.2590691E-2,-8.008319E-3,-7.385222E-3,-2.7234026E-3,-2.3909423E-3,1.4894061E-3,2.631846E-3,6.1986377E-3,8.690814E-3,1.1896822E-2,1.3388604E-2,1.7004693E-2,2.114276E-2,2.6584772E-2],"categories":[],"categories_nodes":[],"categories_segments":[],"categories_sizes":[],"default_left":[0,0,0,0,0,0,0,0,0,0,0,0,0,0,0,0,0,0,0,0,0,0,0,0,0,0,0,0,0,0,0],"id":9,"left_children":[1,3,5,7,9,11,13,15,17,19,21,23,25,27,29,-1,-1,-1,-1,-1,-1,-1,-1,-1,-1,-1,-1,-1,-1,-1,-1],"loss_changes":[3.4889754E4,5.605633E3,4.364578E3,5.9459766E2,1.1676265E3,5.635427E2,7.8870703E2,1.1342676E2,1.6739502E2,1.6484106E2,2.5045941E2,1.2285608E2,8.785327E1,1.16041016E2,1.5961133E2,0E0,0E0,0E0,0E0,0E0,0E0,0E0,0E0,0E0,0E0,0E0,0E0,0E0,0E0,0E0,0E0],"parents":[2147483647,0,0,1,1,2,2,3,3,4,4,5,5,6,6,7,7,8,8,9,9,10,10,11,11,12,12,13,13,14,14],"right_children":[2,4,6,8,10,12,14,16,18,20,22,24,26,28,30,-1,-1,-1,-1,-1,-1,-1,-1,-1,-1,-1,-1,-1,-1,-1,-1],"split_conditions":[1.266895E1,5.9507847E0,1.9344538E1,3.2542698E0,8.818051E0,1.5871984E1,2.4197369E1,1.64E1,9.5E0,1E1,1.0575758E1,1.2875E1,1.8118914E1,2.0915743E1,2.9585365E1,-1.7360097E-2,-6.199255E-3,-1.2590691E-2,-8.008319E-3,-7.385222E-3,-2.7234026E-3,-2.3909423E-3,1.4894061E-3,2.631846E-3,6.1986377E-3,8.690814E-3,1.1896822E-2,1.3388604E-2,1.7004693E-2,2.114276E-2,2.6584772E-2],"split_indices":[16,16,7,16,16,16,7,27,27,27,7,7,16,16,7,0,0,0,0,0,0,0,0,0,0,0,0,0,0,0,0],"split_type":[0,0,0,0,0,0,0,0,0,0,0,0,0,0,0,0,0,0,0,0,0,0,0,0,0,0,0,0,0,0,0],"sum_hessian":[8.954206E5,5.514519E5,3.4396878E5,2.2720281E5,3.2424903E5,1.8435719E5,1.5961161E5,8.7298875E4,1.3990394E5,1.5483597E5,1.6941306E5,9.864445E4,8.571273E4,9.182238E4,6.778923E4,8.495823E4,2.340643E3,1.1582337E5,2.4080574E4,1.3271048E5,2.2125477E4,9.611915E4,7.329392E4,4.2177734E4,5.646672E4,4.4935496E4,4.077723E4,3.760248E4,5.4219902E4,4.920338E4,1.8585848E4],"tree_param":{"num_deleted":"0","num_feature":"28","num_nodes":"31","size_leaf_vector":"1"}},{"base_weights":[-6.949891E-4,-1.54472E-1,2.4073039E-1,-2.5104293E-1,-5.1214952E-2,1.3042977E-1,3.456339E-1,-3.3107197E-1,-2.1023385E-1,-8.968465E-2,1.1074879E-2,9.0134576E-2,1.742291E-1,3.0127695E-1,4.3336162E-1,-1.898587E-2,-1.5606335E-2,-1.2606129E-2,-9.1488E-3,-6.528633E-3,-3.1800289E-3,2.5550125E-3,-5.404285E-4,5.4578832E-3,1.568369E-3,1.1110509E-2,7.2905007E-3,1.6809687E-2,1.3541368E-2,2.0014426E-2,2.4219975E-2],"categories":[],"categories_nodes":[],"categories_segments":[],"categories_sizes":[],"default_left":[0,0,0,0,0,0,0,0,0,0,0,0,0,0,0,0,0,0,0,0,0,0,0,0,0,0,0,0,0,0,0],"id":10,"left_children":[1,3,5,7,9,11,13,15,17,19,21,23,25,27,29,-1,-1,-1,-1,-1,-1,-1,-1,-1,-1,-1,-1,-1,-1,-1,-1],"loss_changes":[3.3149324E4,5.43912E3,4.020088E3,9.204512E2,6.316735E2,2.9889087E2,6.9281055E2,8.760449E1,2.1309277E2,1.7379517E2,8.8154884E1,9.861145E1,1.1062427E2,1.2565918E2,1.0074707E2,0E0,0E0,0E0,0E0,0E0,0E0,0E0,0E0,0E0,0E0,0E0,0E0,0E0,0E0,0E0,0E0],"parents":[2147483647,0,0,1,1,2,2,3,3,4,4,5,5,6,6,7,7,8,8,9,9,10,10,11,11,12,12,13,13,14,14],"right_children":[2,4,6,8,10,12,14,16,18,20,22,24,26,28,30,-1,-1,-1,-1,-1,-1,-1,-1,-1,-1,-1,-1,-1,-1,-1,-1],"split_conditions":[1.266895E1,6.998722E0,1.8670979E1,3.4527433E0,1.0223725E1,1.5314512E1,2.5337202E1,1.7339449E0,4.9495616E0,2.0872768E1,5.469697E-1,6.522642E-1,5.599022E-1,5.821378E-1,2.9343384E1,-1.898587E-2,-1.5606335E-2,-1.2606129E-2,-9.1488E-3,-6.528633E-3,-3.1800289E-3,2.5550125E-3,-5.404285E-4,5.4578832E-3,1.568369E-3,1.1110509E-2,7.2905007E-3,1.6809687E-2,1.3541368E-2,2.0014426E-2,2.4219975E-2],"split_indices":[16,16,16,16,16,16,16,16,16,19,4,4,4,4,16,0,0,0,0,0,0,0,0,0,0,0,0,0,0,0,0],"split_type":[0,0,0,0,0,0,0,0,0,0,0,0,0,0,0,0,0,0,0,0,0,0,0,0,0,0,0,0,0,0,0],"sum_hessian":[8.9289306E5,5.454601E5,3.4743297E5,2.8185466E5,2.6360547E5,1.6936095E5,1.78072E5,9.518468E4,1.8666997E5,1.6296139E5,1.0064408E5,8.82106E4,8.115036E4,1.1827443E5,5.9797574E4,2.6674383E4,6.85103E4,7.3582805E4,1.1308716E5,6.3468113E4,9.9493266E4,3.5575066E4,6.506901E4,6.663865E4,2.1571951E4,3.0183521E4,5.0966836E4,5.5091043E4,6.3183387E4,3.6290055E4,2.3507516E4],"tree_param":{"num_deleted":"0","num_feature":"28","num_nodes":"31","size_leaf_vector":"1"}},{"base_weights":[-7.070892E-4,-1.7438361E-1,2.0288153E-1,-2.6967204E-1,-9.298617E-2,9.766673E-2,3.3180618E-1,-3.2899746E-1,-2.262995E-1,-1.338925E-1,-4.1267723E-2,6.4398296E-2,1.7728312E-1,2.7010077E-1,4.0622E-1,-1.7068407E-2,-8.665835E-3,-1.177051E-2,-5.609416E-3,-7.4349665E-3,-3.3996745E-3,-3.1794948E-3,1.4204376E-4,1.485517E-3,5.5159857E-3,7.432516E-3,1.0362745E-2,1.1171429E-2,1.4985199E-2,1.8933011E-2,2.3965774E-2],"categories":[],"categories_nodes":[],"categories_segments":[],"categories_sizes":[],"default_left":[0,0,0,0,0,0,0,0,0,0,0,0,0,0,0,0,0,0,0,0,0,0,0,0,0,0,0,0,0,0,0],"id":11,"left_children":[1,3,5,7,9,11,13,15,17,19,21,23,25,27,29,-1,-1,-1,-1,-1,-1,-1,-1,-1,-1,-1,-1,-1,-1,-1,-1],"loss_changes":[3.1486336E4,3.7271973E3,5.5607305E3,5.695615E2,5.482859E2,5.978777E2,8.457539E2,1.8E2,1.3293115E2,1.4118921E2,1.1269495E2,2.5359796E2,5.7059082E1,1.3907812E2,1.6803809E2,0E0,0E0,0E0,0E0,0E0,0E0,0E0,0E0,0E0,0E0,0E0,0E0,0E0,0E0,0E0,0E0],"parents":[2147483647,0,0,1,1,2,2,3,3,4,4,5,5,6,6,7,7,8,8,9,9,10,10,11,11,12,12,13,13,14,14],"right_children":[2,4,6,8,10,12,14,16,18,20,22,24,26,28,30,-1,-1,-1,-1,-1,-1,-1,-1,-1,-1,-1,-1,-1,-1,-1,-1],"split_conditions":[1.1187958E1,5.9507847E0,1.8E1,3.4527433E0,8.69789E0,1.6014133E1,2.3285715E1,1.2800001E1,1.25E1,9.227273E0,6.6E0,1.3115385E1,1.7937185E1,3.2E0,3E1,-1.7068407E-2,-8.665835E-3,-1.177051E-2,-5.609416E-3,-7.4349665E-3,-3.3996745E-3,-3.1794948E-3,1.4204376E-4,1.485517E-3,5.5159857E-3,7.432516E-3,1.0362745E-2,1.1171429E-2,1.4985199E-2,1.8933011E-2,2.3965774E-2],"split_indices":[16,16,7,16,16,16,7,27,27,7,27,7,16,27,0,0,0,0,0,0,0,0,0,0,0,0,0,0,0,0,0],"split_type":[0,0,0,0,0,0,0,0,0,0,0,0,0,0,0,0,0,0,0,0,0,0,0,0,0,0,0,0,0,0,0],"sum_hessian":[8.904848E5,4.8054428E5,4.0994053E5,2.2138095E5,2.5916334E5,2.257273E5,1.8421323E5,9.349326E4,1.27887695E5,1.4470686E5,1.1445647E5,1.5920419E5,6.652311E4,1.0070841E5,8.350482E4,8.66099E4,6.883358E3,1.1843104E5,9.456662E3,1.1815697E5,2.6549896E4,7.5996336E4,3.8460133E4,9.069612E4,6.850807E4,3.402455E4,3.249856E4,3.9089215E4,6.161919E4,6.0645406E4,2.2859416E4],"tree_param":{"num_deleted":"0","num_feature":"28","num_nodes":"31","size_leaf_vector":"1"}},{"base_weights":[-9.17757E-5,-1.6831325E-1,1.9901372E-1,-2.6669753E-1,-8.7766334E-2,9.843785E-2,3.184829E-1,-3.4079775E-1,-2.3284565E-1,-1.3132614E-1,-3.6373693E-2,5.1846758E-2,1.5048619E-1,2.5492147E-1,3.8114157E-1,-1.7427804E-2,-4.490091E-3,-1.2487903E-2,-7.7047492E-3,-7.1969926E-3,-2.6468108E-3,-2.9676892E-3,3.75779E-4,1.2866525E-3,4.844942E-3,6.0329135E-3,9.171172E-3,1.0259157E-2,1.3691954E-2,1.7832445E-2,2.3477038E-2],"categories":[],"categories_nodes":[],"categories_segments":[],"categories_sizes":[],"default_left":[0,0,0,0,0,0,0,0,0,0,0,0,0,0,0,0,0,0,0,0,0,0,0,0,0,0,0,0,0,0,0],"id":12,"left_children":[1,3,5,7,9,11,13,15,17,19,21,23,25,27,29,-1,-1,-1,-1,-1,-1,-1,-1,-1,-1,-1,-1,-1,-1,-1,-1],"loss_changes":[3.0003438E4,3.8477666E3,4.92926E3,5.4819727E2,5.976709E2,5.40114E2,7.4667773E2,1.3343555E2,1.9979102E2,1.4287378E2,1.2353079E2,1.3826733E2,1.0333569E2,8.753027E1,2.0426953E2,0E0,0E0,0E0,0E0,0E0,0E0,0E0,0E0,0E0,0E0,0E0,0E0,0E0,0E0,0E0,0E0],"parents":[2147483647,0,0,1,1,2,2,3,3,4,4,5,5,6,6,7,7,8,8,9,9,10,10,11,11,12,12,13,13,14,14],"right_children":[2,4,6,8,10,12,14,16,18,20,22,24,26,28,30,-1,-1,-1,-1,-1,-1,-1,-1,-1,-1,-1,-1,-1,-1,-1,-1],"split_conditions":[1.1348168E1,5.9507847E0,1.8E1,2.9146476E0,8.69789E0,1.4607492E1,2.2538462E1,1.64E1,9.5E0,1E1,1.0473684E1,1.3115385E1,1.696453E1,2.4999998E0,2.9585365E1,-1.7427804E-2,-4.490091E-3,-1.2487903E-2,-7.7047492E-3,-7.1969926E-3,-2.6468108E-3,-2.9676892E-3,3.75779E-4,1.2866525E-3,4.844942E-3,6.0329135E-3,9.171172E-3,1.0259157E-2,1.3691954E-2,1.7832445E-2,2.3477038E-2],"split_indices":[16,16,7,16,16,16,7,27,27,27,7,7,16,27,7,0,0,0,0,0,0,0,0,0,0,0,0,0,0,0,0],"split_type":[0,0,0,0,0,0,0,0,0,0,0,0,0,0,0,0,0,0,0,0,0,0,0,0,0,0,0,0,0,0,0],"sum_hessian":[8.957881E5,4.855521E5,4.1023606E5,2.1857306E5,2.6697903E5,2.2273067E5,1.8750539E5,6.853784E4,1.5003522E5,1.4450052E5,1.2247852E5,1.1752769E5,1.05202984E5,9.308466E4,9.442074E4,6.648248E4,2.0553682E3,1.2350847E5,2.6526748E4,1.2447105E5,2.0029463E4,8.038776E4,4.209077E4,7.440285E4,4.3124832E4,5.5209777E4,4.9993207E4,2.5652045E4,6.743261E4,7.393942E4,2.0481314E4],"tree_param":{"num_deleted":"0","num_feature":"28","num_nodes":"31","size_leaf_vector":"1"}},{"base_weights":[-3.643262E-4,-1.6944487E-1,1.8638445E-1,-2.6316127E-1,-8.92333E-2,9.122455E-2,3.024649E-1,-3.2909873E-1,-2.252007E-1,-1.3882904E-1,-4.8479825E-2,4.5535907E-2,1.4690123E-1,2.3957103E-1,3.644953E-1,-1.6804164E-2,-4.697144E-3,-1.2107251E-2,-7.2979727E-3,-7.666778E-3,-2.4582404E-3,-3.6177908E-3,-3.0987055E-4,9.759422E-4,4.441618E-3,6.337132E-3,9.625486E-3,9.588144E-3,1.2894056E-2,1.6803134E-2,2.1354202E-2],"categories":[],"categories_nodes":[],"categories_segments":[],"categories_sizes":[],"default_left":[0,0,0,0,0,0,0,0,0,0,0,0,0,0,0,0,0,0,0,0,0,0,0,0,0,0,0,0,0,0,0],"id":13,"left_children":[1,3,5,7,9,11,13,15,17,19,21,23,25,27,29,-1,-1,-1,-1,-1,-1,-1,-1,-1,-1,-1,-1,-1,-1,-1,-1],"loss_changes":[2.815975E4,3.5183818E3,4.6810127E3,5.4021387E2,5.0973584E2,5.9236755E2,7.446797E2,1.2949707E2,1.8390186E2,1.4795898E2,1.3976126E2,1.4408154E2,9.647754E1,8.292969E1,1.7088477E2,0E0,0E0,0E0,0E0,0E0,0E0,0E0,0E0,0E0,0E0,0E0,0E0,0E0,0E0,0E0,0E0],"parents":[2147483647,0,0,1,1,2,2,3,3,4,4,5,5,6,6,7,7,8,8,9,9,10,10,11,11,12,12,13,13,14,14],"right_children":[2,4,6,8,10,12,14,16,18,20,22,24,26,28,30,-1,-1,-1,-1,-1,-1,-1,-1,-1,-1,-1,-1,-1,-1,-1,-1],"split_conditions":[1.10967245E1,5.9507847E0,1.8E1,3.1928644E0,8.117815E0,1.4607492E1,2.2538462E1,1.64E1,9.5E0,1E1,1E1,1.3E1,1.60625E1,2.4999998E0,2.8202248E1,-1.6804164E-2,-4.697144E-3,-1.2107251E-2,-7.2979727E-3,-7.666778E-3,-2.4582404E-3,-3.6177908E-3,-3.0987055E-4,9.759422E-4,4.441618E-3,6.337132E-3,9.625486E-3,9.588144E-3,1.2894056E-2,1.6803134E-2,2.1354202E-2],"split_indices":[16,16,7,16,16,16,7,27,27,27,7,7,7,27,7,0,0,0,0,0,0,0,0,0,0,0,0,0,0,0,0],"split_type":[0,0,0,0,0,0,0,0,0,0,0,0,0,0,0,0,0,0,0,0,0,0,0,0,0,0,0,0,0,0,0],"sum_hessian":[8.9181844E5,4.680503E5,4.2376816E5,2.1585295E5,2.5219734E5,2.3286938E5,1.9089877E5,7.886202E4,1.3699094E5,1.1375662E5,1.3844073E5,1.27908586E5,1.0496079E5,9.479204E4,9.610673E4,7.658682E4,2.2752048E3,1.1285652E5,2.4134406E4,9.7914586E4,1.5842031E4,8.8478234E4,4.9962504E4,7.989857E4,4.801002E4,7.2791336E4,3.216945E4,2.6253877E4,6.8538164E4,6.608995E4,3.0016773E4],"tree_param":{"num_deleted":"0","num_feature":"28","num_nodes":"31","size_leaf_vector":"1"}},{"base_weights":[-1.3076353E-3,-1.5895917E-1,1.6711974E-1,-2.5175118E-1,-7.6338366E-2,7.766319E-2,2.7003348E-1,-3.1645694E-1,-2.0909053E-1,-1.21441066E-1,-3.4103125E-2,4.0261824E-2,1.1550105E-1,2.2349316E-1,3.048556E-1,-1.8118069E-2,-1.4670401E-2,-1.1612543E-2,-9.041934E-3,-7.5062565E-3,-5.132999E-3,-3.5724181E-3,6.6291745E-5,2.9700142E-3,-2.0995746E-4,4.833606E-3,8.182486E-3,5.958946E-3,1.1878898E-2,1.1629802E-2,1.592285E-2],"categories":[],"categories_nodes":[],"categories_segments":[],"categories_sizes":[],"default_left":[0,0,0,0,0,0,0,0,0,0,0,0,0,0,0,0,0,0,0,0,0,0,0,0,0,0,0,0,0,0,0],"id":14,"left_children":[1,3,5,7,9,11,13,15,17,19,21,23,25,27,29,-1,-1,-1,-1,-1,-1,-1,-1,-1,-1,-1,-1,-1,-1,-1,-1],"loss_changes":[2.3785773E4,3.5472705E3,3.9871729E3,6.015137E2,4.6625342E2,3.2788977E2,3.2632422E2,9.151172E1,8.589844E1,6.3749146E1,1.6724246E2,9.915054E1,1.0440137E2,1.2661963E2,1.13146484E2,0E0,0E0,0E0,0E0,0E0,0E0,0E0,0E0,0E0,0E0,0E0,0E0,0E0,0E0,0E0,0E0],"parents":[2147483647,0,0,1,1,2,2,3,3,4,4,5,5,6,6,7,7,8,8,9,9,10,10,11,11,12,12,13,13,14,14],"right_children":[2,4,6,8,10,12,14,16,18,20,22,24,26,28,30,-1,-1,-1,-1,-1,-1,-1,-1,-1,-1,-1,-1,-1,-1,-1,-1],"split_conditions":[2.6603748E1,1.7218042E1,3.2282608E1,1.1012269E1,2.190458E1,5.974649E0,4.5070415E0,5.6E0,4.3011627E0,4.3665395E0,5.228129E0,5.6332345E0,4.0872717E0,1.998984E0,9.2075E-1,-1.8118069E-2,-1.4670401E-2,-1.1612543E-2,-9.041934E-3,-7.5062565E-3,-5.132999E-3,-3.5724181E-3,6.6291745E-5,2.9700142E-3,-2.0995746E-4,4.833606E-3,8.182486E-3,5.958946E-3,1.1878898E-2,1.1629802E-2,1.592285E-2],"split_indices":[19,19,10,19,19,5,18,3,5,5,5,6,18,18,23,0,0,0,0,0,0,0,0,0,0,0,0,0,0,0,0],"split_type":[0,0,0,0,0,0,0,0,0,0,0,0,0,0,0,0,0,0,0,0,0,0,0,0,0,0,0,0,0,0,0],"sum_hessian":[8.9578844E5,4.6269572E5,4.3309275E5,2.1793228E5,2.4476342E5,2.3169573E5,2.0139702E5,8.659002E4,1.3134225E5,1.18362805E5,1.26400625E5,1.16521E5,1.1517474E5,8.619863E4,1.1519838E5,2.8939418E4,5.7650605E4,7.217082E4,5.9171438E4,4.6831215E4,7.1531586E4,6.1535637E4,6.486499E4,8.145705E4,3.5063953E4,8.279863E4,3.2376104E4,1.0255355E4,7.594327E4,1.8251656E4,9.694673E4],"tree_param":{"num_deleted":"0","num_feature":"28","num_nodes":"31","size_leaf_vector":"1"}},{"base_weights":[-7.1829517E-4,-1.6610794E-1,1.7575148E-1,-2.5713784E-1,-8.952765E-2,8.1781425E-2,2.782944E-1,-3.1680137E-1,-2.1474954E-1,-1.3865556E-1,-5.3595725E-2,3.148433E-2,1.2344997E-1,2.2012378E-1,3.351666E-1,-1.6488519E-2,-9.124666E-3,-1.12097105E-2,-5.0022085E-3,-7.7830604E-3,-3.524061E-3,-3.99157E-3,-6.6107186E-4,-2.803742E-4,3.7620522E-3,4.862711E-3,8.256509E-3,1.2267187E-2,9.378845E-3,1.5132402E-2,1.876135E-2],"categories":[],"categories_nodes":[],"categories_segments":[],"categories_sizes":[],"default_left":[0,0,0,0,0,0,0,0,0,0,0,0,0,0,0,0,0,0,0,0,0,0,0,0,0,0,0,0,0,0,0],"id":15,"left_children":[1,3,5,7,9,11,13,15,17,19,21,23,25,27,29,-1,-1,-1,-1,-1,-1,-1,-1,-1,-1,-1,-1,-1,-1,-1,-1],"loss_changes":[2.614149E4,3.2230898E3,4.1754736E3,5.3418164E2,4.4326392E2,4.7388965E2,6.8543555E2,1.5276953E2,1.3377881E2,1.2296692E2,1.5362561E2,1.6628072E2,1.3500647E2,8.40376E1,1.3637402E2,0E0,0E0,0E0,0E0,0E0,0E0,0E0,0E0,0E0,0E0,0E0,0E0,0E0,0E0,0E0,0E0],"parents":[2147483647,0,0,1,1,2,2,3,3,4,4,5,5,6,6,7,7,8,8,9,9,10,10,11,11,12,12,13,13,14,14],"right_children":[2,4,6,8,10,12,14,16,18,20,22,24,26,28,30,-1,-1,-1,-1,-1,-1,-1,-1,-1,-1,-1,-1,-1,-1,-1,-1],"split_conditions":[1.10967245E1,5.9507847E0,1.8118914E1,3.4527433E0,7.991428E0,1.3115385E1,2.2075E1,1.22E1,1.25E1,8.7E0,9.666667E0,5.3999996E0,1.60625E1,6.044951E-1,2.6434782E1,-1.6488519E-2,-9.124666E-3,-1.12097105E-2,-5.0022085E-3,-7.7830604E-3,-3.524061E-3,-3.99157E-3,-6.6107186E-4,-2.803742E-4,3.7620522E-3,4.862711E-3,8.256509E-3,1.2267187E-2,9.378845E-3,1.5132402E-2,1.876135E-2],"split_indices":[16,16,16,16,16,7,7,27,27,27,7,27,7,4,7,0,0,0,0,0,0,0,0,0,0,0,0,0,0,0,0],"split_type":[0,0,0,0,0,0,0,0,0,0,0,0,0,0,0,0,0,0,0,0,0,0,0,0,0,0,0,0,0,0,0],"sum_hessian":[8.956757E5,4.623529E5,4.3332278E5,2.1124573E5,2.5110717E5,2.2611419E5,2.0720858E5,8.7740414E4,1.2350533E5,1.0607429E5,1.4503289E5,1.02450445E5,1.2366374E5,1.0243735E5,1.0477123E5,8.00128E4,7.7276177E3,1.1410882E5,9.396504E3,8.4896195E4,2.117809E4,8.790819E4,5.71247E4,5.5448547E4,4.7001902E4,7.593955E4,4.772419E4,5.771139E4,4.4725965E4,5.7833797E4,4.693743E4],"tree_param":{"num_deleted":"0","num_feature":"28","num_nodes":"31","size_leaf_vector":"1"}},{"base_weights":[-8.698287E-4,-1.6916592E-1,1.6132562E-1,-2.623352E-1,-9.774884E-2,6.778276E-2,2.6163676E-1,-3.1995404E-1,-2.2224051E-1,-1.393298E-1,-5.2661564E-2,2.6865872E-2,1.14165336E-1,2.0847134E-1,3.245792E-1,-1.6653499E-2,-9.312338E-3,-1.1865626E-2,-6.852907E-3,-7.623213E-3,-3.034042E-3,-3.727108E-3,-4.8357883E-4,-1.8063086E-4,3.1181579E-3,4.644825E-3,7.5069233E-3,8.728783E-3,1.1539901E-2,1.543544E-2,2.0461664E-2],"categories":[],"categories_nodes":[],"categories_segments":[],"categories_sizes":[],"default_left":[0,0,0,0,0,0,0,0,0,0,0,0,0,0,0,0,0,0,0,0,0,0,0,0,0,0,0,0,0,0,0],"id":16,"left_children":[1,3,5,7,9,11,13,15,17,19,21,23,25,27,29,-1,-1,-1,-1,-1,-1,-1,-1,-1,-1,-1,-1,-1,-1,-1,-1],"loss_changes":[2.4393996E4,2.9182334E3,4.2701406E3,4.3957812E2,4.6544922E2,4.4690515E2,7.3476855E2,1.3687793E2,1.4404541E2,1.3341235E2,1.1204547E2,1.353624E2,8.4430664E1,9.005029E1,1.3496289E2,0E0,0E0,0E0,0E0,0E0,0E0,0E0,0E0,0E0,0E0,0E0,0E0,0E0,0E0,0E0,0E0],"parents":[2147483647,0,0,1,1,2,2,3,3,4,4,5,5,6,6,7,7,8,8,9,9,10,10,11,11,12,12,13,13,14,14],"right_children":[2,4,6,8,10,12,14,16,18,20,22,24,26,28,30,-1,-1,-1,-1,-1,-1,-1,-1,-1,-1,-1,-1,-1,-1,-1,-1],"split_conditions":[1.0608522E1,5.6093845E0,1.7605955E1,3.2542698E0,8.117815E0,1.3327103E1,2.2538462E1,1.22E1,1.01E1,1E1,6.6E0,5.3E0,1.60625E1,1.8857143E1,3.0689655E1,-1.6653499E-2,-9.312338E-3,-1.1865626E-2,-6.852907E-3,-7.623213E-3,-3.034042E-3,-3.727108E-3,-4.8357883E-4,-1.8063086E-4,3.1181579E-3,4.644825E-3,7.5069233E-3,8.728783E-3,1.1539901E-2,1.543544E-2,2.0461664E-2],"split_indices":[16,16,16,16,16,7,7,27,27,27,27,27,7,7,7,0,0,0,0,0,0,0,0,0,0,0,0,0,0,0,0],"split_type":[0,0,0,0,0,0,0,0,0,0,0,0,0,0,0,0,0,0,0,0,0,0,0,0,0,0,0,0,0,0,0],"sum_hessian":[8.936538E5,4.3857875E5,4.5507506E5,1.903063E5,2.4827244E5,2.3548273E5,2.1959233E5,7.808538E4,1.12220914E5,1.29157266E5,1.1911518E5,1.2511382E5,1.1036892E5,1.1904405E5,1.0054827E5,7.110853E4,6.976853E3,9.5348375E4,1.6872543E4,1.1067372E5,1.8483549E4,7.893761E4,4.017757E4,6.731612E4,5.7797707E4,6.936246E4,4.1006457E4,4.7277523E4,7.176652E4,8.4678E4,1.5870276E4],"tree_param":{"num_deleted":"0","num_feature":"28","num_nodes":"31","size_leaf_vector":"1"}},{"base_weights":[-8.075575E-5,-1.5222026E-1,1.6613752E-1,-2.4576473E-1,-7.736569E-2,8.3150916E-2,2.6310408E-1,-3.0416244E-1,-1.9799052E-1,-1.19822435E-1,-1.9504508E-2,5.4093525E-2,1.362129E-1,2.2043437E-1,3.2783017E-1,-1.6740335E-2,-1.2977192E-2,-1.1154382E-2,-7.972988E-3,-8.061853E-3,-4.0310053E-3,-2.5685865E-3,7.292381E-4,-3.091113E-3,3.1389152E-3,5.667323E-3,8.558142E-3,8.948974E-3,1.21334335E-2,1.551739E-2,1.9618345E-2],"categories":[],"categories_nodes":[],"categories_segments":[],"categories_sizes":[],"default_left":[0,0,0,0,0,0,0,0,0,0,0,0,0,0,0,0,0,0,0,0,0,0,0,0,0,0,0,0,0,0,0],"id":17,"left_children":[1,3,5,7,9,11,13,15,17,19,21,23,25,27,29,-1,-1,-1,-1,-1,-1,-1,-1,-1,-1,-1,-1,-1,-1,-1,-1],"loss_changes":[2.2530021E4,3.2571514E3,3.4260596E3,5.7680176E2,6.347711E2,3.5372327E2,5.421914E2,1.2712402E2,1.0994385E2,2.4195581E2,1.188017E2,1.4924084E2,6.485681E1,1.0903027E2,8.78916E1,0E0,0E0,0E0,0E0,0E0,0E0,0E0,0E0,0E0,0E0,0E0,0E0,0E0,0E0,0E0,0E0],"parents":[2147483647,0,0,1,1,2,2,3,3,4,4,5,5,6,6,7,7,8,8,9,9,10,10,11,11,12,12,13,13,14,14],"right_children":[2,4,6,8,10,12,14,16,18,20,22,24,26,28,30,-1,-1,-1,-1,-1,-1,-1,-1,-1,-1,-1,-1,-1,-1,-1,-1],"split_conditions":[1.0952381E1,1.7218042E1,1.8338709E1,3.6E0,9.4E0,1.4947762E1,2.4197369E1,9.906039E0,6E0,7.1034484E0,2.6368725E1,2.0725794E1,1.76E1,1.98E1,3.0689655E1,-1.6740335E-2,-1.2977192E-2,-1.1154382E-2,-7.972988E-3,-8.061853E-3,-4.0310053E-3,-2.5685865E-3,7.292381E-4,-3.091113E-3,3.1389152E-3,5.667323E-3,8.558142E-3,8.948974E-3,1.21334335E-2,1.551739E-2,1.9618345E-2],"split_indices":[7,19,7,0,0,7,7,19,0,7,19,19,0,0,7,0,0,0,0,0,0,0,0,0,0,0,0,0,0,0,0],"split_type":[0,0,0,0,0,0,0,0,0,0,0,0,0,0,0,0,0,0,0,0,0,0,0,0,0,0,0,0,0,0,0],"sum_hessian":[8.909224E5,4.651609E5,4.2576147E5,2.0676633E5,2.583946E5,2.2941972E5,1.9634175E5,9.303627E4,1.1373005E5,1.4903572E5,1.0935888E5,1.4824239E5,8.117733E4,1.1833536E5,7.800639E4,5.515151E4,3.7884766E4,6.8867945E4,4.48621E4,7.247142E4,7.65643E4,5.6521305E4,5.2837574E4,1.0332208E4,1.3791019E5,4.907416E4,3.2103166E4,4.1314797E4,7.702056E4,6.138389E4,1.66225E4],"tree_param":{"num_deleted":"0","num_feature":"28","num_nodes":"31","size_leaf_vector":"1"}},{"base_weights":[-1.3116251E-3,-1.612617E-1,1.5227859E-1,-2.4949642E-1,-8.559886E-2,7.0310526E-2,2.4585071E-1,-3.1378785E-1,-2.1111007E-1,-1.2766048E-1,-4.8464492E-2,2.7832596E-2,1.1268137E-1,1.9597675E-1,2.947583E-1,-1.6521093E-2,-1.0417457E-2,-1.1487904E-2,-7.7679376E-3,-7.119005E-3,-2.1055113E-3,-3.1954516E-3,3.1939204E-4,-8.581198E-4,2.5614798E-3,4.584848E-3,7.2062984E-3,1.1122746E-2,8.820503E-3,1.3721968E-2,1.76533E-2],"categories":[],"categories_nodes":[],"categories_segments":[],"categories_sizes":[],"default_left":[0,0,0,0,0,0,0,0,0,0,0,0,0,0,0,0,0,0,0,0,0,0,0,0,0,0,0,0,0,0,0],"id":18,"left_children":[1,3,5,7,9,11,13,15,17,19,21,23,25,27,29,-1,-1,-1,-1,-1,-1,-1,-1,-1,-1,-1,-1,-1,-1,-1,-1],"loss_changes":[2.2038547E4,2.9337559E3,3.5100635E3,5.0059668E2,3.695133E2,4.390619E2,5.211904E2,1.3294531E2,1.320293E2,1.3968323E2,1.0644742E2,1.2824847E2,8.057263E1,5.4777344E1,1.2772754E2,0E0,0E0,0E0,0E0,0E0,0E0,0E0,0E0,0E0,0E0,0E0,0E0,0E0,0E0,0E0,0E0],"parents":[2147483647,0,0,1,1,2,2,3,3,4,4,5,5,6,6,7,7,8,8,9,9,10,10,11,11,12,12,13,13,14,14],"right_children":[2,4,6,8,10,12,14,16,18,20,22,24,26,28,30,-1,-1,-1,-1,-1,-1,-1,-1,-1,-1,-1,-1,-1,-1,-1,-1],"split_conditions":[1.0770516E1,5.9507847E0,1.8118914E1,3.2542698E0,8.117815E0,1.3327103E1,2.2075E1,1.04E1,8.1E0,1E1,8.3E0,3.4E0,1.60625E1,5.788002E-1,2.8842106E1,-1.6521093E-2,-1.0417457E-2,-1.1487904E-2,-7.7679376E-3,-7.119005E-3,-2.1055113E-3,-3.1954516E-3,3.1939204E-4,-8.581198E-4,2.5614798E-3,4.584848E-3,7.2062984E-3,1.1122746E-2,8.820503E-3,1.3721968E-2,1.76533E-2],"split_indices":[16,16,16,16,16,7,7,27,27,27,27,27,7,4,7,0,0,0,0,0,0,0,0,0,0,0,0,0,0,0,0],"split_type":[0,0,0,0,0,0,0,0,0,0,0,0,0,0,0,0,0,0,0,0,0,0,0,0,0,0,0,0,0,0,0],"sum_hessian":[8.970859E5,4.3944466E5,4.5764122E5,2.028673E5,2.3657738E5,2.439477E5,2.1369352E5,7.5839766E4,1.2702752E5,1.109281E5,1.25649266E5,1.21820734E5,1.2212697E5,1.0580396E5,1.07889555E5,6.5503766E4,1.0335998E4,9.5186055E4,3.1841473E4,9.464329E4,1.6284814E4,9.804343E4,2.7605836E4,4.1675145E4,8.014559E4,7.3248695E4,4.8878266E4,4.4956844E4,6.0847113E4,8.001265E4,2.7876904E4],"tree_param":{"num_deleted":"0","num_feature":"28","num_nodes":"31","size_leaf_vector":"1"}},{"base_weights":[4.7340852E-4,-1.5395774E-1,1.4776383E-1,-2.3964182E-1,-7.857945E-2,6.170037E-2,2.2921403E-1,-2.983117E-1,-1.9295537E-1,-1.11350425E-1,-3.3182625E-2,-1.1074919E-2,8.2186215E-2,1.810303E-1,2.6979303E-1,-1.5828505E-2,-9.687097E-3,-1.0588479E-2,-5.147613E-3,-7.4249925E-3,-4.342297E-3,7.6344673E-4,-2.8106056E-3,-2.6149587E-3,6.341629E-4,5.184192E-3,2.0409944E-3,1.0423643E-2,6.9363355E-3,1.2265198E-2,1.5876334E-2],"categories":[],"categories_nodes":[],"categories_segments":[],"categories_sizes":[],"default_left":[0,0,0,0,0,0,0,0,0,0,0,0,0,0,0,0,0,0,0,0,0,0,0,0,0,0,0,0,0,0,0],"id":19,"left_children":[1,3,5,7,9,11,13,15,17,19,21,23,25,27,29,-1,-1,-1,-1,-1,-1,-1,-1,-1,-1,-1,-1,-1,-1,-1,-1],"loss_changes":[2.0336846E4,2.8189404E3,3.207835E3,5.594404E2,3.454309E2,3.3173114E2,4.5964844E2,1.727544E2,1.9259912E2,1.2274414E2,1.08621185E2,4.787185E1,1.5440332E2,1.2475391E2,1.491084E2,0E0,0E0,0E0,0E0,0E0,0E0,0E0,0E0,0E0,0E0,0E0,0E0,0E0,0E0,0E0,0E0],"parents":[2147483647,0,0,1,1,2,2,3,3,4,4,5,5,6,6,7,7,8,8,9,9,10,10,11,11,12,12,13,13,14,14],"right_children":[2,4,6,8,10,12,14,16,18,20,22,24,26,28,30,-1,-1,-1,-1,-1,-1,-1,-1,-1,-1,-1,-1,-1,-1,-1,-1],"split_conditions":[1.1E1,1.7218042E1,1.76E1,3.6E0,8.6E0,2.551264E1,2.24E1,1.01E1,9.5E0,2.0481527E1,5.1978475E-1,2.190458E1,6.1617327E-1,6.067857E-1,2.82E1,-1.5828505E-2,-9.687097E-3,-1.0588479E-2,-5.147613E-3,-7.4249925E-3,-4.342297E-3,7.6344673E-4,-2.8106056E-3,-2.6149587E-3,6.341629E-4,5.184192E-3,2.0409944E-3,1.0423643E-2,6.9363355E-3,1.2265198E-2,1.5876334E-2],"split_indices":[0,19,0,0,0,19,0,27,27,19,4,19,4,4,0,0,0,0,0,0,0,0,0,0,0,0,0,0,0,0,0],"split_type":[0,0,0,0,0,0,0,0,0,0,0,0,0,0,0,0,0,0,0,0,0,0,0,0,0,0,0,0,0,0,0],"sum_hessian":[8.940735E5,4.364569E5,4.576166E5,2.0426377E5,2.3219312E5,2.2250784E5,2.3510875E5,9.051281E4,1.1375096E5,1.348479E5,9.734522E4,4.8876426E4,1.7363142E5,1.0748545E5,1.27623305E5,7.705637E4,1.3456441E4,9.408263E4,1.9668326E4,5.359359E4,8.125431E4,3.1362416E4,6.5982805E4,1.7869234E4,3.1007191E4,1.1425358E5,5.9377844E4,6.5191492E4,4.229396E4,8.4353234E4,4.327007E4],"tree_param":{"num_deleted":"0","num_feature":"28","num_nodes":"31","size_leaf_vector":"1"}},{"base_weights":[9.7332086E-4,-1.6060336E-1,1.4018655E-1,-2.6883495E-1,-1.04089156E-1,6.811638E-2,2.3492873E-1,-3.2096928E-1,-2.301467E-1,-1.4236957E-1,-5.2779153E-2,2.2694143E-2,1.1234569E-1,2.0568609E-1,2.980875E-1,-1.6474811E-2,-2.539415E-3,-1.2436652E-2,-7.353743E-3,-7.895561E-3,-4.1319416E-3,-3.2419115E-3,8.2859764E-4,-2.855445E-4,2.8082107E-3,4.4519636E-3,6.9833733E-3,8.051627E-3,1.1105908E-2,1.249149E-2,1.5661864E-2],"categories":[],"categories_nodes":[],"categories_segments":[],"categories_sizes":[],"default_left":[0,0,0,0,0,0,0,0,0,0,0,0,0,0,0,0,0,0,0,0,0,0,0,0,0,0,0,0,0,0,0],"id":20,"left_children":[1,3,5,7,9,11,13,15,17,19,21,23,25,27,29,-1,-1,-1,-1,-1,-1,-1,-1,-1,-1,-1,-1,-1,-1,-1,-1],"loss_changes":[2.00939E4,2.5288857E3,3.2765537E3,2.859912E2,5.335032E2,5.475383E2,3.828496E2,1.3916309E2,1.25671875E2,1.4439722E2,9.706387E1,1.278343E2,8.7916626E1,1.03947754E2,4.7888184E1,0E0,0E0,0E0,0E0,0E0,0E0,0E0,0E0,0E0,0E0,0E0,0E0,0E0,0E0,0E0,0E0],"parents":[2147483647,0,0,1,1,2,2,3,3,4,4,5,5,6,6,7,7,8,8,9,9,10,10,11,11,12,12,13,13,14,14],"right_children":[2,4,6,8,10,12,14,16,18,20,22,24,26,28,30,-1,-1,-1,-1,-1,-1,-1,-1,-1,-1,-1,-1,-1,-1,-1,-1],"split_conditions":[1.0376636E1,4.8317213E0,1.8E1,2.9146476E0,7.9268217E0,1.3800588E1,2.5229166E1,1.64E1,9.5E0,8.7E0,9.9E0,1.161157E1,1.6463964E1,2.4E0,1.5E0,-1.6474811E-2,-2.539415E-3,-1.2436652E-2,-7.353743E-3,-7.895561E-3,-4.1319416E-3,-3.2419115E-3,8.2859764E-4,-2.855445E-4,2.8082107E-3,4.4519636E-3,6.9833733E-3,8.051627E-3,1.1105908E-2,1.249149E-2,1.5661864E-2],"split_indices":[16,16,7,16,16,16,7,27,27,27,27,7,16,27,27,0,0,0,0,0,0,0,0,0,0,0,0,0,0,0,0],"split_type":[0,0,0,0,0,0,0,0,0,0,0,0,0,0,0,0,0,0,0,0,0,0,0,0,0,0,0,0,0,0,0],"sum_hessian":[8.933139E5,4.134483E5,4.7986553E5,1.4182755E5,2.7162078E5,2.7254378E5,2.0732175E5,6.0412047E4,8.14155E4,1.5556098E5,1.16059805E5,1.3445936E5,1.3808444E5,1.4171273E5,6.5609016E4,5.8563555E4,1.8484889E3,6.652854E4,1.4886958E4,1.2344068E5,3.2120297E4,9.886823E4,1.719158E4,7.2733484E4,6.172587E4,7.452029E4,6.3564145E4,3.8123723E4,1.0358901E5,1.5679949E4,4.992907E4],"tree_param":{"num_deleted":"0","num_feature":"28","num_nodes":"31","size_leaf_vector":"1"}},{"base_weights":[-5.5654946E-4,-1.4751413E-1,1.394584E-1,-2.3455518E-1,-7.59852E-2,6.5998904E-2,2.259064E-1,-3.0180547E-1,-1.9683109E-1,-1.15549244E-1,-2.8626096E-2,3.3593576E-2,1.1772437E-1,1.8634021E-1,2.6697415E-1,-1.5912926E-2,-6.253364E-3,-1.0577866E-2,-5.685407E-3,-7.5474717E-3,-3.9835237E-3,-2.6115223E-3,1.7894246E-3,-3.365827E-3,2.218901E-3,4.600349E-3,7.082652E-3,7.859993E-3,1.0298512E-2,1.2657359E-2,1.6519396E-2],"categories":[],"categories_nodes":[],"categories_segments":[],"categories_sizes":[],"default_left":[0,0,0,0,0,0,0,0,0,0,0,0,0,0,0,0,0,0,0,0,0,0,0,0,0,0,0,0,0,0,0],"id":21,"left_children":[1,3,5,7,9,11,13,15,17,19,21,23,25,27,29,-1,-1,-1,-1,-1,-1,-1,-1,-1,-1,-1,-1,-1,-1,-1,-1],"loss_changes":[1.8393074E4,2.7153457E3,2.9069658E3,4.9904785E2,4.4856824E2,4.1480566E2,3.416494E2,2.0554004E2,1.542583E2,1.6565552E2,1.656836E2,1.6558533E2,5.864563E1,6.1235596E1,9.0390625E1,0E0,0E0,0E0,0E0,0E0,0E0,0E0,0E0,0E0,0E0,0E0,0E0,0E0,0E0,0E0,0E0],"parents":[2147483647,0,0,1,1,2,2,3,3,4,4,5,5,6,6,7,7,8,8,9,9,10,10,11,11,12,12,13,13,14,14],"right_children":[2,4,6,8,10,12,14,16,18,20,22,24,26,28,30,-1,-1,-1,-1,-1,-1,-1,-1,-1,-1,-1,-1,-1,-1,-1,-1],"split_conditions":[1.0473684E1,1.7218042E1,1.8E1,1.047104E1,9E0,1.52E1,2.2948277E1,1.25E1,1.01E1,7.1034484E0,8.1E0,2.0725794E1,1.5066667E1,1.98E1,3.0689655E1,-1.5912926E-2,-6.253364E-3,-1.0577866E-2,-5.685407E-3,-7.5474717E-3,-3.9835237E-3,-2.6115223E-3,1.7894246E-3,-3.365827E-3,2.218901E-3,4.600349E-3,7.082652E-3,7.859993E-3,1.0298512E-2,1.2657359E-2,1.6519396E-2],"split_indices":[7,19,7,19,0,0,7,27,27,7,27,19,7,0,7,0,0,0,0,0,0,0,0,0,0,0,0,0,0,0,0],"split_type":[0,0,0,0,0,0,0,0,0,0,0,0,0,0,0,0,0,0,0,0,0,0,0,0,0,0,0,0,0,0,0],"sum_hessian":[8.938958E5,4.36135E5,4.5776078E5,1.9673402E5,2.3940098E5,2.4747217E5,2.1028861E5,7.069676E4,1.2603726E5,1.30434164E5,1.0896683E5,1.5215236E5,9.531981E4,1.0710512E5,1.0318349E5,6.4675184E4,6.021579E3,1.0706743E5,1.8969828E4,6.565335E4,6.4780812E4,7.9744945E4,2.9221883E4,1.4690255E4,1.3746211E5,4.5945062E4,4.9374754E4,4.3113312E4,6.39918E4,8.471655E4,1.8466945E4],"tree_param":{"num_deleted":"0","num_feature":"28","num_nodes":"31","size_leaf_vector":"1"}},{"base_weights":[-1.3476238E-3,-1.5503603E-1,1.3047144E-1,-2.62497E-1,-9.7944476E-2,5.6595564E-2,2.139035E-1,-2.8122777E-1,-1.6068728E-1,-1.3667326E-1,-5.245575E-2,2.0234557E-2,9.66616E-2,1.747445E-1,2.5630015E-1,-1.6539799E-2,-1.20408535E-2,-8.176058E-3,3.5E-2,-8.289015E-3,-5.172814E-3,-3.402775E-3,1.3368673E-4,-8.739777E-4,2.3720786E-3,3.8447087E-3,6.2789354E-3,7.3642293E-3,9.83069E-3,1.1388659E-2,1.4058677E-2],"categories":[],"categories_nodes":[],"categories_segments":[],"categories_sizes":[],"default_left":[0,0,0,0,0,0,0,0,0,0,0,0,0,0,0,0,0,0,0,0,0,0,0,0,0,0,0,0,0,0,0],"id":22,"left_children":[1,3,5,7,9,11,13,15,17,19,21,23,25,27,29,-1,-1,-1,-1,-1,-1,-1,-1,-1,-1,-1,-1,-1,-1,-1,-1],"loss_changes":[1.812373E4,2.534002E3,2.9681484E3,2.7323145E2,4.7519263E2,3.720891E2,3.7541992E2,2.4235938E2,6.8275635E1,1.4084521E2,1.066785E2,1.3739072E2,6.944946E1,7.057446E1,7.698389E1,0E0,0E0,0E0,0E0,0E0,0E0,0E0,0E0,0E0,0E0,0E0,0E0,0E0,0E0,0E0,0E0],"parents":[2147483647,0,0,1,1,2,2,3,3,4,4,5,5,6,6,7,7,8,8,9,9,10,10,11,11,12,12,13,13,14,14],"right_children":[2,4,6,8,10,12,14,16,18,20,22,24,26,28,30,-1,-1,-1,-1,-1,-1,-1,-1,-1,-1,-1,-1,-1,-1,-1,-1],"split_conditions":[1.04534025E1,4.9495616E0,1.7937185E1,1.01E1,7.858749E0,1.3327103E1,2.3250801E1,1.0307984E1,2.96E1,4.9999995E0,8.3E0,4.2E0,3.0526316E0,1.9822222E1,2.564626E1,-1.6539799E-2,-1.20408535E-2,-8.176058E-3,3.5E-2,-8.289015E-3,-5.172814E-3,-3.402775E-3,1.3368673E-4,-8.739777E-4,2.3720786E-3,3.8447087E-3,6.2789354E-3,7.3642293E-3,9.83069E-3,1.1388659E-2,1.4058677E-2],"split_indices":[16,16,16,27,16,7,16,19,27,27,27,27,9,7,7,0,0,0,0,0,0,0,0,0,0,0,0,0,0,0,0],"split_type":[0,0,0,0,0,0,0,0,0,0,0,0,0,0,0,0,0,0,0,0,0,0,0,0,0,0,0,0,0,0,0],"sum_hessian":[8.9459675E5,4.1303606E5,4.815607E5,1.4330177E5,2.697343E5,2.5540823E5,2.2615247E5,1.2103262E5,2.2269145E4,1.4569155E5,1.2404276E5,1.3389575E5,1.21512484E5,1.1756789E5,1.0858457E5,5.4354117E4,6.66785E4,2.2215434E4,5.371103E1,7.764745E4,6.8044086E4,9.668422E4,2.735854E4,5.611291E4,7.7782836E4,7.217682E4,4.9335664E4,5.212521E4,6.5442676E4,5.058238E4,5.8002195E4],"tree_param":{"num_deleted":"0","num_feature":"28","num_nodes":"31","size_leaf_vector":"1"}},{"base_weights":[-1.1981878E-3,-1.4351797E-1,1.3469577E-1,-2.37591E-1,-7.559688E-2,6.8927236E-2,2.0836103E-1,-3.0087033E-1,-2.0035069E-1,-1.15375936E-1,-3.8983542E-2,3.7127353E-2,1.07834086E-1,1.7122822E-1,2.4080084E-1,-1.5424484E-2,-3.4759832E-3,-1.0805087E-2,-6.439303E-3,-6.4294613E-3,-1.982588E-3,-2.921405E-3,1.1949074E-5,1.5365127E-4,3.0267846E-3,8.737144E-3,4.8608235E-3,7.128461E-3,9.666792E-3,1.1039507E-2,1.3850274E-2],"categories":[],"categories_nodes":[],"categories_segments":[],"categories_sizes":[],"default_left":[0,0,0,0,0,0,0,0,0,0,0,0,0,0,0,0,0,0,0,0,0,0,0,0,0,0,0,0,0,0,0],"id":23,"left_children":[1,3,5,7,9,11,13,15,17,19,21,23,25,27,29,-1,-1,-1,-1,-1,-1,-1,-1,-1,-1,-1,-1,-1,-1,-1,-1],"loss_changes":[1.731561E4,2.7942236E3,2.2188975E3,4.3202832E2,3.6987134E2,2.993661E2,2.6018066E2,1.1971777E2,1.3008789E2,1.2178064E2,1.0085683E2,1.0613751E2,7.729187E1,6.3793945E1,8.346826E1,0E0,0E0,0E0,0E0,0E0,0E0,0E0,0E0,0E0,0E0,0E0,0E0,0E0,0E0,0E0,0E0],"parents":[2147483647,0,0,1,1,2,2,3,3,4,4,5,5,6,6,7,7,8,8,9,9,10,10,11,11,12,12,13,13,14,14],"right_children":[2,4,6,8,10,12,14,16,18,20,22,24,26,28,30,-1,-1,-1,-1,-1,-1,-1,-1,-1,-1,-1,-1,-1,-1,-1,-1],"split_conditions":[1.10967245E1,5.7775493E0,1.850185E1,3.1928644E0,8.236595E0,1.4607492E1,2.301623E1,1.64E1,9.5E0,1E1,6.6E0,3.7000003E0,5.010718E-1,3.5E0,2.7980303E1,-1.5424484E-2,-3.4759832E-3,-1.0805087E-2,-6.439303E-3,-6.4294613E-3,-1.982588E-3,-2.921405E-3,1.1949074E-5,1.5365127E-4,3.0267846E-3,8.737144E-3,4.8608235E-3,7.128461E-3,9.666792E-3,1.1039507E-2,1.3850274E-2],"split_indices":[16,16,16,16,16,16,16,27,27,27,27,27,4,27,16,0,0,0,0,0,0,0,0,0,0,0,0,0,0,0,0],"split_type":[0,0,0,0,0,0,0,0,0,0,0,0,0,0,0,0,0,0,0,0,0,0,0,0,0,0,0,0,0,0,0],"sum_hessian":[8.9530594E5,4.3731362E5,4.579923E5,1.8335633E5,2.539573E5,2.4196623E5,2.1602608E5,6.792686E4,1.1542947E5,1.2171558E5,1.3224172E5,1.3314461E5,1.0882162E5,1.0072996E5,1.1529612E5,6.576075E4,2.1661064E3,9.460525E4,2.082421E4,1.036319E5,1.808368E4,8.841133E4,4.3830387E4,5.423906E4,7.8905555E4,1.4901543E4,9.392007E4,4.3868668E4,5.6861293E4,7.425927E4,4.1036844E4],"tree_param":{"num_deleted":"0","num_feature":"28","num_nodes":"31","size_leaf_vector":"1"}},{"base_weights":[-6.704884E-4,-1.4893107E-1,1.250173E-1,-2.3487137E-1,-8.0860764E-2,5.0583694E-2,1.8981175E-1,-3.1038612E-1,-1.9985941E-1,-1.20576486E-1,-4.9410056E-2,1.6300742E-2,8.202502E-2,1.5615627E-1,2.34256E-1,-1.641224E-2,-1.0069647E-2,-1.1054308E-2,-6.922056E-3,-7.193412E-3,-3.506088E-3,-3.1810522E-3,8.016555E-5,-8.7640196E-4,1.8646052E-3,6.377537E-3,3.4607598E-3,9.116377E-3,6.688972E-3,1.0802812E-2,1.3581196E-2],"categories":[],"categories_nodes":[],"categories_segments":[],"categories_sizes":[],"default_left":[0,0,0,0,0,0,0,0,0,0,0,0,0,0,0,0,0,0,0,0,0,0,0,0,0,0,0,0,0,0,0],"id":24,"left_children":[1,3,5,7,9,11,13,15,17,19,21,23,25,27,29,-1,-1,-1,-1,-1,-1,-1,-1,-1,-1,-1,-1,-1,-1,-1,-1],"loss_changes":[1.6702842E4,2.4057314E3,2.3395566E3,4.8050098E2,2.8663477E2,2.433429E2,3.878828E2,1.1200195E2,1.6187256E2,1.1916907E2,9.284247E1,7.669252E1,6.866553E1,8.640674E1,7.594531E1,0E0,0E0,0E0,0E0,0E0,0E0,0E0,0E0,0E0,0E0,0E0,0E0,0E0,0E0,0E0,0E0],"parents":[2147483647,0,0,1,1,2,2,3,3,4,4,5,5,6,6,7,7,8,8,9,9,10,10,11,11,12,12,13,13,14,14],"right_children":[2,4,6,8,10,12,14,16,18,20,22,24,26,28,30,-1,-1,-1,-1,-1,-1,-1,-1,-1,-1,-1,-1,-1,-1,-1,-1],"split_conditions":[1.0608522E1,5.7775493E0,1.696453E1,2.9146476E0,7.858749E0,1.3248036E1,2.3250801E1,1.04E1,8E0,6.9E0,8.3E0,3.5E0,5.208333E-1,5.788002E-1,2.8647182E1,-1.641224E-2,-1.0069647E-2,-1.1054308E-2,-6.922056E-3,-7.193412E-3,-3.506088E-3,-3.1810522E-3,8.016555E-5,-8.7640196E-4,1.8646052E-3,6.377537E-3,3.4607598E-3,9.116377E-3,6.688972E-3,1.0802812E-2,1.3581196E-2],"split_indices":[16,16,16,16,16,16,16,27,27,27,27,27,4,4,16,0,0,0,0,0,0,0,0,0,0,0,0,0,0,0,0],"split_type":[0,0,0,0,0,0,0,0,0,0,0,0,0,0,0,0,0,0,0,0,0,0,0,0,0,0,0,0,0,0,0],"sum_hessian":[8.9633544E5,4.1123953E5,4.850959E5,1.8176044E5,2.2947908E5,2.257565E5,2.5933942E5,5.7574434E4,1.24186E5,1.0141284E5,1.2806624E5,1.07998625E5,1.17757875E5,1.4758497E5,1.1175445E5,4.946717E4,8.1072607E3,9.228784E4,3.1898156E4,6.9381805E4,3.203104E4,1.0016316E5,2.7903084E4,4.1354176E4,6.6644445E4,2.5856338E4,9.190153E4,6.802172E4,7.956325E4,7.51567E4,3.659775E4],"tree_param":{"num_deleted":"0","num_feature":"28","num_nodes":"31","size_leaf_vector":"1"}},{"base_weights":[-1.946102E-3,-1.5872085E-1,1.0836559E-1,-2.5760588E-1,-1.0446253E-1,3.6283854E-2,1.8100086E-1,-3.0701503E-1,-2.207496E-1,-1.4411785E-1,-7.2897345E-2,4.90269E-3,7.5961754E-2,1.4822961E-1,2.2423154E-1,-1.575311E-2,-2.0374707E-3,-1.2238189E-2,-7.5031235E-3,-7.7817375E-3,-3.8647212E-3,-4.9793995E-3,-2.0924858E-3,-9.3490427E-4,1.7424122E-3,1.963081E-3,4.5359135E-3,5.052771E-3,7.9157E-3,9.214124E-3,1.1929651E-2],"categories":[],"categories_nodes":[],"categories_segments":[],"categories_sizes":[],"default_left":[0,0,0,0,0,0,0,0,0,0,0,0,0,0,0,0,0,0,0,0,0,0,0,0,0,0,0,0,0,0,0],"id":25,"left_children":[1,3,5,7,9,11,13,15,17,19,21,23,25,27,29,-1,-1,-1,-1,-1,-1,-1,-1,-1,-1,-1,-1,-1,-1,-1,-1],"loss_changes":[1.5473416E4,1.9826641E3,2.7496963E3,2.3835254E2,2.9866772E2,3.282164E2,3.7056348E2,1.19836426E2,1.2726196E2,8.1375244E1,1.1009503E2,1.0402471E2,6.3040466E1,7.077075E1,6.466748E1,0E0,0E0,0E0,0E0,0E0,0E0,0E0,0E0,0E0,0E0,0E0,0E0,0E0,0E0,0E0,0E0],"parents":[2147483647,0,0,1,1,2,2,3,3,4,4,5,5,6,6,7,7,8,8,9,9,10,10,11,11,12,12,13,13,14,14],"right_children":[2,4,6,8,10,12,14,16,18,20,22,24,26,28,30,-1,-1,-1,-1,-1,-1,-1,-1,-1,-1,-1,-1,-1,-1,-1,-1],"split_conditions":[9.734091E0,4.769732E0,1.696453E1,2.9146476E0,6.9476337E0,1.3248036E1,2.3250801E1,1.64E1,8.1E0,1.0200001E1,4.9999995E0,5.2E0,2.6000001E0,2.28E0,2.1E0,-1.575311E-2,-2.0374707E-3,-1.2238189E-2,-7.5031235E-3,-7.7817375E-3,-3.8647212E-3,-4.9793995E-3,-2.0924858E-3,-9.3490427E-4,1.7424122E-3,1.963081E-3,4.5359135E-3,5.052771E-3,7.9157E-3,9.214124E-3,1.1929651E-2],"split_indices":[16,16,16,16,16,16,16,27,27,27,27,27,27,9,27,0,0,0,0,0,0,0,0,0,0,0,0,0,0,0,0],"split_type":[0,0,0,0,0,0,0,0,0,0,0,0,0,0,0,0,0,0,0,0,0,0,0,0,0,0,0,0,0,0,0],"sum_hessian":[8.947209E5,3.6953625E5,5.251846E5,1.3092449E5,2.3861177E5,2.635975E5,2.6158714E5,5.5933395E4,7.49911E4,1.0575202E5,1.3285975E5,1.4718797E5,1.16409516E5,1.4879597E5,1.1279117E5,5.4292363E4,1.6410309E3,5.597316E4,1.901794E4,9.020416E4,1.5547864E4,7.144155E4,6.1418203E4,8.2314445E4,6.4873523E4,3.338446E4,8.3025055E4,2.6207887E4,1.2258808E5,2.982931E4,8.296187E4],"tree_param":{"num_deleted":"0","num_feature":"28","num_nodes":"31","size_leaf_vector":"1"}},{"base_weights":[4.3670327E-5,-1.455055E-1,1.1487745E-1,-2.4432233E-1,-9.001119E-2,4.3496314E-2,1.778919E-1,-3.0221123E-1,-2.075521E-1,-1.2421444E-1,-4.86589E-2,1.3857192E-2,8.161986E-2,1.4475182E-1,2.2115128E-1,-1.5568167E-2,-1.2246289E-3,-1.1422995E-2,-5.7222126E-3,-7.2309747E-3,-3.9452775E-3,-3.1596038E-3,1.07992404E-4,-1.0893544E-3,1.8891711E-3,3.3299786E-3,6.5520606E-3,-3.5941114E-3,7.335463E-3,1.0368715E-2,1.3268881E-2],"categories":[],"categories_nodes":[],"categories_segments":[],"categories_sizes":[],"default_left":[0,0,0,0,0,0,0,0,0,0,0,0,0,0,0,0,0,0,0,0,0,0,0,0,0,0,0,0,0,0,0],"id":26,"left_children":[1,3,5,7,9,11,13,15,17,19,21,23,25,27,29,-1,-1,-1,-1,-1,-1,-1,-1,-1,-1,-1,-1,-1,-1,-1,-1],"loss_changes":[1.4932781E4,2.1606943E3,2.2463677E3,3.0155664E2,3.5687317E2,2.6458966E2,3.8023535E2,1.398916E2,1.6867212E2,1.2766431E2,8.436203E1,1.12354416E2,7.6020874E1,6.370044E1,7.0049805E1,0E0,0E0,0E0,0E0,0E0,0E0,0E0,0E0,0E0,0E0,0E0,0E0,0E0,0E0,0E0,0E0],"parents":[2147483647,0,0,1,1,2,2,3,3,4,4,5,5,6,6,7,7,8,8,9,9,10,10,11,11,12,12,13,13,14,14],"right_children":[2,4,6,8,10,12,14,16,18,20,22,24,26,28,30,-1,-1,-1,-1,-1,-1,-1,-1,-1,-1,-1,-1,-1,-1,-1,-1],"split_conditions":[1.0376636E1,5.062988E0,1.60625E1,2.9146476E0,7.9268217E0,1.3800588E1,2.2538462E1,1.64E1,9.5E0,7.818182E0,8.3E0,3.8E0,8.1E0,2.34E1,3.02E1,-1.5568167E-2,-1.2246289E-3,-1.1422995E-2,-5.7222126E-3,-7.2309747E-3,-3.9452775E-3,-3.1596038E-3,1.07992404E-4,-1.0893544E-3,1.8891711E-3,3.3299786E-3,6.5520606E-3,-3.5941114E-3,7.335463E-3,1.0368715E-2,1.3268881E-2],"split_indices":[16,16,7,16,16,16,7,27,27,7,27,27,27,3,0,0,0,0,0,0,0,0,0,0,0,0,0,0,0,0,0],"split_type":[0,0,0,0,0,0,0,0,0,0,0,0,0,0,0,0,0,0,0,0,0,0,0,0,0,0,0,0,0,0,0],"sum_hessian":[8.9342956E5,3.9401912E5,4.9941047E5,1.4169834E5,2.5232078E5,2.3416083E5,2.6524962E5,5.5039754E4,8.6658586E4,1.3809655E5,1.14224234E5,1.3174058E5,1.0242026E5,1.501938E5,1.15055836E5,5.328369E4,1.756063E3,7.076625E4,1.5892338E4,9.521421E4,4.288233E4,8.882249E4,2.5401748E4,5.291305E4,7.882752E4,7.854958E4,2.3870676E4,1.3446381E3,1.4884916E5,8.7732016E4,2.7323818E4],"tree_param":{"num_deleted":"0","num_feature":"28","num_nodes":"31","size_leaf_vector":"1"}},{"base_weights":[1.3845805E-4,-1.3337633E-1,1.17283784E-1,-2.1616559E-1,-6.8458065E-2,5.749782E-2,1.8340638E-1,-2.860548E-1,-1.7864153E-1,-1.1225547E-1,-3.522557E-2,-3.94941E-2,6.765738E-2,1.6297092E-1,2.317233E-1,-1.6617576E-2,-1.2862443E-2,-1.110763E-2,-7.878665E-3,-6.9786212E-3,-3.474834E-3,-3.5645594E-3,-6.165229E-4,-6.4524347E-3,-9.587553E-4,1.7871857E-3,4.4886284E-3,6.774546E-3,8.778205E-3,1.0951646E-2,1.3191975E-2],"categories":[],"categories_nodes":[],"categories_segments":[],"categories_sizes":[],"default_left":[0,0,0,0,0,0,0,0,0,0,0,0,0,0,0,0,0,0,0,0,0,0,0,0,0,0,0,0,0,0,0],"id":27,"left_children":[1,3,5,7,9,11,13,15,17,19,21,23,25,27,29,-1,-1,-1,-1,-1,-1,-1,-1,-1,-1,-1,-1,-1,-1,-1,-1],"loss_changes":[1.3990438E4,2.246751E3,1.8835107E3,4.8178418E2,3.4103357E2,2.4656616E2,2.2334375E2,8.551123E1,1.0955444E2,1.1806323E2,1.1000629E2,4.3168983E1,1.5985083E2,5.4998047E1,2.73479E1,0E0,0E0,0E0,0E0,0E0,0E0,0E0,0E0,0E0,0E0,0E0,0E0,0E0,0E0,0E0,0E0],"parents":[2147483647,0,0,1,1,2,2,3,3,4,4,5,5,6,6,7,7,8,8,9,9,10,10,11,11,12,12,13,13,14,14],"right_children":[2,4,6,8,10,12,14,16,18,20,22,24,26,28,30,-1,-1,-1,-1,-1,-1,-1,-1,-1,-1,-1,-1,-1,-1,-1,-1],"split_conditions":[1.0473684E1,1.7218042E1,1.8E1,1.047104E1,7.5E0,2.2558512E1,2.564626E1,6.680981E0,4.6E0,8.2E0,2.335254E1,1.7218042E1,1.3327103E1,1.98E1,3.0689655E1,-1.6617576E-2,-1.2862443E-2,-1.110763E-2,-7.878665E-3,-6.9786212E-3,-3.474834E-3,-3.5645594E-3,-6.165229E-4,-6.4524347E-3,-9.587553E-4,1.7871857E-3,4.4886284E-3,6.774546E-3,8.778205E-3,1.0951646E-2,1.3191975E-2],"split_indices":[7,19,7,19,7,19,7,19,7,0,19,19,7,0,7,0,0,0,0,0,0,0,0,0,0,0,0,0,0,0,0],"split_type":[0,0,0,0,0,0,0,0,0,0,0,0,0,0,0,0,0,0,0,0,0,0,0,0,0,0,0,0,0,0,0],"sum_hessian":[8.944912E5,4.1803797E5,4.7645322E5,1.8372895E5,2.3430902E5,2.5021688E5,2.2623633E5,6.4182086E4,1.1954686E5,1.0108534E5,1.3322367E5,2.3724018E4,2.2649286E5,1.5899455E5,6.724178E4,2.4613281E4,3.9568805E4,3.899762E4,8.054924E4,6.167884E4,3.9406504E4,5.173143E4,8.149224E4,4.386309E3,1.9337709E4,9.2709516E4,1.3378334E5,4.9968445E4,1.090261E5,4.8202773E4,1.9039012E4],"tree_param":{"num_deleted":"0","num_feature":"28","num_nodes":"31","size_leaf_vector":"1"}},{"base_weights":[-7.2888384E-4,-1.534174E-1,9.926017E-2,-2.4424832E-1,-9.874067E-2,3.078382E-2,1.6230986E-1,-2.9840437E-1,-2.0783818E-1,-1.2892699E-1,-5.8505945E-2,3.956642E-3,7.115294E-2,1.3211745E-1,2.019838E-1,-1.6939213E-2,-1.3501312E-2,-1.2134717E-2,-9.471697E-3,-5.9305066E-3,-9.958482E-3,-4.481582E-3,-1.30103E-3,-4.928408E-4,2.1110205E-3,3.9536147E-3,1.2609042E-3,7.5018764E-3,5.3087114E-3,9.258001E-3,1.1167945E-2],"categories":[],"categories_nodes":[],"categories_segments":[],"categories_sizes":[],"default_left":[0,0,0,0,0,0,0,0,0,0,0,0,0,0,0,0,0,0,0,0,0,0,0,0,0,0,0,0,0,0,0],"id":28,"left_children":[1,3,5,7,9,11,13,15,17,19,21,23,25,27,29,-1,-1,-1,-1,-1,-1,-1,-1,-1,-1,-1,-1,-1,-1,-1,-1],"loss_changes":[1.3623716E4,1.7536895E3,2.3280845E3,2.6158008E2,2.677151E2,2.7994556E2,3.3625928E2,6.103369E1,5.0855713E1,9.1244385E1,9.554004E1,8.2082184E1,3.7539368E1,7.410083E1,4.3586426E1,0E0,0E0,0E0,0E0,0E0,0E0,0E0,0E0,0E0,0E0,0E0,0E0,0E0,0E0,0E0,0E0],"parents":[2147483647,0,0,1,1,2,2,3,3,4,4,5,5,6,6,7,7,8,8,9,9,10,10,11,11,12,12,13,13,14,14],"right_children":[2,4,6,8,10,12,14,16,18,20,22,24,26,28,30,-1,-1,-1,-1,-1,-1,-1,-1,-1,-1,-1,-1,-1,-1,-1,-1],"split_conditions":[9.58024E0,4.9495616E0,1.6463964E1,2.9146476E0,7.818182E0,1.3E1,2.2075E1,6.680981E0,1.1531667E1,4E0,2.2276257E1,1.2968822E1,6.5070796E-1,6.067857E-1,5.8E0,-1.6939213E-2,-1.3501312E-2,-1.2134717E-2,-9.471697E-3,-5.9305066E-3,-9.958482E-3,-4.481582E-3,-1.30103E-3,-4.928408E-4,2.1110205E-3,3.9536147E-3,1.2609042E-3,7.5018764E-3,5.3087114E-3,9.258001E-3,1.1167945E-2],"split_indices":[16,16,16,16,7,7,7,19,19,13,19,16,4,4,2,0,0,0,0,0,0,0,0,0,0,0,0,0,0,0,0],"split_type":[0,0,0,0,0,0,0,0,0,0,0,0,0,0,0,0,0,0,0,0,0,0,0,0,0,0,0,0,0,0,0],"sum_hessian":[8.923511E5,3.5311916E5,5.3923194E5,1.3268862E5,2.2043053E5,2.5849252E5,2.8073944E5,5.3341652E4,7.934697E4,1.25940664E5,9.448987E4,1.5529367E5,1.0319884E5,1.5942172E5,1.213177E5,2.2010879E4,3.1330773E4,2.74143E4,5.1932668E4,1.09814414E5,1.6126251E4,4.8253875E4,4.6235996E4,1.1410266E5,4.1191023E4,8.802268E4,1.5176167E4,9.428812E4,6.5133594E4,6.789165E4,5.3426055E4],"tree_param":{"num_deleted":"0","num_feature":"28","num_nodes":"31","size_leaf_vector":"1"}},{"base_weights":[-1.0355806E-3,-1.3644761E-1,1.0422748E-1,-2.4310149E-1,-8.683967E-2,4.744944E-2,1.6761324E-1,-2.6179034E-1,-1.4200309E-1,-1.2219535E-1,-4.2780224E-2,1.2660268E-2,7.460028E-2,1.517739E-1,2.1921793E-1,-1.6795442E-2,-1.1674292E-2,-8.120831E-3,3.889439E-3,-7.4199736E-3,-4.2091645E-3,-2.8723038E-3,3.7563115E-4,-7.1264023E-4,1.8716588E-3,5.569818E-3,3.0766474E-3,6.367411E-3,8.3821425E-3,1.13919815E-2,8.032377E-3],"categories":[],"categories_nodes":[],"categories_segments":[],"categories_sizes":[],"default_left":[0,0,0,0,0,0,0,0,0,0,0,0,0,0,0,0,0,0,0,0,0,0,0,0,0,0,0,0,0,0,0],"id":29,"left_children":[1,3,5,7,9,11,13,15,17,19,21,23,25,27,29,-1,-1,-1,-1,-1,-1,-1,-1,-1,-1,-1,-1,-1,-1,-1,-1],"loss_changes":[1.2792548E4,2.076788E3,1.8172725E3,2.354082E2,4.1733765E2,2.5159149E2,1.9498877E2,2.205586E2,8.725256E1,1.480415E2,8.797757E1,7.784485E1,7.1926636E1,7.074072E1,2.8257568E1,0E0,0E0,0E0,0E0,0E0,0E0,0E0,0E0,0E0,0E0,0E0,0E0,0E0,0E0,0E0,0E0],"parents":[2147483647,0,0,1,1,2,2,3,3,4,4,5,5,6,6,7,7,8,8,9,9,10,10,11,11,12,12,13,13,14,14],"right_children":[2,4,6,8,10,12,14,16,18,20,22,24,26,28,30,-1,-1,-1,-1,-1,-1,-1,-1,-1,-1,-1,-1,-1,-1,-1,-1],"split_conditions":[1.04534025E1,4.769732E0,1.8118914E1,1.01E1,7.9268217E0,1.3248036E1,2.7003708E1,7.2E0,1.95E1,1.9358622E1,8.3E0,4.5E0,-4.5532826E-1,3.2E0,3.6890244E1,-1.6795442E-2,-1.1674292E-2,-8.120831E-3,3.889439E-3,-7.4199736E-3,-4.2091645E-3,-2.8723038E-3,3.7563115E-4,-7.1264023E-4,1.8716588E-3,5.569818E-3,3.0766474E-3,6.367411E-3,8.3821425E-3,1.13919815E-2,8.032377E-3],"split_indices":[16,16,16,27,16,16,16,3,27,19,27,27,24,27,10,0,0,0,0,0,0,0,0,0,0,0,0,0,0,0,0],"split_type":[0,0,0,0,0,0,0,0,0,0,0,0,0,0,0,0,0,0,0,0,0,0,0,0,0,0,0,0,0,0,0],"sum_hessian":[8.9747606E5,3.9252525E5,5.049508E5,1.2461248E5,2.6791278E5,2.6635975E5,2.3859106E5,1.0516948E5,1.9443002E4,1.486368E5,1.1927598E5,1.1675701E5,1.4960273E5,1.8256061E5,5.6030457E4,2.9060484E4,7.610899E4,1.7790902E4,1.652098E3,8.798219E4,6.0654617E4,9.23467E4,2.6929277E4,5.596143E4,6.0795582E4,3.9203305E4,1.1039944E5,7.1900086E4,1.1066052E5,4.8838426E4,7.1920317E3],"tree_param":{"num_deleted":"0","num_feature":"28","num_nodes":"31","size_leaf_vector":"1"}},{"base_weights":[-2.2948178E-4,-1.3958138E-1,1.0004025E-1,-2.4276423E-1,-8.945804E-2,4.7620002E-2,1.6534415E-1,-2.9317218E-1,-2.02461E-1,-1.2420904E-1,-4.8278198E-2,1.1326613E-2,8.1338085E-2,1.326302E-1,1.9298917E-1,-1.5079911E-2,-1.7759799E-3,-1.1351978E-2,-6.657102E-3,-7.0117437E-3,-2.2702331E-3,-4.500835E-3,-1.2977248E-3,-7.208075E-4,2.1049238E-3,2.8801854E-3,5.038529E-3,7.3999553E-3,5.6046275E-3,8.611664E-3,1.0950551E-2],"categories":[],"categories_nodes":[],"categories_segments":[],"categories_sizes":[],"default_left":[0,0,0,0,0,0,0,0,0,0,0,0,0,0,0,0,0,0,0,0,0,0,0,0,0,0,0,0,0,0,0],"id":30,"left_children":[1,3,5,7,9,11,13,15,17,19,21,23,25,27,29,-1,-1,-1,-1,-1,-1,-1,-1,-1,-1,-1,-1,-1,-1,-1,-1],"loss_changes":[1.2469057E4,1.9312437E3,1.7765347E3,2.479751E2,3.5965808E2,3.52292E2,2.089624E2,1.1774805E2,1.1556494E2,1.721333E2,1.0717514E2,1.0983026E2,6.88241E1,3.3391357E1,6.760693E1,0E0,0E0,0E0,0E0,0E0,0E0,0E0,0E0,0E0,0E0,0E0,0E0,0E0,0E0,0E0,0E0],"parents":[2147483647,0,0,1,1,2,2,3,3,4,4,5,5,6,6,7,7,8,8,9,9,10,10,11,11,12,12,13,13,14,14],"right_children":[2,4,6,8,10,12,14,16,18,20,22,24,26,28,30,-1,-1,-1,-1,-1,-1,-1,-1,-1,-1,-1,-1,-1,-1,-1,-1],"split_conditions":[1.0154592E1,4.769732E0,1.850185E1,2.9812872E0,7.818182E0,1.3E1,2.2075E1,1.64E1,8E0,1.01E1,2.02E1,5.4000006E0,3.8E0,6.044951E-1,4.2999997E0,-1.5079911E-2,-1.7759799E-3,-1.1351978E-2,-6.657102E-3,-7.0117437E-3,-2.2702331E-3,-4.500835E-3,-1.2977248E-3,-7.208075E-4,2.1049238E-3,2.8801854E-3,5.038529E-3,7.3999553E-3,5.6046275E-3,8.611664E-3,1.0950551E-2],"split_indices":[16,16,16,16,7,7,7,27,27,27,3,27,27,4,27,0,0,0,0,0,0,0,0,0,0,0,0,0,0,0,0],"split_type":[0,0,0,0,0,0,0,0,0,0,0,0,0,0,0,0,0,0,0,0,0,0,0,0,0,0,0,0,0,0,0],"sum_hessian":[8.9238E5,3.7341647E5,5.1896353E5,1.2208697E5,2.5132952E5,2.8788025E5,2.310833E5,5.4240812E4,6.784616E4,1.3630334E5,1.1502617E5,1.3864608E5,1.4923417E5,1.0584112E5,1.2524218E5,5.2522973E4,1.7178367E3,5.0085105E4,1.7761049E4,1.1326812E5,2.303522E4,4.008202E4,7.494416E4,7.549221E4,6.315386E4,6.718276E4,8.205142E4,6.0534902E4,4.5306215E4,6.967484E4,5.5567336E4],"tree_param":{"num_deleted":"0","num_feature":"28","num_nodes":"31","size_leaf_vector":"1"}},{"base_weights":[4.4969626E-4,-1.4608128E-1,9.207649E-2,-2.3997682E-1,-9.693663E-2,3.2945666E-2,1.5125862E-1,-3.1886953E-1,-2.14856E-1,-1.2533823E-1,-5.719342E-2,-3.7296524E-3,6.0745668E-2,1.2842108E-1,1.9479509E-1,-1.7158622E-2,-8.58459E-3,-1.1635308E-2,-6.6765635E-3,-7.058814E-3,-2.4237668E-3,-3.2185295E-3,3.1482733E-3,-2.0586231E-3,1.1708386E-3,2.226608E-3,4.382902E-3,5.145106E-3,7.217888E-3,8.810377E-3,1.09514715E-2],"categories":[],"categories_nodes":[],"categories_segments":[],"categories_sizes":[],"default_left":[0,0,0,0,0,0,0,0,0,0,0,0,0,0,0,0,0,0,0,0,0,0,0,0,0,0,0,0,0,0,0],"id":31,"left_children":[1,3,5,7,9,11,13,15,17,19,21,23,25,27,29,-1,-1,-1,-1,-1,-1,-1,-1,-1,-1,-1,-1,-1,-1,-1,-1],"loss_changes":[1.20286455E4,1.5905132E3,1.9290024E3,2.3462842E2,2.5539136E2,2.8113104E2,2.7388867E2,1.0223486E2,1.3036523E2,1.6063452E2,8.133203E1,1.2084511E2,6.843445E1,7.3475586E1,4.2658936E1,0E0,0E0,0E0,0E0,0E0,0E0,0E0,0E0,0E0,0E0,0E0,0E0,0E0,0E0,0E0,0E0],"parents":[2147483647,0,0,1,1,2,2,3,3,4,4,5,5,6,6,7,7,8,8,9,9,10,10,11,11,12,12,13,13,14,14],"right_children":[2,4,6,8,10,12,14,16,18,20,22,24,26,28,30,-1,-1,-1,-1,-1,-1,-1,-1,-1,-1,-1,-1,-1,-1,-1,-1],"split_conditions":[9.58024E0,4.711711E0,1.696453E1,6.6E0,7.818182E0,1.161157E1,2.4197369E1,1.04E1,9.6E0,1E1,1.24E1,4.2E0,5.5E0,3.3E0,4.2999997E0,-1.7158622E-2,-8.58459E-3,-1.1635308E-2,-6.6765635E-3,-7.058814E-3,-2.4237668E-3,-3.2185295E-3,3.1482733E-3,-2.0586231E-3,1.1708386E-3,2.226608E-3,4.382902E-3,5.145106E-3,7.217888E-3,8.810377E-3,1.09514715E-2],"split_indices":[16,16,16,3,7,7,7,27,27,27,27,27,27,27,27,0,0,0,0,0,0,0,0,0,0,0,0,0,0,0,0],"split_type":[0,0,0,0,0,0,0,0,0,0,0,0,0,0,0,0,0,0,0,0,0,0,0,0,0,0,0,0,0,0,0],"sum_hessian":[8.9590875E5,3.4468406E5,5.512247E5,1.18422586E5,2.2626148E5,2.7573266E5,2.7549206E5,2.8598012E4,8.982458E4,1.3195828E5,9.4303195E4,1.1888878E5,1.5684386E5,1.8070516E5,9.478691E4,2.4543848E4,4.0541643E3,7.365581E4,1.6168761E4,1.09412375E5,2.2545914E4,8.898833E4,5.3148657E3,4.996794E4,6.8920836E4,9.787885E4,5.8965008E4,6.947084E4,1.11234305E5,5.3647754E4,4.113915E4],"tree_param":{"num_deleted":"0","num_feature":"28","num_nodes":"31","size_leaf_vector":"1"}},{"base_weights":[-3.8990405E-4,-1.4294177E-1,8.845561E-2,-2.3382072E-1,-9.386262E-2,2.6445163E-2,1.4603025E-1,-3.136148E-1,-2.076534E-1,-1.229726E-1,-5.398318E-2,-1.2741123E-3,6.720145E-2,1.1961006E-1,1.785432E-1,-1.6494375E-2,-8.314497E-3,-1.1383274E-2,-5.1266714E-3,-6.8857707E-3,-2.4067992E-3,-4.27377E-3,-1.0152437E-3,-1.3019585E-3,1.4077545E-3,1.8504953E-3,4.1488E-3,4.809165E-3,6.682921E-3,7.9876855E-3,1.0073393E-2],"categories":[],"categories_nodes":[],"categories_segments":[],"categories_sizes":[],"default_left":[0,0,0,0,0,0,0,0,0,0,0,0,0,0,0,0,0,0,0,0,0,0,0,0,0,0,0,0,0,0,0],"id":32,"left_children":[1,3,5,7,9,11,13,15,17,19,21,23,25,27,29,-1,-1,-1,-1,-1,-1,-1,-1,-1,-1,-1,-1,-1,-1,-1,-1],"loss_changes":[1.1291462E4,1.5267681E3,1.9608823E3,2.5057031E2,2.5802795E2,2.9873706E2,2.4462354E2,7.1007324E1,1.9014233E2,1.4175085E2,9.9471985E1,1.1470829E2,5.097711E1,5.169873E1,5.496338E1,0E0,0E0,0E0,0E0,0E0,0E0,0E0,0E0,0E0,0E0,0E0,0E0,0E0,0E0,0E0,0E0],"parents":[2147483647,0,0,1,1,2,2,3,3,4,4,5,5,6,6,7,7,8,8,9,9,10,10,11,11,12,12,13,13,14,14],"right_children":[2,4,6,8,10,12,14,16,18,20,22,24,26,28,30,-1,-1,-1,-1,-1,-1,-1,-1,-1,-1,-1,-1,-1,-1,-1,-1],"split_conditions":[9.58024E0,4.769732E0,1.662407E1,2.1788363E0,7.818182E0,1.3E1,2.2075E1,1.22E1,1.01E1,1.01E1,2.2276257E1,5.3999996E0,2.8999999E0,3.2E0,5.8E0,-1.6494375E-2,-8.314497E-3,-1.1383274E-2,-5.1266714E-3,-6.8857707E-3,-2.4067992E-3,-4.27377E-3,-1.0152437E-3,-1.3019585E-3,1.4077545E-3,1.8504953E-3,4.1488E-3,4.809165E-3,6.682921E-3,7.9876855E-3,1.0073393E-2],"split_indices":[16,16,16,16,7,7,7,27,27,27,19,27,27,27,2,0,0,0,0,0,0,0,0,0,0,0,0,0,0,0,0],"split_type":[0,0,0,0,0,0,0,0,0,0,0,0,0,0,0,0,0,0,0,0,0,0,0,0,0,0,0,0,0,0,0],"sum_hessian":[8.9153994E5,3.423084E5,5.4923156E5,1.2003609E5,2.2227231E5,2.6443006E5,2.8480147E5,2.964037E4,9.039573E4,1.2848366E5,9.378865E4,1.5738794E5,1.0704213E5,1.5712531E5,1.2767617E5,2.6690988E4,2.9493794E3,7.593798E4,1.4457748E4,1.0733734E5,2.114631E4,4.8466566E4,4.5322082E4,8.54667E4,7.192123E4,3.6735645E4,7.0306484E4,5.890478E4,9.822052E4,7.017081E4,5.7505363E4],"tree_param":{"num_deleted":"0","num_feature":"28","num_nodes":"31","size_leaf_vector":"1"}},{"base_weights":[-6.9773133E-4,-1.4088656E-1,8.449967E-2,-2.3193309E-1,-8.86705E-2,2.7932895E-2,1.402453E-1,-2.934614E-1,-2.0041284E-1,-1.2280224E-1,-5.769719E-2,3.5644774E-3,6.737267E-2,1.16143286E-1,1.7341207E-1,-1.5093527E-2,-2.9013841E-3,-1.0519447E-2,-1.5145441E-3,-7.1597295E-3,-2.7661538E-3,-3.7441184E-3,-5.073693E-4,-1.1377678E-3,1.2773022E-3,2.766444E-3,6.0013714E-3,5.059385E-3,6.669467E-3,7.590148E-3,9.662863E-3],"categories":[],"categories_nodes":[],"categories_segments":[],"categories_sizes":[],"default_left":[0,0,0,0,0,0,0,0,0,0,0,0,0,0,0,0,0,0,0,0,0,0,0,0,0,0,0,0,0,0,0],"id":33,"left_children":[1,3,5,7,9,11,13,15,17,19,21,23,25,27,29,-1,-1,-1,-1,-1,-1,-1,-1,-1,-1,-1,-1,-1,-1,-1,-1],"loss_changes":[1.0693815E4,1.6089927E3,1.7561028E3,2.3917725E2,2.2738281E2,2.6565942E2,2.2419727E2,8.2707275E1,1.3843481E2,1.4080176E2,9.2145874E1,9.884825E1,6.693811E1,4.188501E1,5.0591797E1,0E0,0E0,0E0,0E0,0E0,0E0,0E0,0E0,0E0,0E0,0E0,0E0,0E0,0E0,0E0,0E0],"parents":[2147483647,0,0,1,1,2,2,3,3,4,4,5,5,6,6,7,7,8,8,9,9,10,10,11,11,12,12,13,13,14,14],"right_children":[2,4,6,8,10,12,14,16,18,20,22,24,26,28,30,-1,-1,-1,-1,-1,-1,-1,-1,-1,-1,-1,-1,-1,-1,-1,-1],"split_conditions":[9.518669E0,4.8963146E0,1.60625E1,2.6304624E0,1.9491444E1,1.3800588E1,2.2948277E1,1.64E1,1.4299999E1,8.2E0,9.227273E0,4.2999997E0,9.1E0,2.0047394E1,5.3827963E0,-1.5093527E-2,-2.9013841E-3,-1.0519447E-2,-1.5145441E-3,-7.1597295E-3,-2.7661538E-3,-3.7441184E-3,-5.073693E-4,-1.1377678E-3,1.2773022E-3,2.766444E-3,6.0013714E-3,5.059385E-3,6.669467E-3,7.590148E-3,9.662863E-3],"split_indices":[16,16,7,16,19,16,7,27,27,27,7,27,27,16,18,0,0,0,0,0,0,0,0,0,0,0,0,0,0,0,0],"split_type":[0,0,0,0,0,0,0,0,0,0,0,0,0,0,0,0,0,0,0,0,0,0,0,0,0,0,0,0,0,0,0],"sum_hessian":[8.953481E5,3.3844694E5,5.569012E5,1.2335522E5,2.150917E5,2.7641553E5,2.804857E5,4.1783824E4,8.15714E4,1.0232707E5,1.1276464E5,1.7085281E5,1.0556272E5,1.6244369E5,1.18042E5,4.03426E4,1.4412201E3,7.705273E4,4.5186694E3,7.857916E4,2.374791E4,8.282863E4,2.9936012E4,7.775369E4,9.309913E4,8.5913625E4,1.9649092E4,8.700276E4,7.544092E4,5.6513746E4,6.1528254E4],"tree_param":{"num_deleted":"0","num_feature":"28","num_nodes":"31","size_leaf_vector":"1"}},{"base_weights":[5.139033E-4,-1.3801922E-1,8.3964735E-2,-2.3190156E-1,-8.9923814E-2,2.6041118E-2,1.3559088E-1,-2.9410672E-1,-1.9704697E-1,-1.2045454E-1,-4.788479E-2,-4.72613E-3,5.3019065E-2,1.114915E-1,1.6809039E-1,-1.73542E-2,-1.343302E-2,-9.008575E-3,-1.2414212E-2,-5.475736E-3,-9.681131E-3,-3.8619728E-3,-8.503864E-4,-6.952525E-4,1.8567573E-3,3.0332156E-3,7.358959E-4,4.761886E-3,6.51841E-3,7.775884E-3,9.763526E-3],"categories":[],"categories_nodes":[],"categories_segments":[],"categories_sizes":[],"default_left":[0,0,0,0,0,0,0,0,0,0,0,0,0,0,0,0,0,0,0,0,0,0,0,0,0,0,0,0,0,0,0],"id":34,"left_children":[1,3,5,7,9,11,13,15,17,19,21,23,25,27,29,-1,-1,-1,-1,-1,-1,-1,-1,-1,-1,-1,-1,-1,-1,-1,-1],"loss_changes":[1.0345091E4,1.5189404E3,1.6699619E3,2.470166E2,2.855006E2,2.1844408E2,2.312456E2,5.5070557E1,6.3107178E1,1.0312463E2,8.482457E1,4.724409E1,4.1059174E1,5.2009277E1,4.293335E1,0E0,0E0,0E0,0E0,0E0,0E0,0E0,0E0,0E0,0E0,0E0,0E0,0E0,0E0,0E0,0E0],"parents":[2147483647,0,0,1,1,2,2,3,3,4,4,5,5,6,6,7,7,8,8,9,9,10,10,11,11,12,12,13,13,14,14],"right_children":[2,4,6,8,10,12,14,16,18,20,22,24,26,28,30,-1,-1,-1,-1,-1,-1,-1,-1,-1,-1,-1,-1,-1,-1,-1,-1],"split_conditions":[9.58024E0,4.711711E0,1.6463964E1,2.6304624E0,7.818182E0,1.1768292E1,2.2538462E1,5.3621073E0,4E0,4E0,2.2276257E1,1.3248036E1,6.522642E-1,2.0047394E1,2.8647182E1,-1.73542E-2,-1.343302E-2,-9.008575E-3,-1.2414212E-2,-5.475736E-3,-9.681131E-3,-3.8619728E-3,-8.503864E-4,-6.952525E-4,1.8567573E-3,3.0332156E-3,7.358959E-4,4.761886E-3,6.51841E-3,7.775884E-3,9.763526E-3],"split_indices":[16,16,16,16,7,7,7,19,13,13,19,16,4,16,16,0,0,0,0,0,0,0,0,0,0,0,0,0,0,0,0],"split_type":[0,0,0,0,0,0,0,0,0,0,0,0,0,0,0,0,0,0,0,0,0,0,0,0,0,0,0,0,0,0,0],"sum_hessian":[8.9484756E5,3.3640144E5,5.584461E5,1.1395574E5,2.2244569E5,2.6317266E5,2.952735E5,4.0919355E4,7.303638E4,1.2885977E5,9.358592E4,1.22951875E5,1.4022078E5,1.6955078E5,1.2572272E5,1.3273106E4,2.7646248E4,5.4944445E4,1.8091941E4,1.1210129E5,1.675848E4,4.7974906E4,4.561101E4,1.0084112E5,2.2110758E4,1.16888266E5,2.3332506E4,9.1108164E4,7.844262E4,8.596471E4,3.9758004E4],"tree_param":{"num_deleted":"0","num_feature":"28","num_nodes":"31","size_leaf_vector":"1"}},{"base_weights":[1.111741E-3,-1.3422267E-1,8.239768E-2,-2.2688942E-1,-8.732546E-2,2.8080689E-2,1.3449845E-1,-2.4096067E-1,-8.621414E-2,-1.1271661E-1,-4.5080785E-2,2.579231E-3,5.9277873E-2,1.0375652E-1,1.5695861E-1,-1.4655009E-2,-1.00560095E-2,-4.604004E-3,3.5E-2,-7.113691E-3,-3.3833955E-3,-4.0782792E-3,-1.0198203E-3,-1.0919714E-3,1.3005288E-3,1.8555726E-3,4.5013726E-3,-1.5223032E-3,5.29101E-3,6.529859E-3,8.422033E-3],"categories":[],"categories_nodes":[],"categories_segments":[],"categories_sizes":[],"default_left":[0,0,0,0,0,0,0,0,0,0,0,0,0,0,0,0,0,0,0,0,0,0,0,0,0,0,0,0,0,0,0],"id":35,"left_children":[1,3,5,7,9,11,13,15,17,19,21,23,25,27,29,-1,-1,-1,-1,-1,-1,-1,-1,-1,-1,-1,-1,-1,-1,-1,-1],"loss_changes":[9.852071E3,1.4604448E3,1.5834033E3,2.235122E2,2.3934229E2,2.17934E2,1.9717041E2,2.1318604E2,6.2396767E1,1.8556262E2,7.544191E1,8.624074E1,8.397592E1,3.339453E1,4.9926514E1,0E0,0E0,0E0,0E0,0E0,0E0,0E0,0E0,0E0,0E0,0E0,0E0,0E0,0E0,0E0,0E0],"parents":[2147483647,0,0,1,1,2,2,3,3,4,4,5,5,6,6,7,7,8,8,9,9,10,10,11,11,12,12,13,13,14,14],"right_children":[2,4,6,8,10,12,14,16,18,20,22,24,26,28,30,-1,-1,-1,-1,-1,-1,-1,-1,-1,-1,-1,-1,-1,-1,-1,-1],"split_conditions":[9.58024E0,4.711711E0,1.60625E1,1.24E1,2.1651833E1,1.3248036E1,2.1354961E1,9.906039E0,2.96E1,5.7999997E0,7.818182E0,1.075E1,5.6E0,2.36E1,2.4999998E0,-1.4655009E-2,-1.00560095E-2,-4.604004E-3,3.5E-2,-7.113691E-3,-3.3833955E-3,-4.0782792E-3,-1.0198203E-3,-1.0919714E-3,1.3005288E-3,1.8555726E-3,4.5013726E-3,-1.5223032E-3,5.29101E-3,6.529859E-3,8.422033E-3],"split_indices":[16,16,7,27,19,16,16,19,27,27,7,7,27,3,27,0,0,0,0,0,0,0,0,0,0,0,0,0,0,0,0],"split_type":[0,0,0,0,0,0,0,0,0,0,0,0,0,0,0,0,0,0,0,0,0,0,0,0,0,0,0,0,0,0,0],"sum_hessian":[8.95577E5,3.3606153E5,5.5951544E5,1.1292433E5,2.2313719E5,2.7393234E5,2.8558312E5,1.0265537E5,1.0268963E4,1.3936827E5,8.376892E4,1.5072586E5,1.2320648E5,1.2056615E5,1.6501698E5,4.446169E4,5.819367E4,1.0217648E4,5.131465E1,8.415235E4,5.521592E4,3.380341E4,4.996551E4,7.380796E4,7.69179E4,7.159677E4,5.1609707E4,1.8257002E3,1.18740445E5,5.0071344E4,1.1494564E5],"tree_param":{"num_deleted":"0","num_feature":"28","num_nodes":"31","size_leaf_vector":"1"}},{"base_weights":[4.5887826E-4,-1.3248457E-1,7.833147E-2,-2.2291803E-1,-8.6279094E-2,2.5800772E-2,1.293465E-1,-2.4400465E-1,-1.2687482E-1,-1.15300946E-1,-4.5385E-2,-4.539193E-3,5.3561617E-2,1.05929E-1,1.5707245E-1,-1.5496147E-2,-1.03230355E-2,-7.891904E-3,8.203637E-4,-6.528058E-3,-2.0437927E-3,-3.6734212E-3,-8.0564053E-4,-1.7430884E-3,8.4322196E-4,2.2757982E-3,6.4031975E-3,3.467338E-3,5.6197196E-3,7.436895E-3,1.0026183E-2],"categories":[],"categories_nodes":[],"categories_segments":[],"categories_sizes":[],"default_left":[0,0,0,0,0,0,0,0,0,0,0,0,0,0,0,0,0,0,0,0,0,0,0,0,0,0,0,0,0,0,0],"id":36,"left_children":[1,3,5,7,9,11,13,15,17,19,21,23,25,27,29,-1,-1,-1,-1,-1,-1,-1,-1,-1,-1,-1,-1,-1,-1,-1,-1],"loss_changes":[9.281672E3,1.3837964E3,1.5151235E3,2.2677002E2,2.6012988E2,2.3461406E2,1.862124E2,2.2719043E2,8.945563E1,1.4559961E2,7.479428E1,8.638051E1,8.7184784E1,3.6770264E1,4.753076E1,0E0,0E0,0E0,0E0,0E0,0E0,0E0,0E0,0E0,0E0,0E0,0E0,0E0,0E0,0E0,0E0],"parents":[2147483647,0,0,1,1,2,2,3,3,4,4,5,5,6,6,7,7,8,8,9,9,10,10,11,11,12,12,13,13,14,14],"right_children":[2,4,6,8,10,12,14,16,18,20,22,24,26,28,30,-1,-1,-1,-1,-1,-1,-1,-1,-1,-1,-1,-1,-1,-1,-1,-1],"split_conditions":[9.518669E0,4.711711E0,1.60625E1,9.6E0,7.818182E0,1.266895E1,2.2075E1,8.6E0,1.64E1,1.01E1,4.2999997E0,3.8000002E0,1.1E1,1.9397436E0,3.0689655E1,-1.5496147E-2,-1.03230355E-2,-7.891904E-3,8.203637E-4,-6.528058E-3,-2.0437927E-3,-3.6734212E-3,-8.0564053E-4,-1.7430884E-3,8.4322196E-4,2.2757982E-3,6.4031975E-3,3.467338E-3,5.6197196E-3,7.436895E-3,1.0026183E-2],"split_indices":[16,16,7,27,7,16,7,3,27,27,27,27,27,18,7,0,0,0,0,0,0,0,0,0,0,0,0,0,0,0,0],"split_type":[0,0,0,0,0,0,0,0,0,0,0,0,0,0,0,0,0,0,0,0,0,0,0,0,0,0,0,0,0,0,0],"sum_hessian":[8.965481E5,3.3117247E5,5.653756E5,1.11987164E5,2.191853E5,2.7855066E5,2.8682497E5,9.18251E4,2.0162066E4,1.2820122E5,9.0984086E4,1.3309323E5,1.4545742E5,1.5549655E5,1.3132842E5,3.3318496E4,5.8506605E4,1.65792E4,3.582866E3,1.0638679E5,2.181443E4,4.6434156E4,4.4549934E4,5.5071996E4,7.802124E4,1.3128167E5,1.4175751E4,2.335604E4,1.3214052E5,1.1019572E5,2.1132707E4],"tree_param":{"num_deleted":"0","num_feature":"28","num_nodes":"31","size_leaf_vector":"1"}},{"base_weights":[-1.7546579E-4,-1.19985715E-1,8.345859E-2,-2.1385553E-1,-7.2811864E-2,3.0818108E-2,1.2713654E-1,-2.7086207E-1,-1.7831968E-1,-1.04911275E-1,-4.0307738E-2,7.6566087E-3,5.6504853E-2,1.1295647E-1,1.6895333E-1,-1.4482006E-2,-7.6701813E-3,-9.985224E-3,-4.8335716E-3,-6.740592E-3,-2.9164266E-3,-2.9663965E-3,-1.6530002E-4,-1.069297E-3,1.4173164E-3,2.1575426E-3,4.9930993E-3,4.4585476E-3,6.301953E-3,8.541461E-3,-1.1019165E-3],"categories":[],"categories_nodes":[],"categories_segments":[],"categories_sizes":[],"default_left":[0,0,0,0,0,0,0,0,0,0,0,0,0,0,0,0,0,0,0,0,0,0,0,0,0,0,0,0,0,0,0],"id":37,"left_children":[1,3,5,7,9,11,13,15,17,19,21,23,25,27,29,-1,-1,-1,-1,-1,-1,-1,-1,-1,-1,-1,-1,-1,-1,-1,-1],"loss_changes":[8.978817E3,1.6311836E3,1.2133083E3,2.4953516E2,2.5578955E2,1.4237053E2,1.7099463E2,1.04299805E2,1.3249951E2,1.7179846E2,8.5730835E1,7.561407E1,6.569104E1,6.700757E1,2.6168701E1,0E0,0E0,0E0,0E0,0E0,0E0,0E0,0E0,0E0,0E0,0E0,0E0,0E0,0E0,0E0,0E0],"parents":[2147483647,0,0,1,1,2,2,3,3,4,4,5,5,6,6,7,7,8,8,9,9,10,10,11,11,12,12,13,13,14,14],"right_children":[2,4,6,8,10,12,14,16,18,20,22,24,26,28,30,-1,-1,-1,-1,-1,-1,-1,-1,-1,-1,-1,-1,-1,-1,-1,-1],"split_conditions":[1.0376636E1,5.005668E0,1.60625E1,2.9146476E0,2.0872768E1,1.3566281E1,2.564626E1,1.07E1,9.299999E0,5.7999997E0,9.386861E0,3.8000002E0,8.1E0,3E0,1.2E1,-1.4482006E-2,-7.6701813E-3,-9.985224E-3,-4.8335716E-3,-6.740592E-3,-2.9164266E-3,-2.9663965E-3,-1.6530002E-4,-1.069297E-3,1.4173164E-3,2.1575426E-3,4.9930993E-3,4.4585476E-3,6.301953E-3,8.541461E-3,-1.1019165E-3],"split_indices":[16,16,7,16,19,16,7,27,27,27,7,27,27,27,13,0,0,0,0,0,0,0,0,0,0,0,0,0,0,0,0],"split_type":[0,0,0,0,0,0,0,0,0,0,0,0,0,0,0,0,0,0,0,0,0,0,0,0,0,0,0,0,0,0,0],"sum_hessian":[8.960681E5,3.6836506E5,5.2770306E5,1.232032E5,2.4516184E5,2.3930064E5,2.884024E5,4.7306918E4,7.589629E4,1.2334774E5,1.218141E5,1.25836414E5,1.1346423E5,2.1537308E5,7.302932E4,4.078514E4,6.5217744E3,6.0142652E4,1.5753635E4,7.5124734E4,4.8223008E4,8.045619E4,4.1357918E4,5.2350707E4,7.348571E4,8.674787E4,2.671636E4,7.642755E4,1.3894555E5,7.231912E4,7.1019745E2],"tree_param":{"num_deleted":"0","num_feature":"28","num_nodes":"31","size_leaf_vector":"1"}},{"base_weights":[-7.939043E-4,-1.2019815E-1,7.830355E-2,-2.1565892E-1,-7.681006E-2,3.0490467E-2,1.24321304E-1,-3.0104572E-1,-1.886688E-1,-1.169139E-1,-5.010699E-2,5.5581825E-3,5.7473157E-2,1.0375241E-1,1.4778408E-1,-1.6904771E-2,-1.3469206E-2,-1.1184253E-2,-8.29837E-3,-6.5061315E-3,-3.458126E-3,-3.7761182E-3,-1.5243329E-3,4.810906E-4,-4.5574023E-3,-1.2844113E-3,3.0531744E-3,5.972507E-3,4.115078E-3,7.1364255E-3,1.1453143E-2],"categories":[],"categories_nodes":[],"categories_segments":[],"categories_sizes":[],"default_left":[0,0,0,0,0,0,0,0,0,0,0,0,0,0,0,0,0,0,0,0,0,0,0,0,0,0,0,0,0,0,0],"id":38,"left_children":[1,3,5,7,9,11,13,15,17,19,21,23,25,27,29,-1,-1,-1,-1,-1,-1,-1,-1,-1,-1,-1,-1,-1,-1,-1,-1],"loss_changes":[8.459535E3,1.4782666E3,1.1854697E3,2.5697363E2,2.6277588E2,1.7776584E2,1.324834E2,3.1328857E1,6.732886E1,6.1854004E1,7.3452515E1,5.3972603E1,3.7891754E1,4.925354E1,5.266626E1,0E0,0E0,0E0,0E0,0E0,0E0,0E0,0E0,0E0,0E0,0E0,0E0,0E0,0E0,0E0,0E0],"parents":[2147483647,0,0,1,1,2,2,3,3,4,4,5,5,6,6,7,7,8,8,9,9,10,10,11,11,12,12,13,13,14,14],"right_children":[2,4,6,8,10,12,14,16,18,20,22,24,26,28,30,-1,-1,-1,-1,-1,-1,-1,-1,-1,-1,-1,-1,-1,-1,-1,-1],"split_conditions":[1.0154592E1,4.769732E0,1.7451948E1,2.1788363E0,6.9476337E0,1.3E1,2.2538462E1,5.741137E0,1.1012269E1,7.928571E0,2.1651833E1,6E0,2.2828018E1,6.044951E-1,3.377987E1,-1.6904771E-2,-1.3469206E-2,-1.1184253E-2,-8.29837E-3,-6.5061315E-3,-3.458126E-3,-3.7761182E-3,-1.5243329E-3,4.810906E-4,-4.5574023E-3,-1.2844113E-3,3.0531744E-3,5.972507E-3,4.115078E-3,7.1364255E-3,1.1453143E-2],"split_indices":[16,16,16,16,16,7,7,19,19,7,19,13,19,4,16,0,0,0,0,0,0,0,0,0,0,0,0,0,0,0,0],"split_type":[0,0,0,0,0,0,0,0,0,0,0,0,0,0,0,0,0,0,0,0,0,0,0,0,0,0,0,0,0,0,0],"sum_hessian":[8.957013E5,3.569121E5,5.3878925E5,1.11528195E5,2.4538389E5,2.642409E5,2.7454834E5,2.6783836E4,8.474437E4,9.807986E4,1.4730403E5,1.3733922E5,1.2690167E5,1.4629916E5,1.28249195E5,1.2337304E4,1.4446532E4,3.3328016E4,5.1416348E4,7.6826734E4,2.1253125E4,6.417349E4,8.313054E4,1.3180177E5,5.5374565E3,5.2517334E3,1.2164994E5,8.447547E4,6.1823684E4,1.2074174E5,7.507455E3],"tree_param":{"num_deleted":"0","num_feature":"28","num_nodes":"31","size_leaf_vector":"1"}},{"base_weights":[-1.353777E-3,-1.398427E-1,6.457739E-2,-2.1703944E-1,-9.165397E-2,1.0209845E-2,1.1327338E-1,-3.1097406E-1,-1.9628686E-1,-1.1998571E-1,-5.9017144E-2,-2.2038158E-2,3.527952E-2,8.6424254E-2,1.382748E-1,-1.6394684E-2,-6.6173137E-3,-1.0783969E-2,-5.5579515E-3,-7.6522934E-3,-4.172987E-3,-4.0376065E-3,-7.0151914E-4,-1.9578873E-3,1.4060357E-3,1.0003784E-3,3.1284373E-3,3.0738218E-3,5.0247884E-3,6.51874E-3,8.948986E-3],"categories":[],"categories_nodes":[],"categories_segments":[],"categories_sizes":[],"default_left":[0,0,0,0,0,0,0,0,0,0,0,0,0,0,0,0,0,0,0,0,0,0,0,0,0,0,0,0,0,0,0],"id":39,"left_children":[1,3,5,7,9,11,13,15,17,19,21,23,25,27,29,-1,-1,-1,-1,-1,-1,-1,-1,-1,-1,-1,-1,-1,-1,-1,-1],"loss_changes":[8.1627505E3,1.0725908E3,1.603448E3,2.1595752E2,1.6414038E2,2.3134756E2,2.144502E2,6.0553833E1,1.4981445E2,1.14738525E2,8.066202E1,1.0747801E2,6.709726E1,5.407556E1,5.3175537E1,0E0,0E0,0E0,0E0,0E0,0E0,0E0,0E0,0E0,0E0,0E0,0E0,0E0,0E0,0E0,0E0],"parents":[2147483647,0,0,1,1,2,2,3,3,4,4,5,5,6,6,7,7,8,8,9,9,10,10,11,11,12,12,13,13,14,14],"right_children":[2,4,6,8,10,12,14,16,18,20,22,24,26,28,30,-1,-1,-1,-1,-1,-1,-1,-1,-1,-1,-1,-1,-1,-1,-1,-1],"split_conditions":[8.69789E0,4.769732E0,1.5871984E1,5.6E0,5E0,1.0952381E1,2.1117647E1,1.22E1,9.6E0,1.96E1,7.875E0,8.3E0,5.7E0,3.1000001E0,2.9585365E1,-1.6394684E-2,-6.6173137E-3,-1.0783969E-2,-5.5579515E-3,-7.6522934E-3,-4.172987E-3,-4.0376065E-3,-7.0151914E-4,-1.9578873E-3,1.4060357E-3,1.0003784E-3,3.1284373E-3,3.0738218E-3,5.0247884E-3,6.51874E-3,8.948986E-3],"split_indices":[16,16,16,3,27,7,7,27,27,3,7,27,27,27,7,0,0,0,0,0,0,0,0,0,0,0,0,0,0,0,0],"split_type":[0,0,0,0,0,0,0,0,0,0,0,0,0,0,0,0,0,0,0,0,0,0,0,0,0,0,0,0,0,0,0],"sum_hessian":[8.9398394E5,2.8833434E5,6.0564956E5,1.1081265E5,1.7752169E5,2.8616097E5,3.194886E5,2.0048953E4,9.0763695E4,9.502698E4,8.249472E4,1.25161484E5,1.609995E5,1.5405394E5,1.6543466E5,1.8313465E4,1.7354878E3,7.392231E4,1.6841383E4,4.9878273E4,4.5148707E4,5.562106E4,2.6873656E4,9.331323E4,3.1848258E4,1.03230195E5,5.77693E4,5.555826E4,9.849567E4,1.3854928E5,2.6885379E4],"tree_param":{"num_deleted":"0","num_feature":"28","num_nodes":"31","size_leaf_vector":"1"}},{"base_weights":[-2.1503559E-4,-1.246419E-1,6.954069E-2,-2.0799883E-1,-7.7444546E-2,2.1197084E-2,1.1360995E-1,-2.717393E-1,-1.7688699E-1,-1.0430417E-1,-4.245727E-2,-4.084804E-3,4.8159868E-2,1.0104406E-1,1.5142423E-1,-1.4107647E-2,5.7941146E-5,-1.0172135E-2,-5.187635E-3,-6.017501E-3,-1.0802316E-3,-2.196293E-3,2.4040177E-2,-1.7005269E-3,8.826352E-4,9.898449E-4,3.1531006E-3,3.2215144E-3,5.4495595E-3,7.109919E-3,9.592348E-3],"categories":[],"categories_nodes":[],"categories_segments":[],"categories_sizes":[],"default_left":[0,0,0,0,0,0,0,0,0,0,0,0,0,0,0,0,0,0,0,0,0,0,0,0,0,0,0,0,0,0,0],"id":40,"left_children":[1,3,5,7,9,11,13,15,17,19,21,23,25,27,29,-1,-1,-1,-1,-1,-1,-1,-1,-1,-1,-1,-1,-1,-1,-1,-1],"loss_changes":[7.785322E3,1.267669E3,1.2245044E3,2.3095508E2,1.9333301E2,1.8683856E2,1.4285474E2,1.0857715E2,1.5201172E2,1.5443774E2,6.868271E1,9.20184E1,5.605966E1,6.56604E1,2.7939453E1,0E0,0E0,0E0,0E0,0E0,0E0,0E0,0E0,0E0,0E0,0E0,0E0,0E0,0E0,0E0,0E0],"parents":[2147483647,0,0,1,1,2,2,3,3,4,4,5,5,6,6,7,7,8,8,9,9,10,10,11,11,12,12,13,13,14,14],"right_children":[2,4,6,8,10,12,14,16,18,20,22,24,26,28,30,-1,-1,-1,-1,-1,-1,-1,-1,-1,-1,-1,-1,-1,-1,-1,-1],"split_conditions":[9.518669E0,4.9495616E0,1.662407E1,2.6304624E0,7.818182E0,1.2222222E1,2.564626E1,1.64E1,8E0,1.01E1,2.14E1,4.2E0,3E0,1.7E0,7.2000003E0,-1.4107647E-2,5.7941146E-5,-1.0172135E-2,-5.187635E-3,-6.017501E-3,-1.0802316E-3,-2.196293E-3,2.4040177E-2,-1.7005269E-3,8.826352E-4,9.898449E-4,3.1531006E-3,3.2215144E-3,5.4495595E-3,7.109919E-3,9.592348E-3],"split_indices":[16,16,16,16,7,7,7,27,27,27,27,27,27,27,27,0,0,0,0,0,0,0,0,0,0,0,0,0,0,0,0],"split_type":[0,0,0,0,0,0,0,0,0,0,0,0,0,0,0,0,0,0,0,0,0,0,0,0,0,0,0,0,0,0,0],"sum_hessian":[8.969776E5,3.2221872E5,5.747589E5,1.16485734E5,2.05733E5,2.740881E5,3.006708E5,3.820513E4,7.82806E4,1.1638364E5,8.934935E4,1.4145367E5,1.326344E5,2.2567984E5,7.4990945E4,3.6800797E4,1.4043337E3,5.742667E4,2.085393E4,9.747125E4,1.8912395E4,8.9100195E4,2.4915283E2,5.951694E4,8.1936734E4,4.5685117E4,8.69493E4,4.0250105E4,1.8542975E5,6.1059574E4,1.3931376E4],"tree_param":{"num_deleted":"0","num_feature":"28","num_nodes":"31","size_leaf_vector":"1"}},{"base_weights":[-5.6042697E-4,-1.335015E-1,6.1847206E-2,-2.09246E-1,-8.836578E-2,1.601895E-2,1.10571034E-1,-2.8932178E-1,-1.8294604E-1,-1.1669779E-1,-5.6782015E-2,-1.3387071E-2,3.947742E-2,1.0301789E-1,1.6574362E-1,-1.4990679E-2,-1.3097905E-3,-1.0148134E-2,-4.7150343E-3,-7.6714098E-3,-4.0780767E-3,-4.489586E-3,-1.517886E-3,-1.6107621E-3,1.707829E-3,5.9326226E-4,2.6580049E-3,4.4330144E-3,6.0541825E-3,8.016768E-3,1.3857158E-2],"categories":[],"categories_nodes":[],"categories_segments":[],"categories_sizes":[],"default_left":[0,0,0,0,0,0,0,0,0,0,0,0,0,0,0,0,0,0,0,0,0,0,0,0,0,0,0,0,0,0,0],"id":41,"left_children":[1,3,5,7,9,11,13,15,17,19,21,23,25,27,29,-1,-1,-1,-1,-1,-1,-1,-1,-1,-1,-1,-1,-1,-1,-1,-1],"loss_changes":[7.4553867E3,9.814409E2,1.3655132E3,2.2569238E2,1.6096204E2,2.1738556E2,1.23503174E2,7.31499E1,1.4316064E2,1.223645E2,7.419516E1,1.2518037E2,6.62269E1,6.7613525E1,2.1458008E1,0E0,0E0,0E0,0E0,0E0,0E0,0E0,0E0,0E0,0E0,0E0,0E0,0E0,0E0,0E0,0E0],"parents":[2147483647,0,0,1,1,2,2,3,3,4,4,5,5,6,6,7,7,8,8,9,9,10,10,11,11,12,12,13,13,14,14],"right_children":[2,4,6,8,10,12,14,16,18,20,22,24,26,28,30,-1,-1,-1,-1,-1,-1,-1,-1,-1,-1,-1,-1,-1,-1,-1,-1],"split_conditions":[8.69789E0,4.711711E0,1.60625E1,2.1788363E0,1.9358622E1,1.1210526E1,2.8842106E1,1.64E1,9.6E0,4.4E0,7.285714E0,7.8E0,3E0,4.6E0,3.33E1,-1.4990679E-2,-1.3097905E-3,-1.0148134E-2,-4.7150343E-3,-7.6714098E-3,-4.0780767E-3,-4.489586E-3,-1.517886E-3,-1.6107621E-3,1.707829E-3,5.9326226E-4,2.6580049E-3,4.4330144E-3,6.0541825E-3,8.016768E-3,1.3857158E-2],"split_indices":[16,16,7,16,19,7,7,27,27,27,7,27,27,27,25,0,0,0,0,0,0,0,0,0,0,0,0,0,0,0,0],"split_type":[0,0,0,0,0,0,0,0,0,0,0,0,0,0,0,0,0,0,0,0,0,0,0,0,0,0,0,0,0,0,0],"sum_hessian":[8.9861225E5,2.8707734E5,6.115349E5,1.0719107E5,1.7988628E5,3.1513197E5,2.964029E5,2.649906E4,8.069201E4,9.482312E4,8.5063164E4,1.3983912E5,1.7529286E5,2.6071392E5,3.568897E4,2.5482826E4,1.0162349E3,6.582668E4,1.4865332E4,4.6358227E4,4.8464895E4,3.781793E4,4.7245234E4,1.0017019E5,3.9668938E4,5.8082324E4,1.1721053E5,1.4526878E5,1.1544515E5,3.4038875E4,1.6500917E3],"tree_param":{"num_deleted":"0","num_feature":"28","num_nodes":"31","size_leaf_vector":"1"}},{"base_weights":[-8.743629E-4,-1.2728131E-1,6.1605338E-2,-2.2657642E-1,-9.234558E-2,9.628074E-3,9.974639E-2,-3.1648308E-1,-2.0511302E-1,-1.275483E-1,-6.2250834E-2,-1.4252126E-2,3.0077968E-2,7.871097E-2,1.260036E-1,-1.4299342E-2,-1.6865259E-2,-9.169365E-3,-1.17922025E-2,-5.799071E-3,-9.271999E-3,-1.166905E-3,-3.897227E-3,7.024014E-4,-1.6502746E-3,3.1242103E-3,7.9782767E-4,4.8217326E-3,3.2152254E-3,5.6360057E-3,7.265284E-3],"categories":[],"categories_nodes":[],"categories_segments":[],"categories_sizes":[],"default_left":[0,0,0,0,0,0,0,0,0,0,0,0,0,0,0,0,0,0,0,0,0,0,0,0,0,0,0,0,0,0,0],"id":42,"left_children":[1,3,5,7,9,11,13,15,17,19,21,23,25,27,29,-1,-1,-1,-1,-1,-1,-1,-1,-1,-1,-1,-1,-1,-1,-1,-1],"loss_changes":[7.0486245E3,1.0240498E3,1.18405E3,1.4819897E2,2.313468E2,1.2344578E2,1.9025708E2,9.304932E0,4.137036E1,6.737451E1,7.189603E1,6.188878E1,6.231404E1,4.882959E1,3.9269043E1,0E0,0E0,0E0,0E0,0E0,0E0,0E0,0E0,0E0,0E0,0E0,0E0,0E0,0E0,0E0,0E0],"parents":[2147483647,0,0,1,1,2,2,3,3,4,4,5,5,6,6,7,7,8,8,9,9,10,10,11,11,12,12,13,13,14,14],"right_children":[2,4,6,8,10,12,14,16,18,20,22,24,26,28,30,-1,-1,-1,-1,-1,-1,-1,-1,-1,-1,-1,-1,-1,-1,-1,-1],"split_conditions":[8.958442E0,3.9058526E0,1.5187942E1,1.639414E0,6.3533525E0,1.1585469E1,2.2291739E1,3E0,5.276518E-1,4E0,4.898046E-1,5.495228E-1,5.374321E-1,5.7427067E-1,2.7003708E1,-1.4299342E-2,-1.6865259E-2,-9.169365E-3,-1.17922025E-2,-5.799071E-3,-9.271999E-3,-1.166905E-3,-3.897227E-3,7.024014E-4,-1.6502746E-3,3.1242103E-3,7.9782767E-4,4.8217326E-3,3.2152254E-3,5.6360057E-3,7.265284E-3],"split_indices":[16,16,16,16,16,16,16,13,4,13,4,4,4,4,16,0,0,0,0,0,0,0,0,0,0,0,0,0,0,0,0],"split_type":[0,0,0,0,0,0,0,0,0,0,0,0,0,0,0,0,0,0,0,0,0,0,0,0,0,0,0,0,0,0,0],"sum_hessian":[8.9246975E5,2.9520972E5,5.9726E5,7.683165E4,2.183781E5,2.5278075E5,3.4447928E5,1.4804461E4,6.2027184E4,1.00646086E5,1.17732E5,1.16610305E5,1.3617045E5,1.9125958E5,1.5321969E5,6.012798E3,8.791663E3,3.6341812E4,2.5685371E4,8.388805E4,1.675804E4,3.383649E4,8.389551E4,4.6475594E4,7.013471E4,4.132749E4,9.484296E4,8.5754125E4,1.0550546E5,9.076383E4,6.2455863E4],"tree_param":{"num_deleted":"0","num_feature":"28","num_nodes":"31","size_leaf_vector":"1"}},{"base_weights":[-9.0296136E-4,-1.1759645E-1,6.404204E-2,-1.8119223E-1,-6.481807E-2,1.6075611E-2,1.00475036E-1,-2.5279558E-1,-1.4877279E-1,-7.959356E-2,5.6041703E-3,-9.4955955E-3,3.408382E-2,7.474041E-2,1.1944696E-1,-1.3568351E-2,-6.9961594E-3,-8.188872E-3,-3.3336605E-3,-5.204459E-3,-2.6798798E-3,-2.3553579E-3,1.9544053E-3,-4.917013E-3,1.553489E-4,2.188076E-3,-1.3566784E-4,5.715982E-3,3.3681341E-3,5.1734475E-3,6.9867545E-3],"categories":[],"categories_nodes":[],"categories_segments":[],"categories_sizes":[],"default_left":[0,0,0,0,0,0,0,0,0,0,0,0,0,0,0,0,0,0,0,0,0,0,0,0,0,0,0,0,0,0,0],"id":43,"left_children":[1,3,5,7,9,11,13,15,17,19,21,23,25,27,29,-1,-1,-1,-1,-1,-1,-1,-1,-1,-1,-1,-1,-1,-1,-1,-1],"loss_changes":[6.796434E3,1.0762329E3,1.0068367E3,3.3753223E2,1.8232874E2,1.14527054E2,1.5985693E2,9.496167E1,1.2330127E2,9.222571E1,5.3639523E1,1.1507189E2,5.1968857E1,4.0567688E1,6.1084473E1,0E0,0E0,0E0,0E0,0E0,0E0,0E0,0E0,0E0,0E0,0E0,0E0,0E0,0E0,0E0,0E0],"parents":[2147483647,0,0,1,1,2,2,3,3,4,4,5,5,6,6,7,7,8,8,9,9,10,10,11,11,12,12,13,13,14,14],"right_children":[2,4,6,8,10,12,14,16,18,20,22,24,26,28,30,-1,-1,-1,-1,-1,-1,-1,-1,-1,-1,-1,-1,-1,-1,-1,-1],"split_conditions":[9.227273E0,5.7775493E0,1.5871984E1,2.9812872E0,1E1,3.6E0,2.0915743E1,1.06E1,1.0200001E1,2.1651833E1,1.4E0,2.0872768E1,6.522642E-1,5.083057E-1,4.5E0,-1.3568351E-2,-6.9961594E-3,-8.188872E-3,-3.3336605E-3,-5.204459E-3,-2.6798798E-3,-2.3553579E-3,1.9544053E-3,-4.917013E-3,1.553489E-4,2.188076E-3,-1.3566784E-4,5.715982E-3,3.3681341E-3,5.1734475E-3,6.9867545E-3],"split_indices":[7,16,16,16,27,27,16,27,27,19,2,19,4,4,27,0,0,0,0,0,0,0,0,0,0,0,0,0,0,0,0],"split_type":[0,0,0,0,0,0,0,0,0,0,0,0,0,0,0,0,0,0,0,0,0,0,0,0,0,0,0,0,0,0,0],"sum_hessian":[8.9678406E5,3.2064562E5,5.7613844E5,1.4541911E5,1.7522652E5,2.4870433E5,3.274341E5,4.5318777E4,1.00100336E5,1.448376E5,3.0388918E4,1.0277165E5,1.4593269E5,1.3895389E5,1.884802E5,3.8914566E4,6.4042124E3,8.463191E4,1.5468435E4,7.456916E4,7.026844E4,1.1804906E4,1.8584012E4,1.2766257E4,9.000539E4,1.15544234E5,3.0388451E4,2.1829725E4,1.17124164E5,1.0544363E5,8.303657E4],"tree_param":{"num_deleted":"0","num_feature":"28","num_nodes":"31","size_leaf_vector":"1"}},{"base_weights":[-2.2958416E-4,-1.25392E-1,5.603518E-2,-2.2113639E-1,-9.0522915E-2,8.250023E-3,9.760028E-2,-2.625938E-1,-1.7328466E-1,-1.310087E-1,-6.3928455E-2,-2.062618E-2,3.055566E-2,7.851841E-2,1.2560168E-1,-1.562358E-2,-1.1076713E-2,-9.3663735E-3,3.728704E-4,-7.014796E-3,-6.8089714E-5,-4.6467353E-3,-1.5523947E-3,-1.7115701E-3,2.2130185E-3,8.4239367E-4,2.7654262E-3,3.5512417E-3,5.7370337E-3,5.464707E-3,7.4322196E-3],"categories":[],"categories_nodes":[],"categories_segments":[],"categories_sizes":[],"default_left":[0,0,0,0,0,0,0,0,0,0,0,0,0,0,0,0,0,0,0,0,0,0,0,0,0,0,0,0,0,0,0],"id":44,"left_children":[1,3,5,7,9,11,13,15,17,19,21,23,25,27,29,-1,-1,-1,-1,-1,-1,-1,-1,-1,-1,-1,-1,-1,-1,-1,-1],"loss_changes":[6.292708E3,9.251362E2,1.2243914E3,1.4671484E2,2.1870898E2,1.8470961E2,1.7614551E2,8.1104004E1,8.717114E1,9.696814E1,1.1692981E2,1.10331726E2,5.489647E1,5.3212402E1,5.0191162E1,0E0,0E0,0E0,0E0,0E0,0E0,0E0,0E0,0E0,0E0,0E0,0E0,0E0,0E0,0E0,0E0],"parents":[2147483647,0,0,1,1,2,2,3,3,4,4,5,5,6,6,7,7,8,8,9,9,10,10,11,11,12,12,13,13,14,14],"right_children":[2,4,6,8,10,12,14,16,18,20,22,24,26,28,30,-1,-1,-1,-1,-1,-1,-1,-1,-1,-1,-1,-1,-1,-1,-1,-1],"split_conditions":[8.69789E0,3.9058526E0,1.5871984E1,4.9E0,5.9507847E0,1.0952381E1,2.2538462E1,8E0,1.64E1,1.3399999E1,4.9999995E0,9.9E0,5.7999997E0,8.5E0,4.6E0,-1.562358E-2,-1.1076713E-2,-9.3663735E-3,3.728704E-4,-7.014796E-3,-6.8089714E-5,-4.6467353E-3,-1.5523947E-3,-1.7115701E-3,2.2130185E-3,8.4239367E-4,2.7654262E-3,3.5512417E-3,5.7370337E-3,5.464707E-3,7.4322196E-3],"split_indices":[16,16,16,27,16,7,7,3,27,27,27,27,27,27,27,0,0,0,0,0,0,0,0,0,0,0,0,0,0,0,0],"split_type":[0,0,0,0,0,0,0,0,0,0,0,0,0,0,0,0,0,0,0,0,0,0,0,0,0,0,0,0,0,0,0],"sum_hessian":[8.935648E5,2.7711472E5,6.164501E5,7.397823E4,2.031365E5,2.8676875E5,3.2968134E5,3.963504E4,3.4343184E4,8.0533414E4,1.2260309E5,1.2497717E5,1.617916E5,1.960706E5,1.3361077E5,1.7892816E4,2.1742223E4,3.1867219E4,2.475966E3,7.5149984E4,5.3834307E3,6.5138254E4,5.746484E4,1.03314875E5,2.1662291E4,1.0412842E5,